{"learner":{"attributes":{"best_iteration":"103","best_score":"0.9920620303652058","scikit_learn":"{\"_estimator_type\": \"classifier\"}"},"feature_names":[],"feature_types":[],"gradient_booster":{"model":{"cats":{"enc":[],"feature_segments":[],"sorted_idx":[]},"gbtree_model_param":{"num_parallel_tree":"1","num_trees":"462"},"iteration_indptr":[0,3,6,9,12,15,18,21,24,27,30,33,36,39,42,45,48,51,54,57,60,63,66,69,72,75,78,81,84,87,90,93,96,99,102,105,108,111,114,117,120,123,126,129,132,135,138,141,144,147,150,153,156,159,162,165,168,171,174,177,180,183,186,189,192,195,198,201,204,207,210,213,216,219,222,225,228,231,234,237,240,243,246,249,252,255,258,261,264,267,270,273,276,279,282,285,288,291,294,297,300,303,306,309,312,315,318,321,324,327,330,333,336,339,342,345,348,351,354,357,360,363,366,369,372,375,378,381,384,387,390,393,396,399,402,405,408,411,414,417,420,423,426,429,432,435,438,441,444,447,450,453,456,459,462],"tree_info":[0,1,2,0,1,2,0,1,2,0,1,2,0,1,2,0,1,2,0,1,2,0,1,2,0,1,2,0,1,2,0,1,2,0,1,2,0,1,2,0,1,2,0,1,2,0,1,2,0,1,2,0,1,2,0,1,2,0,1,2,0,1,2,0,1,2,0,1,2,0,1,2,0,1,2,0,1,2,0,1,2,0,1,2,0,1,2,0,1,2,0,1,2,0,1,2,0,1,2,0,1,2,0,1,2,0,1,2,0,1,2,0,1,2,0,1,2,0,1,2,0,1,2,0,1,2,0,1,2,0,1,2,0,1,2,0,1,2,0,1,2,0,1,2,0,1,2,0,1,2,0,1,2,0,1,2,0,1,2,0,1,2,0,1,2,0,1,2,0,1,2,0,1,2,0,1,2,0,1,2,0,1,2,0,1,2,0,1,2,0,1,2,0,1,2,0,1,2,0,1,2,0,1,2,0,1,2,0,1,2,0,1,2,0,1,2,0,1,2,0,1,2,0,1,2,0,1,2,0,1,2,0,1,2,0,1,2,0,1,2,0,1,2,0,1,2,0,1,2,0,1,2,0,1,2,0,1,2,0,1,2,0,1,2,0,1,2,0,1,2,0,1,2,0,1,2,0,1,2,0,1,2,0,1,2,0,1,2,0,1,2,0,1,2,0,1,2,0,1,2,0,1,2,0,1,2,0,1,2,0,1,2,0,1,2,0,1,2,0,1,2,0,1,2,0,1,2,0,1,2,0,1,2,0,1,2,0,1,2,0,1,2,0,1,2,0,1,2,0,1,2,0,1,2,0,1,2,0,1,2,0,1,2,0,1,2,0,1,2,0,1,2,0,1,2,0,1,2,0,1,2,0,1,2,0,1,2,0,1,2,0,1,2,0,1,2,0,1,2,0,1,2,0,1,2,0,1,2,0,1,2,0,1,2,0,1,2,0,1,2,0,1,2,0,1,2,0,1,2,0,1,2,0,1,2,0,1,2,0,1,2,0,1,2,0,1,2,0,1,2,0,1,2,0,1,2,0,1,2,0,1,2],"trees":[{"base_weights":[-6.252507E-3,-2.4488276E-1,3.4303704E-1,-5.0799805E-1,-1.5432142E-1,2.3563716E-1,6.6583467E-1,-5.3144306E-1,1.2039033E-2,-1.6261454E-1,2.2119261E-2,3.473667E-1,1.2060493E-1,1.4359443E-1,7.324872E-1,-7.172158E-1,-4.3248993E-1,-1.9397168E-1,3.366531E-2,3.6272594E-1,-1.3822346E-2,3.331126E-1,1.1753726E-2,4.759899E-1,-1.1151363E-2,1.2119074E-1,7.9588264E-1,-2.3162814E-2,-5.933661E-3,-1.3768602E-2,6.998918E-3,-3.3815114E-3,-8.643226E-3,-2.4090086E-3,1.3797124E-2,1.3734006E-2,5.841456E-3,-4.021189E-4,1.427445E-2,1.2603921E-2,-8.5350865E-4,2.1116847E-2,-3.8922575E-4,1.2377844E-2,-1.0776328E-2,2.5006995E-2,2.1016528E-3],"categories":[],"categories_nodes":[],"categories_segments":[],"categories_sizes":[],"default_left":[0,0,0,0,0,0,0,0,0,0,0,0,0,0,0,0,0,0,0,0,0,0,0,0,0,0,0,0,0,0,0,0,0,0,0,0,0,0,0,0,0,0,0,0,0,0,0],"id":0,"left_children":[1,3,5,7,9,11,13,15,-1,17,-1,19,21,23,25,27,29,31,33,35,-1,37,39,41,-1,43,45,-1,-1,-1,-1,-1,-1,-1,-1,-1,-1,-1,-1,-1,-1,-1,-1,-1,-1,-1,-1],"loss_changes":[1.2002737E2,2.024643E1,2.0012299E1,4.882328E0,4.782674E0,5.569803E0,4.8582993E0,3.4986725E0,0E0,3.9210033E0,0E0,2.9173222E0,5.025102E0,3.2426882E0,4.782852E0,1.8115692E0,2.6339912E0,4.1094246E0,4.3333206E0,3.342186E0,0E0,3.7018385E0,2.4498613E0,1.3485789E0,0E0,2.0267124E0,3.0211182E0,0E0,0E0,0E0,0E0,0E0,0E0,0E0,0E0,0E0,0E0,0E0,0E0,0E0,0E0,0E0,0E0,0E0,0E0,0E0,0E0],"parents":[2147483647,0,0,1,1,2,2,3,3,4,4,5,5,6,6,7,7,9,9,11,11,12,12,13,13,14,14,15,15,16,16,17,17,18,18,19,19,21,21,22,22,23,23,25,25,26,26],"right_children":[2,4,6,8,10,12,14,16,-1,18,-1,20,22,24,26,28,30,32,34,36,-1,38,40,42,-1,44,46,-1,-1,-1,-1,-1,-1,-1,-1,-1,-1,-1,-1,-1,-1,-1,-1,-1,-1,-1,-1],"split_conditions":[2.2439846E-1,3.688312E-1,1.2809491E0,2.3430898E0,1.9091877E0,-1.2822437E-1,-3.000263E-1,-8.469057E-1,1.2039033E-2,3.2776225E-1,2.2119261E-2,1.7615036E0,5.0202526E-2,8.038368E-1,2.1281768E-1,3.034241E0,2.9187708E0,2.368066E-1,4.034187E-1,3.387135E-1,-1.3822346E-2,-5.71766E-1,-1.3343673E0,1.2432388E0,-1.1151363E-2,6.000745E-1,3.0259001E0,-2.3162814E-2,-5.933661E-3,-1.3768602E-2,6.998918E-3,-3.3815114E-3,-8.643226E-3,-2.4090086E-3,1.3797124E-2,1.3734006E-2,5.841456E-3,-4.021189E-4,1.427445E-2,1.2603921E-2,-8.5350865E-4,2.1116847E-2,-3.8922575E-4,1.2377844E-2,-1.0776328E-2,2.5006995E-2,2.1016528E-3],"split_indices":[40,42,40,33,22,42,20,42,0,31,0,9,28,50,29,4,4,47,28,24,0,49,4,6,0,14,3,0,0,0,0,0,0,0,0,0,0,0,0,0,0,0,0,0,0,0,0],"split_type":[0,0,0,0,0,0,0,0,0,0,0,0,0,0,0,0,0,0,0,0,0,0,0,0,0,0,0,0,0,0,0,0,0,0,0,0,0,0,0,0,0,0,0,0,0,0,0],"sum_hessian":[1.4381321E3,8.5475757E2,5.833745E2,2.1740356E2,6.37354E2,4.3926416E2,1.4411034E2,2.1245132E2,4.952245E0,6.3240173E2,4.952245E0,2.2136537E2,2.1789879E2,1.6837635E1,1.27272705E2,7.131233E1,1.4113899E2,5.457374E2,8.666429E1,2.1789879E2,3.4665718E0,7.2798004E1,1.4510078E2,1.0399715E1,6.437919E0,1.2380613E1,1.1489209E2,6.3883965E1,7.428368E0,1.3618675E2,4.952245E0,2.946586E2,2.5107884E2,6.883621E1,1.7828083E1,1.3767242E2,8.022637E1,2.1294655E1,5.1503353E1,1.2380613E1,1.3272017E2,6.9331436E0,3.4665718E0,7.9235926E0,4.4570208E0,1.08949394E2,5.9426947E0],"tree_param":{"num_deleted":"0","num_feature":"54","num_nodes":"47","size_leaf_vector":"1"}},{"base_weights":[-1.056558E-2,3.4424294E-2,-3.0615675E-1,-1.3173993E-2,1.4631666E-1,1.1549941E-2,-3.4180093E-1,-1.3878725E-1,4.4646297E-2,1.0532375E-1,5.662805E-1,2.1338262E-1,-3.831711E-1,-1.6638625E-1,4.1736522E-1,3.293095E-2,3.4034256E-2,1.6949943E-1,-1.6796724E-1,7.628817E-1,-9.305451E-3,-1.0638711E-2,2.5249114E-2,-4.475871E-1,-8.898157E-2,-9.645117E-3,-1.8035619E-3,-5.435291E-4,1.9699154E-2,1.4284396E-4,1.003533E-2,-3.322754E-3,8.339481E-3,-8.1498325E-3,9.71309E-3,1.3819063E-2,4.4403117E-2,3.0848454E-3,-1.4101299E-2,1.717096E-2,-9.102362E-3],"categories":[],"categories_nodes":[],"categories_segments":[],"categories_sizes":[],"default_left":[0,0,0,0,0,0,0,0,0,0,0,0,0,0,0,0,0,0,0,0,0,0,0,0,0,0,0,0,0,0,0,0,0,0,0,0,0,0,0,0,0],"id":1,"left_children":[1,3,5,7,9,-1,11,13,15,17,19,21,23,25,27,-1,29,31,33,35,-1,-1,-1,37,39,-1,-1,-1,-1,-1,-1,-1,-1,-1,-1,-1,-1,-1,-1,-1,-1],"loss_changes":[1.417024E1,4.9306693E0,3.5953665E0,4.720454E0,4.627246E0,0E0,3.188837E0,3.1905868E0,4.8090143E0,4.4665337E0,4.43681E0,3.8460188E0,2.28924E0,3.1762047E0,1.0973992E0,0E0,3.839063E0,6.301791E0,2.5468707E0,3.4763794E0,0E0,0E0,0E0,1.3534832E0,3.566231E0,0E0,0E0,0E0,0E0,0E0,0E0,0E0,0E0,0E0,0E0,0E0,0E0,0E0,0E0,0E0,0E0],"parents":[2147483647,0,0,1,1,2,2,3,3,4,4,6,6,7,7,8,8,9,9,10,10,11,11,12,12,13,13,14,14,16,16,17,17,18,18,19,19,23,23,24,24],"right_children":[2,4,6,8,10,-1,12,14,16,18,20,22,24,26,28,-1,30,32,34,36,-1,-1,-1,38,40,-1,-1,-1,-1,-1,-1,-1,-1,-1,-1,-1,-1,-1,-1,-1,-1],"split_conditions":[1.2747344E0,5.9367335E-1,-1.5848768E0,2.2461866E-1,1.1043164E0,1.1549941E-2,-4.32481E-1,1.2707094E0,-2.2758546E0,6.584933E-1,3.2190207E-1,-3.3447206E-1,-3.5116956E-2,-2.3468621E-1,-8.084864E-2,3.293095E-2,1.0168145E0,-9.253723E-1,6.284077E-1,6.7120004E-1,-9.305451E-3,-1.0638711E-2,2.5249114E-2,-2.5812793E0,3.8397068E-1,-9.645117E-3,-1.8035619E-3,-5.435291E-4,1.9699154E-2,1.4284396E-4,1.003533E-2,-3.322754E-3,8.339481E-3,-8.1498325E-3,9.71309E-3,1.3819063E-2,4.4403117E-2,3.0848454E-3,-1.4101299E-2,1.717096E-2,-9.102362E-3],"split_indices":[41,17,15,43,14,0,20,0,29,32,30,17,20,27,24,0,32,4,3,32,0,0,0,46,14,0,0,0,0,0,0,0,0,0,0,0,0,0,0,0,0],"split_type":[0,0,0,0,0,0,0,0,0,0,0,0,0,0,0,0,0,0,0,0,0,0,0,0,0,0,0,0,0,0,0,0,0,0,0,0,0,0,0,0,0],"sum_hessian":[1.061707E3,9.219315E2,1.3977553E2,6.4678284E2,2.7514868E2,6.236704E0,1.3353883E2,2.039769E2,4.4280597E2,2.520362E2,2.311249E1,8.804758E0,1.2473407E2,1.9517213E2,8.804758E0,3.3017843E0,4.3950418E2,2.0471063E2,4.7325573E1,1.9076977E1,4.035514E0,4.769244E0,4.035514E0,1.0162158E2,2.311249E1,7.814223E1,1.1702991E2,3.3017843E0,5.5029736E0,4.017171E2,3.7787086E1,5.6864063E1,1.4784656E2,3.962141E1,7.7041636E0,1.4674597E1,4.402379E0,3.6686492E0,9.7952934E1,5.136109E0,1.7976381E1],"tree_param":{"num_deleted":"0","num_feature":"54","num_nodes":"41","size_leaf_vector":"1"}},{"base_weights":[9.520965E-3,6.931067E-1,-1.21726446E-1,4.9157494E-1,1.0610979E0,7.289245E-2,-3.6219156E-1,4.1123033E-1,7.9676634E-1,1.1424216E0,2.5492564E-1,-2.8618585E-2,1.9149502E-1,-5.1924574E-1,-2.733193E-1,4.437252E-1,-1.03249345E-2,3.7970066E-1,1.1856005E0,1.55433845E-2,1.1966625E0,2.3471668E-2,-9.231671E-3,-5.1141143E-2,4.8853505E-1,2.281114E-1,-2.739837E-1,-5.3945047E-1,9.845277E-3,-1.2881386E-2,-3.447211E-1,1.5555996E-2,2.650601E-3,-9.231671E-3,1.9033197E-2,1.8616756E-2,4.2578038E-2,3.7720222E-2,1.9176712E-2,-5.468209E-4,-1.569868E-2,2.2095896E-2,-0E0,-7.0136166E-3,8.04535E-3,-1.5294514E-2,5.271343E-3,8.58379E-4,-1.661515E-2,-5.542237E-3,9.582819E-3,-1.6894583E-2,-8.814219E-3],"categories":[],"categories_nodes":[],"categories_segments":[],"categories_sizes":[],"default_left":[0,0,0,0,0,0,0,0,0,0,0,0,0,0,0,0,0,0,0,0,0,0,0,0,0,0,0,0,0,0,0,0,0,0,0,0,0,0,0,0,0,0,0,0,0,0,0,0,0,0,0,0,0],"id":2,"left_children":[1,3,5,7,9,11,13,15,17,19,21,23,25,27,29,31,-1,33,35,-1,37,-1,-1,39,41,43,45,47,-1,49,51,-1,-1,-1,-1,-1,-1,-1,-1,-1,-1,-1,-1,-1,-1,-1,-1,-1,-1,-1,-1,-1,-1],"loss_changes":[1.11677765E2,1.41936035E1,4.88977E1,2.7784042E0,4.152725E0,6.9736023E0,6.300461E0,2.776863E0,3.6257133E0,1.345581E0,2.604991E0,3.6099894E0,4.606593E0,3.0632095E0,5.55542E0,2.6229763E0,0E0,2.712324E0,6.1997795E-1,0E0,9.3979645E-1,0E0,0E0,4.5926547E0,1.614862E0,4.658781E0,2.214116E0,1.4081955E0,0E0,3.8197818E0,2.3714619E0,0E0,0E0,0E0,0E0,0E0,0E0,0E0,0E0,0E0,0E0,0E0,0E0,0E0,0E0,0E0,0E0,0E0,0E0,0E0,0E0,0E0,0E0],"parents":[2147483647,0,0,1,1,2,2,3,3,4,4,5,5,6,6,7,7,8,8,9,9,10,10,11,11,12,12,13,13,14,14,15,15,17,17,18,18,20,20,23,23,24,24,25,25,26,26,27,27,29,29,30,30],"right_children":[2,4,6,8,10,12,14,16,18,20,22,24,26,28,30,32,-1,34,36,-1,38,-1,-1,40,42,44,46,48,-1,50,52,-1,-1,-1,-1,-1,-1,-1,-1,-1,-1,-1,-1,-1,-1,-1,-1,-1,-1,-1,-1,-1,-1],"split_conditions":[-9.8869234E-1,1.9680859E0,1.9902885E-1,-1.01590134E-1,-4.8847887E-1,2.368066E-1,-8.9481485E-1,1.4971211E0,8.9786136E-1,-2.0360715E0,-1.2782464E0,1.6429067E-1,5.5222166E-1,3.1774209E0,-4.0222996E-1,-1.6781226E-1,-1.03249345E-2,3.5216525E-1,-1.9199778E-1,1.55433845E-2,-1.01590134E-1,2.3471668E-2,-9.231671E-3,1.18574224E-1,3.5015696E-3,-1.2784638E0,6.8723595E-1,-5.529277E-1,9.845277E-3,-5.814149E-1,-8.6744314E-1,1.5555996E-2,2.650601E-3,-9.231671E-3,1.9033197E-2,1.8616756E-2,4.2578038E-2,3.7720222E-2,1.9176712E-2,-5.468209E-4,-1.569868E-2,2.2095896E-2,-0E0,-7.0136166E-3,8.04535E-3,-1.5294514E-2,5.271343E-3,8.58379E-4,-1.661515E-2,-5.542237E-3,9.582819E-3,-1.6894583E-2,-8.814219E-3],"split_indices":[0,2,0,21,44,47,42,7,47,17,26,0,22,51,32,21,0,4,49,0,21,0,0,0,53,27,10,29,0,32,52,0,0,0,0,0,0,0,0,0,0,0,0,0,0,0,0,0,0,0,0,0,0],"split_type":[0,0,0,0,0,0,0,0,0,0,0,0,0,0,0,0,0,0,0,0,0,0,0,0,0,0,0,0,0,0,0,0,0,0,0,0,0,0,0,0,0,0,0,0,0,0,0,0,0,0,0,0,0],"sum_hessian":[1.2421752E3,1.9951375E2,1.0426614E3,1.3059856E2,6.89152E1,5.7642035E2,4.662411E2,1.0549981E2,2.5098745E1,6.210876E1,6.8064394E0,3.105438E2,2.6587653E2,1.6633237E2,2.9990872E2,1.0167119E2,3.828622E0,1.3187476E1,1.1911269E1,5.9556346E0,5.6153126E1,3.4032197E0,3.4032197E0,2.9863254E2,1.1911269E1,2.4715883E2,1.8717709E1,1.6292914E2,3.4032197E0,6.508658E1,2.3482216E2,8.337888E1,1.8292305E1,3.4032197E0,9.784257E0,4.679427E0,7.231842E0,4.9346687E1,6.8064394E0,2.803402E2,1.8292305E1,7.657244E0,4.2540245E0,1.914311E1,2.2801572E2,1.2336672E1,6.3810368E0,3.828622E0,1.5910052E2,4.3391052E1,2.1695526E1,4.2114845E1,1.9270732E2],"tree_param":{"num_deleted":"0","num_feature":"54","num_nodes":"53","size_leaf_vector":"1"}},{"base_weights":[8.784658E-3,-2.4214281E-1,3.6652783E-1,-5.080149E-1,-1.544502E-1,7.3690695E-1,2.734793E-1,-5.9218735E-1,-2.4579379E-1,-2.3507334E-1,-5.0256655E-2,-3.3477866E-3,7.8710574E-1,3.6793283E-1,1.4125934E-1,-6.155809E-1,4.8568156E-3,-1.2829834E-1,-2.129607E-2,-2.031454E-1,-5.7662153E-1,-2.0828457E-1,2.1095848E-2,1.7842743E-1,8.303532E-1,7.003335E-2,4.442894E-1,7.818367E-1,1.0722275E-1,-1.9335994E-2,-4.937179E-3,-1.4856618E-2,1.5917768E-3,-1.1895385E-2,-5.114182E-3,-4.9557793E-3,-2.1702569E-2,-1.1456053E-2,-1.4760437E-4,4.2048097E-3,-3.917725E-3,1.8132804E-2,-5.537418E-3,4.716818E-3,2.5523633E-2,2.2284184E-2,-1.4441744E-3,-1.2396116E-2,1.3987023E-2,2.7570296E-2,1.1597351E-2,5.0767385E-3,-5.224233E-3],"categories":[],"categories_nodes":[],"categories_segments":[],"categories_sizes":[],"default_left":[0,0,0,0,0,0,0,0,0,0,0,0,0,0,0,0,0,0,0,0,0,0,0,0,0,0,0,0,0,0,0,0,0,0,0,0,0,0,0,0,0,0,0,0,0,0,0,0,0,0,0,0,0],"id":3,"left_children":[1,3,5,7,9,11,13,15,17,19,21,-1,23,25,27,29,-1,31,-1,33,35,37,39,41,43,45,47,49,51,-1,-1,-1,-1,-1,-1,-1,-1,-1,-1,-1,-1,-1,-1,-1,-1,-1,-1,-1,-1,-1,-1,-1,-1],"loss_changes":[1.3065617E2,1.9795105E1,2.0379906E1,4.4366035E0,5.3765354E0,5.253441E0,5.9096565E0,2.950447E0,2.7350657E0,3.7603626E0,3.2153907E0,0E0,2.7318878E0,6.281109E0,4.2462697E0,1.8315201E0,0E0,2.9969826E0,0E0,1.982871E0,1.6154394E0,3.0868914E0,3.5503972E0,1.5359229E0,1.2138443E0,4.7587276E0,4.379776E0,5.1949024E-2,3.4091287E0,0E0,0E0,0E0,0E0,0E0,0E0,0E0,0E0,0E0,0E0,0E0,0E0,0E0,0E0,0E0,0E0,0E0,0E0,0E0,0E0,0E0,0E0,0E0,0E0],"parents":[2147483647,0,0,1,1,2,2,3,3,4,4,5,5,6,6,7,7,8,8,9,9,10,10,12,12,13,13,14,14,15,15,17,17,19,19,20,20,21,21,22,22,23,23,24,24,25,25,26,26,27,27,28,28],"right_children":[2,4,6,8,10,12,14,16,18,20,22,-1,24,26,28,30,-1,32,-1,34,36,38,40,42,44,46,48,50,52,-1,-1,-1,-1,-1,-1,-1,-1,-1,-1,-1,-1,-1,-1,-1,-1,-1,-1,-1,-1,-1,-1,-1,-1],"split_conditions":[2.1908227E-1,3.688312E-1,-1.2445171E0,-2.3134455E-1,-1.7210916E-1,-2.1791407E-1,-6.451594E-1,1.3924546E0,-1.1111524E0,9.8439735E-1,-4.758827E-1,-3.3477866E-3,-1.1367525E0,-1.0485778E0,1.3305497E-1,1.9331595E0,4.8568156E-3,-1.2004627E0,-2.129607E-2,-6.739694E-1,-4.701548E-1,6.05054E-1,1.3952535E-1,2.3783529E-1,-1.6902003E0,-4.8044395E-1,-2.3583033E0,5.44647E-1,8.0407315E-1,-1.9335994E-2,-4.937179E-3,-1.4856618E-2,1.5917768E-3,-1.1895385E-2,-5.114182E-3,-4.9557793E-3,-2.1702569E-2,-1.1456053E-2,-1.4760437E-4,4.2048097E-3,-3.917725E-3,1.8132804E-2,-5.537418E-3,4.716818E-3,2.5523633E-2,2.2284184E-2,-1.4441744E-3,-1.2396116E-2,1.3987023E-2,2.7570296E-2,1.1597351E-2,5.0767385E-3,-5.224233E-3],"split_indices":[40,42,2,17,12,29,2,14,0,26,40,0,11,47,0,27,0,26,0,32,47,4,32,50,32,14,32,12,27,0,0,0,0,0,0,0,0,0,0,0,0,0,0,0,0,0,0,0,0,0,0,0,0],"split_type":[0,0,0,0,0,0,0,0,0,0,0,0,0,0,0,0,0,0,0,0,0,0,0,0,0,0,0,0,0,0,0,0,0,0,0,0,0,0,0,0,0,0,0,0,0,0,0,0,0,0,0,0,0],"sum_hessian":[1.4533666E3,8.542346E2,5.991319E2,2.1039923E2,6.438354E2,1.1869053E2,4.8044138E2,1.580317E2,5.2367542E1,3.6172388E2,2.8211154E2,6.450132E0,1.12240395E2,2.787632E2,2.0167816E2,1.5358342E2,4.448271E0,4.2978188E1,9.389355E0,3.325268E2,2.9197062E1,8.759436E1,1.9451718E2,7.939228E0,1.0430116E2,5.753224E1,2.2123097E2,8.918637E0,1.9275952E2,1.4370737E2,9.876043E0,1.3826072E1,2.9152115E1,4.6012623E1,2.865142E2,8.416021E0,2.078104E1,4.6518517E1,4.1075848E1,1.0938898E2,8.5128204E1,3.4734588E0,4.465769E0,3.4733922E0,1.00827774E2,7.932401E0,4.959984E1,4.9617996E0,2.1626917E2,5.449366E0,3.4692712E0,1.5857057E2,3.4188942E1],"tree_param":{"num_deleted":"0","num_feature":"54","num_nodes":"53","size_leaf_vector":"1"}},{"base_weights":[-4.9867807E-3,-3.081655E-1,4.6652406E-2,2.7945736E-1,-3.427762E-1,3.7735218E-1,2.085942E-2,-1.4524394E-2,2.4505476E-2,3.2644484E-3,-3.640289E-1,6.54832E-1,1.4923136E-1,-5.4749986E-3,3.303772E-1,-4.8004624E-1,-2.7317402E-1,3.817786E-1,1.0926596E0,-1.2531708E-2,2.7820534E-1,3.7833208E-1,-2.1003997E-2,3.998445E-1,-1.5576037E-2,-1.6379926E-2,-2.1409164E-3,9.716803E-3,-1.0486366E-2,2.033644E-2,-4.976774E-3,4.02802E-2,1.1865608E-2,1.16516175E-2,-1.4517909E-2,3.9944E-2,6.2827617E-3,-8.9686865E-4,1.7381286E-2,-8.408396E-3,1.4456009E-2],"categories":[],"categories_nodes":[],"categories_segments":[],"categories_sizes":[],"default_left":[0,0,0,0,0,0,0,0,0,0,0,0,0,0,0,0,0,0,0,0,0,0,0,0,0,0,0,0,0,0,0,0,0,0,0,0,0,0,0,0,0],"id":4,"left_children":[1,3,5,7,9,11,13,-1,-1,-1,15,17,19,21,23,25,27,29,31,-1,33,35,37,39,-1,-1,-1,-1,-1,-1,-1,-1,-1,-1,-1,-1,-1,-1,-1,-1,-1],"loss_changes":[1.6847952E1,3.2881794E0,7.781725E0,4.1645484E0,1.4908581E0,4.004204E0,6.985645E0,0E0,0E0,0E0,1.2936573E0,2.9404097E0,2.8629587E0,4.660695E0,4.1607614E0,1.535326E0,3.8830276E0,3.3639648E0,1.1397877E0,0E0,2.8236914E0,4.4599433E0,4.0048285E0,3.6574364E0,0E0,0E0,0E0,0E0,0E0,0E0,0E0,0E0,0E0,0E0,0E0,0E0,0E0,0E0,0E0,0E0,0E0],"parents":[2147483647,0,0,1,1,2,2,3,3,4,4,5,5,6,6,10,10,11,11,12,12,13,13,14,14,15,15,16,16,17,17,18,18,20,20,21,21,22,22,23,23],"right_children":[2,4,6,8,10,12,14,-1,-1,-1,16,18,20,22,24,26,28,30,32,-1,34,36,38,40,-1,-1,-1,-1,-1,-1,-1,-1,-1,-1,-1,-1,-1,-1,-1,-1,-1],"split_conditions":[-9.654213E-1,-1.5848768E0,-1.2964733E0,1.0140153E0,-2.379083E0,-5.325812E-1,7.5684637E-1,-1.4524394E-2,2.4505476E-2,3.2644484E-3,-9.0726264E-2,-3.7249318E-1,-1.6172718E-1,-1.7996831E0,7.652544E-1,-1.01590134E-1,1.371E-2,-3.8550428E-1,2.8082845E-1,-1.2531708E-2,1.0474725E0,-1.2505542E0,1.9858909E0,-1.4409047E0,-1.5576037E-2,-1.6379926E-2,-2.1409164E-3,9.716803E-3,-1.0486366E-2,2.033644E-2,-4.976774E-3,4.02802E-2,1.1865608E-2,1.16516175E-2,-1.4517909E-2,3.9944E-2,6.2827617E-3,-8.9686865E-4,1.7381286E-2,-8.408396E-3,1.4456009E-2],"split_indices":[43,15,47,3,46,15,43,0,0,0,49,51,28,49,4,21,49,8,22,0,51,4,17,14,0,0,0,0,0,0,0,0,0,0,0,0,0,0,0,0,0],"split_type":[0,0,0,0,0,0,0,0,0,0,0,0,0,0,0,0,0,0,0,0,0,0,0,0,0,0,0,0,0,0,0,0,0,0,0,0,0,0,0,0,0],"sum_hessian":[1.072552E3,1.5565501E2,9.16897E2,8.103845E0,1.4755118E2,6.5072716E1,8.518243E2,3.3114526E0,4.7923923E0,6.235247E0,1.4131592E2,2.8318258E1,3.6754456E1,7.8563965E2,6.618463E1,5.9698933E1,8.161699E1,1.8734669E1,9.583589E0,6.2529635E0,3.0501493E1,2.9392271E1,7.562474E2,6.1780136E1,4.404497E0,5.090365E1,8.795286E0,8.739753E0,7.2877235E1,1.212437E1,6.610299E0,6.26674E0,3.3168488E0,2.719196E1,3.3095343E0,3.2993355E0,2.6092936E1,7.463113E2,9.936096E0,6.257457E0,5.552268E1],"tree_param":{"num_deleted":"0","num_feature":"54","num_nodes":"41","size_leaf_vector":"1"}},{"base_weights":[1.0959483E-2,-1.340747E-1,6.113632E-1,-3.8237035E-1,4.1450385E-2,9.82145E-1,4.2328638E-1,7.5926535E-2,-4.0886357E-1,7.400302E-2,-2.6475644E-1,1.0553198E0,-0E0,4.939382E-1,-2.967442E-2,-3.764667E-1,4.580772E-1,-4.734883E-1,-2.7181274E-1,1.632035E-2,2.3093651E-1,-3.7353253E-1,1.6051106E-1,3.6670434E-1,1.1177089E0,6.257855E-1,2.619195E-1,2.444515E-1,-1.5422167E-2,3.106075E-3,-1.83774E-2,-5.3688665E-3,2.3600267E-2,-1.4552219E-2,6.9670975E-3,-1.2010378E-2,-1.5860868E-3,-2.4477416E-3,4.352186E-3,1.8158123E-2,3.7228183E-3,-1.921581E-3,-1.6552486E-2,-6.917931E-3,2.1884978E-2,-8.132244E-3,2.5084235E-2,3.544998E-2,5.456574E-4,2.8629586E-2,1.4187844E-2,1.2498562E-2,-1.3236877E-2,3.5404984E-2,-2.3065244E-3],"categories":[],"categories_nodes":[],"categories_segments":[],"categories_sizes":[],"default_left":[0,0,0,0,0,0,0,0,0,0,0,0,0,0,0,0,0,0,0,0,0,0,0,0,0,0,0,0,0,0,0,0,0,0,0,0,0,0,0,0,0,0,0,0,0,0,0,0,0,0,0,0,0,0,0],"id":5,"left_children":[1,3,5,7,9,11,13,15,17,19,21,23,-1,25,27,29,31,33,35,37,39,41,43,45,47,49,51,53,-1,-1,-1,-1,-1,-1,-1,-1,-1,-1,-1,-1,-1,-1,-1,-1,-1,-1,-1,-1,-1,-1,-1,-1,-1,-1,-1],"loss_changes":[1.08868004E2,4.3913628E1,1.640828E1,5.1293793E0,5.884552E0,5.862007E0,5.288273E0,4.232003E0,3.292801E0,4.8113804E0,2.7017133E0,2.6794052E0,0E0,4.077347E0,3.179039E0,1.3791513E0,2.9802759E0,2.3160667E0,3.5730124E0,4.966147E0,5.5775247E0,2.4179688E0,2.8997588E0,2.6430387E0,4.6741867E0,3.8885612E0,5.9773912E0,4.7415423E0,0E0,0E0,0E0,0E0,0E0,0E0,0E0,0E0,0E0,0E0,0E0,0E0,0E0,0E0,0E0,0E0,0E0,0E0,0E0,0E0,0E0,0E0,0E0,0E0,0E0,0E0,0E0],"parents":[2147483647,0,0,1,1,2,2,3,3,4,4,5,5,6,6,7,7,8,8,9,9,10,10,11,11,13,13,14,14,15,15,16,16,17,17,18,18,19,19,20,20,21,21,22,22,23,23,24,24,25,25,26,26,27,27],"right_children":[2,4,6,8,10,12,14,16,18,20,22,24,-1,26,28,30,32,34,36,38,40,42,44,46,48,50,52,54,-1,-1,-1,-1,-1,-1,-1,-1,-1,-1,-1,-1,-1,-1,-1,-1,-1,-1,-1,-1,-1,-1,-1,-1,-1,-1,-1],"split_conditions":[7.559916E-1,2.1245597E-1,-1.5316793E0,-1.6243581E-1,5.5222166E-1,-1.2964769E-1,4.776551E-1,-2.6195794E-1,-7.77404E-1,6.5914714E-1,-1.01590134E-1,-2.0360715E0,-0E0,1.0107856E0,-1.9908589E-1,-1.4441137E0,-1.7102566E-1,3.1774209E0,5.992436E-1,-4.391722E-1,-9.9130803E-1,6.680951E-2,1.2349445E0,-7.789995E-1,7.20132E-1,-5.20345E-1,-1.02435626E-1,-5.9734467E-2,-1.5422167E-2,3.106075E-3,-1.83774E-2,-5.3688665E-3,2.3600267E-2,-1.4552219E-2,6.9670975E-3,-1.2010378E-2,-1.5860868E-3,-2.4477416E-3,4.352186E-3,1.8158123E-2,3.7228183E-3,-1.921581E-3,-1.6552486E-2,-6.917931E-3,2.1884978E-2,-8.132244E-3,2.5084235E-2,3.544998E-2,5.456574E-4,2.8629586E-2,1.4187844E-2,1.2498562E-2,-1.3236877E-2,3.5404984E-2,-2.3065244E-3],"split_indices":[2,42,0,5,22,46,17,22,2,47,21,17,0,15,7,6,25,51,5,31,3,12,13,3,14,32,17,1,0,0,0,0,0,0,0,0,0,0,0,0,0,0,0,0,0,0,0,0,0,0,0,0,0,0,0],"split_type":[0,0,0,0,0,0,0,0,0,0,0,0,0,0,0,0,0,0,0,0,0,0,0,0,0,0,0,0,0,0,0,0,0,0,0,0,0,0,0,0,0,0,0,0,0,0,0,0,0,0,0,0,0,0,0],"sum_hessian":[1.2477308E3,1.00546075E3,2.422701E2,4.1615884E2,5.8930194E2,7.993312E1,1.6233698E2,2.2434381E1,3.937245E2,5.3365436E2,5.564753E1,7.4362144E1,5.570974E0,1.4054533E2,2.1791647E1,1.0160038E1,1.22743435E1,2.6539575E2,1.2832874E2,3.914966E2,1.4215778E2,4.4597145E1,1.1050384E1,6.882095E0,6.748005E1,8.826155E1,5.228377E1,1.4100775E1,7.6908717E0,3.3953974E0,6.764641E0,4.2282577E0,8.046086E0,2.615562E2,3.8395379E0,8.004946E1,4.827927E1,2.2214943E2,1.693472E2,3.0321642E1,1.1183613E2,1.6998755E1,2.7598392E1,6.7971554E0,4.253228E0,3.0067039E0,3.8753908E0,6.361407E1,3.865978E0,2.6153288E1,6.210827E1,4.3305805E1,8.977967E0,3.0008752E0,1.1099899E1],"tree_param":{"num_deleted":"0","num_feature":"54","num_nodes":"55","size_leaf_vector":"1"}},{"base_weights":[-9.599604E-4,-2.2970538E-1,3.1713387E-1,-4.9001947E-1,-1.4026634E-1,2.1497135E-1,6.6609216E-1,-5.118085E-1,6.6766166E-3,-2.145396E-2,-1.3021983E-1,2.98427E-1,5.0392788E-2,9.5600426E-2,7.4244034E-1,-5.868862E-1,-3.0091816E-1,-1.8524128E-1,-3.9068475E-2,3.9722338E-1,1.7297703E-1,-9.795748E-3,3.9015266E-1,-2.5320005E-1,5.534138E-1,3.363396E-1,7.9813033E-1,-1.979594E-2,-1.29646E-2,-1.3189782E-2,4.160068E-3,-5.8295773E-3,1.826833E-2,3.6721996E-3,-4.505798E-3,-1.0330535E-2,1.27904555E-2,2.5836164E-3,1.4204671E-2,-3.471023E-3,7.3221195E-3,1.4921745E-2,-3.2284614E-3,7.2200876E-3,-1.8297961E-2,4.3429793E-3,2.449027E-2,1.733333E-2,-9.463564E-3,5.95955E-3,2.494011E-2],"categories":[],"categories_nodes":[],"categories_segments":[],"categories_sizes":[],"default_left":[0,0,0,0,0,0,0,0,0,0,0,0,0,0,0,0,0,0,0,0,0,0,0,0,0,0,0,0,0,0,0,0,0,0,0,0,0,0,0,0,0,0,0,0,0,0,0,0,0,0,0],"id":6,"left_children":[1,3,5,7,9,11,13,15,-1,-1,17,19,21,23,25,27,29,31,33,35,37,39,41,43,45,47,49,-1,-1,-1,-1,-1,-1,-1,-1,-1,-1,-1,-1,-1,-1,-1,-1,-1,-1,-1,-1,-1,-1,-1,-1],"loss_changes":[1.0532462E2,1.947797E1,2.1350418E1,3.4762688E0,3.4525547E0,6.4051743E0,5.786091E0,3.0400352E0,0E0,0E0,3.0756035E0,3.7317276E0,3.3084345E0,2.9489274E0,2.3318787E0,1.3283081E0,3.5803018E0,2.8536406E0,4.238203E0,3.8893337E0,3.540203E0,3.6832607E0,1.3903637E0,2.0228198E0,6.4127207E-1,2.791792E0,1.8136749E0,0E0,0E0,0E0,0E0,0E0,0E0,0E0,0E0,0E0,0E0,0E0,0E0,0E0,0E0,0E0,0E0,0E0,0E0,0E0,0E0,0E0,0E0,0E0,0E0],"parents":[2147483647,0,0,1,1,2,2,3,3,4,4,5,5,6,6,7,7,10,10,11,11,12,12,13,13,14,14,15,15,16,16,17,17,18,18,19,19,20,20,21,21,22,22,23,23,24,24,25,25,26,26],"right_children":[2,4,6,8,10,12,14,16,-1,-1,18,20,22,24,26,28,30,32,34,36,38,40,42,44,46,48,50,-1,-1,-1,-1,-1,-1,-1,-1,-1,-1,-1,-1,-1,-1,-1,-1,-1,-1,-1,-1,-1,-1,-1,-1],"split_conditions":[2.1908227E-1,3.688312E-1,1.4285764E0,1.680593E0,-2.950228E-1,6.710187E-1,-3.000263E-1,-2.3134455E-1,6.6766166E-3,-2.145396E-2,-2.6359144E-1,-6.451594E-1,4.049938E-1,-5.8358077E-2,-7.3298013E-1,-2.4719715E-1,1.2349445E0,1.6377945E0,-8.084864E-2,-1.032383E0,2.168324E-1,4.8845953E-1,1.2003627E0,1.8137754E-1,9.318835E-1,-1.6757163E-1,-2.9767925E-1,-1.979594E-2,-1.29646E-2,-1.3189782E-2,4.160068E-3,-5.8295773E-3,1.826833E-2,3.6721996E-3,-4.505798E-3,-1.0330535E-2,1.27904555E-2,2.5836164E-3,1.4204671E-2,-3.471023E-3,7.3221195E-3,1.4921745E-2,-3.2284614E-3,7.2200876E-3,-1.8297961E-2,4.3429793E-3,2.449027E-2,1.733333E-2,-9.463564E-3,5.95955E-3,2.494011E-2],"split_indices":[40,42,0,14,2,17,20,17,0,0,0,2,10,23,11,42,13,22,24,44,10,8,14,24,46,20,29,0,0,0,0,0,0,0,0,0,0,0,0,0,0,0,0,0,0,0,0,0,0,0,0],"split_type":[0,0,0,0,0,0,0,0,0,0,0,0,0,0,0,0,0,0,0,0,0,0,0,0,0,0,0,0,0,0,0,0,0,0,0,0,0,0,0,0,0,0,0,0,0,0,0,0,0,0,0],"sum_hessian":[1.4456312E3,8.412614E2,6.043698E2,2.1369652E2,6.2756494E2,4.6897363E2,1.3539615E2,2.0776556E2,5.9309635E0,9.402705E0,6.1816223E2,3.1023608E2,1.5873756E2,1.6401587E1,1.1899457E2,1.5155453E2,5.6211025E1,3.8414966E2,2.3401254E2,1.7189726E2,1.3833882E2,1.3542401E2,2.3313549E1,9.438815E0,6.9627714E0,1.5415716E1,1.0357885E2,1.0032588E2,5.122865E1,4.2898758E1,1.3312264E1,3.8067953E2,3.4701371E0,9.498651E1,1.3902603E2,5.957328E0,1.6593993E2,1.08576485E2,2.9762339E1,9.622157E1,3.9202435E1,1.9347078E1,3.9664698E0,3.9774082E0,5.461407E0,3.4819653E0,3.480806E0,1.1443695E1,3.9720209E0,5.9609027E0,9.761795E1],"tree_param":{"num_deleted":"0","num_feature":"54","num_nodes":"51","size_leaf_vector":"1"}},{"base_weights":[1.4001778E-2,1.2039555E-1,-1.4190131E-1,3.2072682E-2,1.1360009E-1,-6.983995E-2,-2.8613302E-1,2.4889465E-1,7.424804E-2,-1.03589155E-1,6.2806153E-1,2.2419145E-2,-3.3739644E-1,-8.909332E-2,3.336641E-1,-1.803395E-2,1.6568954E-1,-1.5887807E-1,2.16465E-1,-6.9667294E-4,8.506893E-1,5.763042E-1,-4.310525E-1,8.201961E-2,-3.6199465E-1,6.0989386E-3,-1.3656468E-2,5.464034E-3,2.0238781E-2,-1.8416547E-3,8.998232E-3,3.972395E-3,2.2508563E-2,-5.6920964E-3,9.454256E-3,2.2715718E-2,8.63978E-5,3.968787E-2,5.179554E-3,2.9826723E-2,6.831387E-5,-1.8308394E-3,-1.704858E-2,-7.267335E-3,1.2260126E-2,-1.2301798E-2,-3.9970353E-3],"categories":[],"categories_nodes":[],"categories_segments":[],"categories_sizes":[],"default_left":[0,0,0,0,0,0,0,0,0,0,0,0,0,0,0,0,0,0,0,0,0,0,0,0,0,0,0,0,0,0,0,0,0,0,0,0,0,0,0,0,0,0,0,0,0,0,0],"id":7,"left_children":[1,3,5,-1,7,9,11,13,15,17,19,21,23,25,27,29,31,33,35,-1,37,39,41,43,45,-1,-1,-1,-1,-1,-1,-1,-1,-1,-1,-1,-1,-1,-1,-1,-1,-1,-1,-1,-1,-1,-1],"loss_changes":[1.7981298E1,3.9166822E0,4.5116444E0,0E0,3.363885E0,6.956503E0,2.3423557E0,4.166072E0,4.2272034E0,5.0224338E0,2.0749764E0,5.639535E0,1.3494797E0,3.2575328E0,5.7426376E0,3.4222054E0,4.6991425E0,3.5795312E0,4.7408786E0,0E0,2.9134235E0,2.3362439E0,5.2407074E-1,9.128805E-1,1.196023E0,0E0,0E0,0E0,0E0,0E0,0E0,0E0,0E0,0E0,0E0,0E0,0E0,0E0,0E0,0E0,0E0,0E0,0E0,0E0,0E0,0E0,0E0],"parents":[2147483647,0,0,1,1,2,2,4,4,5,5,6,6,7,7,8,8,9,9,10,10,11,11,12,12,13,13,14,14,15,15,16,16,17,17,18,18,20,20,21,21,22,22,23,23,24,24],"right_children":[2,4,6,-1,8,10,12,14,16,18,20,22,24,26,28,30,32,34,36,-1,38,40,42,44,46,-1,-1,-1,-1,-1,-1,-1,-1,-1,-1,-1,-1,-1,-1,-1,-1,-1,-1,-1,-1,-1,-1],"split_conditions":[4.1815493E-2,-2.2758546E0,1.2747344E0,3.2072682E-2,-4.6495548E-1,1.9858909E0,-3.000263E-1,-7.8096515E-1,4.8845953E-1,1.1150085E0,-7.239746E-1,7.4034326E-2,2.493343E-1,1.2850384E-1,4.3094772E-1,1.1229082E0,5.501825E-1,1.4926151E0,-1.181944E0,-6.9667294E-4,-6.161958E-1,3.554341E-1,-4.2216036E-1,-6.156262E-1,-3.536801E-2,6.0989386E-3,-1.3656468E-2,5.464034E-3,2.0238781E-2,-1.8416547E-3,8.998232E-3,3.972395E-3,2.2508563E-2,-5.6920964E-3,9.454256E-3,2.2715718E-2,8.63978E-5,3.968787E-2,5.179554E-3,2.9826723E-2,6.831387E-5,-1.8308394E-3,-1.704858E-2,-7.267335E-3,1.2260126E-2,-1.2301798E-2,-3.9970353E-3],"split_indices":[41,29,41,0,8,17,20,4,8,0,10,4,31,0,33,16,5,49,16,0,9,25,49,4,21,0,0,0,0,0,0,0,0,0,0,0,0,0,0,0,0,0,0,0,0,0,0],"split_type":[0,0,0,0,0,0,0,0,0,0,0,0,0,0,0,0,0,0,0,0,0,0,0,0,0,0,0,0,0,0,0,0,0,0,0,0,0,0,0,0,0,0,0,0,0,0,0],"sum_hessian":[1.0821516E3,6.437221E2,4.384295E2,3.3617241E0,6.4036035E2,2.9381204E2,1.4461745E2,1.4251608E2,4.978443E2,2.8120822E2,1.2603843E1,2.0406086E1,1.24211365E2,2.8329926E1,1.1418616E2,2.4763866E2,2.5020564E2,2.4048141E2,4.07268E1,3.324559E0,9.279284E0,9.163337E0,1.1242749E1,6.526718E0,1.1768465E2,1.5846357E1,1.2483568E1,8.0318596E1,3.3867565E1,2.1891232E2,2.8726334E1,2.3805276E2,1.215288E1,2.2654419E2,1.3937233E1,1.0678664E1,3.0048132E1,4.8221517E0,4.4571323E0,4.778286E0,4.3850513E0,3.6295993E0,7.61315E0,3.2513711E0,3.275347E0,9.623487E1,2.1449776E1],"tree_param":{"num_deleted":"0","num_feature":"54","num_nodes":"47","size_leaf_vector":"1"}},{"base_weights":[-1.1705259E-3,2.754714E-1,-2.8661782E-1,6.38935E-1,1.1120579E-1,-4.4053984E-1,-1.0290704E-1,1.0337759E0,4.9465126E-1,2.0377666E-1,-3.6818422E-2,3.3757925E-1,-4.5896545E-1,-4.164209E-2,-3.3983508E-1,7.2204345E-3,1.1074709E0,5.885844E-1,2.863907E-1,3.1820855E-1,5.0399516E-2,2.2911707E-1,-2.0547706E-1,-9.027325E-3,2.609095E-2,-9.213483E-2,-4.79764E-1,-4.0804896E-1,3.8524035E-3,1.3285548E-2,-4.0587947E-1,3.4937505E-2,8.707789E-3,2.5486987E-2,1.2109356E-2,5.682222E-4,1.8380767E-2,2.1817055E-2,7.1437564E-3,-5.2434714E-3,6.310725E-3,3.145258E-2,4.034081E-3,-7.60216E-3,1.3242573E-2,-1.3474273E-2,9.36885E-3,-1.4662225E-2,1.4655785E-5,-1.7071359E-2,1.362411E-3,1.0340418E-2,-1.7590009E-3,-1.4796962E-2,-6.629389E-4],"categories":[],"categories_nodes":[],"categories_segments":[],"categories_sizes":[],"default_left":[0,0,0,0,0,0,0,0,0,0,0,0,0,0,0,0,0,0,0,0,0,0,0,0,0,0,0,0,0,0,0,0,0,0,0,0,0,0,0,0,0,0,0,0,0,0,0,0,0,0,0,0,0,0,0],"id":8,"left_children":[1,3,5,7,9,11,13,15,17,19,21,23,25,27,29,-1,31,33,35,37,39,41,43,-1,-1,45,47,49,51,-1,53,-1,-1,-1,-1,-1,-1,-1,-1,-1,-1,-1,-1,-1,-1,-1,-1,-1,-1,-1,-1,-1,-1,-1,-1],"loss_changes":[9.858133E1,3.7694164E1,1.727906E1,1.05518265E1,6.0247893E0,4.9529343E0,4.037877E0,2.6137428E0,2.6057892E0,4.685768E0,7.6212325E0,3.0951047E0,2.3906631E0,3.7986941E0,3.1441174E0,0E0,1.7011604E0,4.336155E0,4.092493E0,4.7768745E0,4.251943E0,4.843062E0,3.3213558E0,0E0,0E0,2.9003427E0,1.3795242E0,1.9138322E0,4.334186E0,0E0,1.7341299E0,0E0,0E0,0E0,0E0,0E0,0E0,0E0,0E0,0E0,0E0,0E0,0E0,0E0,0E0,0E0,0E0,0E0,0E0,0E0,0E0,0E0,0E0,0E0,0E0],"parents":[2147483647,0,0,1,1,2,2,3,3,4,4,5,5,6,6,7,7,8,8,9,9,10,10,11,11,12,12,13,13,14,14,16,16,17,17,18,18,19,19,20,20,21,21,22,22,25,25,26,26,27,27,28,28,30,30],"right_children":[2,4,6,8,10,12,14,16,18,20,22,24,26,28,30,-1,32,34,36,38,40,42,44,-1,-1,46,48,50,52,-1,54,-1,-1,-1,-1,-1,-1,-1,-1,-1,-1,-1,-1,-1,-1,-1,-1,-1,-1,-1,-1,-1,-1,-1,-1],"split_conditions":[-6.826298E-2,4.9770665E-1,-6.537663E-1,-1.1633563E0,2.8429154E-1,-8.9640695E-1,4.9835086E-1,-2.0360715E0,-2.1364927E-4,2.9687843E-1,-8.694811E-1,-1.7210916E-1,-1.4644344E0,-1.2214689E0,-1.6392218E0,7.2204345E-3,9.4464403E-1,-3.2919374E-1,-3.490231E-3,-6.475258E-1,-8.004055E-1,-1.7837919E0,1.1019372E0,-9.027325E-3,2.609095E-2,3.625004E-1,2.5962808E0,8.0626464E-1,-9.253723E-1,1.3285548E-2,2.297924E-1,3.4937505E-2,8.707789E-3,2.5486987E-2,1.2109356E-2,5.682222E-4,1.8380767E-2,2.1817055E-2,7.1437564E-3,-5.2434714E-3,6.310725E-3,3.145258E-2,4.034081E-3,-7.60216E-3,1.3242573E-2,-1.3474273E-2,9.36885E-3,-1.4662225E-2,1.4655785E-5,-1.7071359E-2,1.362411E-3,1.0340418E-2,-1.7590009E-3,-1.4796962E-2,-6.629389E-4],"split_indices":[0,43,2,42,17,44,9,17,14,53,51,12,4,4,24,0,6,32,32,4,31,52,26,0,0,33,33,8,4,0,20,0,0,0,0,0,0,0,0,0,0,0,0,0,0,0,0,0,0,0,0,0,0,0,0],"split_type":[0,0,0,0,0,0,0,0,0,0,0,0,0,0,0,0,0,0,0,0,0,0,0,0,0,0,0,0,0,0,0,0,0,0,0,0,0,0,0,0,0,0,0,0,0,0,0,0,0,0,0,0,0,0,0],"sum_hessian":[1.2463774E3,6.327911E2,6.1358636E2,1.9587912E2,4.36912E2,3.3280417E2,2.8078217E2,5.058698E1,1.4529214E2,2.689905E2,1.6792145E2,7.172189E0,3.25632E2,2.2436389E2,5.641828E1,4.7789907E0,4.580799E1,9.854042E1,4.675172E1,1.5306491E2,1.1592561E2,6.479826E1,1.0312319E2,3.3723187E0,3.7998707E0,1.802138E1,3.076106E2,2.4143562E1,2.0022034E2,3.828426E0,5.2589855E1,4.230404E1,3.5039508E0,3.9153484E1,5.9386936E1,2.6442713E1,2.0309006E1,2.3534164E1,1.2953075E2,4.7848595E1,6.807701E1,5.557453E0,5.924081E1,9.67201E1,6.4030924E0,9.6444845E0,8.376896E0,3.0215335E2,5.457256E0,1.7792273E1,6.3512907E0,3.0568558E1,1.6965178E2,4.2394646E1,1.019521E1],"tree_param":{"num_deleted":"0","num_feature":"54","num_nodes":"55","size_leaf_vector":"1"}},{"base_weights":[-3.6112615E-4,-1.6992599E-1,4.205217E-1,-8.586734E-2,-4.6478766E-1,6.5519476E-1,3.189669E-1,-9.689139E-2,7.108678E-1,5.098239E-2,-4.9870205E-1,9.713329E-2,6.944934E-1,4.0536307E-2,3.9541832E-1,-1.396334E-1,4.7284324E-2,9.884663E-3,2.7237393E-2,5.551913E-1,-1.7740045E-2,-6.7084396E-1,-4.129728E-1,1.877641E-2,-1.1509518E-2,7.3198986E-1,1.5730025E-1,5.893749E-1,-4.0381037E-2,-1.4618483E-2,4.2176107E-1,-1.0128729E-2,-3.2566185E-3,2.5260674E-2,1.6038587E-4,5.398325E-3,2.598178E-2,-2.1963127E-2,2.6647155E-3,1.2267426E-2,-1.3094906E-2,2.2768183E-2,-9.938611E-4,-5.871344E-3,1.724703E-2,2.5404487E-2,4.4854865E-3,1.7724827E-2,-3.6409337E-3,-4.804264E-3,1.3465611E-2],"categories":[],"categories_nodes":[],"categories_segments":[],"categories_sizes":[],"default_left":[0,0,0,0,0,0,0,0,0,0,0,0,0,0,0,0,0,0,0,0,0,0,0,0,0,0,0,0,0,0,0,0,0,0,0,0,0,0,0,0,0,0,0,0,0,0,0,0,0,0,0],"id":9,"left_children":[1,3,5,7,9,11,13,15,17,19,21,23,25,27,29,31,33,-1,-1,35,-1,37,39,-1,-1,41,43,45,47,-1,49,-1,-1,-1,-1,-1,-1,-1,-1,-1,-1,-1,-1,-1,-1,-1,-1,-1,-1,-1,-1],"loss_changes":[1.0279156E2,2.5362644E1,9.549751E0,7.040663E0,4.0471916E0,2.5655403E0,6.1325226E0,4.889184E0,3.9808035E-1,5.1026325E0,2.7669182E0,2.6706583E0,2.116417E0,2.923783E0,5.496731E0,3.6771135E0,5.9450593E0,0E0,0E0,7.7403617E-1,0E0,3.341587E0,2.9959736E0,0E0,0E0,2.308918E0,1.4719219E0,7.3111176E-1,2.9184575E0,0E0,3.5987206E0,0E0,0E0,0E0,0E0,0E0,0E0,0E0,0E0,0E0,0E0,0E0,0E0,0E0,0E0,0E0,0E0,0E0,0E0,0E0,0E0],"parents":[2147483647,0,0,1,1,2,2,3,3,4,4,5,5,6,6,7,7,8,8,9,9,10,10,11,11,12,12,13,13,14,14,15,15,16,16,19,19,21,21,22,22,25,25,26,26,27,27,28,28,30,30],"right_children":[2,4,6,8,10,12,14,16,18,20,22,24,26,28,30,32,34,-1,-1,36,-1,38,40,-1,-1,42,44,46,48,-1,50,-1,-1,-1,-1,-1,-1,-1,-1,-1,-1,-1,-1,-1,-1,-1,-1,-1,-1,-1,-1],"split_conditions":[5.607813E-1,9.3217695E-1,-1.3801118E0,1.9091877E0,-1.3788611E0,-1.4094942E0,-1.0485778E0,2.1908227E-1,4.079279E-2,7.298498E-1,-8.717974E-1,8.836322E-1,1.6046977E0,-4.8044395E-1,-2.8461473E0,-1.1272367E0,-4.2824018E-1,9.884663E-3,2.7237393E-2,-1.9199778E-1,-1.7740045E-2,7.20132E-1,-8.0178607E-1,1.877641E-2,-1.1509518E-2,2.6438932E0,4.3898225E-1,1.2042815E-2,-9.111538E-1,-1.4618483E-2,-1.1284305E0,-1.0128729E-2,-3.2566185E-3,2.5260674E-2,1.6038587E-4,5.398325E-3,2.598178E-2,-2.1963127E-2,2.6647155E-3,1.2267426E-2,-1.3094906E-2,2.2768183E-2,-9.938611E-4,-5.871344E-3,1.724703E-2,2.5404487E-2,4.4854865E-3,1.7724827E-2,-3.6409337E-3,-4.804264E-3,1.3465611E-2],"split_indices":[40,2,42,22,3,15,47,40,4,13,42,53,33,14,32,29,41,0,0,49,0,14,1,0,0,53,17,1,33,0,3,0,0,0,0,0,0,0,0,0,0,0,0,0,0,0,0,0,0,0,0],"split_type":[0,0,0,0,0,0,0,0,0,0,0,0,0,0,0,0,0,0,0,0,0,0,0,0,0,0,0,0,0,0,0,0,0,0,0,0,0,0,0,0,0,0,0,0,0,0,0,0,0,0,0],"sum_hessian":[1.4386747E3,1.0261102E3,4.1256442E2,7.9974945E2,2.263608E2,1.2266756E2,2.8989685E2,7.898249E2,9.924538E0,1.3753019E1,2.1260777E2,8.465746E0,1.1420181E2,6.3063236E1,2.2683362E2,6.097769E2,1.8004797E2,4.4640536E0,5.460484E0,7.868052E0,5.884968E0,6.8024635E1,1.4458315E2,3.987097E0,4.4786487E0,1.0623759E2,7.964228E0,7.4543986E0,5.5608837E1,5.956241E0,2.2087738E2,8.095758E1,5.2881934E2,7.949061E0,1.7209892E2,4.425989E0,3.4420629E0,6.3103806E1,4.9208302E0,3.4489665E0,1.4113417E2,1.0275698E2,3.4806075E0,4.474048E0,3.49018E0,3.9752247E0,3.4791741E0,5.466994E0,5.014184E1,9.443596E0,2.1143378E2],"tree_param":{"num_deleted":"0","num_feature":"54","num_nodes":"51","size_leaf_vector":"1"}},{"base_weights":[6.6031655E-3,5.8640398E-2,-3.3052796E-1,2.9951045E-1,2.869469E-2,3.4942675E-2,-3.916719E-1,-5.577525E-2,4.7519073E-1,-1.1689143E-1,8.877938E-2,-1.3715892E-2,3.747073E-1,-4.5067012E-1,-1.3466574E-1,-1.9402364E-1,1.905184E-2,6.377094E-1,5.5213377E-2,2.3929834E-2,-1.4519289E-1,6.306511E-2,3.7262836E-1,2.5036814E-2,6.547075E-2,1.4424374E-3,-4.815689E-1,8.330685E-2,-1.6933467E-2,1.1910891E-2,-1.0233733E-2,4.6411543E-3,2.8302928E-2,1.6136158E-2,-8.436539E-3,-9.162673E-3,-1.7422687E-3,-2.5135693E-3,3.4499299E-3,1.4451793E-2,-8.54415E-3,1.6314225E-2,-1.4738225E-2,-3.7072739E-3,-1.6209934E-2,1.8628161E-2,-1.1175874E-2],"categories":[],"categories_nodes":[],"categories_segments":[],"categories_sizes":[],"default_left":[0,0,0,0,0,0,0,0,0,0,0,0,0,0,0,0,0,0,0,0,0,0,0,0,0,0,0,0,0,0,0,0,0,0,0,0,0,0,0,0,0,0,0,0,0,0,0],"id":10,"left_children":[1,3,5,7,9,11,13,15,17,19,21,-1,23,25,27,29,-1,31,33,-1,35,37,39,-1,41,-1,43,45,-1,-1,-1,-1,-1,-1,-1,-1,-1,-1,-1,-1,-1,-1,-1,-1,-1,-1,-1],"loss_changes":[1.8625326E1,6.6032553E0,3.2206087E0,6.396739E0,7.1876574E0,3.678399E0,1.7289906E0,3.3504906E0,4.5460024E0,6.2557716E0,4.1814976E0,0E0,1.7191857E0,1.5827847E0,2.3902843E0,2.6884248E0,0E0,6.9589424E0,3.4694402E0,0E0,3.2052097E0,4.094777E0,3.587072E0,0E0,2.6830475E0,0E0,1.8217659E0,4.4156194E0,0E0,0E0,0E0,0E0,0E0,0E0,0E0,0E0,0E0,0E0,0E0,0E0,0E0,0E0,0E0,0E0,0E0,0E0,0E0],"parents":[2147483647,0,0,1,1,2,2,3,3,4,4,5,5,6,6,7,7,8,8,9,9,10,10,12,12,13,13,14,14,15,15,17,17,18,18,20,20,21,21,22,22,24,24,26,26,27,27],"right_children":[2,4,6,8,10,12,14,16,18,20,22,-1,24,26,28,30,-1,32,34,-1,36,38,40,-1,42,-1,44,46,-1,-1,-1,-1,-1,-1,-1,-1,-1,-1,-1,-1,-1,-1,-1,-1,-1,-1,-1],"split_conditions":[1.2747344E0,-1.1036656E0,-3.000263E-1,2.1381337E-2,2.2461866E-1,1.3959576E0,-3.5116956E-2,7.846338E-1,4.9744615E-1,-2.3583033E0,7.623138E-1,-1.3715892E-2,1.0582563E0,-1.5848768E0,1.5511614E0,-8.299155E-1,1.905184E-2,-2.0483023E-1,1.7134307E-2,2.3929834E-2,-3.7524572E-1,-4.8485184E-1,7.2304237E-1,2.5036814E-2,-5.8358077E-2,1.4424374E-3,-1.3664014E0,3.0925515E-1,-1.6933467E-2,1.1910891E-2,-1.0233733E-2,4.6411543E-3,2.8302928E-2,1.6136158E-2,-8.436539E-3,-9.162673E-3,-1.7422687E-3,-2.5135693E-3,3.4499299E-3,1.4451793E-2,-8.54415E-3,1.6314225E-2,-1.4738225E-2,-3.7072739E-3,-1.6209934E-2,1.8628161E-2,-1.1175874E-2],"split_indices":[41,47,20,29,43,0,20,40,26,32,43,0,46,15,44,33,0,26,27,0,16,26,32,0,23,0,26,15,0,0,0,0,0,0,0,0,0,0,0,0,0,0,0,0,0,0,0],"split_type":[0,0,0,0,0,0,0,0,0,0,0,0,0,0,0,0,0,0,0,0,0,0,0,0,0,0,0,0,0,0,0,0,0,0,0,0,0,0,0,0,0,0,0,0,0,0,0],"sum_hessian":[1.0611182E3,9.202044E2,1.4091373E2,1.0038785E2,8.198166E2,2.0023281E1,1.2089045E2,3.3252735E1,6.713512E1,2.3873889E2,5.810777E2,7.9165063E0,1.2106775E1,9.739082E1,2.3499622E1,2.842775E1,4.824987E0,4.7858692E1,1.9276424E1,6.2441263E0,2.3249477E2,5.342534E2,4.6824272E1,4.054837E0,8.051938E0,5.4603515E0,9.193047E1,1.5972406E1,7.5272164E0,5.1910777E0,2.3236671E1,1.9261272E1,2.8597418E1,7.7937145E0,1.148271E1,8.0599396E1,1.5189537E2,1.389115E2,3.9534192E2,4.05196E1,6.3046746E0,4.4400487E0,3.6118891E0,1.3639603E1,7.829087E1,7.263139E0,8.709268E0],"tree_param":{"num_deleted":"0","num_feature":"54","num_nodes":"47","size_leaf_vector":"1"}},{"base_weights":[-5.212781E-3,6.620652E-1,-1.2742333E-1,9.4653374E-1,4.9021232E-1,3.7572656E-2,-3.867493E-1,1.0074652E0,-8.4021455E-3,5.474628E-1,-7.433921E-2,6.174256E-2,-3.7901524E-1,6.513548E-2,-4.1095227E-1,7.5548473E-3,1.0714935E0,5.970907E-1,-9.1160685E-3,-4.1298518E-1,1.9728983E-2,1.4380388E-1,-4.8131775E-2,-0E0,-5.570818E-1,-3.4257874E-1,4.1611636E-1,-3.19568E-1,-5.1851726E-1,1.3398373E-2,3.3639967E-2,1.31823225E-2,2.7016787E-2,-9.97545E-4,-1.7694073E-2,-3.0962222E-3,6.004647E-3,-1.3177671E-2,-4.1229685E-4,-1.2622124E-2,1.131953E-2,-1.8856974E-2,-2.1924207E-3,3.2097446E-3,-1.7831862E-2,-1.2491129E-3,3.7200883E-2,-1.6100549E-3,-1.1665588E-2,1.5783143E-3,-1.5957158E-2],"categories":[],"categories_nodes":[],"categories_segments":[],"categories_sizes":[],"default_left":[0,0,0,0,0,0,0,0,0,0,0,0,0,0,0,0,0,0,0,0,0,0,0,0,0,0,0,0,0,0,0,0,0,0,0,0,0,0,0,0,0,0,0,0,0,0,0,0,0,0,0],"id":11,"left_children":[1,3,5,7,9,11,13,15,-1,17,19,21,23,25,27,-1,29,31,-1,33,-1,35,37,39,41,43,45,47,49,-1,-1,-1,-1,-1,-1,-1,-1,-1,-1,-1,-1,-1,-1,-1,-1,-1,-1,-1,-1,-1,-1],"loss_changes":[1.0037739E2,8.705963E0,4.459146E1,5.6206665E0,4.000757E0,6.4044147E0,4.49205E0,2.859581E0,0E0,4.866417E0,3.1884134E0,5.453832E0,2.3835855E0,3.1904836E0,3.533615E0,0E0,1.264595E0,4.4741592E0,0E0,5.103016E-1,0E0,4.846294E0,3.419605E0,2.0662518E0,7.075734E-1,1.2722996E0,4.697917E0,3.825636E0,1.4115105E0,0E0,0E0,0E0,0E0,0E0,0E0,0E0,0E0,0E0,0E0,0E0,0E0,0E0,0E0,0E0,0E0,0E0,0E0,0E0,0E0,0E0,0E0],"parents":[2147483647,0,0,1,1,2,2,3,3,4,4,5,5,6,6,7,7,9,9,10,10,11,11,12,12,13,13,14,14,16,16,17,17,19,19,21,21,22,22,23,23,24,24,25,25,26,26,27,27,28,28],"right_children":[2,4,6,8,10,12,14,16,-1,18,20,22,24,26,28,-1,30,32,-1,34,-1,36,38,40,42,44,46,48,50,-1,-1,-1,-1,-1,-1,-1,-1,-1,-1,-1,-1,-1,-1,-1,-1,-1,-1,-1,-1,-1,-1],"split_conditions":[-1.0322903E0,-8.469057E-1,-1.4269131E-1,-1.1454482E-1,-4.790768E-1,8.2361484E-1,-1.6243581E-1,-2.0360715E0,-8.4021455E-3,1.4047543E0,4.6719134E-1,2.8429154E-1,-1.7210916E-1,-2.6195794E-1,1.1150085E0,7.5548473E-3,-2.0690944E0,-9.368592E-1,-9.1160685E-3,2.777595E-2,1.9728983E-2,-2.5180197E-1,-8.388941E-1,-4.1366008E-1,3.9669764E-1,-7.490023E-1,3.9303842E-1,-3.9029437E-1,-1.607571E0,1.3398373E-2,3.3639967E-2,1.31823225E-2,2.7016787E-2,-9.97545E-4,-1.7694073E-2,-3.0962222E-3,6.004647E-3,-1.3177671E-2,-4.1229685E-4,-1.2622124E-2,1.131953E-2,-1.8856974E-2,-2.1924207E-3,3.2097446E-3,-1.7831862E-2,-1.2491129E-3,3.7200883E-2,-1.6100549E-3,-1.1665588E-2,1.5783143E-3,-1.5957158E-2],"split_indices":[0,42,41,44,5,22,5,17,0,12,1,17,12,22,0,0,28,5,0,42,0,2,5,16,26,4,16,32,52,0,0,0,0,0,0,0,0,0,0,0,0,0,0,0,0,0,0,0,0,0,0],"split_type":[0,0,0,0,0,0,0,0,0,0,0,0,0,0,0,0,0,0,0,0,0,0,0,0,0,0,0,0,0,0,0,0,0,0,0,0,0,0,0,0,0,0,0,0,0,0,0,0,0,0,0],"sum_hessian":[1.2295142E3,1.8951479E2,1.0399994E3,6.945541E1,1.2005939E2,6.3588654E2,4.041129E2,6.641636E1,3.039048E0,1.0919359E2,1.0865794E1,6.020483E2,3.383825E1,2.0247934E1,3.8386496E2,5.6954646E0,6.072089E1,1.0357202E2,5.6215696E0,7.820197E0,3.0455966E0,3.449892E2,2.5705908E2,1.1031505E1,2.2806746E1,9.246192E0,1.1001743E1,2.1019212E2,1.7367284E2,5.369207E0,5.5351685E1,6.9985565E1,3.3586456E1,3.041617E0,4.77858E0,6.3599323E1,2.8138986E2,1.9588196E1,2.3747089E2,5.088476E0,5.9430285E0,1.9431528E1,3.3752162E0,3.3835397E0,5.862652E0,7.604752E0,3.3969913E0,4.4113335E1,1.660788E2,3.739704E0,1.6993314E2],"tree_param":{"num_deleted":"0","num_feature":"54","num_nodes":"51","size_leaf_vector":"1"}},{"base_weights":[-1.079998E-2,3.8107538E-1,-1.9417866E-1,2.7764773E-1,6.2816125E-1,-4.8568094E-1,-1.09379284E-1,2.9270077E-1,-1.1824317E-2,1.04010165E-1,7.0143944E-1,-5.095376E-1,1.6226692E-2,-1.1919577E-1,2.170577E-2,2.7759952E-2,2.7542228E-1,3.292156E-1,-1.5838025E-2,7.212266E-1,5.779331E-3,-5.8225363E-1,-3.3268982E-1,-2.385579E-1,-7.7785194E-2,1.0618891E-2,2.9909895E-3,1.8404322E-2,-6.1255055E-3,2.2435384E-2,6.927418E-3,6.4207194E-4,-1.815719E-2,-1.3466092E-2,1.4061578E-4,-5.519886E-3,-1.7582592E-2,-5.188915E-3,7.544415E-4],"categories":[],"categories_nodes":[],"categories_segments":[],"categories_sizes":[],"default_left":[0,0,0,0,0,0,0,0,0,0,0,0,0,0,0,0,0,0,0,0,0,0,0,0,0,0,0,0,0,0,0,0,0,0,0,0,0,0,0],"id":12,"left_children":[1,3,5,7,9,11,13,15,-1,17,19,21,-1,23,-1,-1,25,27,-1,29,-1,31,33,35,37,-1,-1,-1,-1,-1,-1,-1,-1,-1,-1,-1,-1,-1,-1],"loss_changes":[1.0420062E2,1.154557E1,2.431231E1,3.420723E0,5.0429115E0,5.712063E0,6.2968273E0,3.1382084E0,0E0,2.7065158E0,9.612427E-1,2.5140457E0,0E0,3.7015753E0,0E0,0E0,4.2588863E0,2.2822733E0,0E0,1.209156E0,0E0,2.1876144E0,2.6397052E0,3.5012922E0,5.560629E0,0E0,0E0,0E0,0E0,0E0,0E0,0E0,0E0,0E0,0E0,0E0,0E0,0E0,0E0],"parents":[2147483647,0,0,1,1,2,2,3,3,4,4,5,5,6,6,7,7,9,9,10,10,11,11,13,13,16,16,17,17,19,19,21,21,22,22,23,23,24,24],"right_children":[2,4,6,8,10,12,14,16,-1,18,20,22,-1,24,-1,-1,26,28,-1,30,-1,32,34,36,38,-1,-1,-1,-1,-1,-1,-1,-1,-1,-1,-1,-1,-1,-1],"split_conditions":[-5.209637E-1,1.3563162E0,-1.0246673E0,1.57201E0,-1.2341117E0,2.3430898E0,1.9091877E0,-1.9344553E0,-1.1824317E-2,1.2003627E0,2.203828E0,-3.4059832E-1,1.6226692E-2,-4.6224698E-1,2.170577E-2,2.7759952E-2,6.710187E-1,4.4094923E-1,-1.5838025E-2,1.6046977E0,5.779331E-3,-1.607571E0,-1.02435626E-1,4.80017E-1,-1.7210916E-1,1.0618891E-2,2.9909895E-3,1.8404322E-2,-6.1255055E-3,2.2435384E-2,6.927418E-3,6.4207194E-4,-1.815719E-2,-1.3466092E-2,1.4061578E-4,-5.519886E-3,-1.7582592E-2,-5.188915E-3,7.544415E-4],"split_indices":[2,41,40,15,15,33,22,51,0,14,53,26,0,40,0,0,17,49,0,33,0,52,17,14,12,0,0,0,0,0,0,0,0,0,0,0,0,0,0],"split_type":[0,0,0,0,0,0,0,0,0,0,0,0,0,0,0,0,0,0,0,0,0,0,0,0,0,0,0,0,0,0,0,0,0,0,0,0,0,0,0],"sum_hessian":[1.4482488E3,4.611532E2,9.870955E2,3.2686093E2,1.3429227E2,2.2111037E2,7.6598517E2,3.2039487E2,6.4660363E0,1.6935862E1,1.1735641E2,2.1667607E2,4.4343047E0,7.5802814E2,7.9570394E0,6.966957E0,3.1342792E2,1.2956022E1,3.9798403E0,1.1237217E2,4.984241E0,1.5151741E2,6.515865E1,1.9339868E2,5.6462946E2,2.1551721E2,9.7910706E1,8.476193E0,4.479829E0,1.0589389E2,6.47828E0,5.40081E0,1.4611661E2,4.8442738E1,1.6715914E1,1.6872601E2,2.4672665E1,2.935165E2,2.711129E2],"tree_param":{"num_deleted":"0","num_feature":"54","num_nodes":"39","size_leaf_vector":"1"}},{"base_weights":[2.3673675E-3,4.7605034E-2,-2.938472E-1,3.6226386E-1,2.1293484E-2,7.007769E-2,-3.6115703E-1,-6.9502376E-2,5.1981705E-1,7.2182994E-4,2.7407843E-1,5.3747934E-1,-3.516668E-1,9.393092E-3,-3.923257E-1,-3.657089E-1,3.94271E-1,8.4401745E-1,2.5975707E-1,1.9208737E-2,-1.9523993E-1,7.459574E-1,1.14173435E-1,3.2598253E-2,-5.2119624E-3,1.8640653E-3,-1.6905671E-2,1.187722E-2,-4.2002913E-1,4.9793893E-3,-1.7396769E-2,2.5430461E-2,-2.4885356E-3,1.2766218E-2,3.4718722E-2,3.5852974E-3,3.168126E-2,8.933548E-6,7.5922194E-3,2.6003437E-3,-1.4027108E-2,-3.6991674E-3,3.1954892E-2,-7.7861343E-3,8.941777E-3,-1.4366963E-2,-3.8070255E-3],"categories":[],"categories_nodes":[],"categories_segments":[],"categories_sizes":[],"default_left":[0,0,0,0,0,0,0,0,0,0,0,0,0,0,0,0,0,0,0,0,0,0,0,0,0,0,0,0,0,0,0,0,0,0,0,0,0,0,0,0,0,0,0,0,0,0,0],"id":13,"left_children":[1,3,5,7,9,11,13,15,17,19,21,23,25,-1,27,29,31,33,35,37,39,41,43,-1,-1,-1,-1,-1,45,-1,-1,-1,-1,-1,-1,-1,-1,-1,-1,-1,-1,-1,-1,-1,-1,-1,-1],"loss_changes":[1.4370784E1,7.671769E0,3.5336742E0,4.950409E0,4.452929E0,4.6971693E0,2.6581192E0,2.8680258E0,4.116147E0,2.8776188E0,4.6937175E0,4.697509E0,1.1778673E0,0E0,2.6915512E0,1.5910817E0,1.8963858E0,2.3454742E0,3.2042797E0,3.2062755E0,5.3322387E0,4.65936E0,3.4824607E0,0E0,0E0,0E0,0E0,0E0,1.8151054E0,0E0,0E0,0E0,0E0,0E0,0E0,0E0,0E0,0E0,0E0,0E0,0E0,0E0,0E0,0E0,0E0,0E0,0E0],"parents":[2147483647,0,0,1,1,2,2,3,3,4,4,5,5,6,6,7,7,8,8,9,9,10,10,11,11,12,12,14,14,15,15,16,16,17,17,18,18,19,19,20,20,21,21,22,22,28,28],"right_children":[2,4,6,8,10,12,14,16,18,20,22,24,26,-1,28,30,32,34,36,38,40,42,44,-1,-1,-1,-1,-1,46,-1,-1,-1,-1,-1,-1,-1,-1,-1,-1,-1,-1,-1,-1,-1,-1,-1,-1],"split_conditions":[1.2747344E0,-1.2964733E0,-3.0025652E-1,-3.3637497E-1,7.5684637E-1,-5.7809703E-2,-2.480181E0,8.712813E-1,-3.9227527E-1,1.5380013E0,-7.5657505E-1,1.5720968E0,-4.2216036E-1,9.393092E-3,-1.7953359E0,-1.2954708E0,-8.895352E-1,-2.3683308E-1,7.298498E-1,1.3652203E0,-2.8141737E-1,-1.0567205E0,-1.2350551E0,3.2598253E-2,-5.2119624E-3,1.8640653E-3,-1.6905671E-2,1.187722E-2,1.6329837E-1,4.9793893E-3,-1.7396769E-2,2.5430461E-2,-2.4885356E-3,1.2766218E-2,3.4718722E-2,3.5852974E-3,3.168126E-2,8.933548E-6,7.5922194E-3,2.6003437E-3,-1.4027108E-2,-3.6991674E-3,3.1954892E-2,-7.7861343E-3,8.941777E-3,-1.4366963E-2,-3.8070255E-3],"split_indices":[41,47,21,14,43,4,46,44,15,13,27,26,49,0,15,51,4,25,13,9,26,14,41,0,0,0,0,0,21,0,0,0,0,0,0,0,0,0,0,0,0,0,0,0,0,0,0],"split_type":[0,0,0,0,0,0,0,0,0,0,0,0,0,0,0,0,0,0,0,0,0,0,0,0,0,0,0,0,0,0,0,0,0,0,0,0,0,0,0,0,0,0,0,0,0,0,0],"sum_hessian":[1.0722357E3,9.312004E2,1.4103534E2,7.057907E1,8.606213E2,2.1775373E1,1.1925997E2,1.8848877E1,5.1730198E1,7.9714777E2,6.3473488E1,1.0310914E1,1.146446E1,4.7279615E0,1.1453201E2,1.1763038E1,7.0858397E0,2.1854979E1,2.987522E1,7.297189E2,6.742893E1,1.4979291E1,4.8494194E1,5.599949E0,4.710965E0,3.9614778E0,7.502982E0,3.3148751E0,1.1121713E2,3.3084114E0,8.454626E0,3.3429494E0,3.7428901E0,1.0502758E1,1.1352221E1,2.6485992E1,3.3892264E0,6.7644836E2,5.32705E1,3.3285793E1,3.414314E1,4.1039166E0,1.0875374E1,1.5677526E1,3.281667E1,9.1804855E1,1.9412281E1],"tree_param":{"num_deleted":"0","num_feature":"54","num_nodes":"47","size_leaf_vector":"1"}},{"base_weights":[4.222335E-3,6.19624E-1,-1.1871842E-1,1.0118446E0,4.9147737E-1,-3.7713084E-1,4.7970004E-2,-1.9412175E-3,1.0874484E0,5.3231263E-1,-0E0,-5.0447434E-1,-2.8734615E-1,7.579793E-2,-3.8076678E-1,1.1894481E0,4.8460716E-1,5.7366884E-1,-1.9994034E-2,2.6869083E-2,-3.56493E-1,-2.2306255E-1,-5.53262E-1,-3.49887E-1,-1.2907493E-1,1.4606516E-1,-1.8126765E-2,-4.828508E-1,8.423799E-3,1.0595059E-2,3.7516035E-2,-5.3615477E-3,3.361578E-2,1.30853485E-2,2.3557346E-2,9.990661E-3,-1.2432112E-2,2.1893359E-3,-1.8244471E-2,1.4069167E-2,-1.0857E-2,-1.7138919E-2,3.7434797E-3,-3.538397E-3,-1.3105349E-2,-5.584805E-3,2.0252323E-2,2.4559913E-2,3.7449987E-3,2.2536637E-3,-7.4641816E-3,-5.696895E-3,-2.0184867E-2],"categories":[],"categories_nodes":[],"categories_segments":[],"categories_sizes":[],"default_left":[0,0,0,0,0,0,0,0,0,0,0,0,0,0,0,0,0,0,0,0,0,0,0,0,0,0,0,0,0,0,0,0,0,0,0,0,0,0,0,0,0,0,0,0,0,0,0,0,0,0,0,0,0],"id":14,"left_children":[1,3,5,7,9,11,13,-1,15,17,19,21,23,25,27,29,31,33,35,-1,37,39,41,43,45,47,49,51,-1,-1,-1,-1,-1,-1,-1,-1,-1,-1,-1,-1,-1,-1,-1,-1,-1,-1,-1,-1,-1,-1,-1,-1,-1],"loss_changes":[9.413948E1,9.766983E0,4.4694794E1,4.2333107E0,3.1635323E0,4.4264374E0,7.5229807E0,0E0,2.1314278E0,3.40448E0,4.545906E0,2.0836868E0,2.2958126E0,3.9311051E0,2.748289E0,1.3986702E0,3.9204917E0,3.4957962E0,1.6745358E0,0E0,1.192945E0,2.7114844E0,1.8382912E0,3.361002E0,3.308145E0,4.6604137E0,5.503772E0,1.6645737E0,0E0,0E0,0E0,0E0,0E0,0E0,0E0,0E0,0E0,0E0,0E0,0E0,0E0,0E0,0E0,0E0,0E0,0E0,0E0,0E0,0E0,0E0,0E0,0E0,0E0],"parents":[2147483647,0,0,1,1,2,2,3,3,4,4,5,5,6,6,8,8,9,9,10,10,11,11,12,12,13,13,14,14,15,15,16,16,17,17,18,18,20,20,21,21,22,22,23,23,24,24,25,25,26,26,27,27],"right_children":[2,4,6,8,10,12,14,-1,16,18,20,22,24,26,28,30,32,34,36,-1,38,40,42,44,46,48,50,52,-1,-1,-1,-1,-1,-1,-1,-1,-1,-1,-1,-1,-1,-1,-1,-1,-1,-1,-1,-1,-1,-1,-1,-1,-1],"split_conditions":[-9.8869234E-1,-1.0965421E0,1.9490984E-1,-1.3788611E0,-4.790768E-1,-8.717974E-1,8.2361484E-1,-1.9412175E-3,5.9569037E-1,1.4047543E0,-3.3554083E-1,2.1281768E-1,6.5490806E-1,2.8429154E-1,1.3106918E0,-2.7834756E0,-2.0951067E-1,-5.855866E-1,1.4979361E-1,2.6869083E-2,-9.0726264E-2,-4.0996215E-1,3.677959E0,-4.844467E-1,2.8200173E-1,1.2475979E-1,-1.0704881E-2,-2.3047161E-1,8.423799E-3,1.0595059E-2,3.7516035E-2,-5.3615477E-3,3.361578E-2,1.30853485E-2,2.3557346E-2,9.990661E-3,-1.2432112E-2,2.1893359E-3,-1.8244471E-2,1.4069167E-2,-1.0857E-2,-1.7138919E-2,3.7434797E-3,-3.538397E-3,-1.3105349E-2,-5.584805E-3,2.0252323E-2,2.4559913E-2,3.7449987E-3,2.2536637E-3,-7.4641816E-3,-5.696895E-3,-2.0184867E-2],"split_indices":[0,1,42,3,5,42,22,0,29,12,41,29,3,17,4,46,32,28,49,0,49,11,7,3,1,1,4,4,0,0,0,0,0,0,0,0,0,0,0,0,0,0,0,0,0,0,0,0,0,0,0,0,0],"split_type":[0,0,0,0,0,0,0,0,0,0,0,0,0,0,0,0,0,0,0,0,0,0,0,0,0,0,0,0,0,0,0,0,0,0,0,0,0,0,0,0,0,0,0,0,0,0,0,0,0,0,0,0,0],"sum_hessian":[1.2416431E3,2.0620766E2,1.0354354E3,4.88907E1,1.5731696E2,4.0575E2,6.296855E2,3.1308427E0,4.575986E1,1.4512318E2,1.2193762E1,1.6541125E2,2.4033873E2,5.922978E2,3.7387695E1,3.8163673E1,7.5961866E0,1.3514597E2,9.977225E0,3.0618477E0,9.131914E0,2.5566002E1,1.3984526E2,1.7094666E2,6.9392075E1,3.3911075E2,2.5318703E2,3.2754677E1,4.6330175E0,3.1709857E0,3.4992687E1,3.9929047E0,3.603282E0,8.405675E1,5.1089214E1,5.2132297E0,4.7639956E0,3.4894812E0,5.642433E0,3.7543483E0,2.1811653E1,1.3651892E2,3.326343E0,4.7570248E1,1.233764E2,6.562625E1,3.7658253E0,9.083665E0,3.3002707E2,1.8047385E2,7.271319E1,1.387885E1,1.8875826E1],"tree_param":{"num_deleted":"0","num_feature":"54","num_nodes":"53","size_leaf_vector":"1"}},{"base_weights":[-1.4725806E-3,-1.6573662E-1,3.9728642E-1,-4.772553E-1,-8.3160624E-2,2.8574282E-1,6.4266795E-1,-5.6210995E-1,-2.1816455E-1,-9.222383E-2,6.455984E-1,1.1591807E-2,3.6146182E-1,-4.4001094E-3,6.8578684E-1,-1.178194E-2,-5.9136784E-1,-3.0693522E-1,1.4561811E-2,3.499311E-2,-1.3505499E-1,4.0990687E-3,2.6487261E-2,4.975091E-1,-1.0045025E-1,-1.6481074E-2,3.8248152E-1,2.7599695E-1,7.425701E-1,-1.0801381E-2,1.2918992E-2,-1.8671457E-2,-2.0486636E-3,-1.9686464E-2,-2.4640297E-3,2.3819525E-3,-1.7826047E-2,-5.401664E-3,9.141128E-5,2.6329897E-2,1.7195983E-3,-1.09246615E-2,4.7441237E-3,1.2886204E-2,-0E0,-6.631041E-3,2.1009248E-2,2.515838E-2,1.2533463E-2],"categories":[],"categories_nodes":[],"categories_segments":[],"categories_sizes":[],"default_left":[0,0,0,0,0,0,0,0,0,0,0,0,0,0,0,0,0,0,0,0,0,0,0,0,0,0,0,0,0,0,0,0,0,0,0,0,0,0,0,0,0,0,0,0,0,0,0,0,0],"id":15,"left_children":[1,3,5,7,9,11,13,15,17,19,21,23,25,-1,27,29,31,33,-1,35,37,-1,-1,39,41,-1,43,45,47,-1,-1,-1,-1,-1,-1,-1,-1,-1,-1,-1,-1,-1,-1,-1,-1,-1,-1,-1,-1],"loss_changes":[9.482596E1,2.6290363E1,1.1282028E1,4.5143013E0,5.3692107E0,6.02833E0,4.60944E0,2.5190392E0,3.5558689E0,4.3918505E0,9.8127556E-1,3.606756E0,4.5739326E0,0E0,2.5880737E0,1.5811287E0,2.359581E0,3.7534456E0,0E0,5.6546206E0,3.7580376E0,0E0,0E0,1.9378579E0,3.7032924E0,0E0,4.0686073E0,3.776707E0,2.9072838E0,0E0,0E0,0E0,0E0,0E0,0E0,0E0,0E0,0E0,0E0,0E0,0E0,0E0,0E0,0E0,0E0,0E0,0E0,0E0,0E0],"parents":[2147483647,0,0,1,1,2,2,3,3,4,4,5,5,6,6,7,7,8,8,9,9,10,10,11,11,12,12,14,14,15,15,16,16,17,17,19,19,20,20,23,23,24,24,26,26,27,27,28,28],"right_children":[2,4,6,8,10,12,14,16,18,20,22,24,26,-1,28,30,32,34,-1,36,38,-1,-1,40,42,-1,44,46,48,-1,-1,-1,-1,-1,-1,-1,-1,-1,-1,-1,-1,-1,-1,-1,-1,-1,-1,-1,-1],"split_conditions":[5.607813E-1,-1.0246673E0,1.3674409E0,-2.3134455E-1,1.9091877E0,-1.0485778E0,-2.1791407E-1,-1.4018502E0,1.18082926E-1,-4.8485184E-1,-2.3403439E-1,-5.3048724E-1,-2.8461473E0,-4.4001094E-3,-3.000263E-1,-1.6610063E0,1.2003627E0,-1.2004627E0,1.4561811E-2,1.4553076E0,2.1908227E-1,4.0990687E-3,2.6487261E-2,-7.932974E-1,-5.997661E-1,-1.6481074E-2,6.8723595E-1,-5.8358077E-2,-1.2376218E-1,-1.0801381E-2,1.2918992E-2,-1.8671457E-2,-2.0486636E-3,-1.9686464E-2,-2.4640297E-3,2.3819525E-3,-1.7826047E-2,-5.401664E-3,9.141128E-5,2.6329897E-2,1.7195983E-3,-1.09246615E-2,4.7441237E-3,1.2886204E-2,-0E0,-6.631041E-3,2.1009248E-2,2.515838E-2,1.2533463E-2],"split_indices":[40,40,40,17,22,47,29,3,3,26,21,12,32,0,20,3,14,26,0,30,40,0,0,49,4,0,10,23,4,0,0,0,0,0,0,0,0,0,0,0,0,0,0,0,0,0,0,0,0],"split_type":[0,0,0,0,0,0,0,0,0,0,0,0,0,0,0,0,0,0,0,0,0,0,0,0,0,0,0,0,0,0,0,0,0,0,0,0,0,0,0,0,0,0,0,0,0,0,0,0,0],"sum_hessian":[1.4460339E3,1.0247397E3,4.212942E2,2.1346193E2,8.1127783E2,2.9140268E2,1.2989151E2,1.5962706E2,5.3834858E1,8.0231055E2,8.967257E0,6.3600853E1,2.2780182E2,6.483485E0,1.2340803E2,8.3014345E0,1.5132564E2,4.8430115E1,5.4047422E0,2.0154141E2,6.0076917E2,3.4866161E0,5.4806404E0,1.1439746E1,5.2161106E1,4.464208E0,2.2333762E2,1.5946671E1,1.0746136E2,4.8756166E0,3.425818E0,1.4249585E2,8.829783E0,1.8038773E1,3.0391342E1,1.8921999E2,1.2321425E1,4.534372E2,1.4733195E2,5.4832873E0,5.956459E0,2.5814356E1,2.634675E1,1.9892679E2,2.4410833E1,7.4561043E0,8.490566E0,8.147776E1,2.5983599E1],"tree_param":{"num_deleted":"0","num_feature":"54","num_nodes":"49","size_leaf_vector":"1"}},{"base_weights":[-1.8941758E-3,-1.9875495E-1,7.034756E-2,-9.270601E-2,-3.0213732E-1,5.1571943E-2,5.403719E-1,-1.8914391E-1,2.0404267E-1,1.2447284E-2,-3.5619402E-1,1.2675852E-1,-3.2829598E-2,2.045808E-2,9.4266665E-1,-0E0,-3.4349528E-1,-1.0094554E-1,6.164566E-1,4.3419763E-1,-4.066273E-1,7.495723E-3,-3.85559E-1,-1.886801E-2,2.2151718E-1,1.4106676E-2,-3.218324E-1,-1.6341167E-2,4.6626717E-1,1.1805936E0,2.5419828E-3,2.1365853E-2,-3.3645416E-3,5.4406845E-3,-1.171089E-2,-1.6362533E-2,2.6299865E-3,3.171822E-2,-1.0302847E-2,2.2898894E-2,-1.7071704E-4,-1.6688088E-2,-5.333923E-6,6.6078425E-4,-1.2227372E-2,-9.21423E-3,1.978931E-3,-1.8158656E-3,8.897696E-3,-1.937457E-3,4.152734E-3,1.5786992E-2,-1.2109702E-2,-2.3634639E-3,2.7971277E-2,1.5755644E-2,4.390769E-2],"categories":[],"categories_nodes":[],"categories_segments":[],"categories_sizes":[],"default_left":[0,0,0,0,0,0,0,0,0,0,0,0,0,0,0,0,0,0,0,0,0,0,0,0,0,0,0,0,0,0,0,0,0,0,0,0,0,0,0,0,0,0,0,0,0,0,0,0,0,0,0,0,0,0,0,0,0],"id":16,"left_children":[1,3,5,7,9,11,13,15,17,19,21,23,25,27,29,31,33,35,37,39,41,-1,43,45,47,49,51,-1,53,55,-1,-1,-1,-1,-1,-1,-1,-1,-1,-1,-1,-1,-1,-1,-1,-1,-1,-1,-1,-1,-1,-1,-1,-1,-1,-1,-1],"loss_changes":[1.5090773E1,3.057006E0,6.754466E0,4.1180105E0,2.477189E0,4.752492E0,6.0479603E0,3.1855762E0,4.541617E0,4.0184116E0,2.2929773E0,5.4859676E0,4.81003E0,3.7698734E0,3.1379824E0,4.072729E0,1.5643187E0,1.8504624E0,6.88548E0,1.7345765E0,6.3109493E-1,0E0,1.1025448E0,3.8720615E0,5.1288147E0,2.9850461E0,3.6364212E0,0E0,2.3070955E0,1.3946171E0,0E0,0E0,0E0,0E0,0E0,0E0,0E0,0E0,0E0,0E0,0E0,0E0,0E0,0E0,0E0,0E0,0E0,0E0,0E0,0E0,0E0,0E0,0E0,0E0,0E0,0E0,0E0],"parents":[2147483647,0,0,1,1,2,2,3,3,4,4,5,5,6,6,7,7,8,8,9,9,10,10,11,11,12,12,13,13,14,14,15,15,16,16,17,17,18,18,19,19,20,20,22,22,23,23,24,24,25,25,26,26,28,28,29,29],"right_children":[2,4,6,8,10,12,14,16,18,20,22,24,26,28,30,32,34,36,38,40,42,-1,44,46,48,50,52,-1,54,56,-1,-1,-1,-1,-1,-1,-1,-1,-1,-1,-1,-1,-1,-1,-1,-1,-1,-1,-1,-1,-1,-1,-1,-1,-1,-1,-1],"split_conditions":[-3.0259317E-1,1.2747344E0,1.9858909E0,7.483641E-1,-3.000263E-1,-5.29323E-1,-5.143938E-1,-7.1544975E-1,1.8137754E-1,-3.3243507E-1,-2.480181E0,-2.38018E-1,6.136765E-1,-4.8044395E-1,-1.8369306E-2,-1.181944E0,-1.6902003E0,7.489729E-1,1.2452153E0,2.1438956E0,5.851095E-1,7.495723E-3,2.493343E-1,5.76169E-1,-8.510816E-1,6.0954735E-2,-1.6056215E0,-1.6341167E-2,8.329597E-2,-3.7402448E-1,2.5419828E-3,2.1365853E-2,-3.3645416E-3,5.4406845E-3,-1.171089E-2,-1.6362533E-2,2.6299865E-3,3.171822E-2,-1.0302847E-2,2.2898894E-2,-1.7071704E-4,-1.6688088E-2,-5.333923E-6,6.6078425E-4,-1.2227372E-2,-9.21423E-3,1.978931E-3,-1.8158656E-3,8.897696E-3,-1.937457E-3,4.152734E-3,1.5786992E-2,-1.2109702E-2,-2.3634639E-3,2.7971277E-2,1.5755644E-2,4.390769E-2],"split_indices":[1,41,17,17,20,41,3,1,24,47,46,26,1,14,10,16,32,41,44,3,16,0,31,1,44,3,12,0,32,52,0,0,0,0,0,0,0,0,0,0,0,0,0,0,0,0,0,0,0,0,0,0,0,0,0,0,0],"split_type":[0,0,0,0,0,0,0,0,0,0,0,0,0,0,0,0,0,0,0,0,0,0,0,0,0,0,0,0,0,0,0,0,0,0,0,0,0,0,0,0,0,0,0,0,0,0,0,0,0,0,0,0,0,0,0,0,0],"sum_hessian":[1.0582329E3,2.839887E2,7.742442E2,1.416002E2,1.4238852E2,7.457759E2,2.8468338E1,1.0739755E2,3.4202644E1,2.0721132E1,1.2166738E2,3.947805E2,3.509954E2,1.2985584E1,1.5482754E1,4.8531433E1,5.886612E1,1.995689E1,1.4245755E1,1.042854E1,1.0292592E1,5.1183205E0,1.16549065E2,1.5552022E2,2.3926027E2,3.0247614E2,4.851927E1,5.529521E0,7.456063E0,1.173554E1,3.7472134E0,5.948732E0,4.2582703E1,4.4155135E0,5.4450607E1,5.54002E0,1.441687E1,9.764313E0,4.4814425E0,5.6749763E0,4.753564E0,7.07365E0,3.2189417E0,5.741124E0,1.1080794E2,3.5032578E1,1.2048765E2,5.005745E1,1.8920282E2,1.8503311E2,1.17443016E2,3.68393E0,4.4835342E1,3.7211418E0,3.734921E0,4.506915E0,7.228626E0],"tree_param":{"num_deleted":"0","num_feature":"54","num_nodes":"57","size_leaf_vector":"1"}},{"base_weights":[4.0930044E-4,2.0372859E-1,-3.4025288E-1,6.0811305E-1,7.1876705E-2,-2.0018333E-1,-4.395312E-1,8.686098E-1,4.5343575E-1,-2.5098784E-2,1.7667155E-1,-1.2475357E-1,-4.5851997E-1,1.3810472E-2,-4.574354E-1,9.201995E-1,-0E0,1.4620756E-1,6.2124074E-1,-8.506686E-2,1.716318E-1,4.9623257E-1,1.2948681E-1,-1.8839513E-1,1.7819464E-1,-5.2124244E-1,-1.076404E-1,-4.9893236E-1,-2.1737696E-1,2.9034743E-2,4.4115335E-3,9.6499575E-3,-1.0299621E-2,2.9370312E-2,1.3683753E-2,2.0274252E-3,-7.434081E-3,-5.402085E-6,2.5803175E-2,7.7142958E-3,2.703268E-2,1.2605104E-2,2.5626654E-3,-1.0935222E-3,-9.617631E-3,-9.053948E-3,1.2605511E-2,-1.689536E-2,-1.8460897E-3,-1.5463584E-2,7.870449E-3,-1.5375563E-2,2.0085333E-3,1.7848475E-2,-9.213005E-3],"categories":[],"categories_nodes":[],"categories_segments":[],"categories_sizes":[],"default_left":[0,0,0,0,0,0,0,0,0,0,0,0,0,0,0,0,0,0,0,0,0,0,0,0,0,0,0,0,0,0,0,0,0,0,0,0,0,0,0,0,0,0,0,0,0,0,0,0,0,0,0,0,0,0,0],"id":17,"left_children":[1,3,5,7,9,11,13,15,17,19,21,23,25,-1,27,29,-1,31,33,35,37,39,41,43,45,47,49,51,53,-1,-1,-1,-1,-1,-1,-1,-1,-1,-1,-1,-1,-1,-1,-1,-1,-1,-1,-1,-1,-1,-1,-1,-1,-1,-1],"loss_changes":[8.540948E1,4.1078712E1,6.255604E0,7.1147766E0,5.953472E0,3.6527252E0,4.534668E0,3.0482025E0,6.086792E0,3.5881896E0,4.114045E0,2.9526408E0,8.2800484E-1,0E0,2.447567E0,2.1529121E0,0E0,3.9195323E0,4.014284E0,5.841818E0,8.470013E0,3.0945597E0,3.0734282E0,2.4801064E0,3.2185862E0,5.969343E-1,1.3717681E0,1.7992935E0,3.14246E0,0E0,0E0,0E0,0E0,0E0,0E0,0E0,0E0,0E0,0E0,0E0,0E0,0E0,0E0,0E0,0E0,0E0,0E0,0E0,0E0,0E0,0E0,0E0,0E0,0E0,0E0],"parents":[2147483647,0,0,1,1,2,2,3,3,4,4,5,5,6,6,7,7,8,8,9,9,10,10,11,11,12,12,14,14,15,15,17,17,18,18,19,19,20,20,21,21,22,22,23,23,24,24,25,25,26,26,27,27,28,28],"right_children":[2,4,6,8,10,12,14,16,18,20,22,24,26,-1,28,30,-1,32,34,36,38,40,42,44,46,48,50,52,54,-1,-1,-1,-1,-1,-1,-1,-1,-1,-1,-1,-1,-1,-1,-1,-1,-1,-1,-1,-1,-1,-1,-1,-1,-1,-1],"split_conditions":[1.9101858E-1,4.9770665E-1,7.4626803E-1,-5.2285594E-1,2.368066E-1,4.9835086E-1,-2.1713206E-1,-1.1454482E-1,-5.4832953E-1,4.0001962E-1,-1.1322048E0,6.412775E-1,5.984672E-1,1.3810472E-2,5.8986735E-1,1.878416E0,-0E0,4.1062444E-1,1.8988253E-1,-2.4468027E-1,-5.402772E-1,-2.826517E-1,-1.0559981E0,-3.5378315E-2,5.501825E-1,7.4564636E-2,8.698664E-1,2.5962808E0,-1.02747485E-1,2.9034743E-2,4.4115335E-3,9.6499575E-3,-1.0299621E-2,2.9370312E-2,1.3683753E-2,2.0274252E-3,-7.434081E-3,-5.402085E-6,2.5803175E-2,7.7142958E-3,2.703268E-2,1.2605104E-2,2.5626654E-3,-1.0935222E-3,-9.617631E-3,-9.053948E-3,1.2605511E-2,-1.689536E-2,-1.8460897E-3,-1.5463584E-2,7.870449E-3,-1.5375563E-2,2.0085333E-3,1.7848475E-2,-9.213005E-3],"split_indices":[0,43,40,43,47,9,5,44,6,2,46,3,0,0,15,27,0,33,52,9,40,5,11,41,5,11,9,33,31,0,0,0,0,0,0,0,0,0,0,0,0,0,0,0,0,0,0,0,0,0,0,0,0,0,0],"split_type":[0,0,0,0,0,0,0,0,0,0,0,0,0,0,0,0,0,0,0,0,0,0,0,0,0,0,0,0,0,0,0,0,0,0,0,0,0,0,0,0,0,0,0,0,0,0,0,0,0,0,0,0,0,0,0],"sum_hessian":[1.2313113E3,7.7153015E2,4.597811E2,1.8863222E2,5.8289795E2,1.9238005E2,2.6740103E2,6.831637E1,1.2031584E2,3.0264307E2,2.8025488E2,1.5035039E2,4.202967E1,4.6254425E0,2.627756E2,6.436181E1,3.9545648E0,4.3372993E1,7.694285E1,2.3276634E2,6.987672E1,3.455992E1,2.4569495E2,1.2483418E2,2.5516203E1,3.500222E1,7.0274487E0,2.2277187E2,4.0003727E1,6.0268196E1,4.0936093E0,3.2331764E1,1.1041229E1,2.2549059E1,5.4393787E1,1.20090546E2,1.12675804E2,5.6605137E1,1.3271582E1,2.2911572E1,1.1648348E1,3.0919836E1,2.1477512E2,5.9023632E1,6.581055E1,8.331001E0,1.7185204E1,3.1670498E1,3.331723E0,3.2844033E0,3.7430456E0,2.1781339E2,4.9584894E0,3.3080637E0,3.6695663E1],"tree_param":{"num_deleted":"0","num_feature":"54","num_nodes":"55","size_leaf_vector":"1"}},{"base_weights":[-5.349002E-3,-1.7370532E-1,3.859187E-1,-3.6590764E-1,-5.1795285E-2,6.138885E-1,2.9101673E-1,-3.3047393E-1,-2.324566E-2,-1.4068957E-1,4.5939937E-2,9.567751E-2,6.762032E-1,-4.4272605E-1,3.108469E-1,-3.739302E-1,-1.383051E-1,2.5335556E-1,-1.7415205E-1,2.9729748E-1,-1.3369463E-2,-2.3949489E-1,1.4260527E-2,-4.7823773E-3,7.092163E-1,-6.671691E-4,-2.1361198E-2,-4.61699E-2,3.476479E-1,-1.3199736E-2,-6.2582567E-3,4.15245E-3,-7.967432E-3,1.3408881E-2,-1.5954714E-2,-4.3194327E-3,-1.605261E-2,-2.9805452E-3,1.4940855E-2,8.18432E-3,-1.8507573E-3,3.566052E-3,-1.603974E-2,6.373383E-3,2.2129292E-2,2.092343E-3,-2.1439377E-2,1.2757269E-2,6.008117E-3],"categories":[],"categories_nodes":[],"categories_segments":[],"categories_sizes":[],"default_left":[0,0,0,0,0,0,0,0,0,0,0,0,0,0,0,0,0,0,0,0,0,0,0,0,0,0,0,0,0,0,0,0,0,0,0,0,0,0,0,0,0,0,0,0,0,0,0,0,0],"id":18,"left_children":[1,3,5,7,9,11,13,15,-1,17,19,21,23,25,27,29,31,33,35,37,39,41,-1,-1,43,-1,-1,45,47,-1,-1,-1,-1,-1,-1,-1,-1,-1,-1,-1,-1,-1,-1,-1,-1,-1,-1,-1,-1],"loss_changes":[9.546396E1,2.3689926E1,9.161568E0,5.3269386E0,5.4174247E0,3.9564667E0,4.634857E0,2.9330711E0,0E0,4.3395357E0,4.4502783E0,2.0412235E0,3.2840385E0,8.661841E-1,4.0213165E0,3.0705109E0,2.4818068E0,4.1389256E0,3.1398773E0,4.6229467E0,3.320289E0,1.0011488E0,0E0,0E0,1.2869759E0,0E0,0E0,2.3537958E0,2.9931068E0,0E0,0E0,0E0,0E0,0E0,0E0,0E0,0E0,0E0,0E0,0E0,0E0,0E0,0E0,0E0,0E0,0E0,0E0,0E0,0E0],"parents":[2147483647,0,0,1,1,2,2,3,3,4,4,5,5,6,6,7,7,9,9,10,10,11,11,12,12,13,13,14,14,15,15,16,16,17,17,18,18,19,19,20,20,21,21,24,24,27,27,28,28],"right_children":[2,4,6,8,10,12,14,16,-1,18,20,22,24,26,28,30,32,34,36,38,40,42,-1,-1,44,-1,-1,46,48,-1,-1,-1,-1,-1,-1,-1,-1,-1,-1,-1,-1,-1,-1,-1,-1,-1,-1,-1,-1],"split_conditions":[4.6998635E-1,-4.8282075E-1,-1.2763206E0,1.6481185E0,-1.7210916E-1,-3.0025652E-1,-2.3583033E0,5.902553E-1,-2.324566E-2,-1.0843055E0,-5.906378E-1,1.5720968E0,-2.4973477E-1,3.554341E-1,-5.201138E-1,1.2609756E-1,-7.795394E-1,3.7172794E-1,7.691137E-1,-2.0547134E-1,-6.2445486E-1,6.1516964E-1,1.4260527E-2,-4.7823773E-3,-1.5848768E0,-6.671691E-4,-2.1361198E-2,1.0687057E0,6.710187E-1,-1.3199736E-2,-6.2582567E-3,4.15245E-3,-7.967432E-3,1.3408881E-2,-1.5954714E-2,-4.3194327E-3,-1.605261E-2,-2.9805452E-3,1.4940855E-2,8.18432E-3,-1.8507573E-3,3.566052E-3,-1.603974E-2,6.373383E-3,2.2129292E-2,2.092343E-3,-2.1439377E-2,1.2757269E-2,6.008117E-3],"split_indices":[0,40,43,41,12,21,32,53,0,26,26,26,6,25,26,32,41,32,43,46,44,50,0,0,15,0,0,40,17,0,0,0,0,0,0,0,0,0,0,0,0,0,0,0,0,0,0,0,0],"split_type":[0,0,0,0,0,0,0,0,0,0,0,0,0,0,0,0,0,0,0,0,0,0,0,0,0,0,0,0,0,0,0,0,0,0,0,0,0,0,0,0,0,0,0,0,0,0,0,0,0],"sum_hessian":[1.44753E3,1.01262506E3,4.3490494E2,3.9191443E2,6.2071063E2,1.2591488E2,3.0899008E2,3.6255325E2,2.9361164E1,3.25363E2,2.9534763E2,1.39603405E1,1.1195454E2,7.437138E0,3.0155295E2,2.9449188E2,6.806138E1,2.4718994E1,3.00644E2,5.5940624E1,2.3940701E2,7.4709096E0,6.4894304E0,3.9943042E0,1.0796023E2,3.4712586E0,3.9658797E0,2.7901447E1,2.736515E2,2.0879353E2,8.5698364E1,2.1167135E1,4.689424E1,2.0277212E1,4.441782E0,2.7899823E2,2.1645796E1,1.8799421E1,3.7141205E1,3.361482E1,2.0579219E2,3.4909558E0,3.9799538E0,6.492494E0,1.01467735E2,2.4414083E1,3.4873638E0,1.7758746E2,9.606402E1],"tree_param":{"num_deleted":"0","num_feature":"54","num_nodes":"49","size_leaf_vector":"1"}},{"base_weights":[-1.0696053E-2,2.7782112E-2,-2.9099244E-1,9.764209E-3,5.08429E-1,-3.2043898E-1,1.6469695E-2,9.952693E-2,-6.1053466E-2,1.16046436E-1,1.0843174E0,4.8715467E-4,-3.704899E-1,-5.4116193E-2,1.9561292E-1,2.6409036E-1,-8.606998E-2,4.0420452E-1,-1.2973245E-2,8.14506E-3,1.371898E0,-3.672218E-1,4.0419853E-1,-1.6571897E-1,-4.439078E-1,-1.184248E-2,3.656629E-4,5.0526066E-3,3.1234019E-2,1.6760001E-2,-1.0586341E-3,-3.290772E-4,-5.277709E-3,-9.6249E-3,2.1933902E-2,4.763053E-2,2.0296318E-2,-0E0,-1.59963E-2,2.443324E-2,-7.025799E-3,1.6051002E-2,-1.0196012E-2,-6.9620637E-3,-1.567275E-2],"categories":[],"categories_nodes":[],"categories_segments":[],"categories_sizes":[],"default_left":[0,0,0,0,0,0,0,0,0,0,0,0,0,0,0,0,0,0,0,0,0,0,0,0,0,0,0,0,0,0,0,0,0,0,0,0,0,0,0,0,0,0,0,0,0],"id":19,"left_children":[1,3,5,7,9,11,-1,13,15,17,19,21,23,25,27,29,31,33,-1,-1,35,37,39,41,43,-1,-1,-1,-1,-1,-1,-1,-1,-1,-1,-1,-1,-1,-1,-1,-1,-1,-1,-1,-1],"loss_changes":[1.149588E1,8.040722E0,3.3357878E0,5.746643E0,7.3386106E0,2.04603E0,0E0,5.915087E0,4.1081886E0,3.5204158E0,2.5904083E0,2.765151E0,1.4960623E0,3.5190187E0,5.361908E0,3.246915E0,3.1473315E0,3.7185843E0,0E0,0E0,1.3157082E-1,5.8098245E-1,2.604784E0,3.8940957E0,1.1153536E0,0E0,0E0,0E0,0E0,0E0,0E0,0E0,0E0,0E0,0E0,0E0,0E0,0E0,0E0,0E0,0E0,0E0,0E0,0E0,0E0],"parents":[2147483647,0,0,1,1,2,2,3,3,4,4,5,5,7,7,8,8,9,9,10,10,11,11,12,12,13,13,14,14,15,15,16,16,17,17,20,20,21,21,22,22,23,23,24,24],"right_children":[2,4,6,8,10,12,-1,14,16,18,20,22,24,26,28,30,32,34,-1,-1,36,38,40,42,44,-1,-1,-1,-1,-1,-1,-1,-1,-1,-1,-1,-1,-1,-1,-1,-1,-1,-1,-1,-1],"split_conditions":[1.3044614E0,1.9858909E0,3.112992E0,-5.29323E-1,2.1281768E-1,-3.0025652E-1,1.6469695E-2,-3.736569E-1,-1.2964733E0,5.8169174E-1,-2.1254593E-1,2.9687843E-1,2.1281768E-1,-8.6265874E-1,1.395558E-1,-3.7117195E-1,1.9140123E-1,-1.114983E0,-1.2973245E-2,8.14506E-3,-2.898753E-1,4.9835086E-1,1.5720968E0,-2.422063E0,1.5238347E0,-1.184248E-2,3.656629E-4,5.0526066E-3,3.1234019E-2,1.6760001E-2,-1.0586341E-3,-3.290772E-4,-5.277709E-3,-9.6249E-3,2.1933902E-2,4.763053E-2,2.0296318E-2,-0E0,-1.59963E-2,2.443324E-2,-7.025799E-3,1.6051002E-2,-1.0196012E-2,-6.9620637E-3,-1.567275E-2],"split_indices":[41,17,3,41,29,21,0,28,47,1,1,53,29,26,40,10,44,4,0,0,53,9,26,1,0,0,0,0,0,0,0,0,0,0,0,0,0,0,0,0,0,0,0,0,0],"split_type":[0,0,0,0,0,0,0,0,0,0,0,0,0,0,0,0,0,0,0,0,0,0,0,0,0,0,0,0,0,0,0,0,0,0,0,0,0,0,0,0,0,0,0,0,0],"sum_hessian":[1.0616951E3,9.3402E2,1.2767507E2,9.014557E2,3.2564304E1,1.2406345E2,3.6116223E0,3.9799557E2,5.034601E2,2.0185816E1,1.2378487E1,1.6602242E1,1.0746121E2,1.5290076E2,2.4509483E2,3.500037E1,4.6845975E2,1.3525386E1,6.6604304E0,3.8339791E0,8.544507E0,8.606208E0,7.9960346E0,2.9579597E1,7.7881615E1,2.4351696E1,1.2854906E2,2.3873439E2,6.360445E0,1.7373482E1,1.7626888E1,2.56396E2,2.1206375E2,4.1141195E0,9.411266E0,5.431795E0,3.1127126E0,3.0064456E0,5.5997624E0,4.795334E0,3.2007003E0,5.361005E0,2.4218592E1,2.2474592E1,5.540702E1],"tree_param":{"num_deleted":"0","num_feature":"54","num_nodes":"45","size_leaf_vector":"1"}},{"base_weights":[1.5625441E-2,2.3359762E-1,-2.9582164E-1,6.646233E-1,1.1079432E-1,-1.58183E-1,-4.1445985E-1,9.9554706E-1,5.235379E-1,2.3462065E-1,3.0491687E-2,8.3936684E-2,-2.2334678E-1,1.1905183E-2,-4.341138E-1,1.0681245E0,9.468372E-3,3.72459E-1,7.4173063E-1,4.2698902E-1,1.4475212E-1,1.7980082E-2,2.8635196E-2,3.531765E-1,-2.7233264E-1,-5.164368E-1,-1.544065E-1,5.4842588E-3,-4.4495013E-1,3.35693E-3,3.423325E-2,1.5827507E-2,-2.2280961E-3,2.6421878E-2,2.5890842E-3,1.590282E-2,-1.470938E-2,1.3805947E-3,1.1821187E-2,1.3723009E-3,-1.19714085E-2,1.5989352E-2,-6.4727385E-3,-1.5612291E-2,5.2760546E-3,-1.7673621E-2,1.6115246E-3,-8.134133E-3,-1.6121057E-4,-1.2260998E-2,-1.9296393E-2],"categories":[],"categories_nodes":[],"categories_segments":[],"categories_sizes":[],"default_left":[0,0,0,0,0,0,0,0,0,0,0,0,0,0,0,0,0,0,0,0,0,0,0,0,0,0,0,0,0,0,0,0,0,0,0,0,0,0,0,0,0,0,0,0,0,0,0,0,0,0,0],"id":20,"left_children":[1,3,5,7,9,11,13,15,17,19,21,23,25,-1,27,29,-1,31,33,35,37,39,-1,41,43,45,47,-1,49,-1,-1,-1,-1,-1,-1,-1,-1,-1,-1,-1,-1,-1,-1,-1,-1,-1,-1,-1,-1,-1,-1],"loss_changes":[8.413778E1,3.8452103E1,8.207512E0,6.8592606E0,5.6239877E0,3.7904124E0,4.528698E0,1.8390198E0,3.4174118E0,3.7395124E0,3.8947334E0,4.987542E0,3.6571388E0,0E0,1.8932991E0,2.6660156E0,0E0,4.968981E0,4.0131645E0,6.903309E0,3.7279923E0,3.9574053E0,0E0,3.173769E0,2.6074386E0,1.5417299E0,2.65199E0,0E0,1.5218315E0,0E0,0E0,0E0,0E0,0E0,0E0,0E0,0E0,0E0,0E0,0E0,0E0,0E0,0E0,0E0,0E0,0E0,0E0,0E0,0E0,0E0,0E0],"parents":[2147483647,0,0,1,1,2,2,3,3,4,4,5,5,6,6,7,7,8,8,9,9,10,10,11,11,12,12,14,14,15,15,17,17,18,18,19,19,20,20,21,21,23,23,24,24,25,25,26,26,28,28],"right_children":[2,4,6,8,10,12,14,16,18,20,22,24,26,-1,28,30,-1,32,34,36,38,40,-1,42,44,46,48,-1,50,-1,-1,-1,-1,-1,-1,-1,-1,-1,-1,-1,-1,-1,-1,-1,-1,-1,-1,-1,-1,-1,-1],"split_conditions":[2.036059E-1,1.3192579E-1,7.354245E-1,-1.0339456E0,-3.736569E-1,-4.168119E-1,-1.0485688E0,-3.5711867E-1,-5.855866E-1,-7.4698085E-1,2.0984466E0,-3.7117195E-1,-4.891628E-1,1.1905183E-2,-1.009446E0,-1.3788611E0,9.468372E-3,6.680951E-2,6.710187E-1,7.55372E-1,3.4559575E-1,1.5418336E0,2.8635196E-2,1.1098511E0,6.524547E-1,1.9332886E0,-3.3243507E-1,5.4842588E-3,2.064452E0,3.35693E-3,3.423325E-2,1.5827507E-2,-2.2280961E-3,2.6421878E-2,2.5890842E-3,1.590282E-2,-1.470938E-2,1.3805947E-3,1.1821187E-2,1.3723009E-3,-1.19714085E-2,1.5989352E-2,-6.4727385E-3,-1.5612291E-2,5.2760546E-3,-1.7673621E-2,1.6115246E-3,-8.134133E-3,-1.6121057E-4,-1.2260998E-2,-1.9296393E-2],"split_indices":[40,1,40,1,28,32,3,46,28,17,10,10,17,0,28,3,0,12,17,32,27,6,0,28,5,7,47,0,0,0,0,0,0,0,0,0,0,0,0,0,0,0,0,0,0,0,0,0,0,0,0],"split_type":[0,0,0,0,0,0,0,0,0,0,0,0,0,0,0,0,0,0,0,0,0,0,0,0,0,0,0,0,0,0,0,0,0,0,0,0,0,0,0,0,0,0,0,0,0,0,0,0,0,0,0],"sum_hessian":[1.2374573E3,7.2830804E2,5.0914923E2,1.6033255E2,5.6797546E2,2.3717075E2,2.7197845E2,4.590191E1,1.1443064E2,2.2219095E2,3.4578452E2,4.9908882E1,1.8726187E2,5.8586416E0,2.661198E2,4.082607E1,5.075842E0,6.9484314E1,4.4946323E1,6.920021E1,1.5299074E2,3.422776E2,3.5069208E0,2.8591263E1,2.131762E1,3.414739E1,1.5311449E2,4.160502E0,2.6195932E2,3.171874E0,3.7654194E1,5.1606907E1,1.7877409E1,3.6672703E1,8.273619E0,6.268548E1,6.5147314E0,1.1072354E2,4.22672E1,3.219726E2,2.0304996E1,2.1906925E1,6.684338E0,1.3762277E1,7.555343E0,3.0412497E1,3.7348895E0,8.502645E1,6.808803E1,2.244812E2,3.747811E1],"tree_param":{"num_deleted":"0","num_feature":"54","num_nodes":"51","size_leaf_vector":"1"}},{"base_weights":[1.589983E-2,-1.4770925E-1,3.9759368E-1,-4.4253424E-1,-6.998804E-2,6.549521E-1,2.9118177E-1,-4.6873903E-1,8.683334E-3,-8.092962E-2,7.4840087E-1,-0E0,6.7586887E-1,3.9197713E-1,8.867825E-2,-5.4292816E-1,-2.669893E-1,-1.6780332E-2,1.646323E-2,5.1332206E-2,-1.3193226E-1,1.05202645E-2,2.6477244E-2,2.9586565E-1,7.121081E-1,-1.5044251E-1,4.2999372E-1,2.3274547E-1,-1.7607692E-1,-1.8867444E-2,-1.0805222E-2,-4.003322E-3,-2.3204604E-2,7.770775E-3,-2.1029024E-3,-2.9063455E-3,-9.1034435E-3,-7.903784E-3,1.6580032E-2,2.6773012E-3,2.1926578E-2,-1.950978E-2,8.792916E-3,1.440029E-2,1.1398966E-3,-1.4162305E-2,9.118434E-3,-1.0929074E-2,7.908745E-3],"categories":[],"categories_nodes":[],"categories_segments":[],"categories_sizes":[],"default_left":[0,0,0,0,0,0,0,0,0,0,0,0,0,0,0,0,0,0,0,0,0,0,0,0,0,0,0,0,0,0,0,0,0,0,0,0,0,0,0,0,0,0,0,0,0,0,0,0,0],"id":21,"left_children":[1,3,5,7,9,11,13,15,17,19,21,-1,23,25,27,29,31,-1,-1,33,35,-1,-1,37,39,41,43,45,47,-1,-1,-1,-1,-1,-1,-1,-1,-1,-1,-1,-1,-1,-1,-1,-1,-1,-1,-1,-1],"loss_changes":[8.960131E1,2.2921764E1,1.1505455E1,2.5211105E0,7.1210165E0,1.6510658E0,6.1767826E0,2.7337532E0,4.0619006E0,5.3200517E0,1.2633085E-1,0E0,1.3530693E0,4.3020706E0,3.9958653E0,1.9255943E0,3.5597587E0,0E0,0E0,5.5614038E0,3.348054E0,0E0,0E0,1.9663323E0,1.1323013E0,3.3167682E0,3.6785507E0,3.5255637E0,3.1527145E0,0E0,0E0,0E0,0E0,0E0,0E0,0E0,0E0,0E0,0E0,0E0,0E0,0E0,0E0,0E0,0E0,0E0,0E0,0E0,0E0],"parents":[2147483647,0,0,1,1,2,2,3,3,4,4,5,5,6,6,7,7,8,8,9,9,10,10,12,12,13,13,14,14,15,15,16,16,19,19,20,20,23,23,24,24,25,25,26,26,27,27,28,28],"right_children":[2,4,6,8,10,12,14,16,18,20,22,-1,24,26,28,30,32,-1,-1,34,36,-1,-1,38,40,42,44,46,48,-1,-1,-1,-1,-1,-1,-1,-1,-1,-1,-1,-1,-1,-1,-1,-1,-1,-1,-1,-1],"split_conditions":[4.6998635E-1,-1.0322903E0,-1.2763206E0,1.2003627E0,1.9091877E0,-2.4973477E-1,6.710187E-1,-2.3134455E-1,1.6983736E0,-2.4253073E-1,-8.34805E-1,-0E0,-3.000263E-1,-1.1730486E0,8.3134955E-1,4.50363E-2,-1.1111524E0,-1.6780332E-2,1.646323E-2,5.0202526E-2,5.142376E-1,1.05202645E-2,2.6477244E-2,-5.8358077E-2,-1.1319251E-2,5.44647E-1,7.3017365E-1,-5.201138E-1,6.751472E-1,-1.8867444E-2,-1.0805222E-2,-4.003322E-3,-2.3204604E-2,7.770775E-3,-2.1029024E-3,-2.9063455E-3,-9.1034435E-3,-7.903784E-3,1.6580032E-2,2.6773012E-3,2.1926578E-2,-1.950978E-2,8.792916E-3,1.440029E-2,1.1398966E-3,-1.4162305E-2,9.118434E-3,-1.0929074E-2,7.908745E-3],"split_indices":[0,0,43,14,22,6,17,17,2,2,31,0,20,32,12,43,0,0,0,28,26,0,0,23,31,12,15,26,33,0,0,0,0,0,0,0,0,0,0,0,0,0,0,0,0,0,0,0,0],"split_type":[0,0,0,0,0,0,0,0,0,0,0,0,0,0,0,0,0,0,0,0,0,0,0,0,0,0,0,0,0,0,0,0,0,0,0,0,0,0,0,0,0,0,0,0,0,0,0,0,0],"sum_hessian":[1.4324608E3,1.0029204E3,4.2954034E2,2.0798329E2,7.9493713E2,1.2386846E2,3.0567188E2,1.9674025E2,1.1243048E1,7.854591E2,9.478022E0,3.99482E0,1.1987364E2,2.0313348E2,1.0253839E2,1.4224571E2,5.4494537E1,5.372182E0,5.870866E0,2.1804639E2,5.674127E2,3.4904218E0,5.9876003E0,1.1474641E1,1.08399E2,1.2938579E1,1.9019492E2,6.672721E1,3.581118E1,9.470026E1,4.754545E1,4.4280308E1,1.0214229E1,8.0333435E1,1.3771295E2,4.729085E2,9.4504234E1,3.479916E0,7.9947248E0,3.496534E0,1.04902466E2,5.9697356E0,6.968843E0,1.6824808E2,2.1946838E1,5.4769645E0,6.125025E1,2.535586E1,1.0455318E1],"tree_param":{"num_deleted":"0","num_feature":"54","num_nodes":"49","size_leaf_vector":"1"}},{"base_weights":[3.0165147E-2,-1.1635681E-1,1.24950476E-1,-3.951076E-2,-2.8175467E-1,7.347808E-1,1.1531352E-1,4.2584035E-1,-1.2475391E-1,8.698984E-2,-3.439495E-1,2.5870416E-3,3.3380244E-2,1.3791862E-1,-1.421927E-1,-1.0993509E-2,5.3577244E-1,-1.5379737E-1,5.002247E-1,-1.6524393E-2,4.697074E-1,1.3394845E-2,-3.7822384E-1,-1.669027E-2,1.4657079E-1,3.9090878E-1,-3.1464982E-1,4.9833385E-3,2.7121834E-2,1.886608E-2,-5.373156E-3,3.5385538E-2,-6.1597E-3,2.3888312E-2,-3.912023E-3,8.23913E-3,-1.2184728E-2,3.5588446E-3,1.0857311E-2,2.2822639E-2,-9.368688E-3,1.2687586E-2,-1.2451983E-2],"categories":[],"categories_nodes":[],"categories_segments":[],"categories_sizes":[],"default_left":[0,0,0,0,0,0,0,0,0,0,0,0,0,0,0,0,0,0,0,0,0,0,0,0,0,0,0,0,0,0,0,0,0,0,0,0,0,0,0,0,0,0,0],"id":22,"left_children":[1,3,5,7,9,11,13,15,17,19,21,-1,-1,23,25,-1,27,29,31,-1,33,-1,35,-1,37,39,41,-1,-1,-1,-1,-1,-1,-1,-1,-1,-1,-1,-1,-1,-1,-1,-1],"loss_changes":[1.4719879E1,5.2440667E0,3.6137476E0,1.1352361E1,3.0688553E0,2.1535444E0,3.7161942E0,4.068428E0,4.4411693E0,5.017469E0,3.2196178E0,0E0,0E0,3.5529633E0,4.8400154E0,0E0,5.1049137E0,4.672882E0,5.536872E0,0E0,2.6872723E0,0E0,2.1094418E0,0E0,3.3897429E0,3.6283588E0,3.102106E0,0E0,0E0,0E0,0E0,0E0,0E0,0E0,0E0,0E0,0E0,0E0,0E0,0E0,0E0,0E0,0E0],"parents":[2147483647,0,0,1,1,2,2,3,3,4,4,5,5,6,6,7,7,8,8,9,9,10,10,13,13,14,14,16,16,17,17,18,18,20,20,22,22,24,24,25,25,26,26],"right_children":[2,4,6,8,10,12,14,16,18,20,22,-1,-1,24,26,-1,28,30,32,-1,34,-1,36,-1,38,40,42,-1,-1,-1,-1,-1,-1,-1,-1,-1,-1,-1,-1,-1,-1,-1,-1],"split_conditions":[1.0796082E-2,1.2747344E0,-1.6429147E0,-1.1220282E0,-3.0025652E-1,1.5543148E-1,5.9573406E-1,-8.495748E-1,1.5802538E0,1.3432832E0,-2.480181E0,2.5870416E-3,3.3380244E-2,-1.619477E0,2.5824875E-1,-1.0993509E-2,-1.8420766E-1,-2.3583033E0,-5.5869818E-2,-1.6524393E-2,1.5720968E0,1.3394845E-2,-6.3164596E-4,-1.669027E-2,7.5684637E-1,2.5698403E-1,-2.4388917E-2,4.9833385E-3,2.7121834E-2,1.886608E-2,-5.373156E-3,3.5385538E-2,-6.1597E-3,2.3888312E-2,-3.912023E-3,8.23913E-3,-1.2184728E-2,3.5588446E-3,1.0857311E-2,2.2822639E-2,-9.368688E-3,1.2687586E-2,-1.2451983E-2],"split_indices":[42,41,16,47,21,26,3,32,49,40,46,0,0,4,42,0,49,32,32,0,26,0,31,0,43,1,4,0,0,0,0,0,0,0,0,0,0,0,0,0,0,0,0],"split_type":[0,0,0,0,0,0,0,0,0,0,0,0,0,0,0,0,0,0,0,0,0,0,0,0,0,0,0,0,0,0,0,0,0,0,0,0,0,0,0,0,0,0,0],"sum_hessian":[1.0577804E3,4.1499158E2,6.427889E2,2.846042E2,1.303874E2,8.667741E0,6.341211E2,4.326227E1,2.413419E2,1.8528429E1,1.1185898E2,3.7407117E0,4.9270287E0,5.837312E2,5.0389915E1,4.876172E0,3.83861E1,2.3149786E2,9.844045E0,6.6858616E0,1.18425665E1,4.0276413E0,1.0783134E2,6.2637124E0,5.7746747E2,1.1865276E1,3.852464E1,2.0017036E1,1.8369064E1,6.3803353E0,2.2511752E2,4.745292E0,5.098753E0,7.56536E0,4.2772064E0,3.9151726E0,1.0391617E2,5.129252E2,6.4542305E1,7.815229E0,4.050047E0,4.11224E0,3.44124E1],"tree_param":{"num_deleted":"0","num_feature":"54","num_nodes":"43","size_leaf_vector":"1"}},{"base_weights":[-1.102004E-2,1.9988215E-1,-3.2367685E-1,5.8624226E-1,6.401358E-2,-4.0564704E-1,-1.7215002E-1,9.429711E-1,4.559077E-1,9.752319E-2,-2.6799998E-1,1.327545E-2,-4.1740325E-1,-2.5730836E-1,3.35505E-2,1.0196463E0,9.174751E-3,6.174682E-1,3.1880167E-1,1.8083702E-1,-1.5614227E-2,-3.7227196E-1,1.0687018E-1,-5.122891E-1,-3.461512E-1,-0E0,-3.4041873E-1,2.8407572E-2,-6.217034E-2,3.247221E-2,1.1397758E-2,2.1810818E-2,-3.6147921E-3,1.0862405E-2,-1.6389135E-2,4.2609107E-3,1.4803328E-2,5.346564E-3,-2.8101478E-3,-1.3474688E-2,-1.0216291E-4,-1.1117793E-2,1.3310363E-2,1.1379862E-2,-1.6137224E-2,1.3154406E-2,-1.1093876E-2,5.5126445E-3,-1.8016275E-2,2.3276673E-3,-1.2142548E-2,4.6008998E-3,-1.044816E-2],"categories":[],"categories_nodes":[],"categories_segments":[],"categories_sizes":[],"default_left":[0,0,0,0,0,0,0,0,0,0,0,0,0,0,0,0,0,0,0,0,0,0,0,0,0,0,0,0,0,0,0,0,0,0,0,0,0,0,0,0,0,0,0,0,0,0,0,0,0,0,0,0,0],"id":23,"left_children":[1,3,5,7,9,11,13,15,17,19,21,-1,23,25,27,29,-1,31,33,35,37,39,41,43,45,47,49,-1,51,-1,-1,-1,-1,-1,-1,-1,-1,-1,-1,-1,-1,-1,-1,-1,-1,-1,-1,-1,-1,-1,-1,-1,-1],"loss_changes":[8.252306E1,3.9115173E1,6.1352882E0,8.452667E0,6.1730404E0,3.4333305E0,3.169694E0,2.0367165E0,2.90522E0,4.7723303E0,2.0514102E0,0E0,1.9153366E0,2.74228E0,4.7811427E0,1.2397308E0,0E0,5.3894787E0,3.1912193E0,3.3964033E0,3.250007E0,1.092277E0,2.0403998E0,3.3151627E0,3.637886E0,3.5978744E0,2.6544027E0,0E0,3.0829177E0,0E0,0E0,0E0,0E0,0E0,0E0,0E0,0E0,0E0,0E0,0E0,0E0,0E0,0E0,0E0,0E0,0E0,0E0,0E0,0E0,0E0,0E0,0E0,0E0],"parents":[2147483647,0,0,1,1,2,2,3,3,4,4,5,5,6,6,7,7,8,8,9,9,10,10,12,12,13,13,14,14,15,15,17,17,18,18,19,19,20,20,21,21,22,22,23,23,24,24,25,25,26,26,28,28],"right_children":[2,4,6,8,10,12,14,16,18,20,22,-1,24,26,28,30,-1,32,34,36,38,40,42,44,46,48,50,-1,52,-1,-1,-1,-1,-1,-1,-1,-1,-1,-1,-1,-1,-1,-1,-1,-1,-1,-1,-1,-1,-1,-1,-1,-1],"split_conditions":[2.1908227E-1,4.9770665E-1,-6.537663E-1,-1.1928663E0,5.5222166E-1,-1.5392702E0,3.9303842E-1,5.9569037E-1,-2.3857336E-1,2.8429154E-1,-1.01590134E-1,1.327545E-2,-9.4782233E-1,-7.1588314E-1,-1.209963E0,-1.01590134E-1,9.174751E-3,8.3134955E-1,1.5399685E0,9.75252E-1,-1.0824759E0,5.8386487E-1,7.387565E-1,-5.4832953E-1,-1.0641062E0,9.78563E-1,-1.181944E0,2.8407572E-2,8.329597E-2,3.247221E-2,1.1397758E-2,2.1810818E-2,-3.6147921E-3,1.0862405E-2,-1.6389135E-2,4.2609107E-3,1.4803328E-2,5.346564E-3,-2.8101478E-3,-1.3474688E-2,-1.0216291E-4,-1.1117793E-2,1.3310363E-2,1.1379862E-2,-1.6137224E-2,1.3154406E-2,-1.1093876E-2,5.5126445E-3,-1.8016275E-2,2.3276673E-3,-1.2142548E-2,4.6008998E-3,-1.044816E-2],"split_indices":[40,43,2,42,22,28,16,29,32,17,21,0,1,49,33,21,0,12,25,23,51,32,42,6,42,29,16,0,32,0,0,0,0,0,0,0,0,0,0,0,0,0,0,0,0,0,0,0,0,0,0,0,0],"split_type":[0,0,0,0,0,0,0,0,0,0,0,0,0,0,0,0,0,0,0,0,0,0,0,0,0,0,0,0,0,0,0,0,0,0,0,0,0,0,0,0,0,0,0,0,0,0,0,0,0,0,0,0,0],"sum_hessian":[1.2493182E3,7.460871E2,5.032311E2,1.9305608E2,5.53031E2,3.2505295E2,1.7817815E2,4.9786613E1,1.4326945E2,5.0324658E2,4.978443E1,3.8266904E0,3.2122626E2,1.2617709E2,5.200105E1,4.376284E1,6.0237713E0,6.382619E1,7.944327E1,2.8998706E2,2.1325952E2,3.916436E1,1.062007E1,1.345087E2,1.8671758E2,3.0854189E1,9.532291E1,4.188317E0,4.7812733E1,3.9080475E1,4.682364E0,5.5706257E1,8.119935E0,7.632217E1,3.1211011E0,2.5954205E2,3.0444994E1,6.048877E1,1.5277077E2,3.2004723E1,7.1596394E0,4.2284975E0,6.3915734E0,3.2621682E0,1.3124652E2,4.8251376E0,1.8189243E2,2.4241354E1,6.612836E0,1.2479034E1,8.284387E1,2.7334679E1,2.0478056E1],"tree_param":{"num_deleted":"0","num_feature":"54","num_nodes":"53","size_leaf_vector":"1"}},{"base_weights":[1.6044448E-3,3.7803835E-1,-1.381007E-1,-1.2871687E-1,4.1776E-1,-3.0179033E-1,-3.6548395E-2,-4.9992043E-1,1.759843E-1,5.866985E-1,3.380061E-1,-5.641683E-1,-2.3565356E-1,-1.24637276E-1,2.9341869E-2,9.6423144E-5,-2.1702094E-2,5.0127417E-1,-2.198057E-1,-4.641423E-3,6.1585367E-1,4.0875614E-1,1.963986E-1,-6.137837E-1,6.6312E-3,-1.9883399E-1,-4.9146715E-1,-1.644323E-1,1.4480932E-1,-2.639421E-1,6.43092E-2,2.5606342E-2,-1.7272641E-3,-2.2048803E-2,9.690841E-3,1.9528804E-2,-0E0,-6.511676E-3,1.3030784E-2,8.11624E-3,-8.163247E-3,-1.9614793E-2,-1.6140143E-3,-7.0106704E-3,2.0834897E-3,1.1102207E-3,-1.790858E-2,-3.1040781E-3,-1.0830152E-2,-6.8895947E-3,1.9247027E-2,9.963773E-3,-1.2117954E-2,-1.761158E-2,2.526994E-3],"categories":[],"categories_nodes":[],"categories_segments":[],"categories_sizes":[],"default_left":[0,0,0,0,0,0,0,0,0,0,0,0,0,0,0,0,0,0,0,0,0,0,0,0,0,0,0,0,0,0,0,0,0,0,0,0,0,0,0,0,0,0,0,0,0,0,0,0,0,0,0,0,0,0,0],"id":24,"left_children":[1,3,5,7,9,11,13,15,17,19,21,23,25,27,29,-1,-1,31,33,-1,35,37,39,41,-1,43,45,47,49,51,53,-1,-1,-1,-1,-1,-1,-1,-1,-1,-1,-1,-1,-1,-1,-1,-1,-1,-1,-1,-1,-1,-1,-1,-1],"loss_changes":[7.570085E1,7.9268646E0,1.7398016E1,3.3899314E0,4.583744E0,6.7496223E0,3.7806E0,1.5855322E0,2.2584324E0,2.611267E0,2.3491096E0,3.282074E0,2.8706665E0,3.0130353E0,3.8067749E0,0E0,0E0,1.9954543E0,2.51159E0,0E0,2.3649063E0,2.7490406E0,3.0328417E0,1.5847626E0,0E0,2.6876526E0,2.283061E0,2.8346372E0,6.8962154E0,3.434401E0,4.321068E0,0E0,0E0,0E0,0E0,0E0,0E0,0E0,0E0,0E0,0E0,0E0,0E0,0E0,0E0,0E0,0E0,0E0,0E0,0E0,0E0,0E0,0E0,0E0,0E0],"parents":[2147483647,0,0,1,1,2,2,3,3,4,4,5,5,6,6,7,7,8,8,9,9,10,10,11,11,12,12,13,13,14,14,17,17,18,18,20,20,21,21,22,22,23,23,25,25,26,26,27,27,28,28,29,29,30,30],"right_children":[2,4,6,8,10,12,14,16,18,20,22,24,26,28,30,-1,-1,32,34,-1,36,38,40,42,-1,44,46,48,50,52,54,-1,-1,-1,-1,-1,-1,-1,-1,-1,-1,-1,-1,-1,-1,-1,-1,-1,-1,-1,-1,-1,-1,-1,-1],"split_conditions":[-6.3635415E-1,-5.201138E-1,-4.6224698E-1,3.5015696E-3,-1.2445171E0,-1.7672688E0,-2.8033933E-1,-1.2505542E0,5.7140064E-1,-2.9767925E-1,6.710187E-1,6.126203E-1,7.392676E-1,4.163525E-1,-1.0789082E0,9.6423144E-5,-2.1702094E-2,2.402095E-1,7.701752E-1,-4.641423E-3,3.112992E0,-8.9640695E-1,1.0579627E0,1.5222557E0,6.6312E-3,1.4499903E0,-5.369539E-1,1.8988253E-1,-4.8789885E-2,-9.130924E-1,-1.5702971E0,2.5606342E-2,-1.7272641E-3,-2.2048803E-2,9.690841E-3,1.9528804E-2,-0E0,-6.511676E-3,1.3030784E-2,8.11624E-3,-8.163247E-3,-1.9614793E-2,-1.6140143E-3,-7.0106704E-3,2.0834897E-3,1.1102207E-3,-1.790858E-2,-3.1040781E-3,-1.0830152E-2,-6.8895947E-3,1.9247027E-2,9.963773E-3,-1.2117954E-2,-1.761158E-2,2.526994E-3],"split_indices":[2,26,40,53,2,40,13,4,6,29,17,3,29,30,52,0,0,33,7,0,3,44,24,33,0,4,49,52,40,4,46,0,0,0,0,0,0,0,0,0,0,0,0,0,0,0,0,0,0,0,0,0,0,0,0],"split_type":[0,0,0,0,0,0,0,0,0,0,0,0,0,0,0,0,0,0,0,0,0,0,0,0,0,0,0,0,0,0,0,0,0,0,0,0,0,0,0,0,0,0,0,0,0,0,0,0,0,0,0,0,0,0,0],"sum_hessian":[1.4370111E3,3.8869275E2,1.0483184E3,2.7906998E1,3.6078577E2,4.0023428E2,6.4808405E2,1.2439734E1,1.5467263E1,1.1326094E2,2.4752483E2,7.875496E1,3.214793E2,2.77594E2,3.7049008E2,3.991557E0,8.448178E0,8.482144E0,6.985119E0,3.9926226E0,1.0926832E2,1.6332938E2,8.419544E1,7.4399506E1,4.3554554E0,2.8292563E2,3.855368E1,2.4253452E2,3.505947E1,3.846466E1,3.3202542E2,4.988967E0,3.4931777E0,3.4968557E0,3.4882634E0,1.0327633E2,5.991985E0,5.972114E0,1.5735727E2,7.324083E1,1.0954614E1,6.91114E1,5.288111E0,2.508387E2,3.2086933E1,6.36528E0,3.21884E1,1.8667589E2,5.585863E1,2.018224E1,1.487723E1,6.918643E0,3.1546019E1,8.86079E0,3.2316464E2],"tree_param":{"num_deleted":"0","num_feature":"54","num_nodes":"55","size_leaf_vector":"1"}},{"base_weights":[2.2886803E-3,4.46789E-2,-2.9884732E-1,4.3107823E-1,2.8947588E-2,3.7815678E-1,-3.4181258E-1,-2.4457743E-2,7.204772E-1,8.070964E-2,-9.127007E-2,-7.931459E-3,2.813715E-2,7.6250755E-3,-3.7569568E-1,4.0907633E-1,-1.3590302E-2,-7.072885E-3,8.871066E-1,5.981791E-2,4.208007E-1,-1.1002325E-1,2.16594E-2,-4.023001E-1,1.2478736E-2,-1.4671877E-2,3.5999365E-2,-0E0,3.1599917E-2,1.4788599E-3,1.725253E-2,-6.537478E-3,1.9906783E-2,1.1958626E-2,-3.998585E-3,-1.8373631E-2,-1.0184954E-2],"categories":[],"categories_nodes":[],"categories_segments":[],"categories_sizes":[],"default_left":[0,0,0,0,0,0,0,0,0,0,0,0,0,0,0,0,0,0,0,0,0,0,0,0,0,0,0,0,0,0,0,0,0,0,0,0,0],"id":25,"left_children":[1,3,5,7,9,11,13,15,17,19,21,-1,-1,-1,23,25,-1,-1,27,29,31,33,-1,35,-1,-1,-1,-1,-1,-1,-1,-1,-1,-1,-1,-1,-1],"loss_changes":[1.3741425E1,5.6895914E0,3.988161E0,4.9217887E0,5.6687107E0,3.28621E0,2.6425447E0,2.9913967E0,3.8741293E0,4.454077E0,4.19343E0,0E0,0E0,0E0,2.6794262E0,6.273737E0,0E0,0E0,2.9271612E0,3.1719038E0,5.8384843E0,3.2046065E0,0E0,1.2290268E0,0E0,0E0,0E0,0E0,0E0,0E0,0E0,0E0,0E0,0E0,0E0,0E0,0E0],"parents":[2147483647,0,0,1,1,2,2,3,3,4,4,5,5,6,6,7,7,8,8,9,9,10,10,14,14,15,15,18,18,19,19,20,20,21,21,23,23],"right_children":[2,4,6,8,10,12,14,16,18,20,22,-1,-1,-1,24,26,-1,-1,28,30,32,34,-1,36,-1,-1,-1,-1,-1,-1,-1,-1,-1,-1,-1,-1,-1],"split_conditions":[1.2747344E0,-1.5994567E0,-1.5848768E0,-1.5543382E-1,3.0181708E-2,1.7996432E0,-2.379083E0,4.8062554E-1,-1.7567595E0,1.3881849E0,1.3167018E0,-7.931459E-3,2.813715E-2,7.6250755E-3,3.112992E0,-3.009519E-1,-1.3590302E-2,-7.072885E-3,-3.6625364E-1,-1.1715747E-3,-1.6476099E-1,-1.5855975E0,2.16594E-2,-7.1096236E-1,1.2478736E-2,-1.4671877E-2,3.5999365E-2,-0E0,3.1599917E-2,1.4788599E-3,1.725253E-2,-6.537478E-3,1.9906783E-2,1.1958626E-2,-3.998585E-3,-1.8373631E-2,-1.0184954E-2],"split_indices":[41,47,15,32,41,46,46,5,53,52,0,0,0,0,3,3,0,0,20,41,24,32,0,46,0,0,0,0,0,0,0,0,0,0,0,0,0],"split_type":[0,0,0,0,0,0,0,0,0,0,0,0,0,0,0,0,0,0,0,0,0,0,0,0,0,0,0,0,0,0,0,0,0,0,0,0,0],"sum_hessian":[1.0764188E3,9.446292E2,1.3178957E2,3.5672268E1,9.08957E2,7.2602835E0,1.2452929E2,1.4079697E1,2.159257E1,6.361924E2,2.7276456E2,3.5426624E0,3.7176208E0,6.19046E0,1.1833883E2,6.9057612E0,7.173936E0,3.053626E0,1.8538944E1,6.007579E2,3.543452E1,2.675819E2,5.1826434E0,1.1508927E2,3.2495608E0,3.3531587E0,3.5526028E0,3.0419574E0,1.5496986E1,5.899989E2,1.0758992E1,9.673423E0,2.5761099E1,1.0808998E1,2.5677292E2,2.4099646E1,9.0989624E1],"tree_param":{"num_deleted":"0","num_feature":"54","num_nodes":"37","size_leaf_vector":"1"}},{"base_weights":[6.72986E-3,-1.1685386E-1,4.977774E-1,-3.796126E-1,5.327461E-3,7.616277E-1,3.3839774E-1,3.3265486E-1,-4.026043E-1,-3.2049708E-2,2.1239883E-1,8.159358E-1,-6.926424E-3,3.6679333E-1,-1.731358E-2,-3.064696E-3,2.5630133E-2,-2.77222E-2,-4.1992295E-1,-1.399836E-1,4.87945E-2,-3.9538722E-2,4.0226272E-1,8.5533965E-1,1.9197582E-3,5.4333335E-1,1.761337E-1,-1.6619483E-2,8.177266E-3,4.061899E-3,-1.2814356E-2,-1.4302767E-3,-1.53837325E-2,9.6197124E-4,2.3708278E-2,-8.003029E-3,1.5108545E-2,-1.6276632E-2,1.4168642E-2,8.762899E-3,2.751527E-2,1.87218E-2,-5.369363E-3,1.3893876E-3,2.4218077E-2],"categories":[],"categories_nodes":[],"categories_segments":[],"categories_sizes":[],"default_left":[0,0,0,0,0,0,0,0,0,0,0,0,0,0,0,0,0,0,0,0,0,0,0,0,0,0,0,0,0,0,0,0,0,0,0,0,0,0,0,0,0,0,0,0,0],"id":26,"left_children":[1,3,5,7,9,11,13,15,17,19,21,23,-1,25,-1,-1,-1,27,29,31,33,35,37,39,-1,41,43,-1,-1,-1,-1,-1,-1,-1,-1,-1,-1,-1,-1,-1,-1,-1,-1,-1,-1],"loss_changes":[7.461685E1,3.1556736E1,1.0030235E1,5.2482567E0,5.216999E0,5.2100143E0,4.2509212E0,2.468018E0,1.9089203E0,4.97858E0,4.984561E0,2.4493866E0,0E0,4.955374E0,0E0,0E0,0E0,2.5010872E0,1.2461662E0,8.328196E0,3.9284992E0,5.6643267E0,4.1604767E0,2.503601E0,0E0,4.720455E0,6.016392E0,0E0,0E0,0E0,0E0,0E0,0E0,0E0,0E0,0E0,0E0,0E0,0E0,0E0,0E0,0E0,0E0,0E0,0E0],"parents":[2147483647,0,0,1,1,2,2,3,3,4,4,5,5,6,6,7,7,8,8,9,9,10,10,11,11,13,13,17,17,18,18,19,19,20,20,21,21,22,22,23,23,25,25,26,26],"right_children":[2,4,6,8,10,12,14,16,18,20,22,24,-1,26,-1,-1,-1,28,30,32,34,36,38,40,-1,42,44,-1,-1,-1,-1,-1,-1,-1,-1,-1,-1,-1,-1,-1,-1,-1,-1,-1,-1],"split_conditions":[7.559916E-1,-6.451594E-1,-1.5316793E0,-1.6243581E-1,8.0407315E-1,-3.2749232E-3,2.713095E0,5.737699E-1,-7.7870166E-1,7.0638764E-1,-8.037619E-2,6.126203E-1,-6.926424E-3,-1.7210916E-1,-1.731358E-2,-3.064696E-3,2.5630133E-2,-7.455943E-1,-8.9640695E-1,1.9746606E-1,6.524547E-1,6.844713E-1,-1.2985383E0,-1.4441137E0,1.9197582E-3,8.104562E-1,9.6024734E-1,-1.6619483E-2,8.177266E-3,4.061899E-3,-1.2814356E-2,-1.4302767E-3,-1.53837325E-2,9.6197124E-4,2.3708278E-2,-8.003029E-3,1.5108545E-2,-1.6276632E-2,1.4168642E-2,8.762899E-3,2.751527E-2,1.87218E-2,-5.369363E-3,1.3893876E-3,2.4218077E-2],"split_indices":[2,2,0,5,27,46,8,30,26,42,26,3,0,12,0,0,0,47,44,27,5,25,3,6,0,32,14,0,0,0,0,0,0,0,0,0,0,0,0,0,0,0,0,0,0],"split_type":[0,0,0,0,0,0,0,0,0,0,0,0,0,0,0,0,0,0,0,0,0,0,0,0,0,0,0,0,0,0,0,0,0,0,0,0,0,0,0,0,0,0,0,0,0],"sum_hessian":[1.2269806E3,9.807181E2,2.4626251E2,3.1087436E2,6.6984375E2,9.107812E1,1.5518439E2,9.163939E0,3.0171042E2,5.677288E2,1.02114914E2,8.6617256E1,4.460865E0,1.5120326E2,3.9811194E0,5.332177E0,3.8317623E0,1.3692607E1,2.8801782E2,2.4334628E2,3.2438254E2,4.3997726E1,5.8117184E1,8.2047264E1,4.5699883E0,7.72759E1,7.392737E1,4.7887416E0,8.903865E0,3.292151E0,2.8472568E2,1.9617032E2,4.7175957E1,3.1837762E2,6.004905E0,3.1508963E1,1.2488765E1,3.4460022E0,5.467118E1,8.842741E0,7.320452E1,6.975451E1,7.5213985E0,6.2336872E1,1.1590493E1],"tree_param":{"num_deleted":"0","num_feature":"54","num_nodes":"45","size_leaf_vector":"1"}},{"base_weights":[-6.279172E-3,-2.112341E-1,2.7362156E-1,-4.4324532E-1,-1.2272183E-1,1.870346E-1,5.377132E-1,1.7357337E-1,-4.6739015E-1,-1.9261806E-1,-3.3422653E-2,-1.6193895E-2,2.3167594E-1,5.6787753E-1,-6.250628E-3,-9.694073E-3,2.1116214E-2,-4.9343303E-1,-6.74836E-2,-1.2624586E-1,-3.5433808E-1,6.3213253E-1,-5.489204E-2,4.7958678E-1,-1.13868885E-1,3.1891268E-1,6.6906825E-2,1.9928299E-1,6.15577E-1,-2.245981E-3,-1.5707687E-2,9.268442E-3,-1.7390156E-2,-6.0773185E-3,1.7772587E-3,1.0010859E-2,-1.1964972E-2,2.652323E-2,5.6186826E-3,-7.4550426E-3,6.124271E-4,-7.5230785E-3,2.2670398E-2,-6.1859833E-3,1.4109386E-2,1.2831796E-2,4.866049E-3,-1.0976041E-4,1.0991089E-2,-1.1816014E-3,2.3622597E-2,1.3952447E-3,1.9485729E-2],"categories":[],"categories_nodes":[],"categories_segments":[],"categories_sizes":[],"default_left":[0,0,0,0,0,0,0,0,0,0,0,0,0,0,0,0,0,0,0,0,0,0,0,0,0,0,0,0,0,0,0,0,0,0,0,0,0,0,0,0,0,0,0,0,0,0,0,0,0,0,0,0,0],"id":27,"left_children":[1,3,5,7,9,11,13,15,17,19,21,23,25,27,-1,-1,-1,29,31,33,35,37,39,41,43,45,47,49,51,-1,-1,-1,-1,-1,-1,-1,-1,-1,-1,-1,-1,-1,-1,-1,-1,-1,-1,-1,-1,-1,-1,-1,-1],"loss_changes":[8.3767136E1,1.7204906E1,1.3937977E1,3.5679893E0,3.7911673E0,4.2579727E0,3.5648346E0,2.7200258E0,2.241806E0,3.5833435E0,3.8430784E0,4.112684E0,5.4451256E0,2.3637962E0,0E0,0E0,0E0,2.5486298E0,3.1134026E0,3.4925978E0,3.160161E0,6.676407E-1,3.8649657E0,3.0509694E0,3.9333591E0,4.1304035E0,2.8743634E0,2.696271E0,2.3845901E0,0E0,0E0,0E0,0E0,0E0,0E0,0E0,0E0,0E0,0E0,0E0,0E0,0E0,0E0,0E0,0E0,0E0,0E0,0E0,0E0,0E0,0E0,0E0,0E0],"parents":[2147483647,0,0,1,1,2,2,3,3,4,4,5,5,6,6,7,7,8,8,9,9,10,10,11,11,12,12,13,13,17,17,18,18,19,19,20,20,21,21,22,22,23,23,24,24,25,25,26,26,27,27,28,28],"right_children":[2,4,6,8,10,12,14,16,18,20,22,24,26,28,-1,-1,-1,30,32,34,36,38,40,42,44,46,48,50,52,-1,-1,-1,-1,-1,-1,-1,-1,-1,-1,-1,-1,-1,-1,-1,-1,-1,-1,-1,-1,-1,-1,-1,-1],"split_conditions":[2.1908227E-1,4.321165E-1,1.2809491E0,-1.7837919E0,-1.7210916E-1,-6.330679E-1,3.112992E0,1.4814409E0,1.4047543E0,1.1240698E0,-1.2360908E0,-1.1755677E0,6.710187E-1,-3.0025652E-1,-6.250628E-3,-9.694073E-3,2.1116214E-2,-1.3788611E0,-1.1230377E0,2.4624811E-1,-1.469199E0,4.3553537E-1,-5.511541E-1,-9.974469E-1,5.052483E-1,-6.451594E-1,-5.5899777E-2,1.8628364E0,2.770616E-1,-2.245981E-3,-1.5707687E-2,9.268442E-3,-1.7390156E-2,-6.0773185E-3,1.7772587E-3,1.0010859E-2,-1.1964972E-2,2.652323E-2,5.6186826E-3,-7.4550426E-3,6.124271E-4,-7.5230785E-3,2.2670398E-2,-6.1859833E-3,1.4109386E-2,1.2831796E-2,4.866049E-3,-1.0976041E-4,1.0991089E-2,-1.1816014E-3,2.3622597E-2,1.3952447E-3,1.9485729E-2],"split_indices":[40,42,40,52,12,3,3,16,12,8,3,12,17,21,0,0,0,3,0,4,46,24,0,27,43,2,30,31,31,0,0,0,0,0,0,0,0,0,0,0,0,0,0,0,0,0,0,0,0,0,0,0,0],"split_type":[0,0,0,0,0,0,0,0,0,0,0,0,0,0,0,0,0,0,0,0,0,0,0,0,0,0,0,0,0,0,0,0,0,0,0,0,0,0,0,0,0,0,0,0,0,0,0,0,0,0,0,0,0],"sum_hessian":[1.4582977E3,8.422038E2,6.1609393E2,2.3115506E2,6.1104877E2,4.655442E2,1.5054973E2,8.318366E0,2.228367E2,3.4148492E2,2.6956384E2,8.3555786E1,3.819884E2,1.4505777E2,5.491958E0,4.399567E0,3.9187987E0,2.0875795E2,1.4078749E1,2.4381767E2,9.7667244E1,7.389412E0,2.621744E2,1.2940139E1,7.061565E1,2.4874716E2,1.3324124E2,1.7454405E1,1.2760337E2,1.4486515E1,1.9427142E2,8.230977E0,5.8477716E0,1.7305113E2,7.076653E1,5.401078E0,9.226617E1,3.9434443E0,3.4459674E0,7.314629E1,1.8902812E2,3.4755921E0,9.464547E0,6.1684544E1,8.931102E0,1.4541165E2,1.033355E2,1.083609E2,2.4880344E1,1.295869E1,4.4957156E0,7.482796E0,1.20120575E2],"tree_param":{"num_deleted":"0","num_feature":"54","num_nodes":"53","size_leaf_vector":"1"}},{"base_weights":[-1.5499777E-2,-2.0038687E-1,5.17489E-2,1.4277789E-2,-2.1181525E-1,5.3715223E-1,3.496716E-2,-1.4338359E-1,-3.304608E-1,2.008363E-1,1.0166715E0,9.991563E-3,2.8587377E-1,4.5779467E-1,-2.071591E-1,-3.581576E-1,7.924401E-3,-1.3571097E-1,2.1515675E-2,1.1677536E-2,4.1121237E-2,-1.1343421E-1,5.830725E-2,2.9850189E-2,2.086315E-1,2.741148E-2,-1.0861055E-3,2.9268418E-3,-7.6703182E-3,-1.668562E-2,-8.1478525E-3,-1.6518123E-2,1.1979567E-2,-1.1137292E-2,-1.9364243E-3,1.5883414E-4,5.5489E-3,-1.5600904E-2,8.112659E-3],"categories":[],"categories_nodes":[],"categories_segments":[],"categories_sizes":[],"default_left":[0,0,0,0,0,0,0,0,0,0,0,0,0,0,0,0,0,0,0,0,0,0,0,0,0,0,0,0,0,0,0,0,0,0,0,0,0,0,0],"id":28,"left_children":[1,3,5,-1,7,9,11,13,15,17,19,21,23,25,27,29,-1,31,-1,-1,-1,33,35,-1,37,-1,-1,-1,-1,-1,-1,-1,-1,-1,-1,-1,-1,-1,-1],"loss_changes":[1.3353556E1,2.2889214E0,6.330448E0,0E0,2.199625E0,3.8691425E0,4.739205E0,7.029419E0,1.7849588E0,3.050281E0,1.5905228E0,4.139183E0,3.4260607E0,4.078224E0,2.479476E0,1.4479885E0,0E0,2.6342926E0,0E0,0E0,0E0,2.389805E0,3.3367784E0,0E0,2.9610112E0,0E0,0E0,0E0,0E0,0E0,0E0,0E0,0E0,0E0,0E0,0E0,0E0,0E0,0E0],"parents":[2147483647,0,0,1,1,2,2,4,4,5,5,6,6,7,7,8,8,9,9,10,10,11,11,12,12,13,13,14,14,15,15,17,17,21,21,22,22,24,24],"right_children":[2,4,6,-1,8,10,12,14,16,18,20,22,24,26,28,30,-1,32,-1,-1,-1,34,36,-1,38,-1,-1,-1,-1,-1,-1,-1,-1,-1,-1,-1,-1,-1,-1],"split_conditions":[-2.8171977E-1,-1.5788026E0,-1.5994567E0,1.4277789E-2,-8.672689E-1,7.566349E-1,7.5684637E-1,-2.1791407E-1,1.4926151E0,4.4839722E-1,-1.0004044E0,-6.767879E-1,-1.5678984E0,-1.7210916E-1,-3.000263E-1,3.3085927E-1,7.924401E-3,2.2477348E-1,2.1515675E-2,1.1677536E-2,4.1121237E-2,-8.962416E-1,8.0626464E-1,2.9850189E-2,-1.2954708E0,2.741148E-2,-1.0861055E-3,2.9268418E-3,-7.6703182E-3,-1.668562E-2,-8.1478525E-3,-1.6518123E-2,1.1979567E-2,-1.1137292E-2,-1.9364243E-3,1.5883414E-4,5.5489E-3,-1.5600904E-2,8.112659E-3],"split_indices":[1,3,47,0,2,28,43,29,49,0,30,4,26,12,20,52,0,49,0,0,0,26,8,0,51,0,0,0,0,0,0,0,0,0,0,0,0,0,0],"split_type":[0,0,0,0,0,0,0,0,0,0,0,0,0,0,0,0,0,0,0,0,0,0,0,0,0,0,0,0,0,0,0,0,0,0,0,0,0,0,0],"sum_hessian":[1.0709762E3,2.855152E2,7.85461E2,3.9236841E0,2.8159152E2,2.5012756E1,7.6044824E2,1.805223E2,1.0106923E2,1.5658132E1,9.354624E0,6.929131E2,6.7535164E1,1.6570896E1,1.6395139E2,9.71116E1,3.9576256E0,9.808608E0,5.8495235E0,4.2336707E0,5.1209536E0,1.9397443E2,4.9893863E2,5.3394456E0,6.2195717E1,8.280991E0,8.289906E0,2.2097183E1,1.418542E2,2.7536243E1,6.9575356E1,5.6134276E0,4.1951804E0,2.954206E1,1.6443236E2,3.5301367E2,1.4592496E2,4.1556745E0,5.8040043E1],"tree_param":{"num_deleted":"0","num_feature":"54","num_nodes":"39","size_leaf_vector":"1"}},{"base_weights":[4.3615434E-4,2.2680768E-1,-2.5683895E-1,5.9035575E-1,9.953773E-2,-1.2644775E-1,-4.1984957E-1,6.647271E-1,1.9678617E-1,5.7106145E-2,3.3246493E-1,-6.290356E-2,-3.7391162E-1,9.0799E-3,-4.3725407E-1,4.098378E-1,7.588119E-1,-4.8288092E-2,5.5709684E-1,3.3451802E-1,1.3549717E-2,3.6335997E-2,4.7517052E-1,-3.5310355E-1,-7.877645E-3,1.03614265E-2,-4.1992134E-1,-4.49276E-1,6.590558E-3,2.021928E-2,3.6508176E-3,2.3815745E-2,-4.190146E-3,1.5160485E-2,-7.851137E-3,-1.9508919E-3,2.890512E-2,3.3563744E-2,5.9726173E-3,3.5651838E-3,-6.9952277E-3,-9.958833E-3,7.4680625E-3,3.2520305E-2,1.0715873E-2,4.2935573E-3,-1.6560491E-2,-1.5197211E-3,1.1538331E-2,-1.5187385E-2,-2.5764022E-3,-1.3828537E-2,2.8702803E-3],"categories":[],"categories_nodes":[],"categories_segments":[],"categories_sizes":[],"default_left":[0,0,0,0,0,0,0,0,0,0,0,0,0,0,0,0,0,0,0,0,0,0,0,0,0,0,0,0,0,0,0,0,0,0,0,0,0,0,0,0,0,0,0,0,0,0,0,0,0,0,0,0,0],"id":29,"left_children":[1,3,5,7,9,11,13,15,17,19,21,23,25,-1,27,29,31,33,35,37,39,41,43,45,47,-1,49,51,-1,-1,-1,-1,-1,-1,-1,-1,-1,-1,-1,-1,-1,-1,-1,-1,-1,-1,-1,-1,-1,-1,-1,-1,-1],"loss_changes":[7.1965904E1,3.0296402E1,1.2181618E1,4.7618713E0,4.7696886E0,5.011982E0,3.367237E0,2.9877777E0,2.6092904E0,4.9721956E0,3.088274E0,4.089488E0,2.3192167E0,0E0,2.101593E0,2.9483032E0,3.4060478E0,2.213162E0,3.1487784E0,5.586071E0,9.363678E0,2.0789618E0,3.0669765E0,4.1564465E0,3.6571174E0,0E0,1.6885204E0,1.6500549E0,0E0,0E0,0E0,0E0,0E0,0E0,0E0,0E0,0E0,0E0,0E0,0E0,0E0,0E0,0E0,0E0,0E0,0E0,0E0,0E0,0E0,0E0,0E0,0E0,0E0],"parents":[2147483647,0,0,1,1,2,2,3,3,4,4,5,5,6,6,7,7,8,8,9,9,10,10,11,11,12,12,14,14,15,15,16,16,17,17,18,18,19,19,20,20,21,21,22,22,23,23,24,24,26,26,27,27],"right_children":[2,4,6,8,10,12,14,16,18,20,22,24,26,-1,28,30,32,34,36,38,40,42,44,46,48,-1,50,52,-1,-1,-1,-1,-1,-1,-1,-1,-1,-1,-1,-1,-1,-1,-1,-1,-1,-1,-1,-1,-1,-1,-1,-1,-1],"split_conditions":[5.258588E-2,1.6340996E-1,7.6858455E-1,6.000745E-1,5.24923E-1,4.9835086E-1,-8.9640695E-1,3.8370767E-1,-2.6873857E-1,-1.0824759E0,-3.7073463E-1,-8.888653E-1,-1.1881874E0,9.0799E-3,3.1774209E0,-3.6057022E-1,2.0855978E0,-7.1096236E-1,6.680951E-2,-3.0025652E-1,2.8429154E-1,-6.565963E-1,-2.4468027E-1,-9.358003E-1,7.452522E-1,1.03614265E-2,7.096219E-1,2.5962808E0,6.590558E-3,2.021928E-2,3.6508176E-3,2.3815745E-2,-4.190146E-3,1.5160485E-2,-7.851137E-3,-1.9508919E-3,2.890512E-2,3.3563744E-2,5.9726173E-3,3.5651838E-3,-6.9952277E-3,-9.958833E-3,7.4680625E-3,3.2520305E-2,1.0715873E-2,4.2935573E-3,-1.6560491E-2,-1.5197211E-3,1.1538331E-2,-1.5187385E-2,-2.5764022E-3,-1.3828537E-2,2.8702803E-3],"split_indices":[40,1,40,14,26,9,44,47,42,51,30,12,3,0,51,3,33,46,12,21,17,53,9,29,1,0,33,33,0,0,0,0,0,0,0,0,0,0,0,0,0,0,0,