{"learner":{"attributes":{"best_iteration":"131","best_score":"0.9667401224565811","scikit_learn":"{\"_estimator_type\": \"classifier\"}"},"feature_names":[],"feature_types":[],"gradient_booster":{"model":{"cats":{"enc":[],"feature_segments":[],"sorted_idx":[]},"gbtree_model_param":{"num_parallel_tree":"1","num_trees":"546"},"iteration_indptr":[0,3,6,9,12,15,18,21,24,27,30,33,36,39,42,45,48,51,54,57,60,63,66,69,72,75,78,81,84,87,90,93,96,99,102,105,108,111,114,117,120,123,126,129,132,135,138,141,144,147,150,153,156,159,162,165,168,171,174,177,180,183,186,189,192,195,198,201,204,207,210,213,216,219,222,225,228,231,234,237,240,243,246,249,252,255,258,261,264,267,270,273,276,279,282,285,288,291,294,297,300,303,306,309,312,315,318,321,324,327,330,333,336,339,342,345,348,351,354,357,360,363,366,369,372,375,378,381,384,387,390,393,396,399,402,405,408,411,414,417,420,423,426,429,432,435,438,441,444,447,450,453,456,459,462,465,468,471,474,477,480,483,486,489,492,495,498,501,504,507,510,513,516,519,522,525,528,531,534,537,540,543,546],"tree_info":[0,1,2,0,1,2,0,1,2,0,1,2,0,1,2,0,1,2,0,1,2,0,1,2,0,1,2,0,1,2,0,1,2,0,1,2,0,1,2,0,1,2,0,1,2,0,1,2,0,1,2,0,1,2,0,1,2,0,1,2,0,1,2,0,1,2,0,1,2,0,1,2,0,1,2,0,1,2,0,1,2,0,1,2,0,1,2,0,1,2,0,1,2,0,1,2,0,1,2,0,1,2,0,1,2,0,1,2,0,1,2,0,1,2,0,1,2,0,1,2,0,1,2,0,1,2,0,1,2,0,1,2,0,1,2,0,1,2,0,1,2,0,1,2,0,1,2,0,1,2,0,1,2,0,1,2,0,1,2,0,1,2,0,1,2,0,1,2,0,1,2,0,1,2,0,1,2,0,1,2,0,1,2,0,1,2,0,1,2,0,1,2,0,1,2,0,1,2,0,1,2,0,1,2,0,1,2,0,1,2,0,1,2,0,1,2,0,1,2,0,1,2,0,1,2,0,1,2,0,1,2,0,1,2,0,1,2,0,1,2,0,1,2,0,1,2,0,1,2,0,1,2,0,1,2,0,1,2,0,1,2,0,1,2,0,1,2,0,1,2,0,1,2,0,1,2,0,1,2,0,1,2,0,1,2,0,1,2,0,1,2,0,1,2,0,1,2,0,1,2,0,1,2,0,1,2,0,1,2,0,1,2,0,1,2,0,1,2,0,1,2,0,1,2,0,1,2,0,1,2,0,1,2,0,1,2,0,1,2,0,1,2,0,1,2,0,1,2,0,1,2,0,1,2,0,1,2,0,1,2,0,1,2,0,1,2,0,1,2,0,1,2,0,1,2,0,1,2,0,1,2,0,1,2,0,1,2,0,1,2,0,1,2,0,1,2,0,1,2,0,1,2,0,1,2,0,1,2,0,1,2,0,1,2,0,1,2,0,1,2,0,1,2,0,1,2,0,1,2,0,1,2,0,1,2,0,1,2,0,1,2,0,1,2,0,1,2,0,1,2,0,1,2,0,1,2,0,1,2,0,1,2,0,1,2,0,1,2,0,1,2,0,1,2,0,1,2,0,1,2,0,1,2,0,1,2,0,1,2,0,1,2,0,1,2,0,1,2,0,1,2,0,1,2,0,1,2,0,1,2,0,1,2,0,1,2,0,1,2,0,1,2,0,1,2,0,1,2,0,1,2,0,1,2,0,1,2,0,1,2,0,1,2,0,1,2],"trees":[{"base_weights":[-2.5274942E-3,-3.487019E-1,1.8438601E-1,-4.7608244E-1,-2.1824215E-1,5.182255E-1,5.5590108E-2,-4.4318265E-1,-2.5991151E-2,3.477684E-1,-2.4165717E-1,3.6047047E-1,6.9538057E-1,-5.542801E-2,1.7429374E-1,-4.9187753E-1,-1.7060183E-1,-5.4695914E-3,2.2740792E-2,-3.8380423E-1,-1.4888321E-1,4.2243004E-1,-2.625942E-2,6.336327E-1,2.9715478E-2,-2.5323603E-2,-4.7350654E-1,-2.8324917E-1,1.9791168E-1,6.789174E-3,-1.5314955E-2,-8.5593965E-3,9.5480755E-3,-1.900887E-2,-7.929684E-3,-5.2834484E-3,1.6856745E-2,1.3546081E-2,-1.3993625E-2,-9.176635E-3,2.1890529E-2,1.4412052E-2,2.2692317E-2,-7.0716096E-3,7.7711383E-4,-1.8655093E-2,4.4137174E-3,2.138598E-3,-2.0357318E-2,9.769052E-3,3.2184098E-3],"categories":[],"categories_nodes":[],"categories_segments":[],"categories_sizes":[],"default_left":[0,0,0,0,0,0,0,0,0,0,0,0,0,0,0,0,0,0,0,0,0,0,0,0,0,0,0,0,0,0,0,0,0,0,0,0,0,0,0,0,0,0,0,0,0,0,0,0,0,0,0],"id":0,"left_children":[1,3,5,7,9,11,13,15,-1,17,19,21,23,25,27,29,31,-1,-1,33,35,37,39,41,-1,43,45,47,49,-1,-1,-1,-1,-1,-1,-1,-1,-1,-1,-1,-1,-1,-1,-1,-1,-1,-1,-1,-1,-1,-1],"loss_changes":[9.956574E1,8.794205E0,4.2863567E1,2.975132E0,3.6362123E0,7.406143E0,9.538154E0,3.2073708E0,0E0,2.5704608E0,3.3039236E0,3.6280823E0,1.5691872E0,4.6386943E0,3.826126E0,3.0027924E0,2.3408723E0,0E0,0E0,2.7630816E0,3.1324935E0,3.5455952E0,4.690663E0,1.5845528E0,0E0,3.7958474E0,2.4226155E0,2.5432413E0,3.779992E0,0E0,0E0,0E0,0E0,0E0,0E0,0E0,0E0,0E0,0E0,0E0,0E0,0E0,0E0,0E0,0E0,0E0,0E0,0E0,0E0,0E0,0E0],"parents":[2147483647,0,0,1,1,2,2,3,3,4,4,5,5,6,6,7,7,9,9,10,10,11,11,12,12,13,13,14,14,15,15,16,16,19,19,20,20,21,21,22,22,23,23,25,25,26,26,27,27,28,28],"right_children":[2,4,6,8,10,12,14,16,-1,18,20,22,24,26,28,30,32,-1,-1,34,36,38,40,42,-1,44,46,48,50,-1,-1,-1,-1,-1,-1,-1,-1,-1,-1,-1,-1,-1,-1,-1,-1,-1,-1,-1,-1,-1,-1],"split_conditions":[-3.2822543E-1,-9.2857975E-1,-5.209402E-1,1.6306813E0,-2.0606024E0,1.4505074E0,2.7825603E-1,1.6014553E0,-2.5991151E-2,-7.889599E-1,-1.6449252E-1,3.030794E-1,2.5495598E0,1.3296448E0,-1.472791E0,-1.484462E0,1.4606282E0,-5.4695914E-3,2.2740792E-2,-8.1919616E-1,1.7863921E0,1.6142181E0,6.740512E-1,1.5738903E0,2.9715478E-2,-1.0611506E0,-5.1683564E-2,6.081584E-1,3.8164955E-1,6.789174E-3,-1.5314955E-2,-8.5593965E-3,9.5480755E-3,-1.900887E-2,-7.929684E-3,-5.2834484E-3,1.6856745E-2,1.3546081E-2,-1.3993625E-2,-9.176635E-3,2.1890529E-2,1.4412052E-2,2.2692317E-2,-7.0716096E-3,7.7711383E-4,-1.8655093E-2,4.4137174E-3,2.138598E-3,-2.0357318E-2,9.769052E-3,3.2184098E-3],"split_indices":[40,40,1,31,12,40,28,24,0,28,25,16,31,30,14,8,8,0,0,31,33,23,27,5,0,31,20,44,6,0,0,0,0,0,0,0,0,0,0,0,0,0,0,0,0,0,0,0,0,0,0],"split_type":[0,0,0,0,0,0,0,0,0,0,0,0,0,0,0,0,0,0,0,0,0,0,0,0,0,0,0,0,0,0,0,0,0,0,0,0,0,0,0,0,0,0,0,0,0,0,0,0,0,0,0],"sum_hessian":[1.5365244E3,5.386267E2,9.978977E2,2.7080127E2,2.6782544E2,2.7675296E2,7.211448E2,2.519543E2,1.8846975E1,9.91946E0,2.5790598E2,1.4829593E2,1.2845702E2,3.7247574E2,3.4866904E2,2.1277243E2,3.918187E1,4.463757E0,5.4557033E0,1.00186554E2,1.5771942E2,1.2796104E2,2.0334894E1,1.0911407E2,1.9342947E1,3.4866904E2,2.3806705E1,1.636711E1,3.323019E2,4.95973E0,2.078127E2,3.2238247E1,6.943622E0,3.0750328E1,6.9436226E1,1.5275969E2,4.95973E0,1.2448923E2,3.471811E0,1.5375164E1,4.95973E0,5.108522E1,5.8028843E1,6.79483E1,2.8072073E2,1.9342947E1,4.463757E0,8.927514E0,7.439595E0,1.3639258E2,1.9590935E2],"tree_param":{"num_deleted":"0","num_feature":"54","num_nodes":"51","size_leaf_vector":"1"}},{"base_weights":[-4.1153478E-3,-2.34668E-1,7.588132E-2,-1.7162171E-1,-4.6219456E-1,1.5668493E-3,1.6651864E-1,-1.2679175E-1,-5.2950585E-1,-2.5318217E-1,-5.4603577E-1,1.12172976E-1,-9.264488E-2,3.9765652E-2,3.1419224E-1,-1.4903319E-1,5.3125066E-1,-1.4654038E-3,-5.9553915E-1,-1.5655236E-2,7.090665E-2,-5.8077234E-1,-5.3109345E-3,4.917465E-1,5.3274125E-2,-1.1455781E-1,5.4950225E-1,8.420951E-2,-3.3229533E-1,-1.57401E-1,3.736709E-1,-2.5919678E-3,-1.219622E-2,-0E0,2.8387917E-2,-1.902463E-2,-7.0922584E-3,-1.1289358E-2,1.7682191E-2,-1.8664684E-2,-8.510266E-3,-0E0,2.6887378E-2,7.821461E-3,-4.5711556E-4,-9.405524E-3,-9.3797216E-4,2.582774E-2,-0E0,1.2686247E-3,1.5839703E-2,-1.5322696E-2,4.6257284E-3,-1.6180439E-2,1.301546E-2,1.5662683E-2,5.9691244E-3],"categories":[],"categories_nodes":[],"categories_segments":[],"categories_sizes":[],"default_left":[0,0,0,0,0,0,0,0,0,0,0,0,0,0,0,0,0,0,0,0,0,0,0,0,0,0,0,0,0,0,0,0,0,0,0,0,0,0,0,0,0,0,0,0,0,0,0,0,0,0,0,0,0,0,0,0,0],"id":1,"left_children":[1,3,5,7,9,11,13,15,17,19,21,23,25,27,29,31,33,-1,35,-1,37,39,-1,41,43,45,47,49,51,53,55,-1,-1,-1,-1,-1,-1,-1,-1,-1,-1,-1,-1,-1,-1,-1,-1,-1,-1,-1,-1,-1,-1,-1,-1,-1,-1],"loss_changes":[2.182685E1,4.231695E0,5.894639E0,3.7293E0,9.2492485E-1,5.0545354E0,7.341914E0,3.194744E0,7.391095E-1,1.9001856E0,4.0269566E-1,4.9162664E0,3.6971889E0,3.5411017E0,5.1810093E0,3.2924256E0,1.6254666E0,0E0,7.910824E-2,0E0,2.6027052E0,2.3409271E-1,0E0,5.9117727E0,2.797587E0,4.1602592E0,1.53087E0,3.495675E0,2.093236E0,4.9600024E0,4.023407E0,0E0,0E0,0E0,0E0,0E0,0E0,0E0,0E0,0E0,0E0,0E0,0E0,0E0,0E0,0E0,0E0,0E0,0E0,0E0,0E0,0E0,0E0,0E0,0E0,0E0,0E0],"parents":[2147483647,0,0,1,1,2,2,3,3,4,4,5,5,6,6,7,7,8,8,9,9,10,10,11,11,12,12,13,13,14,14,15,15,16,16,18,18,20,20,21,21,23,23,24,24,25,25,26,26,27,27,28,28,29,29,30,30],"right_children":[2,4,6,8,10,12,14,16,18,20,22,24,26,28,30,32,34,-1,36,-1,38,40,-1,42,44,46,48,50,52,54,56,-1,-1,-1,-1,-1,-1,-1,-1,-1,-1,-1,-1,-1,-1,-1,-1,-1,-1,-1,-1,-1,-1,-1,-1,-1,-1],"split_conditions":[-2.3806053E-1,1.5470567E0,3.1889066E-2,1.039901E0,-3.4019938E-1,-1.4732605E-1,7.214488E-2,2.4352567E0,6.508209E-1,-7.2877896E-1,2.2807648E0,-1.1819209E0,5.764337E-2,8.0706006E-1,-6.2161475E-1,1.134429E0,-2.3964291E-2,-1.4654038E-3,1.4902936E0,-1.5655236E-2,-2.2228052E-1,2.612977E-1,-5.3109345E-3,-1.18416764E-1,-1.1433426E0,-9.3727005E-1,-2.0344312E-1,4.8459032E-1,1.6196443E-1,1.4193166E-2,4.469091E-1,-2.5919678E-3,-1.219622E-2,-0E0,2.8387917E-2,-1.902463E-2,-7.0922584E-3,-1.1289358E-2,1.7682191E-2,-1.8664684E-2,-8.510266E-3,-0E0,2.6887378E-2,7.821461E-3,-4.5711556E-4,-9.405524E-3,-9.3797216E-4,2.582774E-2,-0E0,1.2686247E-3,1.5839703E-2,-1.5322696E-2,4.6257284E-3,-1.6180439E-2,1.301546E-2,1.5662683E-2,5.9691244E-3],"split_indices":[43,31,29,8,33,53,32,17,41,33,5,31,48,31,24,11,27,0,7,0,8,32,0,49,44,3,12,31,17,2,32,0,0,0,0,0,0,0,0,0,0,0,0,0,0,0,0,0,0,0,0,0,0,0,0,0,0],"split_type":[0,0,0,0,0,0,0,0,0,0,0,0,0,0,0,0,0,0,0,0,0,0,0,0,0,0,0,0,0,0,0,0,0,0,0,0,0,0,0,0,0,0,0,0,0,0,0,0,0,0,0,0,0,0,0,0,0],"sum_hessian":[1.1806212E3,3.039488E2,8.766724E2,2.3971811E2,6.423069E1,4.8287714E2,3.937953E2,2.1448462E2,2.5233484E1,1.9880928E1,4.4349762E1,2.2251346E2,2.6036368E2,2.1295532E2,1.8083998E2,2.0836742E2,6.1172085E0,3.44093E0,2.1792555E1,1.0705114E1,9.175813E0,3.9761856E1,4.5879064E0,2.8674416E1,1.9383905E2,2.5271718E2,7.6465106E0,1.9116277E2,2.1792555E1,1.9880928E1,1.6095905E2,1.6898788E2,3.9379528E1,3.0586042E0,3.0586042E0,1.8733952E1,3.0586042E0,4.970232E0,4.2055807E0,3.3644646E1,6.1172085E0,1.3381393E1,1.5293021E1,4.779069E1,1.4604836E2,7.34065E1,1.7931067E2,4.5879064E0,3.0586042E0,1.7586975E2,1.5293021E1,1.6057673E1,5.734883E0,1.2234417E1,7.6465106E0,8.5640915E1,7.531813E1],"tree_param":{"num_deleted":"0","num_feature":"54","num_nodes":"57","size_leaf_vector":"1"}},{"base_weights":[-9.708002E-3,5.4358125E-1,-1.7865542E-1,1.0500653E0,4.3130887E-1,-3.752548E-1,-6.2334273E-2,1.2576374E0,4.4595852E-1,5.413152E-1,2.544027E-1,-3.120699E-1,-5.67964E-1,-2.4879403E-1,-2.16962E-2,1.4806214E-2,1.3204305E0,9.227021E-1,-9.874893E-2,-1.5919039E-2,5.724387E-1,1.521199E-1,9.807905E-1,-2.829308E-1,-1.9863212E-2,-6.111755E-1,-2.9046488E-1,-4.1613534E-1,-1.300789E-1,-4.0074732E-2,4.5880228E-1,4.113161E-2,1.824039E-2,3.5470452E-2,1.1226235E-2,-1.5427555E-2,8.405119E-3,2.6402943E-2,1.3916472E-2,-1.4896745E-2,6.7231953E-3,4.0262282E-2,9.470837E-3,-8.998292E-3,4.7235847E-3,-7.7625727E-3,-1.898752E-2,2.285993E-3,-1.5170973E-2,8.405119E-3,-1.4633028E-2,-6.2423297E-3,1.174554E-2,2.2813126E-3,-3.4206114E-3,2.1876968E-2,-6.8424162E-3],"categories":[],"categories_nodes":[],"categories_segments":[],"categories_sizes":[],"default_left":[0,0,0,0,0,0,0,0,0,0,0,0,0,0,0,0,0,0,0,0,0,0,0,0,0,0,0,0,0,0,0,0,0,0,0,0,0,0,0,0,0,0,0,0,0,0,0,0,0,0,0,0,0,0,0,0,0],"id":2,"left_children":[1,3,5,7,9,11,13,15,17,19,21,23,25,27,29,-1,31,33,35,-1,37,39,41,43,-1,45,47,49,51,53,55,-1,-1,-1,-1,-1,-1,-1,-1,-1,-1,-1,-1,-1,-1,-1,-1,-1,-1,-1,-1,-1,-1,-1,-1,-1,-1],"loss_changes":[1.1958431E2,1.6413452E1,2.2354046E1,5.969063E0,4.585247E0,4.1661377E0,4.6465597E0,1.042736E0,4.156353E0,5.343239E0,6.933482E0,2.5402699E0,7.9055405E-1,2.0757556E0,4.467317E0,0E0,2.4550629E-1,5.9439373E-1,1.4213188E0,0E0,4.3748856E0,4.109417E0,2.210022E0,1.9901218E0,0E0,3.2283783E-1,1.1948907E0,2.3934846E0,2.7536182E0,4.2277427E0,3.6741016E0,0E0,0E0,0E0,0E0,0E0,0E0,0E0,0E0,0E0,0E0,0E0,0E0,0E0,0E0,0E0,0E0,0E0,0E0,0E0,0E0,0E0,0E0,0E0,0E0,0E0,0E0],"parents":[2147483647,0,0,1,1,2,2,3,3,4,4,5,5,6,6,7,7,8,8,9,9,10,10,11,11,12,12,13,13,14,14,16,16,17,17,18,18,20,20,21,21,22,22,23,23,25,25,26,26,27,27,28,28,29,29,30,30],"right_children":[2,4,6,8,10,12,14,16,18,20,22,24,26,28,30,-1,32,34,36,-1,38,40,42,44,-1,46,48,50,52,54,56,-1,-1,-1,-1,-1,-1,-1,-1,-1,-1,-1,-1,-1,-1,-1,-1,-1,-1,-1,-1,-1,-1,-1,-1,-1,-1],"split_conditions":[-7.14378E-1,-5.0266445E-1,-6.2497765E-1,5.0716364E-1,2.6328474E-1,1.536332E0,-6.430077E-1,-3.0642587E-1,1.9894593E0,-8.1385165E-2,1.9055035E0,1.3064752E0,-1.211377E0,-8.159848E-1,7.7232313E-1,1.4806214E-2,1.5154668E0,-6.715972E-1,-1.715221E-1,-1.5919039E-2,-3.0642587E-1,-9.7468203E-1,-2.9003063E-1,2.1992447E0,-1.9863212E-2,-6.2161475E-1,1.7114646E0,-1.2904172E0,7.3751366E-1,-7.297721E-2,-3.32184E-1,4.113161E-2,1.824039E-2,3.5470452E-2,1.1226235E-2,-1.5427555E-2,8.405119E-3,2.6402943E-2,1.3916472E-2,-1.4896745E-2,6.7231953E-3,4.0262282E-2,9.470837E-3,-8.998292E-3,4.7235847E-3,-7.7625727E-3,-1.898752E-2,2.285993E-3,-1.5170973E-2,8.405119E-3,-1.4633028E-2,-6.2423297E-3,1.174554E-2,2.2813126E-3,-3.4206114E-3,2.1876968E-2,-6.8424162E-3],"split_indices":[0,42,2,49,27,5,8,8,4,48,47,52,42,31,43,0,33,26,14,0,8,17,32,28,0,24,5,17,43,32,29,0,0,0,0,0,0,0,0,0,0,0,0,0,0,0,0,0,0,0,0,0,0,0,0,0,0],"split_type":[0,0,0,0,0,0,0,0,0,0,0,0,0,0,0,0,0,0,0,0,0,0,0,0,0,0,0,0,0,0,0,0,0,0,0,0,0,0,0,0,0,0,0,0,0,0,0,0,0,0,0,0,0,0,0,0,0],"sum_hessian":[1.2776459E3,2.9821295E2,9.7943286E2,5.2433044E1,2.4577989E2,3.6293497E2,6.164979E2,3.8095882E1,1.433716E1,1.4992574E2,9.585416E1,2.756831E2,8.725186E1,1.0896242E2,5.075355E2,3.6866984E0,3.4409187E1,7.373397E0,6.9637637E0,3.6866984E0,1.4623904E2,8.52037E1,1.0650462E1,2.5643036E2,1.9252758E1,7.41436E1,1.3108261E1,4.383075E1,6.5131676E1,4.8992126E2,1.7614225E1,3.113212E1,3.2770653E0,4.0963316E0,3.2770653E0,3.2770653E0,3.6866984E0,3.6047718E1,1.1019132E2,7.78303E0,7.742067E1,6.1444974E0,4.5059648E0,2.4741843E2,9.0119295E0,5.325231E0,6.8818375E1,4.915598E0,8.192663E0,3.6866984E0,4.014405E1,5.734864E1,7.78303E0,1.900698E2,2.9985147E2,1.2698627E1,4.915598E0],"tree_param":{"num_deleted":"0","num_feature":"54","num_nodes":"57","size_leaf_vector":"1"}},{"base_weights":[1.5266572E-2,-1.1217022E-1,5.056537E-1,-3.953421E-1,5.899779E-3,3.602504E-1,6.558265E-1,-3.6757198E-1,-2.5560236E-2,-1.4570296E-1,4.841684E-2,-1.6069973E-1,4.233964E-1,4.610956E-1,7.406182E-1,-4.3002003E-1,-1.9038892E-1,7.090368E-3,-3.156458E-1,2.8088855E-2,4.7263524E-1,-3.9920655E-1,1.1564769E-2,3.231984E-1,6.243101E-1,7.038417E-1,2.1983993E-1,5.976999E-1,8.6060375E-1,-1.50275E-2,-7.6029752E-3,2.706818E-2,-7.932778E-3,3.4488966E-3,-1.4327501E-2,-1.2834783E-2,6.1221176E-4,-1.3535244E-3,3.4194821E-3,1.8445434E-2,-4.2722938E-3,-2.287534E-2,-1.2421499E-3,1.1045627E-2,-3.459727E-3,2.359623E-2,9.525006E-3,2.5946619E-2,1.38385E-3,-1.12823015E-2,1.0808974E-2,1.131429E-2,2.3421431E-2,2.7065473E-2,7.197317E-3],"categories":[],"categories_nodes":[],"categories_segments":[],"categories_sizes":[],"default_left":[0,0,0,0,0,0,0,0,0,0,0,0,0,0,0,0,0,0,0,0,0,0,0,0,0,0,0,0,0,0,0,0,0,0,0,0,0,0,0,0,0,0,0,0,0,0,0,0,0,0,0,0,0,0,0],"id":3,"left_children":[1,3,5,7,9,11,13,15,-1,17,19,21,23,25,27,29,31,33,35,37,39,41,-1,43,45,47,49,51,53,-1,-1,-1,-1,-1,-1,-1,-1,-1,-1,-1,-1,-1,-1,-1,-1,-1,-1,-1,-1,-1,-1,-1,-1,-1,-1],"loss_changes":[9.679589E1,4.1126717E1,6.6389008E0,4.1539383E0,5.592078E0,5.518572E0,2.1078873E0,3.6522675E0,0E0,4.9626036E0,5.7932014E0,2.549626E0,2.6730537E0,2.6936436E0,1.1644745E0,2.9583664E0,7.586686E0,5.2801065E0,3.4502478E0,4.095257E0,2.8259177E0,1.63149E0,0E0,2.0570211E0,2.0131245E0,2.4502125E0,2.380927E0,1.6975002E0,1.093689E0,0E0,0E0,0E0,0E0,0E0,0E0,0E0,0E0,0E0,0E0,0E0,0E0,0E0,0E0,0E0,0E0,0E0,0E0,0E0,0E0,0E0,0E0,0E0,0E0,0E0,0E0],"parents":[2147483647,0,0,1,1,2,2,3,3,4,4,5,5,6,6,7,7,9,9,10,10,11,11,12,12,13,13,14,14,15,15,16,16,17,17,18,18,19,19,20,20,21,21,23,23,24,24,25,25,26,26,27,27,28,28],"right_children":[2,4,6,8,10,12,14,16,-1,18,20,22,24,26,28,30,32,34,36,38,40,42,-1,44,46,48,50,52,54,-1,-1,-1,-1,-1,-1,-1,-1,-1,-1,-1,-1,-1,-1,-1,-1,-1,-1,-1,-1,-1,-1,-1,-1,-1,-1],"split_conditions":[8.029913E-1,-6.9822097E-1,1.4326197E0,1.6306813E0,-1.0185928E0,-8.244465E-1,-1.2759916E-1,4.655082E-1,-2.5560236E-2,4.6128362E-2,1.7985209E0,1.3425522E0,-1.6625462E-1,-8.573842E-1,-4.2542267E-1,1.2742217E0,-1.4837066E0,1.0249583E0,5.0666445E-1,2.1893597E-1,1.1581055E0,5.9356046E-1,1.1564769E-2,-2.8980678E-1,2.750833E-1,1.0249583E0,-5.276306E-1,1.6217303E-1,1.29968E0,-1.50275E-2,-7.6029752E-3,2.706818E-2,-7.932778E-3,3.4488966E-3,-1.4327501E-2,-1.2834783E-2,6.1221176E-4,-1.3535244E-3,3.4194821E-3,1.8445434E-2,-4.2722938E-3,-2.287534E-2,-1.2421499E-3,1.1045627E-2,-3.459727E-3,2.359623E-2,9.525006E-3,2.5946619E-2,1.38385E-3,-1.12823015E-2,1.0808974E-2,1.131429E-2,2.3421431E-2,2.7065473E-2,7.197317E-3],"split_indices":[40,0,0,31,41,32,24,27,0,4,32,29,4,4,30,30,16,49,2,44,49,26,0,4,32,49,32,27,27,0,0,0,0,0,0,0,0,0,0,0,0,0,0,0,0,0,0,0,0,0,0,0,0,0,0],"split_type":[0,0,0,0,0,0,0,0,0,0,0,0,0,0,0,0,0,0,0,0,0,0,0,0,0,0,0,0,0,0,0,0,0,0,0,0,0,0,0,0,0,0,0,0,0,0,0,0,0,0,0,0,0,0,0],"sum_hessian":[1.5463615E3,1.2278481E3,3.185133E2,3.6086652E2,8.669817E2,1.638917E2,1.5462161E2,3.420878E2,1.8778706E1,1.8884384E2,6.781378E2,1.7379934E1,1.4651176E2,4.921431E1,1.05407295E2,2.5146701E2,9.062079E1,9.9634056E1,8.920979E1,6.483707E2,2.9767132E1,1.2412107E1,4.967826E0,9.983117E1,4.6680595E1,2.3369017E1,2.5845293E1,5.1216576E1,5.419072E1,1.7771484E2,7.375217E1,4.955058E0,8.566573E1,8.2288414E1,1.7345638E1,6.690141E1,2.2308378E1,3.496655E2,2.9870523E2,2.4309196E1,5.4579363E0,5.458781E0,6.953327E0,9.08945E1,8.936667E0,2.9298805E1,1.738179E1,1.8397284E1,4.9717336E0,4.4740634E0,2.1371231E1,2.4861853E1,2.6354723E1,5.021249E1,3.9782302E0],"tree_param":{"num_deleted":"0","num_feature":"54","num_nodes":"55","size_leaf_vector":"1"}},{"base_weights":[5.450896E-3,-2.656197E-1,9.325758E-2,-3.9050835E-1,-1.8095237E-1,-2.2656728E-2,1.5695027E-1,-1.7663832E-1,-4.5756367E-1,-2.7497593E-1,-2.6993174E-3,1.9405508E-1,-7.560726E-2,1.4217873E-1,7.549098E-1,-3.717319E-1,3.6892834E-1,-5.4153806E-1,-3.226849E-1,1.2043424E-2,-3.0500713E-1,-1.0861466E-1,5.1828283E-1,6.13349E-1,9.048001E-2,5.7246774E-1,-1.0624385E-1,8.028134E-1,1.2934165E-1,8.231013E-2,4.7549427E-2,2.1982647E-3,-1.411923E-2,2.3539871E-2,-6.976585E-3,-1.7201832E-2,-1.3274371E-3,-1.0169703E-3,-1.7352743E-2,-9.8446915E-3,6.3939826E-3,-5.380691E-3,1.5123801E-2,2.6156591E-2,-7.108691E-3,2.0784202E-3,3.6458485E-2,-1.0178267E-2,6.233614E-3,2.7636157E-2,-2.902073E-3,-1.9353941E-3,-1.174769E-2,3.0105254E-2,6.263128E-3,-8.873517E-3,4.3617534E-3,1.43637E-2,-9.282098E-3],"categories":[],"categories_nodes":[],"categories_segments":[],"categories_sizes":[],"default_left":[0,0,0,0,0,0,0,0,0,0,0,0,0,0,0,0,0,0,0,0,0,0,0,0,0,0,0,0,0,0,0,0,0,0,0,0,0,0,0,0,0,0,0,0,0,0,0,0,0,0,0,0,0,0,0,0,0,0,0],"id":4,"left_children":[1,3,5,7,9,11,13,15,17,19,21,23,25,27,29,31,33,35,37,-1,39,41,43,45,47,49,51,53,55,57,-1,-1,-1,-1,-1,-1,-1,-1,-1,-1,-1,-1,-1,-1,-1,-1,-1,-1,-1,-1,-1,-1,-1,-1,-1,-1,-1,-1,-1],"loss_changes":[2.8462677E1,2.9649296E0,6.6912513E0,1.531271E0,2.932187E0,3.6851802E0,4.962325E0,3.316906E0,7.351055E-1,2.4544382E0,3.4574301E0,2.6066983E0,5.156208E0,4.649022E0,7.3440256E0,1.0705862E0,2.2969828E0,7.4105644E-1,2.6282804E0,0E0,1.4138327E0,2.3477862E0,3.0882907E0,3.749951E0,2.669853E0,2.9019265E0,2.885581E0,9.272332E-1,3.8618383E0,1.5133983E0,0E0,0E0,0E0,0E0,0E0,0E0,0E0,0E0,0E0,0E0,0E0,0E0,0E0,0E0,0E0,0E0,0E0,0E0,0E0,0E0,0E0,0E0,0E0,0E0,0E0,0E0,0E0,0E0,0E0],"parents":[2147483647,0,0,1,1,2,2,3,3,4,4,5,5,6,6,7,7,8,8,9,9,10,10,11,11,12,12,13,13,14,14,15,15,16,16,17,17,18,18,20,20,21,21,22,22,23,23,24,24,25,25,26,26,27,27,28,28,29,29],"right_children":[2,4,6,8,10,12,14,16,18,20,22,24,26,28,30,32,34,36,38,-1,40,42,44,46,48,50,52,54,56,58,-1,-1,-1,-1,-1,-1,-1,-1,-1,-1,-1,-1,-1,-1,-1,-1,-1,-1,-1,-1,-1,-1,-1,-1,-1,-1,-1,-1,-1],"split_conditions":[-3.878161E-1,-1.4953364E0,-4.0735373E-1,-6.07991E-1,8.3656615E-1,-2.124306E-1,1.1091219E0,-7.430675E-1,3.789479E-1,-1.7169338E0,9.111857E-2,-1.8103917E-1,-1.2697573E0,-9.5919174E-1,2.1203645E-1,-5.157542E-1,1.2822843E0,9.757518E-1,9.683511E-1,1.2043424E-2,2.4892652E0,5.4477596E-1,1.2359645E0,2.3318493E-1,-4.8134804E-1,7.496058E-1,9.2602414E-1,3.3161682E-1,-1.652719E0,-7.140246E-1,4.7549427E-2,2.1982647E-3,-1.411923E-2,2.3539871E-2,-6.976585E-3,-1.7201832E-2,-1.3274371E-3,-1.0169703E-3,-1.7352743E-2,-9.8446915E-3,6.3939826E-3,-5.380691E-3,1.5123801E-2,2.6156591E-2,-7.108691E-3,2.0784202E-3,3.6458485E-2,-1.0178267E-2,6.233614E-3,2.7636157E-2,-2.902073E-3,-1.9353941E-3,-1.174769E-2,3.0105254E-2,6.263128E-3,-8.873517E-3,4.3617534E-3,1.43637E-2,-9.282098E-3],"split_indices":[1,43,52,33,12,21,1,33,33,53,47,47,46,2,24,24,12,16,33,0,16,4,46,53,14,2,33,28,33,49,0,0,0,0,0,0,0,0,0,0,0,0,0,0,0,0,0,0,0,0,0,0,0,0,0,0,0,0,0],"split_type":[0,0,0,0,0,0,0,0,0,0,0,0,0,0,0,0,0,0,0,0,0,0,0,0,0,0,0,0,0,0,0,0,0,0,0,0,0,0,0,0,0,0,0,0,0,0,0,0,0,0,0,0,0,0,0,0,0,0,0],"sum_hessian":[1.1945032E3,2.914856E2,9.030176E2,1.15832855E2,1.7565273E2,3.1990204E2,5.8311554E2,2.8872093E1,8.696076E1,1.14273186E2,6.1379547E1,6.192144E1,2.5798062E2,5.704291E2,1.26864395E1,2.1636757E1,7.235336E0,5.1278675E1,3.5682087E1,4.190425E0,1.10082756E2,5.182668E1,9.552867E0,1.1099805E1,5.0821636E1,1.069941E1,2.472812E2,9.551506E0,5.608776E2,7.681675E0,5.0047646E0,3.7978358E0,1.783892E1,4.1964936E0,3.0388422E0,4.785872E1,3.4199548E0,1.7473866E1,1.8208221E1,1.0591058E2,4.1721725E0,4.724292E1,4.5837607E0,6.4915E0,3.061367E0,6.503096E0,4.5967083E0,1.0309189E1,4.0512447E1,6.884565E0,3.8148453E0,2.1710674E2,3.0174467E1,6.4984155E0,3.053091E0,1.9544203E1,5.413334E2,3.834007E0,3.847668E0],"tree_param":{"num_deleted":"0","num_feature":"54","num_nodes":"59","size_leaf_vector":"1"}},{"base_weights":[-5.2675945E-3,5.584718E-1,-1.7687018E-1,8.694301E-1,4.433755E-1,-3.8684627E-1,-5.7720035E-2,7.356427E-1,4.254742E-2,3.9472708E-1,1.0084335E0,-2.8681898E-1,-4.770758E-1,2.420401E-2,-1.8095642E-1,4.807873E-1,9.86776E-1,4.5318446E-1,2.7778223E-2,5.5493927E-1,3.9021E-2,5.2477013E-2,-3.3877563E-1,-2.2434063E-1,-5.2025914E-1,-5.737003E-2,1.6827442E-1,-2.3553826E-1,5.0825506E-1,2.0937894E-2,1.5500057E-4,3.531957E-2,9.131634E-3,1.6234128E-2,-8.073079E-6,8.531151E-3,-1.5536035E-2,5.814304E-3,2.4997486E-2,6.911956E-3,-1.660007E-2,-1.4730025E-2,-5.8989995E-3,3.9878977E-4,-1.6605353E-2,-1.7169246E-2,-1.1607492E-2,-3.3640265E-3,4.904895E-3,3.2188725E-3,1.9192358E-2,-1.3111692E-2,-3.702669E-3,2.418706E-2,-1.5922138E-2],"categories":[],"categories_nodes":[],"categories_segments":[],"categories_sizes":[],"default_left":[0,0,0,0,0,0,0,0,0,0,0,0,0,0,0,0,0,0,0,0,0,0,0,0,0,0,0,0,0,0,0,0,0,0,0,0,0,0,0,0,0,0,0,0,0,0,0,0,0,0,0,0,0,0,0],"id":5,"left_children":[1,3,5,7,9,11,13,15,-1,17,19,21,23,25,27,29,31,33,35,37,-1,39,41,43,45,47,49,51,53,-1,-1,-1,-1,-1,-1,-1,-1,-1,-1,-1,-1,-1,-1,-1,-1,-1,-1,-1,-1,-1,-1,-1,-1,-1,-1],"loss_changes":[1.2408376E2,1.0194733E1,2.4545359E1,4.5840797E0,5.5287933E0,2.9967346E0,6.3713923E0,3.615982E0,0E0,4.337204E0,1.3046856E0,3.073329E0,1.8273964E0,4.466445E0,9.565247E0,3.5413961E0,3.679882E0,7.0954437E0,4.2504773E0,5.819552E-1,0E0,2.6186922E0,3.0650253E0,2.3365703E0,7.713585E-1,2.938251E0,3.808342E0,5.180295E0,6.2328935E0,0E0,0E0,0E0,0E0,0E0,0E0,0E0,0E0,0E0,0E0,0E0,0E0,0E0,0E0,0E0,0E0,0E0,0E0,0E0,0E0,0E0,0E0,0E0,0E0,0E0,0E0],"parents":[2147483647,0,0,1,1,2,2,3,3,4,4,5,5,6,6,7,7,9,9,10,10,11,11,12,12,13,13,14,14,15,15,16,16,17,17,18,18,19,19,21,21,22,22,23,23,24,24,25,25,26,26,27,27,28,28],"right_children":[2,4,6,8,10,12,14,16,-1,18,20,22,24,26,28,30,32,34,36,38,-1,40,42,44,46,48,50,52,54,-1,-1,-1,-1,-1,-1,-1,-1,-1,-1,-1,-1,-1,-1,-1,-1,-1,-1,-1,-1,-1,-1,-1,-1,-1,-1],"split_conditions":[-7.2320634E-1,-1.5977453E-1,3.6850248E-2,1.5834527E0,-7.542821E-1,8.884664E-1,1.7153445E-1,-1.6120596E0,4.254742E-2,8.74706E-1,-7.4194826E-2,-5.203087E-1,-9.526955E-2,1.1300524E-2,4.1236126E-1,5.0716364E-1,9.465137E-1,1.4169294E0,-4.165519E-1,-8.096362E-1,3.9021E-2,5.3397125E-1,-3.8889495E-1,1.9669873E-1,7.6073414E-1,5.625995E-1,1.1273572E0,-7.5238603E-1,5.4920197E-1,2.0937894E-2,1.5500057E-4,3.531957E-2,9.131634E-3,1.6234128E-2,-8.073079E-6,8.531151E-3,-1.5536035E-2,5.814304E-3,2.4997486E-2,6.911956E-3,-1.660007E-2,-1.4730025E-2,-5.8989995E-3,3.9878977E-4,-1.6605353E-2,-1.7169246E-2,-1.1607492E-2,-3.3640265E-3,4.904895E-3,3.2188725E-3,1.9192358E-2,-1.3111692E-2,-3.702669E-3,2.418706E-2,-1.5922138E-2],"split_indices":[0,1,43,31,0,3,28,5,0,42,20,32,28,48,2,49,23,10,5,3,0,51,23,13,25,11,15,31,52,0,0,0,0,0,0,0,0,0,0,0,0,0,0,0,0,0,0,0,0,0,0,0,0,0,0],"split_type":[0,0,0,0,0,0,0,0,0,0,0,0,0,0,0,0,0,0,0,0,0,0,0,0,0,0,0,0,0,0,0,0,0,0,0,0,0,0,0,0,0,0,0,0,0,0,0,0,0,0,0,0,0,0,0],"sum_hessian":[1.281037E3,2.9828622E2,9.8275073E2,7.857514E1,2.1971109E2,3.5465784E2,6.280929E2,6.520297E1,1.3372171E1,2.0402148E2,1.5689609E1,1.707043E2,1.8395352E2,3.7728003E2,2.5081288E2,3.4005817E1,3.1197155E1,1.75548E2,2.8473484E1,7.4189396E0,8.270669E0,2.2411871E1,1.4829242E2,2.8086279E1,1.5586725E2,2.4082838E2,1.3645164E2,2.3315184E2,1.7661028E1,2.2881643E1,1.1124173E1,2.3705921E1,7.491233E0,1.4705243E2,2.8495565E1,1.9816673E1,8.656811E0,4.1237493E0,3.2951903E0,1.7930582E1,4.4812894E0,7.008167E1,7.8210754E1,1.6691938E1,1.139434E1,1.0920003E2,4.666722E1,1.9373625E2,4.709213E1,1.2209935E2,1.4352293E1,8.199077E1,1.5116107E2,1.3973683E1,3.687344E0],"tree_param":{"num_deleted":"0","num_feature":"54","num_nodes":"55","size_leaf_vector":"1"}},{"base_weights":[2.224181E-3,-2.0114416E-1,3.255163E-1,-4.2345184E-1,-6.605032E-2,2.0896155E-1,6.3032633E-1,-3.7022817E-1,-6.1802536E-1,-2.1984722E-4,-1.7956965E-1,3.4311828E-1,1.363067E-1,4.7335908E-1,7.610096E-1,1.014972E-1,-4.1007873E-1,-7.2061175E-1,-2.787783E-1,-4.7683024E-1,2.0467456E-2,2.6618567E-1,-2.2264688E-1,2.344445E-1,6.5464383E-1,5.019567E-2,2.673602E-1,-9.105164E-2,5.4514205E-1,7.8391844E-1,4.1656643E-3,1.6525166E-2,-3.09596E-3,-2.986629E-3,-1.3485802E-2,-2.4804134E-2,-9.194479E-3,-2.4055218E-2,8.628695E-3,-2.1420633E-2,-1.6624808E-3,1.3550434E-3,-1.030647E-2,-1.0002711E-2,1.693874E-2,-7.2350944E-3,1.8367216E-2,-1.4997197E-3,9.65216E-3,-3.72839E-3,2.254479E-2,5.461003E-5,2.172545E-2,-4.5751836E-3,1.199101E-2,-1.6985234E-2,1.2882341E-2,1.7935691E-2,-2.8742051E-3,1.8013006E-2,2.553859E-2],"categories":[],"categories_nodes":[],"categories_segments":[],"categories_sizes":[],"default_left":[0,0,0,0,0,0,0,0,0,0,0,0,0,0,0,0,0,0,0,0,0,0,0,0,0,0,0,0,0,0,0,0,0,0,0,0,0,0,0,0,0,0,0,0,0,0,0,0,0,0,0,0,0,0,0,0,0,0,0,0,0],"id":6,"left_children":[1,3,5,7,9,11,13,15,17,19,21,23,25,27,29,31,33,35,37,39,41,43,45,47,49,51,53,55,57,59,-1,-1,-1,-1,-1,-1,-1,-1,-1,-1,-1,-1,-1,-1,-1,-1,-1,-1,-1,-1,-1,-1,-1,-1,-1,-1,-1,-1,-1,-1,-1],"loss_changes":[1.0163405E2,2.8412148E1,2.099509E1,3.3808136E0,4.402363E0,4.131819E0,2.8889313E0,5.4128075E0,2.3099442E0,3.7622347E0,4.213194E0,4.8761463E0,3.1533327E0,3.2425804E0,1.049202E0,2.1927814E0,3.1139755E0,2.128664E0,5.9925666E0,1.4709606E0,3.2322526E0,3.671203E0,3.1759586E0,2.8709817E0,3.0458374E0,5.557904E0,6.291963E0,2.5974348E0,2.4463253E0,3.84964E-1,0E0,0E0,0E0,0E0,0E0,0E0,0E0,0E0,0E0,0E0,0E0,0E0,0E0,0E0,0E0,0E0,0E0,0E0,0E0,0E0,0E0,0E0,0E0,0E0,0E0,0E0,0E0,0E0,0E0,0E0,0E0],"parents":[2147483647,0,0,1,1,2,2,3,3,4,4,5,5,6,6,7,7,8,8,9,9,10,10,11,11,12,12,13,13,14,14,15,15,16,16,17,17,18,18,19,19,20,20,21,21,22,22,23,23,24,24,25,25,26,26,27,27,28,28,29,29],"right_children":[2,4,6,8,10,12,14,16,18,20,22,24,26,28,30,32,34,36,38,40,42,44,46,48,50,52,54,56,58,60,-1,-1,-1,-1,-1,-1,-1,-1,-1,-1,-1,-1,-1,-1,-1,-1,-1,-1,-1,-1,-1,-1,-1,-1,-1,-1,-1,-1,-1,-1,-1],"split_conditions":[1.9393058E-1,-7.14378E-1,1.4326197E0,4.270664E-1,3.1355312E-1,-5.8277386E-1,1.536332E0,-1.6238726E0,-5.1683564E-2,-1.2102625E0,-1.3626382E0,-8.033686E-2,-7.4194826E-2,-9.062401E-2,-1.5088732E0,1.7601501E0,-7.0052344E-1,9.277978E-1,3.0461768E-2,3.4556827E-1,1.1091219E0,-3.2172692E-1,2.3092093E0,-6.334887E-3,-1.3278593E0,1.1792507E0,-1.2537462E-1,2.9013476E-1,3.4471948E-2,-8.030631E-1,4.1656643E-3,1.6525166E-2,-3.09596E-3,-2.986629E-3,-1.3485802E-2,-2.4804134E-2,-9.194479E-3,-2.4055218E-2,8.628695E-3,-2.1420633E-2,-1.6624808E-3,1.3550434E-3,-1.030647E-2,-1.0002711E-2,1.693874E-2,-7.2350944E-3,1.8367216E-2,-1.4997197E-3,9.65216E-3,-3.72839E-3,2.254479E-2,5.461003E-5,2.172545E-2,-4.5751836E-3,1.199101E-2,-1.6985234E-2,1.2882341E-2,1.7935691E-2,-2.8742051E-3,1.8013006E-2,2.553859E-2],"split_indices":[0,0,0,41,30,42,5,40,20,4,24,4,20,17,42,2,13,24,27,25,1,53,4,28,1,5,15,52,48,13,0,0,0,0,0,0,0,0,0,0,0,0,0,0,0,0,0,0,0,0,0,0,0,0,0,0,0,0,0,0,0],"split_type":[0,0,0,0,0,0,0,0,0,0,0,0,0,0,0,0,0,0,0,0,0,0,0,0,0,0,0,0,0,0,0,0,0,0,0,0,0,0,0,0,0,0,0,0,0,0,0,0,0,0,0,0,0,0,0,0,0,0,0,0,0],"sum_hessian":[1.5436415E3,9.476111E2,5.960304E2,3.570999E2,5.9051117E2,4.326176E2,1.6341281E2,2.8308228E2,7.401765E1,3.7495535E2,2.1555579E2,1.501913E2,2.824263E2,7.668805E1,8.672476E1,2.1735466E1,2.613468E2,5.5742508E1,1.8275143E1,1.4881776E1,3.6007358E2,1.8334368E1,1.9722142E2,1.1288547E2,3.730584E1,1.7173248E2,1.1069382E2,8.465385E0,6.8222664E1,8.3239006E1,3.4857538E0,6.4262624E0,1.5309203E1,3.0141268E1,2.3120554E2,4.3380688E1,1.2361817E1,9.376749E0,8.898393E0,8.926115E0,5.9556613E0,3.3827057E2,2.1803015E1,5.9425592E0,1.2391808E1,1.9375368E2,3.4677405E0,2.634053E1,8.654494E1,3.980039E0,3.3325798E1,1.6130583E2,1.0426653E1,2.6310932E1,8.438288E1,4.4799843E0,3.9854012E0,6.3244423E1,4.9782405E0,2.5415054E1,5.782395E1],"tree_param":{"num_deleted":"0","num_feature":"54","num_nodes":"61","size_leaf_vector":"1"}},{"base_weights":[-0E0,-2.5811437E-1,7.289061E-2,-5.2330756E-1,-2.0938958E-1,-2.6250383E-2,1.5162759E-1,-5.6555736E-1,-0E0,-2.8351286E-1,-6.0868755E-2,5.1208067E-1,-4.6294816E-2,-3.2645282E-1,1.7287461E-1,-1.9246362E-2,-1.8483287E-1,-3.0584213E-1,1.2417043E-1,6.7049843E-1,-1.3516027E-1,3.240979E-2,-5.9950515E-3,-2.0832201E-2,-3.701063E-1,6.1224843E-3,-5.107525E-1,1.3915223E-1,5.0766844E-1,6.403894E-3,-1.5162654E-2,-5.3969417E-3,-1.1807717E-2,1.7652437E-2,-1.4409873E-2,6.2213996E-3,2.8296795E-2,-7.403685E-3,8.22205E-3,-1.4992943E-2,1.1932057E-2,-2.1842564E-3,3.927576E-3,6.3138693E-3,-1.3514883E-2,-0E0,-1.8561428E-2,2.6361824E-3,1.1471886E-2,2.7669596E-3,3.1434108E-2],"categories":[],"categories_nodes":[],"categories_segments":[],"categories_sizes":[],"default_left":[0,0,0,0,0,0,0,0,0,0,0,0,0,0,0,0,0,0,0,0,0,0,0,0,0,0,0,0,0,0,0,0,0,0,0,0,0,0,0,0,0,0,0,0,0,0,0,0,0,0,0],"id":7,"left_children":[1,3,5,7,9,11,13,15,-1,17,19,21,23,25,27,-1,29,31,33,35,37,-1,39,41,43,-1,45,47,49,-1,-1,-1,-1,-1,-1,-1,-1,-1,-1,-1,-1,-1,-1,-1,-1,-1,-1,-1,-1,-1,-1],"loss_changes":[2.2599464E1,3.2343311E0,7.3340845E0,8.8105583E-1,2.4296408E0,4.4577484E0,5.3554792E0,8.707905E-1,0E0,1.4182949E0,4.207882E0,4.4738503E0,3.2629888E0,2.3259153E0,5.5297575E0,0E0,1.1316332E0,1.4453917E0,2.6083157E0,5.888784E-1,3.2918568E0,0E0,1.933222E0,2.9497552E0,1.4685004E0,0E0,9.170399E-1,5.626075E0,9.947105E0,0E0,0E0,0E0,0E0,0E0,0E0,0E0,0E0,0E0,0E0,0E0,0E0,0E0,0E0,0E0,0E0,0E0,0E0,0E0,0E0,0E0,0E0],"parents":[2147483647,0,0,1,1,2,2,3,3,4,4,5,5,6,6,7,7,9,9,10,10,11,11,12,12,13,13,14,14,16,16,17,17,18,18,19,19,20,20,22,22,23,23,24,24,26,26,27,27,28,28],"right_children":[2,4,6,8,10,12,14,16,-1,18,20,22,24,26,28,-1,30,32,34,36,38,-1,40,42,44,-1,46,48,50,-1,-1,-1,-1,-1,-1,-1,-1,-1,-1,-1,-1,-1,-1,-1,-1,-1,-1,-1,-1,-1,-1],"split_conditions":[-5.340317E-1,-2.52089E0,-1.2835832E-1,1.1383159E0,1.1337117E0,-1.642399E-1,-1.5724602E0,2.2807648E0,-0E0,2.4352567E0,6.468176E-1,4.7893137E-1,2.3165141E-1,5.132984E-1,1.82885E0,-1.9246362E-2,2.1203645E-1,-1.1970577E-1,-1.0087768E0,7.01353E-1,5.132984E-1,3.240979E-2,-6.2161475E-1,3.0403045E-1,-1.6229765E0,6.1224843E-3,-7.127535E-1,1.034663E0,6.467237E-2,6.403894E-3,-1.5162654E-2,-5.3969417E-3,-1.1807717E-2,1.7652437E-2,-1.4409873E-2,6.2213996E-3,2.8296795E-2,-7.403685E-3,8.22205E-3,-1.4992943E-2,1.1932057E-2,-2.1842564E-3,3.927576E-3,6.3138693E-3,-1.3514883E-2,-0E0,-1.8561428E-2,2.6361824E-3,1.1471886E-2,2.7669596E-3,3.1434108E-2],"split_indices":[1,1,52,24,12,20,0,5,0,17,5,8,21,9,10,0,24,33,2,31,9,0,24,50,52,0,42,12,27,0,0,0,0,0,0,0,0,0,0,0,0,0,0,0,0,0,0,0,0,0,0],"split_type":[0,0,0,0,0,0,0,0,0,0,0,0,0,0,0,0,0,0,0,0,0,0,0,0,0,0,0,0,0,0,0,0,0,0,0,0,0,0,0,0,0,0,0,0,0,0,0,0,0,0,0],"sum_hessian":[1.1998777E3,2.634568E2,9.3642096E2,3.906209E1,2.2439468E2,4.1423593E2,5.22185E2,3.6054565E1,3.0075302E0,1.4863313E2,7.576154E1,1.3809862E1,4.004261E2,2.1408136E1,5.007769E2,2.9265749E1,6.788815E0,1.4138445E2,7.2486916E0,6.1219883E0,6.963956E1,6.160518E0,7.6493444E0,3.7250745E2,2.7918621E1,5.3519025E0,1.6056232E1,4.5650897E2,4.4267918E1,3.037405E0,3.75141E0,5.9777077E1,8.160737E1,4.2086005E0,3.0400908E0,3.057358E0,3.0646305E0,5.5218403E1,1.4421155E1,3.4453897E0,4.203954E0,2.7834927E2,9.415818E1,3.0475447E0,2.4871077E1,3.0375187E0,1.3018714E1,3.7848996E2,7.8019E1,2.5788782E1,1.8479136E1],"tree_param":{"num_deleted":"0","num_feature":"54","num_nodes":"51","size_leaf_vector":"1"}},{"base_weights":[-6.594553E-4,4.9641812E-1,-1.7572954E-1,9.7281414E-1,4.051374E-1,-3.2233623E-1,-1.0102481E-2,5.6069005E-1,1.2151097E0,6.5263724E-1,3.315645E-1,-2.711882E-1,-5.6687224E-1,6.753415E-2,-1.5457359E-1,1.0222763E0,9.111881E-2,3.8826715E-2,1.3939E-2,8.8947165E-1,2.2681543E-1,2.3282728E-1,5.6372863E-1,-2.8018868E-1,1.0437149E-2,-6.146083E-1,-2.1037734E-1,3.434762E-1,1.7384294E-2,2.1260208E-2,-1.8049707E-1,4.1570935E-2,7.698741E-3,1.6103772E-2,-9.06589E-3,3.0122133E-2,1.5991628E-3,2.6924746E-2,3.0215147E-5,1.2317367E-2,2.6982531E-3,8.873002E-3,3.2581855E-2,-8.9033125E-3,2.3646972E-3,-1.9073332E-2,-1.0588978E-2,7.650352E-3,-1.7468346E-2,4.883772E-3,2.3568539E-2,2.3334604E-2,-1.426109E-4,-7.36947E-3,2.94633E-3],"categories":[],"categories_nodes":[],"categories_segments":[],"categories_sizes":[],"default_left":[0,0,0,0,0,0,0,0,0,0,0,0,0,0,0,0,0,0,0,0,0,0,0,0,0,0,0,0,0,0,0,0,0,0,0,0,0,0,0,0,0,0,0,0,0,0,0,0,0,0,0,0,0,0,0],"id":8,"left_children":[1,3,5,7,9,11,13,15,17,19,21,23,25,27,29,31,33,-1,-1,35,37,39,41,43,-1,45,47,49,51,-1,53,-1,-1,-1,-1,-1,-1,-1,-1,-1,-1,-1,-1,-1,-1,-1,-1,-1,-1,-1,-1,-1,-1,-1,-1],"loss_changes":[1.119902E2,1.4041801E1,2.308305E1,4.4334106E0,4.840931E0,6.0751457E0,5.048679E0,4.484263E0,1.1445084E0,6.094206E0,4.8460083E0,2.4291058E0,1.2525845E0,3.9976587E0,3.5995886E0,2.458499E0,2.2766511E0,0E0,0E0,3.7058144E0,3.5743675E0,3.895009E0,8.61306E0,2.5128822E0,0E0,9.279442E-2,2.245974E0,3.335032E0,4.2624483E0,0E0,2.8318663E0,0E0,0E0,0E0,0E0,0E0,0E0,0E0,0E0,0E0,0E0,0E0,0E0,0E0,0E0,0E0,0E0,0E0,0E0,0E0,0E0,0E0,0E0,0E0,0E0],"parents":[2147483647,0,0,1,1,2,2,3,3,4,4,5,5,6,6,7,7,8,8,9,9,10,10,11,11,12,12,13,13,14,14,15,15,16,16,19,19,20,20,21,21,22,22,23,23,25,25,26,26,27,27,28,28,30,30],"right_children":[2,4,6,8,10,12,14,16,18,20,22,24,26,28,30,32,34,-1,-1,36,38,40,42,44,-1,46,48,50,52,-1,54,-1,-1,-1,-1,-1,-1,-1,-1,-1,-1,-1,-1,-1,-1,-1,-1,-1,-1,-1,-1,-1,-1,-1,-1],"split_conditions":[-6.51916E-1,-5.0266445E-1,-2.9866636E-1,-1.5995908E-1,-3.0642587E-1,1.536332E0,2.1893597E-1,6.1266154E-1,1.5154668E0,2.6328474E-1,-1.3775179E-1,2.743995E0,-1.0472244E0,-5.276306E-1,1.607891E-1,5.132984E-1,-1.536011E0,3.8826715E-2,1.3939E-2,9.277978E-1,-5.74875E-1,-3.795726E-1,-1.376348E0,4.536924E-1,1.0437149E-2,4.1120334E0,1.7114646E0,2.4735257E-1,-1.1643984E0,2.1260208E-2,3.836151E-2,4.1570935E-2,7.698741E-3,1.6103772E-2,-9.06589E-3,3.0122133E-2,1.5991628E-3,2.6924746E-2,3.0215147E-5,1.2317367E-2,2.6982531E-3,8.873002E-3,3.2581855E-2,-8.9033125E-3,2.3646972E-3,-1.9073332E-2,-1.0588978E-2,7.650352E-3,-1.7468346E-2,4.883772E-3,2.3568539E-2,2.3334604E-2,-1.426109E-4,-7.36947E-3,2.94633E-3],"split_indices":[0,42,2,33,8,5,44,23,33,27,41,33,2,32,42,9,28,0,0,24,12,32,0,21,0,22,5,31,30,0,20,0,0,0,0,0,0,0,0,0,0,0,0,0,0,0,0,0,0,0,0,0,0,0,0],"split_type":[0,0,0,0,0,0,0,0,0,0,0,0,0,0,0,0,0,0,0,0,0,0,0,0,0,0,0,0,0,0,0,0,0,0,0,0,0,0,0,0,0,0,0,0,0,0,0,0,0,0,0,0,0,0,0],"sum_hessian":[1.2852632E3,3.3413757E2,9.511257E2,5.1999294E1,2.8213828E2,5.0371054E2,4.474151E2,2.0632301E1,3.1366995E1,6.25362E1,2.1960208E2,4.1866003E2,8.505051E1,2.909196E2,1.5649551E2,9.703652E0,1.0928648E1,2.7599688E1,3.7673078E0,3.9335068E1,2.3201134E1,1.5578276E2,6.381933E1,4.1335953E2,5.300527E0,7.4120895E1,1.0929607E1,4.35345E1,2.473851E2,3.6822598E0,1.5281325E2,5.9425483E0,3.7611046E0,5.0714927E0,5.8571553E0,3.4312084E1,5.0229855E0,4.983159E0,1.8217974E1,6.82747E1,8.750806E1,4.3342106E1,2.0477224E1,3.9553537E2,1.7824142E1,6.689619E1,7.224714E0,4.8747983E0,6.0548086E0,3.2036827E1,1.1497672E1,6.1603475E0,2.4122475E2,1.2424634E2,2.8566912E1],"tree_param":{"num_deleted":"0","num_feature":"54","num_nodes":"55","size_leaf_vector":"1"}},{"base_weights":[-7.8876136E-4,3.5659102E-1,-1.6081914E-1,2.514367E-1,6.352708E-1,-3.2280713E-1,2.2485377E-3,1.2158296E-3,3.3308285E-1,4.155794E-1,7.270507E-1,-1.9758953E-1,-4.0927526E-1,-8.866547E-2,1.22935444E-1,6.3293904E-2,-2.2990663E-2,3.755861E-1,6.814716E-2,-3.1395515E-3,4.9350846E-1,7.57142E-1,3.257349E-3,-1.9738358E-2,-2.8682446E-1,-4.2836526E-1,1.283335E-2,4.1655684E-1,-1.174163E-1,2.9940793E-1,3.0356402E-2,4.2914846E-3,-1.7648127E-2,8.42966E-3,1.778057E-2,-3.7921749E-3,1.6073957E-2,5.601618E-3,1.9629907E-2,3.4708274E-3,2.345685E-2,1.4376225E-2,-4.721987E-3,-2.0930585E-2,-7.141997E-3,-1.4170995E-2,-6.276787E-3,6.223937E-4,2.4633791E-2,-1.5501989E-2,-2.2249657E-3,1.6178254E-2,3.115599E-3,4.1618193E-3,-6.6749807E-3],"categories":[],"categories_nodes":[],"categories_segments":[],"categories_sizes":[],"default_left":[0,0,0,0,0,0,0,0,0,0,0,0,0,0,0,0,0,0,0,0,0,0,0,0,0,0,0,0,0,0,0,0,0,0,0,0,0,0,0,0,0,0,0,0,0,0,0,0,0,0,0,0,0,0,0],"id":9,"left_children":[1,3,5,7,9,11,13,15,17,19,21,23,25,27,29,31,-1,33,35,-1,37,39,-1,41,43,45,-1,47,49,51,53,-1,-1,-1,-1,-1,-1,-1,-1,-1,-1,-1,-1,-1,-1,-1,-1,-1,-1,-1,-1,-1,-1,-1,-1],"loss_changes":[8.820927E1,1.3728249E1,2.818427E1,7.079731E0,2.199726E0,5.650566E0,5.8491383E0,4.1222286E0,2.882906E0,1.7481589E0,1.5035782E0,3.4698105E0,5.217327E0,4.4262347E0,3.705336E0,4.2751703E0,0E0,4.3757668E0,3.5478318E0,0E0,1.5650959E0,1.1752472E0,0E0,5.212454E0,2.678362E0,2.8088875E0,0E0,2.520044E0,4.8773117E0,3.5591283E0,4.1857347E0,0E0,0E0,0E0,0E0,0E0,0E0,0E0,0E0,0E0,0E0,0E0,0E0,0E0,0E0,0E0,0E0,0E0,0E0,0E0,0E0,0E0,0E0,0E0,0E0],"parents":[2147483647,0,0,1,1,2,2,3,3,4,4,5,5,6,6,7,7,8,8,9,9,10,10,11,11,12,12,13,13,14,14,15,15,17,17,18,18,20,20,21,21,23,23,24,24,25,25,27,27,28,28,29,29,30,30],"right_children":[2,4,6,8,10,12,14,16,18,20,22,24,26,28,30,32,-1,34,36,-1,38,40,-1,42,44,46,-1,48,50,52,54,-1,-1,-1,-1,-1,-1,-1,-1,-1,-1,-1,-1,-1,-1,-1,-1,-1,-1,-1,-1,-1,-1,-1,-1],"split_conditions":[-5.561266E-1,1.4505074E0,-3.197504E-1,4.1699916E-1,1.3182617E0,4.4882712E-1,2.1893597E-1,1.4902936E0,1.5159807E-1,-1.484462E0,8.375716E-1,-1.1493119E0,2.510177E0,-1.2513778E0,-6.35442E-1,1.0248445E0,-2.2990663E-2,5.5850554E-1,1.2359645E0,-3.1395515E-3,7.965034E-1,-1.7828363E0,3.257349E-3,-9.722495E-1,-6.430077E-1,1.3830385E-1,1.283335E-2,-8.5359156E-1,-7.7227587E-1,6.8597585E-1,1.134429E0,4.2914846E-3,-1.7648127E-2,8.42966E-3,1.778057E-2,-3.7921749E-3,1.6073957E-2,5.601618E-3,1.9629907E-2,3.4708274E-3,2.345685E-2,1.4376225E-2,-4.721987E-3,-2.0930585E-2,-7.141997E-3,-1.4170995E-2,-6.276787E-3,6.223937E-4,2.4633791E-2,-1.5501989E-2,-2.2249657E-3,1.6178254E-2,3.115599E-3,4.1618193E-3,-6.6749807E-3],"split_indices":[2,40,40,5,5,4,44,7,47,8,13,41,4,3,41,33,0,33,46,0,31,32,0,49,8,14,0,41,32,43,11,0,0,0,0,0,0,0,0,0,0,0,0,0,0,0,0,0,0,0,0,0,0,0,0],"split_type":[0,0,0,0,0,0,0,0,0,0,0,0,0,0,0,0,0,0,0,0,0,0,0,0,0,0,0,0,0,0,0,0,0,0,0,0,0,0,0,0,0,0,0,0,0,0,0,0,0,0,0,0,0,0,0],"sum_hessian":[1.5406857E3,4.759473E2,1.0647384E3,3.4719946E2,1.287478E2,5.3395374E2,5.3078467E2,8.596928E1,2.612302E2,3.9887543E1,8.886027E1,2.1992055E2,3.1403317E2,3.024126E2,2.2837209E2,8.050609E1,5.463187E0,2.2443011E2,3.6800083E1,4.9847455E0,3.4902798E1,8.436943E1,4.490833E0,7.4259094E1,1.4566145E2,3.0762515E2,6.4080386E0,1.5369328E1,2.8704327E2,7.744108E1,1.5093102E2,7.255841E1,7.947673E0,1.5823628E2,6.6193825E1,2.6352674E1,1.0447409E1,1.2960965E1,2.1941833E1,3.4957027E0,8.087373E1,1.5364344E1,5.889475E1,1.382278E1,1.3183868E2,2.5484296E2,5.2782192E1,8.4250965E0,6.944231E0,2.6756062E1,2.602872E2,3.3760918E1,4.368016E1,1.0624328E2,4.4687733E1],"tree_param":{"num_deleted":"0","num_feature":"54","num_nodes":"55","size_leaf_vector":"1"}},{"base_weights":[-1.8230854E-2,-2.8287575E-1,5.1440444E-2,2.4533185E-1,-3.053984E-1,2.8478863E-2,2.8724387E-1,2.5814654E-2,-1.0959629E-2,-2.4096408E-1,-4.7826833E-1,-2.1796941E-5,2.2594237E-1,-3.255219E-1,3.7659052E-1,-4.8638797E-1,-1.8448256E-1,-5.151637E-1,-0E0,4.9407613E-2,-1.2602101E-1,-1.2001732E-1,3.4584263E-1,-1.7192561E-2,6.2854597E-3,4.2968354E-1,-1.5124306E-2,8.4189913E-4,-1.7031968E-2,2.1441441E-2,-6.284641E-3,-1.6656047E-2,-3.7758413E-3,9.578476E-4,2.4519825E-2,-9.779622E-3,-7.088389E-4,-8.819274E-3,1.5216584E-2,1.3589746E-2,-5.7033948E-3,5.575294E-3,1.8998774E-2],"categories":[],"categories_nodes":[],"categories_segments":[],"categories_sizes":[],"default_left":[0,0,0,0,0,0,0,0,0,0,0,0,0,0,0,0,0,0,0,0,0,0,0,0,0,0,0,0,0,0,0,0,0,0,0,0,0,0,0,0,0,0,0],"id":10,"left_children":[1,3,5,7,9,11,13,-1,-1,15,17,19,21,23,25,27,29,31,-1,33,35,37,39,-1,-1,41,-1,-1,-1,-1,-1,-1,-1,-1,-1,-1,-1,-1,-1,-1,-1,-1,-1],"loss_changes":[2.1813166E1,3.0143185E0,5.0250463E0,4.291938E0,2.454008E0,4.8283167E0,4.644942E0,0E0,0E0,2.271371E0,1.1156368E0,4.664835E0,4.550084E0,1.5993379E0,3.6047316E0,1.4018722E0,3.3446784E0,7.731705E-1,0E0,7.0903826E0,4.283022E0,3.2224383E0,4.751643E0,0E0,0E0,3.2327538E0,0E0,0E0,0E0,0E0,0E0,0E0,0E0,0E0,0E0,0E0,0E0,0E0,0E0,0E0,0E0,0E0,0E0],"parents":[2147483647,0,0,1,1,2,2,3,3,4,4,5,5,6,6,9,9,10,10,11,11,12,12,13,13,14,14,15,15,16,16,17,17,19,19,20,20,21,21,22,22,25,25],"right_children":[2,4,6,8,10,12,14,-1,-1,16,18,20,22,24,26,28,30,32,-1,34,36,38,40,-1,-1,42,-1,-1,-1,-1,-1,-1,-1,-1,-1,-1,-1,-1,-1,-1,-1,-1,-1],"split_conditions":[-5.340317E-1,-1.90671E0,1.6640819E0,6.467237E-2,1.5470567E0,9.1085243E-1,-1.5981658E0,2.5814654E-2,-1.0959629E-2,-5.532728E-1,1.5808278E0,3.00184E-2,-5.728313E-1,2.1609926E0,1.263738E0,-1.3557392E0,-5.203087E-1,2.2807648E0,-0E0,1.9625115E0,-6.7299277E-1,8.30827E-1,4.7893137E-1,-1.7192561E-2,6.2854597E-3,6.64076E-2,-1.5124306E-2,8.4189913E-4,-1.7031968E-2,2.1441441E-2,-6.284641E-3,-1.6656047E-2,-3.7758413E-3,9.578476E-4,2.4519825E-2,-9.779622E-3,-7.088389E-4,-8.819274E-3,1.5216584E-2,1.3589746E-2,-5.7033948E-3,5.575294E-3,1.8998774E-2],"split_indices":[1,32,10,27,31,12,40,0,0,32,53,31,27,30,50,9,32,5,0,15,41,25,8,0,0,51,0,0,0,0,0,0,0,0,0,0,0,0,0,0,0,0,0],"split_type":[0,0,0,0,0,0,0,0,0,0,0,0,0,0,0,0,0,0,0,0,0,0,0,0,0,0,0,0,0,0,0,0,0,0,0,0,0,0,0,0,0,0,0],"sum_hessian":[1.1800007E3,2.4557285E2,9.3442786E2,9.456797E0,2.3611606E2,8.5291895E2,8.1508934E1,4.5887914E0,4.8680053E0,1.7416968E2,6.1946384E1,7.457723E2,1.07146675E2,9.893536E0,7.1615395E1,3.0829067E1,1.433406E2,5.7456673E1,4.4897103E0,5.355073E2,2.1026495E2,2.736186E1,7.978481E1,6.8430314E0,3.0505037E0,6.813378E1,3.4816163E0,4.130696E0,2.6698372E1,3.0237842E0,1.4031682E2,5.147926E1,5.977414E0,5.247351E2,1.07722E1,7.0135315E1,1.4012964E2,2.1961721E1,5.4001403E0,6.6776215E1,1.3008603E1,3.209771E1,3.603607E1],"tree_param":{"num_deleted":"0","num_feature":"54","num_nodes":"43","size_leaf_vector":"1"}},{"base_weights":[9.464469E-3,4.305716E-1,-1.7635086E-1,7.6076996E-1,3.1470686E-1,-3.449559E-1,-6.755663E-2,8.42397E-1,2.1580432E-1,3.7966642E-1,-1.4146194E-1,-2.880545E-1,-5.726415E-1,3.9792746E-2,-1.7076917E-1,8.902277E-1,1.3112796E-3,6.5940744E-1,-1.2921206E-2,5.6396997E-1,2.727132E-1,-2.5826862E-1,2.0218944E-2,-2.2569272E-1,-4.6657664E-1,-5.9801877E-1,-5.689063E-4,6.199123E-2,-1.56131275E-2,-1.9788894E-1,3.39389E-1,3.167612E-2,1.6110666E-2,4.8664473E-3,3.1114481E-2,8.956587E-3,2.4306366E-2,1.3360099E-2,1.9558484E-3,5.0489395E-3,-1.3647582E-2,-1.9470555E-3,-8.635672E-3,-1.0136386E-2,-1.8131552E-2,-6.6959986E-4,-1.8777443E-2,8.122388E-3,7.824885E-5,5.8997294E-4,-7.6034483E-3,2.7683599E-2,-1.9256043E-3],"categories":[],"categories_nodes":[],"categories_segments":[],"categories_sizes":[],"default_left":[0,0,0,0,0,0,0,0,0,0,0,0,0,0,0,0,0,0,0,0,0,0,0,0,0,0,0,0,0,0,0,0,0,0,0,0,0,0,0,0,0,0,0,0,0,0,0,0,0,0,0,0,0],"id":11,"left_children":[1,3,5,7,9,11,13,15,17,19,21,23,25,27,29,31,-1,33,-1,35,37,39,-1,41,43,45,-1,47,-1,49,51,-1,-1,-1,-1,-1,-1,-1,-1,-1,-1,-1,-1,-1,-1,-1,-1,-1,-1,-1,-1,-1,-1],"loss_changes":[9.949323E1,1.4548683E1,1.6111809E1,4.169773E0,8.675159E0,4.2220306E0,5.976506E0,3.1776733E0,4.481881E0,4.777981E0,3.6283855E0,2.9270096E0,8.7776756E-1,3.2678509E0,3.8542795E0,4.04657E0,0E0,1.4247289E0,0E0,5.670088E0,5.769191E0,2.867941E0,0E0,2.0332422E0,9.5673656E-1,9.570217E-1,0E0,3.131434E0,0E0,3.191577E0,3.4532237E0,0E0,0E0,0E0,0E0,0E0,0E0,0E0,0E0,0E0,0E0,0E0,0E0,0E0,0E0,0E0,0E0,0E0,0E0,0E0,0E0,0E0,0E0],"parents":[2147483647,0,0,1,1,2,2,3,3,4,4,5,5,6,6,7,7,8,8,9,9,10,10,11,11,12,12,13,13,14,14,15,15,17,17,19,19,20,20,21,21,23,23,24,24,25,25,27,27,29,29,30,30],"right_children":[2,4,6,8,10,12,14,16,18,20,22,24,26,28,30,32,-1,34,-1,36,38,40,-1,42,44,46,-1,48,-1,50,52,-1,-1,-1,-1,-1,-1,-1,-1,-1,-1,-1,-1,-1,-1,-1,-1,-1,-1,-1,-1,-1,-1],"split_conditions":[-5.1458645E-1,-1.2729438E-2,-6.2497765E-1,2.233233E0,1.4169294E0,1.780128E0,-6.334887E-3,4.536924E-1,-5.340317E-1,-2.2228052E-1,1.0436707E0,1.479517E0,4.1120334E0,1.7347939E0,2.0079794E0,-4.2529613E-2,1.3112796E-3,6.727152E-1,-1.2921206E-2,-4.602078E-1,-3.077125E-1,-5.2309644E-1,2.0218944E-2,6.4103544E-2,1.1979404E-1,-1.2434943E0,-5.689063E-4,-2.9737172E-1,-1.56131275E-2,-9.048283E-1,7.39552E-2,3.167612E-2,1.6110666E-2,4.8664473E-3,3.1114481E-2,8.956587E-3,2.4306366E-2,1.3360099E-2,1.9558484E-3,5.0489395E-3,-1.3647582E-2,-1.9470555E-3,-8.635672E-3,-1.0136386E-2,-1.8131552E-2,-6.6959986E-4,-1.8777443E-2,8.122388E-3,7.824885E-5,5.8997294E-4,-7.6034483E-3,2.7683599E-2,-1.9256043E-3],"split_indices":[0,1,2,4,10,0,28,21,1,8,47,3,22,13,21,32,0,31,0,26,52,6,0,50,13,32,0,32,0,4,5,0,0,0,0,0,0,0,0,0,0,0,0,0,0,0,0,0,0,0,0,0,0],"split_type":[0,0,0,0,0,0,0,0,0,0,0,0,0,0,0,0,0,0,0,0,0,0,0,0,0,0,0,0,0,0,0,0,0,0,0,0,0,0,0,0,0,0,0,0,0,0,0,0,0,0,0,0,0],"sum_hessian":[1.2692136E3,3.883438E2,8.8086975E2,9.920221E1,2.891416E2,3.4425967E2,5.366101E2,8.5644745E1,1.3557468E1,2.5343828E2,3.5703316E1,2.7759076E2,6.666894E1,2.6286002E2,2.7375006E2,8.057931E1,5.0654364E0,8.120396E0,5.437073E0,9.115332E1,1.6228496E2,3.1934702E1,3.7686136E0,2.0781921E2,6.977154E1,6.349788E1,3.1710563E0,2.538686E2,8.991408E0,2.6069952E2,1.3050547E1,5.330724E1,2.7272068E1,4.2373133E0,3.883082E0,4.512885E1,4.602447E1,8.770223E1,7.4582726E1,9.961753E0,2.1972948E1,5.8961678E1,1.4885753E2,3.8238586E1,3.153295E1,3.1835165E0,6.0314365E1,5.5061577E1,1.9880704E2,5.279915E1,2.0790038E2,4.911656E0,8.138891E0],"tree_param":{"num_deleted":"0","num_feature":"54","num_nodes":"53","size_leaf_vector":"1"}},{"base_weights":[-4.0051015E-3,-3.2863632E-1,1.7205335E-1,-1.0455431E-1,-3.7923342E-1,6.344478E-2,5.053259E-1,4.3506268E-1,-2.0973285E-1,-3.9104068E-1,1.4148626E-2,-2.8689533E-2,1.6141482E-1,3.3787665E-1,6.4475703E-1,-9.146074E-3,6.935565E-1,2.702559E-1,-3.224834E-1,-3.5748556E-1,-6.0783935E-1,1.0334293E-1,-1.03916615E-1,1.3668239E-1,4.8776767E-1,-5.2010044E-2,4.3434793E-1,5.8994734E-1,2.7390135E-2,4.3622763E-3,2.8632106E-2,1.6545668E-2,-1.4876014E-2,-4.937495E-3,-1.9987112E-2,-1.2399304E-2,-2.2856898E-3,-2.0451045E-2,-4.467613E-3,1.0237849E-2,-1.2344506E-3,2.3195504E-3,-5.900272E-3,4.796792E-3,-7.084123E-3,2.0212088E-2,-4.3378915E-3,5.7886364E-3,-1.6905393E-2,-0E0,1.5581401E-2,1.8305298E-2,2.035514E-4],"categories":[],"categories_nodes":[],"categories_segments":[],"categories_sizes":[],"default_left":[0,0,0,0,0,0,0,0,0,0,0,0,0,0,0,0,0,0,0,0,0,0,0,0,0,0,0,0,0,0,0,0,0,0,0,0,0,0,0,0,0,0,0,0,0,0,0,0,0,0,0,0,0],"id":12,"left_children":[1,3,5,7,9,11,13,15,17,19,-1,21,23,25,27,-1,29,31,33,35,37,39,41,43,45,47,49,51,-1,-1,-1,-1,-1,-1,-1,-1,-1,-1,-1,-1,-1,-1,-1,-1,-1,-1,-1,-1,-1,-1,-1,-1,-1],"loss_changes":[8.87704E1,6.1052513E0,3.6348682E1,5.8785877E0,4.6457405E0,6.883494E0,5.4520645E0,3.4766126E0,4.7735386E0,2.883072E0,0E0,3.9073193E0,2.8517609E0,4.3741465E0,1.2720947E0,0E0,1.596622E0,3.9054115E0,3.6430779E0,5.9398766E0,1.7500076E0,4.9396977E0,4.2449694E0,3.015266E0,3.1305528E0,3.0820837E0,3.4509125E0,1.277668E0,0E0,0E0,0E0,0E0,0E0,0E0,0E0,0E0,0E0,0E0,0E0,0E0,0E0,0E0,0E0,0E0,0E0,0E0,0E0,0E0,0E0,0E0,0E0,0E0,0E0],"parents":[2147483647,0,0,1,1,2,2,3,3,4,4,5,5,6,6,7,7,8,8,9,9,11,11,12,12,13,13,14,14,16,16,17,17,18,18,19,19,20,20,21,21,22,22,23,23,24,24,25,25,26,26,27,27],"right_children":[2,4,6,8,10,12,14,16,18,20,-1,22,24,26,28,-1,30,32,34,36,38,40,42,44,46,48,50,52,-1,-1,-1,-1,-1,-1,-1,-1,-1,-1,-1,-1,-1,-1,-1,-1,-1,-1,-1,-1,-1,-1,-1,-1,-1],"split_conditions":[-3.197504E-1,-1.1493119E0,1.0652318E0,-9.722495E-1,2.510177E0,2.7825603E-1,1.4505074E0,-3.851454E-1,1.0675764E0,1.2048235E0,1.4148626E-2,-1.1870898E-2,8.7151295E-1,-8.032549E-1,2.5495598E0,-9.146074E-3,-6.6206E-1,7.6884335E-1,4.087953E-1,4.1198903E-1,1.3938522E0,2.0392023E-1,-5.8336914E-1,7.977678E-1,1.1091219E0,1.1300524E-2,-9.062401E-2,1.2309437E0,2.7390135E-2,4.3622763E-3,2.8632106E-2,1.6545668E-2,-1.4876014E-2,-4.937495E-3,-1.9987112E-2,-1.2399304E-2,-2.2856898E-3,-2.0451045E-2,-4.467613E-3,1.0237849E-2,-1.2344506E-3,2.3195504E-3,-5.900272E-3,4.796792E-3,-7.084123E-3,2.0212088E-2,-4.3378915E-3,5.7886364E-3,-1.6905393E-2,-0E0,1.5581401E-2,1.8305298E-2,2.035514E-4],"split_indices":[40,41,40,49,4,28,40,53,42,51,0,48,1,49,31,0,5,27,4,7,22,42,7,1,1,48,17,24,0,0,0,0,0,0,0,0,0,0,0,0,0,0,0,0,0,0,0,0,0,0,0,0,0],"split_type":[0,0,0,0,0,0,0,0,0,0,0,0,0,0,0,0,0,0,0,0,0,0,0,0,0,0,0,0,0,0,0,0,0,0,0,0,0,0,0,0,0,0,0,0,0,0,0,0,0,0,0,0,0],"sum_hessian":[1.550914E3,5.452457E2,1.00566815E3,1.0136557E2,4.438802E2,7.5961224E2,2.4605591E2,1.5867974E1,8.54976E1,4.3845374E2,5.426447E0,3.913036E2,3.6830862E2,1.1367673E2,1.3237918E2,3.9616346E0,1.190634E1,1.5828874E1,6.9668724E1,3.8238077E2,5.6072983E1,1.4140971E2,2.4989389E2,3.4396658E2,2.4342035E1,2.2434093E1,9.124263E1,1.12885826E2,1.9493359E1,4.4647913E0,7.4415483E0,1.1878548E1,3.950326E0,4.8952507E1,2.0716215E1,3.183732E2,6.400755E1,4.7693455E1,8.379531E0,5.3177742E1,8.8231964E1,8.4291534E1,1.6560236E2,3.2459744E2,1.936914E1,1.8881876E1,5.460159E0,1.5458237E1,6.975857E0,1.4938454E1,7.630418E1,1.0889072E2,3.9951057E0],"tree_param":{"num_deleted":"0","num_feature":"54","num_nodes":"53","size_leaf_vector":"1"}},{"base_weights":[3.2696764E-3,-2.4539873E-1,6.199668E-2,4.2327484E-1,-2.683992E-1,3.4694966E-2,3.3557835E-1,-2.6692403E-3,2.8388288E-2,-1.1957975E-1,-3.654392E-1,-8.645042E-2,8.141769E-2,8.069379E-2,5.532509E-1,-2.1764804E-2,-4.6900448E-1,-2.969474E-1,-5.732747E-1,1.4354837E-2,-2.272138E-1,6.761196E-2,5.6564134E-1,-1.6941104E-2,2.1055262E-1,-1.4721824E-2,6.413575E-1,-9.4571635E-3,5.8048004E-3,6.4997813E-3,-1.8493922E-2,-1.0047314E-2,6.7701917E-3,-1.889482E-2,-9.457612E-3,6.695722E-3,-3.5562401E-3,-8.024504E-3,1.51124615E-2,-1.0450779E-3,4.090459E-3,-8.468831E-3,2.4209253E-2,9.220179E-3,-1.5148254E-2,-5.57247E-3,2.2416621E-2],"categories":[],"categories_nodes":[],"categories_segments":[],"categories_sizes":[],"default_left":[0,0,0,0,0,0,0,0,0,0,0,0,0,0,0,0,0,0,0,0,0,0,0,0,0,0,0,0,0,0,0,0,0,0,0,0,0,0,0,0,0,0,0,0,0,0,0],"id":13,"left_children":[1,3,5,7,9,11,13,-1,-1,15,17,19,21,23,25,27,29,31,33,35,37,39,41,-1,43,-1,45,-1,-1,-1,-1,-1,-1,-1,-1,-1,-1,-1,-1,-1,-1,-1,-1,-1,-1,-1,-1],"loss_changes":[1.7448336E1,3.6074905E0,7.1803255E0,2.2679677E0,3.1044016E0,4.995825E0,4.7394915E0,0E0,0E0,2.9914956E0,1.637289E0,3.5042367E0,4.158388E0,3.5723803E0,4.6293545E0,4.5590377E0,2.1198072E0,2.1208935E0,1.673336E-1,4.0173707E0,3.13725E0,4.387287E0,3.826211E0,0E0,2.5947037E0,0E0,4.0149937E0,0E0,0E0,0E0,0E0,0E0,0E0,0E0,0E0,0E0,0E0,0E0,0E0,0E0,0E0,0E0,0E0,0E0,0E0,0E0,0E0],"parents":[2147483647,0,0,1,1,2,2,3,3,4,4,5,5,6,6,9,9,10,10,11,11,12,12,13,13,14,14,15,15,16,16,17,17,18,18,19,19,20,20,21,21,22,22,24,24,26,26],"right_children":[2,4,6,8,10,12,14,-1,-1,16,18,20,22,24,26,28,30,32,34,36,38,40,42,-1,44,-1,46,-1,-1,-1,-1,-1,-1,-1,-1,-1,-1,-1,-1,-1,-1,-1,-1,-1,-1,-1,-1],"split_conditions":[-8.2363117E-1,-1.90671E0,1.2822843E0,1.3776076E0,-2.1756294E-1,-4.870667E-1,1.7548542E-2,-2.6692403E-3,2.8388288E-2,1.1920046E0,1.6306813E0,2.7668485E-1,2.3823361E0,-5.7256985E-1,-1.3754578E0,-1.4732605E-1,7.7414405E-1,1.3064752E0,1.1462451E0,-5.455242E-1,2.7558715E0,-1.2789609E-1,5.8122253E-1,-1.6941104E-2,6.1464816E-1,-1.4721824E-2,-8.6757E-1,-9.4571635E-3,5.8048004E-3,6.4997813E-3,-1.8493922E-2,-1.0047314E-2,6.7701917E-3,-1.889482E-2,-9.457612E-3,6.695722E-3,-3.5562401E-3,-8.024504E-3,1.51124615E-2,-1.0450779E-3,4.090459E-3,-8.468831E-3,2.4209253E-2,9.220179E-3,-1.5148254E-2,-5.57247E-3,2.2416621E-2],"split_indices":[42,32,12,14,33,52,32,0,0,46,31,11,9,4,50,53,31,52,25,4,49,32,13,0,31,0,27,0,0,0,0,0,0,0,0,0,0,0,0,0,0,0,0,0,0,0,0],"split_type":[0,0,0,0,0,0,0,0,0,0,0,0,0,0,0,0,0,0,0,0,0,0,0,0,0,0,0,0,0,0,0,0,0,0,0,0,0,0,0,0,0,0,0,0,0,0,0],"sum_hessian":[1.1940149E3,2.2718051E2,9.668344E2,6.8312287E0,2.2034929E2,8.804622E2,8.63722E1,3.7737412E0,3.0574877E0,8.825902E1,1.3209027E2,2.4422662E2,6.362356E2,4.0628372E1,4.574383E1,7.0009605E1,1.824941E1,1.0153839E2,3.0551876E1,1.4242152E2,1.018051E2,6.1990753E2,1.6328068E1,6.115538E0,3.4512833E1,3.1161175E0,4.2627712E1,2.9622969E1,4.0386635E1,3.0269837E0,1.5222427E1,9.5175385E1,6.3630085E0,2.3559568E1,6.9923077E0,5.5414703E1,8.700683E1,9.721999E1,4.585102E0,2.4852873E2,3.7137878E2,3.4881675E0,1.2839901E1,3.1026075E1,3.4867575E0,4.6441207E0,3.7983593E1],"tree_param":{"num_deleted":"0","num_feature":"54","num_nodes":"47","size_leaf_vector":"1"}},{"base_weights":[-3.423935E-3,5.0103223E-1,-1.6883673E-1,8.646851E-1,3.945228E-1,-6.666504E-2,-3.579617E-1,7.0379496E-1,3.9339446E-2,6.185085E-1,3.1241003E-1,-1.3854803E-1,1.257903E-1,-2.5637478E-1,-4.569143E-1,4.0350128E-2,5.7804763E-1,6.9016117E-1,-1.5615799E-2,7.86774E-1,2.572011E-1,1.247181E-1,-1.7445773E-1,4.4026905E-1,2.3685083E-2,-4.5352453E-1,-1.4092952E-1,-4.7477478E-1,4.46043E-3,-5.7543847E-3,1.985769E-2,2.5427213E-2,9.938371E-3,2.8544808E-2,5.0947797E-3,8.769091E-3,-9.626967E-3,2.3941197E-2,1.0142807E-3,-1.9732402E-3,-8.115479E-3,2.4265008E-2,3.7132006E-3,-1.2175713E-3,1.9739987E-2,-1.6029883E-2,5.890914E-3,-1.8773125E-2,-2.1540327E-3,-1.5631506E-2,-1.022066E-2],"categories":[],"categories_nodes":[],"categories_segments":[],"categories_sizes":[],"default_left":[0,0,0,0,0,0,0,0,0,0,0,0,0,0,0,0,0,0,0,0,0,0,0,0,0,0,0,0,0,0,0,0,0,0,0,0,0,0,0,0,0,0,0,0,0,0,0,0,0,0,0],"id":14,"left_children":[1,3,5,7,9,11,13,15,-1,17,19,21,23,25,27,-1,29,31,-1,33,35,37,39,41,43,45,47,49,-1,-1,-1,-1,-1,-1,-1,-1,-1,-1,-1,-1,-1,-1,-1,-1,-1,-1,-1,-1,-1,-1,-1],"loss_changes":[1.06662575E2,1.1756737E1,1.854289E1,3.9374619E0,4.2409477E0,8.690495E0,3.2013168E0,3.3931446E0,0E0,5.655449E0,4.4719315E0,4.3492956E0,5.421269E0,3.7269478E0,1.9316368E0,0E0,3.2167892E0,3.068224E0,0E0,1.5908813E0,3.4416313E0,3.264364E0,4.156907E0,4.6497145E0,5.391776E0,3.3791504E0,3.5206292E0,7.5764084E-1,0E0,0E0,0E0,0E0,0E0,0E0,0E0,0E0,0E0,0E0,0E0,0E0,0E0,0E0,0E0,0E0,0E0,0E0,0E0,0E0,0E0,0E0,0E0],"parents":[2147483647,0,0,1,1,2,2,3,3,4,4,5,5,6,6,7,7,9,9,10,10,11,11,12,12,13,13,14,14,16,16,17,17,19,19,20,20,21,21,22,22,23,23,24,24,25,25,26,26,27,27],"right_children":[2,4,6,8,10,12,14,16,-1,18,20,22,24,26,28,-1,30,32,-1,34,36,38,40,42,44,46,48,50,-1,-1,-1,-1,-1,-1,-1,-1,-1,-1,-1,-1,-1,-1,-1,-1,-1,-1,-1,-1,-1,-1,-1],"split_conditions":[-6.9822097E-1,-2.5455216E-1,5.597199E-1,1.5470567E0,-3.0642587E-1,9.237253E-1,1.0603951E0,-1.3864851E0,3.9339446E-2,2.6217391E0,-1.4264523E0,-5.3477716E-1,-9.055598E-1,7.529867E-1,5.5905837E-1,4.0350128E-2,-1.9607098E0,3.752229E-1,-1.5615799E-2,-7.484352E-1,2.1933455E0,-1.1624854E0,-3.0501133E-1,-6.369155E-2,8.3384044E-2,1.2345437E0,-2.0365672E0,7.6073414E-1,4.46043E-3,-5.7543847E-3,1.985769E-2,2.5427213E-2,9.938371E-3,2.8544808E-2,5.0947797E-3,8.769091E-3,-9.626967E-3,2.3941197E-2,1.0142807E-3,-1.9732402E-3,-8.115479E-3,2.4265008E-2,3.7132006E-3,-1.2175713E-3,1.9739987E-2,-1.6029883E-2,5.890914E-3,-1.8773125E-2,-2.1540327E-3,-1.5631506E-2,-1.022066E-2],"split_indices":[0,1,5,31,8,42,3,49,0,52,3,32,52,5,1,0,44,25,0,5,4,28,22,32,20,31,43,25,0,0,0,0,0,0,0,0,0,0,0,0,0,0,0,0,0,0,0,0,0,0,0],"split_type":[0,0,0,0,0,0,0,0,0,0,0,0,0,0,0,0,0,0,0,0,0,0,0,0,0,0,0,0,0,0,0,0,0,0,0,0,0,0,0,0,0,0,0,0,0,0,0,0,0,0,0],"sum_hessian":[1.2766454E3,3.145956E2,9.620497E2,6.944247E1,2.4515315E2,6.258342E2,3.3621548E2,5.3110188E1,1.6332283E1,6.3684753E1,1.814684E2,4.562299E2,1.6960435E2,1.6816994E2,1.6804553E2,6.9876266E0,4.612256E1,6.036903E1,3.3157237E0,1.7348146E1,1.6412025E2,5.4129612E1,4.0210028E2,4.051842E1,1.2908594E2,6.0705837E1,1.074641E2,1.6360167E2,4.443866E0,4.2877555E0,4.1834805E1,4.082295E1,1.9546082E1,1.3136476E1,4.21167E0,1.5535455E2,8.765697E0,5.3828306E0,4.8746784E1,1.8993178E2,2.1216849E2,1.7854733E1,2.2663687E1,1.179166E2,1.1169326E1,5.428759E1,6.418249E0,1.2224824E1,9.523928E1,1.1892641E2,4.4675262E1],"tree_param":{"num_deleted":"0","num_feature":"54","num_nodes":"51","size_leaf_vector":"1"}},{"base_weights":[6.5798685E-3,-1.078732E-1,4.7243905E-1,-3.7724456E-1,3.7036845E-3,3.5005262E-1,6.521973E-1,-3.894795E-1,1.231416E-2,2.3625027E-2,-3.061949E-1,3.6524693E-3,4.2039812E-1,5.8140105E-1,2.8589666E-2,-3.5098654E-1,-7.2702324E-1,-5.9631277E-2,7.963815E-2,-1.240255E-1,-7.1895117E-1,2.391572E-1,-5.403211E-1,9.38632E-2,4.9327952E-1,6.300223E-1,2.23581E-1,-3.8419904E-3,-1.1665436E-2,-2.3976646E-2,-6.367423E-3,-4.9783187E-3,2.7872084E-3,3.2499076E-3,-3.8643694E-3,-1.7320488E-2,2.58467E-3,-6.791347E-3,-2.4898898E-2,1.1430647E-2,-1.0244719E-2,-2.33806E-2,-1.5914232E-3,1.0220518E-2,-1.1272013E-2,1.635829E-2,-1.0058228E-3,2.3136932E-2,1.4557161E-2,-2.0583246E-3,2.3487192E-2],"categories":[],"categories_nodes":[],"categories_segments":[],"categories_sizes":[],"default_left":[0,0,0,0,0,0,0,0,0,0,0,0,0,0,0,0,0,0,0,0,0,0,0,0,0,0,0,0,0,0,0,0,0,0,0,0,0,0,0,0,0,0,0,0,0,0,0,0,0,0,0],"id":15,"left_children":[1,3,5,7,9,11,13,15,-1,17,19,21,23,25,-1,27,29,31,33,35,37,39,41,43,45,47,49,-1,-1,-1,-1,-1,-1,-1,-1,-1,-1,-1,-1,-1,-1,-1,-1,-1,-1,-1,-1,-1,-1,-1,-1],"loss_changes":[8.271272E1,3.744753E1,6.403221E0,3.6738014E0,5.4168687E0,4.4527454E0,1.9001389E0,4.312958E0,0E0,3.8720899E0,3.8095193E0,4.2495174E0,3.5393906E0,1.547596E0,0E0,2.6435547E0,1.0538044E0,5.426382E0,2.982278E0,3.7316747E0,5.7282734E-1,2.0641394E0,1.0362995E0,3.5354204E0,3.4855175E0,1.3189735E0,2.4120195E0,0E0,0E0,0E0,0E0,0E0,0E0,0E0,0E0,0E0,0E0,0E0,0E0,0E0,0E0,0E0,0E0,0E0,0E0,0E0,0E0,0E0,0E0,0E0,0E0],"parents":[2147483647,0,0,1,1,2,2,3,3,4,4,5,5,6,6,7,7,9,9,10,10,11,11,12,12,13,13,15,15,16,16,17,17,18,18,19,19,20,20,21,21,22,22,23,23,24,24,25,25,26,26],"right_children":[2,4,6,8,10,12,14,16,-1,18,20,22,24,26,-1,28,30,32,34,36,38,40,42,44,46,48,50,-1,-1,-1,-1,-1,-1,-1,-1,-1,-1,-1,-1,-1,-1,-1,-1,-1,-1,-1,-1,-1,-1,-1,-1],"split_conditions":[8.599846E-1,-6.9822097E-1,1.4505074E0,2.510177E0,1.7119654E0,-8.032549E-1,1.1723164E0,2.2589233E0,1.231416E-2,-6.678733E-1,4.733485E-1,-5.0321966E-1,-4.0989378E-1,1.2341896E0,2.8589666E-2,-1.5439979E0,8.326345E-1,2.7825603E-1,1.1530699E0,-1.4240468E-1,-2.51583E-1,3.7453404E-1,1.8116751E-1,5.472573E-1,1.6629906E0,-2.2348835E0,1.7150737E0,-3.8419904E-3,-1.1665436E-2,-2.3976646E-2,-6.367423E-3,-4.9783187E-3,2.7872084E-3,3.2499076E-3,-3.8643694E-3,-1.7320488E-2,2.58467E-3,-6.791347E-3,-2.4898898E-2,1.1430647E-2,-1.0244719E-2,-2.33806E-2,-1.5914232E-3,1.0220518E-2,-1.1272013E-2,1.635829E-2,-1.0058228E-3,2.3136932E-2,1.4557161E-2,-2.0583246E-3,2.3487192E-2],"split_indices":[0,0,40,4,15,49,17,2,0,31,49,4,24,49,0,26,49,28,44,26,7,22,10,46,31,43,31,0,0,0,0,0,0,0,0,0,0,0,0,0,0,0,0,0,0,0,0,0,0,0,0],"split_type":[0,0,0,0,0,0,0,0,0,0,0,0,0,0,0,0,0,0,0,0,0,0,0,0,0,0,0,0,0,0,0,0,0,0,0,0,0,0,0,0,0,0,0,0,0,0,0,0,0,0,0],"sum_hessian":[1.5486406E3,1.2436519E3,3.049887E2,3.6382144E2,8.7983044E2,1.8353474E2,1.21453964E2,3.5887976E2,4.941667E0,8.2785925E2,5.197118E1,3.1397667E1,1.5213707E2,1.0095735E2,2.0496613E1,3.2424005E2,3.463973E1,3.322148E2,4.9564447E2,3.7127686E1,1.4843495E1,2.2430796E1,8.966872E0,2.8428247E1,1.23708824E2,8.796439E1,1.299296E1,4.8094234E1,2.761458E2,2.972405E1,4.915678E0,1.9610536E2,1.3610945E2,4.3651987E2,5.912461E1,1.135842E1,2.5769266E1,3.454687E0,1.1388808E1,1.8441236E1,3.9895585E0,5.475987E0,3.4908855E0,1.8953653E1,9.474595E0,1.12736305E2,1.0972522E1,4.1991856E1,4.5972538E1,8.993367E0,3.9995928E0],"tree_param":{"num_deleted":"0","num_feature":"54","num_nodes":"51","size_leaf_vector":"1"}},{"base_weights":[-1.0223807E-2,-2.424211E-1,6.681969E-2,-2.1115379E-1,-5.8405244E-1,4.401531E-2,2.982893E-1,-2.3325965E-1,2.6418978E-1,-1.862311E-2,-7.407423E-3,-1.2066199E-2,1.4720085E-1,1.0931565E-1,7.3009765E-1,-1.9558999E-1,-5.587206E-1,6.671316E-1,-1.0332337E-2,-2.4249716E-2,7.66073E-1,3.047589E-1,5.2851588E-2,-4.1500074E-3,6.199291E-1,2.9593536E-1,1.2088422E0,-9.553634E-3,-3.1048777E-3,-0E0,-1.891446E-2,4.221572E-3,3.0404873E-2,5.138094E-3,-1.7952211E-3,-1.946941E-6,3.8094807E-2,2.5803141E-2,6.509665E-3,2.6794344E-3,-1.5344658E-2,9.278511E-3,-8.762708E-3,2.711348E-2,-2.333788E-4,2.827035E-2,-2.406375E-3,4.518811E-2,2.149231E-2],"categories":[],"categories_nodes":[],"categories_segments":[],"categories_sizes":[],"default_left":[0,0,0,0,0,0,0,0,0,0,0,0,0,0,0,0,0,0,0,0,0,0,0,0,0,0,0,0,0,0,0,0,0,0,0,0,0,0,0,0,0,0,0,0,0,0,0,0,0],"id":16,"left_children":[1,3,5,7,9,11,13,15,17,-1,-1,19,21,23,25,27,29,31,-1,33,35,37,39,41,43,45,47,-1,-1,-1,-1,-1,-1,-1,-1,-1,-1,-1,-1,-1,-1,-1,-1,-1,-1,-1,-1,-1,-1],"loss_changes":[2.1202988E1,2.9521103E0,4.645196E0,2.921136E0,5.619526E-2,4.707394E0,6.295909E0,3.01577E0,3.296525E0,0E0,0E0,4.9274645E0,4.202853E0,3.331883E0,4.43052E0,2.5927658E0,1.0434809E0,1.1794956E0,0E0,3.6079547E0,3.2173018E0,4.901243E0,3.7202258E0,4.328573E0,1.953486E0,3.5401301E0,2.9016304E-1,0E0,0E0,0E0,0E0,0E0,0E0,0E0,0E0,0E0,0E0,0E0,0E0,0E0,0E0,0E0,0E0,0E0,0E0,0E0,0E0,0E0,0E0],"parents":[2147483647,0,0,1,1,2,2,3,3,4,4,5,5,6,6,7,7,8,8,11,11,12,12,13,13,14,14,15,15,16,16,17,17,19,19,20,20,21,21,22,22,23,23,24,24,25,25,26,26],"right_children":[2,4,6,8,10,12,14,16,18,-1,-1,20,22,24,26,28,30,32,-1,34,36,38,40,42,44,46,48,-1,-1,-1,-1,-1,-1,-1,-1,-1,-1,-1,-1,-1,-1,-1,-1,-1,-1,-1,-1,-1,-1],"split_conditions":[-3.3190164E-1,2.3513596E0,1.4169294E0,2.18664E0,1.0417707E0,1.0305528E-1,7.744539E-1,1.8074449E0,6.467237E-2,-1.862311E-2,-7.407423E-3,1.7435918E0,-9.67061E-2,2.1154289E-1,-1.2868944E-3,6.094637E-1,-3.2172692E-1,1.0058162E0,-1.0332337E-2,-1.0099313E0,-8.609244E-3,-1.0257331E0,1.5808278E0,-2.0344312E-1,2.3231547E0,-1.1870898E-2,-1.7582335E-1,-9.553634E-3,-3.1048777E-3,-0E0,-1.891446E-2,4.221572E-3,3.0404873E-2,5.138094E-3,-1.7952211E-3,-1.946941E-6,3.8094807E-2,2.5803141E-2,6.509665E-3,2.6794344E-3,-1.5344658E-2,9.278511E-3,-8.762708E-3,2.711348E-2,-2.333788E-4,2.827035E-2,-2.406375E-3,4.518811E-2,2.149231E-2],"split_indices":[1,31,10,33,53,40,42,46,27,0,0,50,20,40,32,3,53,14,0,11,32,6,53,12,10,48,50,0,0,0,0,0,0,0,0,0,0,0,0,0,0,0,0,0,0,0,0,0,0],"split_type":[0,0,0,0,0,0,0,0,0,0,0,0,0,0,0,0,0,0,0,0,0,0,0,0,0,0,0,0,0,0,0,0,0,0,0,0,0,0,0,0,0,0,0,0,0,0,0,0,0],"sum_hessian":[1.1823464E3,2.943555E2,8.8799097E2,2.7142453E2,2.2930948E1,8.098288E2,7.816213E1,2.6005054E2,1.1373996E1,1.9652662E1,3.278287E0,5.2461414E2,2.852147E2,5.5401386E1,2.2760742E1,2.3478424E2,2.5266294E1,6.884231E0,4.4897647E0,5.176072E2,7.006954E0,1.0559196E2,1.7962274E2,4.598E1,9.421389E0,1.2894263E1,9.866478E0,9.906969E1,1.3571457E2,3.0139177E0,2.2252377E1,3.4046903E0,3.479541E0,7.869167E1,4.389155E2,3.097484E0,3.90947E0,1.3054381E1,9.2537575E1,1.6967848E2,9.944255E0,2.1813631E1,2.4166368E1,6.2944813E0,3.1269073E0,4.287243E0,8.60702E0,4.741004E0,5.1254745E0],"tree_param":{"num_deleted":"0","num_feature":"54","num_nodes":"49","size_leaf_vector":"1"}},{"base_weights":[6.587766E-3,4.676777E-1,-1.5569621E-1,7.984899E-1,3.3635926E-1,-3.4376806E-1,-4.6238016E-2,6.491495E-1,1.1649836E0,2.716393E-1,6.9097644E-1,-2.5059655E-1,-5.0099415E-1,3.845452E-2,-1.738954E-1,8.3455664E-1,2.6302636E-1,3.8486592E-2,1.1940328E-2,1.418033E-1,5.088909E-1,8.708302E-1,-9.411615E-3,1.8100675E-2,-3.0774045E-1,-5.6304044E-1,-3.252165E-1,3.0423656E-1,-5.674893E-3,-2.3424974E-1,1.2168439E-1,-7.862545E-4,2.6959248E-2,-8.181754E-3,1.985702E-2,9.673665E-3,4.7936404E-4,1.9651864E-2,1.8110708E-3,2.9507563E-2,4.825576E-3,1.3362774E-2,-1.592564E-2,-3.045735E-3,2.8516361E-2,-8.086124E-3,-1.9103305E-2,-1.811118E-2,-1.0457038E-2,5.332301E-3,-1.2761073E-2,-0E0,1.633618E-2,-1.6827219E-3,8.246505E-3,-8.255232E-3,4.202083E-3,1.2873784E-2,-1.372336E-3],"categories":[],"categories_nodes":[],"categories_segments":[],"categories_sizes":[],"default_left":[0,0,0,0,0,0,0,0,0,0,0,0,0,0,0,0,0,0,0,0,0,0,0,0,0,0,0,0,0,0,0,0,0,0,0,0,0,0,0,0,0,0,0,0,0,0,0,0,0,0,0,0,0,0,0,0,0,0,0],"id":17,"left_children":[1,3,5,7,9,11,13,15,17,19,21,23,25,27,29,31,33,-1,-1,35,37,39,41,43,45,47,49,51,53,55,57,-1,-1,-1,-1,-1,-1,-1,-1,-1,-1,-1,-1,-1,-1,-1,-1,-1,-1,-1,-1,-1,-1,-1,-1,-1,-1,-1,-1],"loss_changes":[9.477364E1,1.3943909E1,1.9221779E1,4.139534E0,5.1785736E0,4.8385315E0,6.435828E0,4.564621E0,1.6185493E0,6.120941E0,4.610014E0,3.3879242E0,1.1088104E0,4.219682E0,4.2734303E0,2.6233482E0,5.3078904E0,0E0,0E0,2.9833426E0,4.55674E0,2.0206985E0,2.189873E0,4.52481E0,2.0061493E0,4.9484253E-1,1.904561E0,3.7220469E0,4.334392E0,3.080617E0,2.1487927E0,0E0,0E0,0E0,0E0,0E0,0E0,0E0,0E0,0E0,0E0,0E0,0E0,0E0,0E0,0E0,0E0,0E0,0E0,0E0,0E0,0E0,0E0,0E0,0E0,0E0,0E0,0E0,0E0],"parents":[2147483647,0,0,1,1,2,2,3,3,4,4,5,5,6,6,7,7,8,8,9,9,10,10,11,11,12,12,13,13,14,14,15,15,16,16,19,19,20,20,21,21,22,22,23,23,24,24,25,25,26,26,27,27,28,28,29,29,30,30],"right_children":[2,4,6,8,10,12,14,16,18,20,22,24,26,28,30,32,34,-1,-1,36,38,40,42,44,46,48,50,52,54,56,58,-1,-1,-1,-1,-1,-1,-1,-1,-1,-1,-1,-1,-1,-1,-1,-1,-1,-1,-1,-1,-1,-1,-1,-1,-1,-1,-1,-1],"split_conditions":[-6.476998E-1,-1.3074926E-1,-6.2497765E-1,1.3961046E0,7.362106E-1,1.3631538E0,1.7153445E-1,1.9601787E0,-2.909258E-1,-2.909258E-1,1.6014553E0,-8.032549E-1,7.6073414E-1,-1.2305217E0,2.219562E-1,-1.4388034E0,-1.2558298E-2,3.8486592E-2,1.1940328E-2,-6.012866E-1,5.7925904E-1,1.990657E0,-1.6546795E-1,1.8724321E-1,1.780128E0,1.4557647E0,8.30827E-1,-5.2309644E-1,9.6032584E-1,1.4644477E0,-3.8889495E-1,-7.862545E-4,2.6959248E-2,-8.181754E-3,1.985702E-2,9.673665E-3,4.7936404E-4,1.9651864E-2,1.8110708E-3,2.9507563E-2,4.825576E-3,1.3362774E-2,-1.592564E-2,-3.045735E-3,2.8516361E-2,-8.086124E-3,-1.9103305E-2,-1.811118E-2,-1.0457038E-2,5.332301E-3,-1.2761073E-2,-0E0,1.633618E-2,-1.6827219E-3,8.246505E-3,-8.255232E-3,4.202083E-3,1.2873784E-2,-1.372336E-3],"split_indices":[40,1,2,31,33,3,28,4,28,28,24,49,25,31,2,11,33,0,0,31,27,33,31,21,0,46,25,6,15,44,23,0,0,0,0,0,0,0,0,0,0,0,0,0,0,0,0,0,0,0,0,0,0,0,0,0,0,0,0],"split_type":[0,0,0,0,0,0,0,0,0,0,0,0,0,0,0,0,0,0,0,0,0,0,0,0,0,0,0,0,0,0,0,0,0,0,0,0,0,0,0,0,0,0,0,0,0,0,0,0,0,0,0,0,0,0,0,0,0,0,0],"sum_hessian":[1.2641714E3,3.2877438E2,9.3539703E2,9.176403E1,2.3701035E2,3.429992E2,5.923978E2,6.735998E1,2.4404049E1,2.0216238E2,3.484797E1,2.1739926E2,1.2559995E2,3.560781E2,2.3631969E2,4.454849E1,2.281149E1,2.0456352E1,3.9476964E0,1.3196416E2,7.019823E1,2.7647697E1,7.200273E0,3.793898E1,1.7946028E2,9.078312E1,3.4816833E1,5.018663E1,3.0589148E2,1.9670116E2,3.961853E1,3.0196948E0,4.1528793E1,9.763336E0,1.3048153E1,5.3210213E1,7.8753944E1,5.242855E1,1.7769672E1,2.3404486E1,4.2432127E0,3.8211863E0,3.3790865E0,3.431989E1,3.6190908E0,1.6269373E2,1.6766554E1,7.439599E1,1.6387129E1,5.487212E0,2.932962E1,2.265639E1,2.7530243E1,2.6027673E2,4.561475E1,1.7779471E2,1.8906448E1,1.3628112E1,2.599042E1],"tree_param":{"num_deleted":"0","num_feature":"54","num_nodes":"59","size_leaf_vector":"1"}},{"base_weights":[7.609134E-3,-1.3134447E-1,3.7922537E-1,-3.7162194E-1,-1.7737169E-2,2.716679E-1,6.194979E-1,-3.3892024E-1,-5.768872E-1,-6.994883E-2,9.35351E-2,3.2561752E-1,8.200957E-2,8.214151E-1,5.33438E-1,-4.0543744E-1,-1.7952241E-1,-6.338448E-1,-2.7308462E-3,-3.9013885E-2,-3.0443767E-1,-1.276778E-1,1.5722615E-1,2.5897807E-2,2.9792804E-1,1.749657E-1,-3.9791596E-1,8.84297E-1,1.423025E-2,5.590186E-1,-2.3226559E-3,-1.2722175E-2,5.363971E-3,2.188401E-4,-1.1058976E-2,-9.4888285E-3,-2.147787E-2,1.10245915E-2,-1.9055854E-3,-3.8068695E-3,-1.5370255E-2,-5.746409E-3,1.8449107E-2,3.4210428E-3,1.765738E-2,2.3410628E-3,1.0927401E-2,-7.009778E-3,7.7537834E-3,-2.1893682E-2,-2.6983386E-3,1.4340562E-2,2.8308637E-2,1.8013831E-2,3.1741743E-3],"categories":[],"categories_nodes":[],"categories_segments":[],"categories_sizes":[],"default_left":[0,0,0,0,0,0,0,0,0,0,0,0,0,0,0,0,0,0,0,0,0,0,0,0,0,0,0,0,0,0,0,0,0,0,0,0,0,0,0,0,0,0,0,0,0,0,0,0,0,0,0,0,0,0,0],"id":18,"left_children":[1,3,5,7,9,11,13,15,17,19,21,23,25,27,29,31,33,35,-1,37,39,41,43,-1,45,47,49,51,-1,53,-1,-1,-1,-1,-1,-1,-1,-1,-1,-1,-1,-1,-1,-1,-1,-1,-1,-1,-1,-1,-1,-1,-1,-1,-1],"loss_changes":[8.007726E1,3.0751537E1,1.06511E1,2.1418686E0,4.462293E0,2.9371452E0,1.6759033E0,3.2082825E0,1.1948748E0,3.750972E0,3.4732869E0,3.0190048E0,3.0264668E0,2.4100685E-1,1.5598125E0,2.5064087E0,3.3942418E0,7.782898E-1,0E0,4.614937E0,2.103714E0,2.6816514E0,3.4199681E0,0E0,3.1124592E0,2.0011773E0,9.73238E-1,1.1753845E-1,0E0,1.5650902E0,0E0,0E0,0E0,0E0,0E0,0E0,0E0,0E0,0E0,0E0,0E0,0E0,0E0,0E0,0E0,0E0,0E0,0E0,0E0,0E0,0E0,0E0,0E0,0E0,0E0],"parents":[2147483647,0,0,1,1,2,2,3,3,4,4,5,5,6,6,7,7,8,8,9,9,10,10,11,11,12,12,13,13,14,14,15,15,16,16,17,17,19,19,20,20,21,21,22,22,24,24,25,25,26,26,27,27,29,29],"right_children":[2,4,6,8,10,12,14,16,18,20,22,24,26,28,30,32,34,36,-1,38,40,42,44,-1,46,48,50,52,-1,54,-1,-1,-1,-1,-1,-1,-1,-1,-1,-1,-1,-1,-1,-1,-1,-1,-1,-1,-1,-1,-1,-1,-1,-1,-1],"split_conditions":[5.740343E-1,-6.9822097E-1,1.4505074E0,1.2048235E0,3.3161682E-1,8.30827E-1,-3.624777E-1,3.5101157E-1,2.0264623E0,1.134429E0,-2.2167964E-1,6.395652E-1,1.361791E0,2.2075598E0,1.2309437E0,5.2258426E-1,-2.5732023E-1,-1.1433426E0,-2.7308462E-3,-1.6823679E0,-1.4175988E0,9.287059E-1,8.7151295E-1,2.5897807E-2,7.772657E-1,-2.7106988E-1,8.2278746E-1,6.4103544E-2,1.423025E-2,1.0677817E0,-2.3226559E-3,-1.2722175E-2,5.363971E-3,2.188401E-4,-1.1058976E-2,-9.4888285E-3,-2.147787E-2,1.10245915E-2,-1.9055854E-3,-3.8068695E-3,-1.5370255E-2,-5.746409E-3,1.8449107E-2,3.4210428E-3,1.765738E-2,2.3410628E-3,1.0927401E-2,-7.009778E-3,7.7537834E-3,-2.1893682E-2,-2.6983386E-3,1.4340562E-2,2.8308637E-2,1.8013831E-2,3.1741743E-3],"split_indices":[0,0,40,51,28,25,47,51,47,11,40,40,6,5,24,7,32,44,0,49,51,32,1,0,40,26,5,50,0,14,0,0,0,0,0,0,0,0,0,0,0,0,0,0,0,0,0,0,0,0,0,0,0,0,0],"split_type":[0,0,0,0,0,0,0,0,0,0,0,0,0,0,0,0,0,0,0,0,0,0,0,0,0,0,0,0,0,0,0,0,0,0,0,0,0,0,0,0,0,0,0,0,0,0,0,0,0,0,0,0,0,0,0],"sum_hessian":[1.5483159E3,1.1272103E3,4.2110556E2,3.6085562E2,7.6635474E2,2.9264883E2,1.2845674E2,3.1397345E2,4.6882153E1,5.224694E2,2.4388531E2,2.2686996E2,6.577886E1,3.5487595E1,9.296915E1,2.199971E2,9.397636E1,4.150597E1,5.376183E0,4.6298322E2,5.948624E1,5.394563E1,1.8993968E2,9.456995E0,2.1741298E2,5.5812424E1,9.966435E0,2.8489878E1,6.997716E0,8.9471E1,3.498148E0,2.1362842E2,6.3686805E0,4.7492428E1,4.6483932E1,9.77233E0,3.1733639E1,2.5295979E1,4.3768723E2,3.3214073E1,2.6272165E1,5.0480904E1,3.4647255E0,1.7401205E2,1.5927628E1,5.1231007E1,1.6618198E2,8.960894E0,4.6851532E1,3.981526E0,5.98491E0,4.9988637E0,2.3491013E1,8.1475235E1,7.995765E0],"tree_param":{"num_deleted":"0","num_feature":"54","num_nodes":"55","size_leaf_vector":"1"}},{"base_weights":[1.3706469E-2,-2.350294E-1,7.7913485E-2,2.9969904E-1,-2.5938913E-1,2.401876E-2,1.5656208E-1,2.6786424E-2,-1.0725092E-2,-2.1390668E-1,-5.393296E-1,1.2551599E-2,8.455934E-1,9.4070554E-2,3.7697726E-1,-1.6706511E-1,-4.522723E-1,1.1268165E-3,-1.8893225E-2,8.407575E-2,-9.777191E-2,3.700793E-2,5.7520075E-3,1.4555131E-1,-2.4800253E-1,2.6836073E-1,9.147365E-1,-8.384728E-3,-1.5601851E-3,-1.7432012E-2,-4.6107857E-3,1.1632565E-3,1.3946531E-2,1.3504615E-2,-3.964742E-3,1.8645171E-2,3.3258188E-3,1.4893607E-2,-1.0316604E-2,5.2568144E-3,2.5167802E-2,-4.221827E-5,3.5922825E-2],"categories":[],"categories_nodes":[],"categories_segments":[],"categories_sizes":[],"default_left":[0,0,0,0,0,0,0,0,0,0,0,0,0,0,0,0,0,0,0,0,0,0,0,0,0,0,0,0,0,0,0,0,0,0,0,0,0,0,0,0,0,0,0],"id":19,"left_children":[1,3,5,7,9,11,13,-1,-1,15,17,19,21,23,25,27,29,-1,-1,31,33,-1,-1,35,37,39,41,-1,-1,-1,-1,-1,-1,-1,-1,-1,-1,-1,-1,-1,-1,-1,-1],"loss_changes":[1.8932247E1,3.2404928E0,3.9760227E0,4.613332E0,2.778985E0,5.194402E0,5.1870413E0,0E0,0E0,2.1246681E0,1.7334146E0,4.386214E0,1.5479097E0,5.3045573E0,4.5321693E0,2.1677365E0,1.0808187E0,0E0,0E0,5.7588253E0,4.138871E0,0E0,0E0,4.1743255E0,2.9626508E0,3.540691E0,3.6215744E0,0E0,0E0,0E0,0E0,0E0,0E0,0E0,0E0,0E0,0E0,0E0,0E0,0E0,0E0,0E0,0E0],"parents":[2147483647,0,0,1,1,2,2,3,3,4,4,5,5,6,6,9,9,10,10,11,11,12,12,13,13,14,14,15,15,16,16,19,19,20,20,23,23,24,24,25,25,26,26],"right_children":[2,4,6,8,10,12,14,-1,-1,16,18,20,22,24,26,28,30,-1,-1,32,34,-1,-1,36,38,40,42,-1,-1,-1,-1,-1,-1,-1,-1,-1,-1,-1,-1,-1,-1,-1,-1],"split_conditions":[-5.340317E-1,-1.90671E0,3.874507E-1,6.467237E-2,1.6755649E0,2.2130578E0,-9.526955E-2,2.6786424E-2,-1.0725092E-2,1.039901E0,-3.2172692E-1,9.21837E-2,-2.4404608E-1,2.6167533E-1,6.786272E-1,-1.0032182E-2,-3.0501133E-1,1.1268165E-3,-1.8893225E-2,-1.7155679E-2,-1.7206519E0,3.700793E-2,5.7520075E-3,-1.376348E0,-7.127535E-1,1.034518E0,-2.828101E-1,-8.384728E-3,-1.5601851E-3,-1.7432012E-2,-4.6107857E-3,1.1632565E-3,1.3946531E-2,1.3504615E-2,-3.964742E-3,1.8645171E-2,3.3258188E-3,1.4893607E-2,-1.0316604E-2,5.2568144E-3,2.5167802E-2,-4.221827E-5,3.5922825E-2],"split_indices":[1,32,30,27,46,15,28,0,0,8,53,2,0,41,5,9,22,0,0,2,14,0,0,0,42,42,32,0,0,0,0,0,0,0,0,0,0,0,0,0,0,0,0],"split_type":[0,0,0,0,0,0,0,0,0,0,0,0,0,0,0,0,0,0,0,0,0,0,0,0,0,0,0,0,0,0,0,0,0,0,0,0,0,0,0,0,0,0,0],"sum_hessian":[1.1842817E3,2.4211566E2,9.421661E2,9.877752E0,2.3223792E2,5.6059186E2,3.8157422E2,5.0832396E0,4.7945127E0,2.0160423E2,3.063369E1,5.5399646E2,6.595433E0,2.9875302E2,8.282119E1,1.7026552E2,3.1338713E1,4.081215E0,2.6552475E1,3.3679333E2,2.1720311E2,3.4867797E0,3.1086538E0,2.604266E2,3.8326424E1,7.0305824E1,1.2515368E1,8.495575E1,8.530976E1,2.0999413E1,1.0339301E1,3.0220752E2,3.4585815E1,1.1940359E1,2.0526274E2,1.634709E1,2.4407951E2,3.777435E0,3.454899E1,6.171453E1,8.591295E0,3.1024008E0,9.412968E0],"tree_param":{"num_deleted":"0","num_feature":"54","num_nodes":"43","size_leaf_vector":"1"}},{"base_weights":[3.0007286E-3,4.6219707E-1,-1.4923069E-1,7.4240166E-1,3.675524E-1,-5.5519182E-2,-3.2395536E-1,6.0701233E-1,1.0842192E0,4.5420292E-1,5.017034E-2,-1.08330116E-1,8.3631285E-2,-5.32756E-1,-2.6109737E-1,6.888846E-1,8.405643E-2,1.1860216E0,1.0891042E-2,8.810262E-1,3.6566058E-1,2.1273983E-1,-2.0244902E-1,1.9894412E-2,-1.2048525E-1,4.225578E-1,-7.811806E-3,-5.2028513E-6,-5.5406064E-1,-1.9341786E-1,-4.02693E-1,1.2705543E-2,3.1152066E-2,-1.5636345E-2,1.4174201E-2,2.0681493E-2,3.9510995E-2,3.0676095E-2,-0E0,2.45866E-2,9.347459E-3,1.1632206E-2,-8.590179E-3,-1.6059598E-2,2.3993491E-3,-3.8775073E-3,2.1597123E-2,2.0819673E-2,-2.1102822E-3,-1.27737E-2,1.5639992E-3,-1.7237503E-2,-6.4095925E-3,-6.8027056E-3,8.215081E-3,-1.3427815E-2,-1.6491404E-3],"categories":[],"categories_nodes":[],"categories_segments":[],"categories_sizes":[],"default_left":[0,0,0,0,0,0,0,0,0,0,0,0,0,0,0,0,0,0,0,0,0,0,0,0,0,0,0,0,0,0,0,0,0,0,0,0,0,0,0,0,0,0,0,0,0,0,0,0,0,0,0,0,0,0,0,0,0],"id":20,"left_children":[1,3,5,7,9,11,13,15,17,19,21,23,25,27,29,31,33,35,-1,37,39,41,43,-1,45,47,49,-1,51,53,55,-1,-1,-1,-1,-1,-1,-1,-1,-1,-1,-1,-1,-1,-1,-1,-1,-1,-1,-1,-1,-1,-1,-1,-1,-1,-1],"loss_changes":[8.9113304E1,8.034721E0,1.5612305E1,2.8242722E0,6.514477E0,4.6002817E0,4.1583786E0,2.3908863E0,9.492836E-1,6.650364E0,2.2102273E0,4.279236E0,5.3702984E0,8.049259E-1,2.3411503E0,4.1172466E0,2.4255955E0,4.6707153E-2,0E0,3.9918861E0,3.4959297E0,2.9876914E0,2.0554533E0,0E0,3.3305535E0,5.0293546E0,3.4689472E0,0E0,3.065567E-1,2.8209295E0,1.2092209E0,0E0,0E0,0E0,0E0,0E0,0E0,0E0,0E0,0E0,0E0,0E0,0E0,0E0,0E0,0E0,0E0,0E0,0E0,0E0,0E0,0E0,0E0,0E0,0E0,0E0,0E0],"parents":[2147483647,0,0,1,1,2,2,3,3,4,4,5,5,6,6,7,7,8,8,9,9,10,10,11,11,12,12,13,13,14,14,15,15,16,16,17,17,19,19,20,20,21,21,22,22,24,24,25,25,26,26,28,28,29,29,30,30],"right_children":[2,4,6,8,10,12,14,16,18,20,22,24,26,28,30,32,34,36,-1,38,40,42,44,-1,46,48,50,-1,52,54,56,-1,-1,-1,-1,-1,-1,-1,-1,-1,-1,-1,-1,-1,-1,-1,-1,-1,-1,-1,-1,-1,-1,-1,-1,-1,-1],"split_conditions":[-6.9822097E-1,-1.5977453E-1,2.729118E-1,1.3961046E0,5.7925904E-1,9.2694956E-1,-1.8212157E0,-1.4934535E-1,1.2938088E0,-6.430077E-1,-5.04369E-1,-2.094365E-1,-3.6043563E-1,-1.684715E0,1.3225702E0,-1.6120596E0,-1.2703434E0,-2.124306E-1,1.0891042E-2,1.4169294E0,-1.0542667E0,1.4169294E0,-5.461974E-1,1.9894412E-2,1.8392628E0,6.070511E-1,-3.624777E-1,-5.2028513E-6,4.1120334E0,1.5846688E0,1.5061046E0,1.2705543E-2,3.1152066E-2,-1.5636345E-2,1.4174201E-2,2.0681493E-2,3.9510995E-2,3.0676095E-2,-0E0,2.45866E-2,9.347459E-3,1.1632206E-2,-8.590179E-3,-1.6059598E-2,2.3993491E-3,-3.8775073E-3,2.1597123E-2,2.0819673E-2,-2.1102822E-3,-1.27737E-2,1.5639992E-3,-1.7237503E-2,-6.4095925E-3,-6.8027056E-3,8.215081E-3,-1.3427815E-2,-1.6491404E-3],"split_indices":[0,1,41,31,27,42,42,3,33,8,28,42,32,32,3,5,5,21,0,10,41,10,3,0,20,33,47,0,22,41,31,0,0,0,0,0,0,0,0,0,0,0,0,0,0,0,0,0,0,0,0,0,0,0,0,0,0],"split_type":[0,0,0,0,0,0,0,0,0,0,0,0,0,0,0,0,0,0,0,0,0,0,0,0,0,0,0,0,0,0,0,0,0,0,0,0,0,0,0,0,0,0,0,0,0,0,0,0,0,0,0,0,0,0,0,0,0],"sum_hessian":[1.2723591E3,3.1644467E2,9.559144E2,7.7903435E1,2.3854123E2,6.234334E2,3.3248102E2,5.799915E1,1.990429E1,1.8679654E2,5.174469E1,4.5260074E2,1.7083269E2,7.483358E1,2.5764743E2,4.9708443E1,8.290706E0,1.6755833E1,3.1484568E0,3.0360804E1,1.5643575E2,3.1820677E1,1.9924013E1,6.06207E0,4.4653867E2,3.576078E1,1.350719E2,3.097707E0,7.173587E1,1.76403E2,8.124444E1,2.9675528E1,2.0032915E1,3.006442E0,5.284264E0,4.963918E0,1.1791915E1,2.6099167E1,4.2616367E0,1.4950362E1,1.4148538E2,2.387311E1,7.947567E0,8.896812E0,1.10272E1,4.428847E2,3.653949E0,2.2929073E1,1.2831709E1,1.638559E1,1.1868631E2,6.6731026E1,5.0048494E0,1.6533493E2,1.1068075E1,7.144414E1,9.8003025E0],"tree_param":{"num_deleted":"0","num_feature":"54","num_nodes":"57","size_leaf_vector":"1"}},{"base_weights":[-8.736589E-3,3.9232332E-1,-1.4031799E-1,5.705669E-1,2.845472E-1,-3.6822855E-1,-3.6050092E-2,4.617443E-1,7.498338E-1,4.3911037E-1,1.3317817E-1,-3.1859526E-1,-5.567089E-1,-1.6662076E-2,-2.9257834E-1,3.923392E-1,2.6339198E-2,-2.6469082E-3,8.149013E-1,1.7774987E-1,5.7011384E-1,-2.0003974E-1,2.4208242E-1,-3.616733E-1,2.2910278E-1,-6.1179227E-1,-6.83622E-2,-1.4120196E-1,2.311905E-2,-4.2055005E-1,4.0975308E-1,1.4703254E-2,3.732221E-3,2.5368642E-2,9.238813E-3,-2.0766892E-3,1.41736055E-2,1.9284315E-2,-2.269431E-4,1.1313014E-3,-1.813825E-2,-1.02469814E-4,1.2077685E-2,-9.224338E-3,-1.8604083E-2,1.5004336E-2,-8.934324E-4,-1.3361649E-2,-2.2854473E-2,1.5190664E-2,-1.9627288E-2,-3.2846075E-3,-1.847775E-2,-6.965613E-4,5.3221723E-3,8.033122E-3,-1.6129332E-2,2.533263E-2,-2.7009703E-3],"categories":[],"categories_nodes":[],"categories_segments":[],"categories_sizes":[],"default_left":[0,0,0,0,0,0,0,0,0,0,0,0,0,0,0,0,0,0,0,0,0,0,0,0,0,0,0,0,0,0,0,0,0,0,0,0,0,0,0,0,0,0,0,0,0,0,0,0,0,0,0,0,0,0,0,0,0,0,0],"id":21,"left_children":[1,3,5,7,9,11,13,15,17,19,21,23,25,27,29,31,-1,-1,33,35,37,39,41,43,45,47,49,51,53,55,57,-1,-1,-1,-1,-1,-1,-1,-1,-1,-1,-1,-1,-1,-1,-1,-1,-1,-1,-1,-1,-1,-1,-1,-1,-1,-1,-1,-1],"loss_changes":[8.094337E1,7.0299377E0,2.7403383E1,2.2912865E0,5.4627743E0,3.1240654E0,3.9139762E0,2.1557312E0,2.9510593E0,3.8370914E0,4.4880447E0,6.926792E0,1.8741322E0,3.6801515E0,5.1509194E0,1.9721785E0,0E0,0E0,3.7121964E-1,3.0457182E0,3.3175144E0,3.0062492E0,3.6978893E0,3.4839935E0,1.5743037E0,1.1868458E0,3.3043582E0,2.5677218E0,4.0297823E0,3.9960623E0,2.089613E0,0E0,0E0,0E0,0E0,0E0,0E0,0E0,0E0,0E0,0E0,0E0,0E0,0E0,0E0,0E0,0E0,0E0,0E0,0E0,0E0,0E0,0E0,0E0,0E0,0E0,0E0,0E0,0E0],"parents":[2147483647,0,0,1,1,2,2,3,3,4,4,5,5,6,6,7,7,8,8,9,9,10,10,11,11,12,12,13,13,14,14,15,15,18,18,19,19,20,20,21,21,22,22,23,23,24,24,25,25,26,26,27,27,28,28,29,29,30,30],"right_children":[2,4,6,8,10,12,14,16,18,20,22,24,26,28,30,32,-1,-1,34,36,38,40,42,44,46,48,50,52,54,56,58,-1,-1,-1,-1,-1,-1,-1,-1,-1,-1,-1,-1,-1,-1,-1,-1,-1,-1,-1,-1,-1,-1,-1,-1,-1,-1,-1,-1],"split_conditions":[-7.052604E-1,-1.2856854E0,-6.9822097E-1,3.8977602E-1,5.394206E-1,4.1583386E-1,1.7119654E0,2.2560306E0,-5.157542E-1,-2.3089847E-1,-4.0735373E-1,2.2054532E-1,1.3843621E0,-1.0072337E0,1.0903466E0,3.789479E-1,2.6339198E-2,-2.6469082E-3,1.0525289E0,3.6641654E-1,2.9220226E-1,-7.4194826E-2,-1.1970577E-1,-7.700555E-2,1.2220257E-1,-5.810593E-1,-1.6449252E-1,1.9594038E-1,6.07836E-1,-1.3364229E0,8.8710594E-1,1.4703254E-2,3.732221E-3,2.5368642E-2,9.238813E-3,-2.0766892E-3,1.41736055E-2,1.9284315E-2,-2.269431E-4,1.1313014E-3,-1.813825E-2,-1.02469814E-4,1.2077685E-2,-9.224338E-3,-1.8604083E-2,1.5004336E-2,-8.934324E-4,-1.3361649E-2,-2.2854473E-2,1.5190664E-2,-1.9627288E-2,-3.2846075E-3,-1.847775E-2,-6.965613E-4,5.3221723E-3,8.033122E-3,-1.6129332E-2,2.533263E-2,-2.7009703E-3],"split_indices":[2,2,0,52,12,41,15,31,24,31,52,41,33,41,32,33,0,0,30,24,15,20,33,41,53,11,25,20,6,53,9,0,0,0,0,0,0,0,0,0,0,0,0,0,0,0,0,0,0,0,0,0,0,0,0,0,0,0,0],"split_type":[0,0,0,0,0,0,0,0,0,0,0,0,0,0,0,0,0,0,0,0,0,0,0,0,0,0,0,0,0,0,0,0,0,0,0,0,0,0,0,0,0,0,0,0,0,0,0,0,0,0,0,0,0,0,0,0,0,0,0],"sum_hessian":[1.5322654E3,3.7784695E2,1.1544185E3,1.4041022E2,2.3743672E2,3.612661E2,7.931523E2,8.994399E1,5.046622E1,1.16211464E2,1.21225266E2,2.8851196E2,7.275414E1,7.387718E2,5.4380486E1,7.89604E1,1.0983587E1,3.4995446E0,4.6966675E1,3.9842747E1,7.636872E1,2.9428091E1,9.179717E1,2.679585E2,2.0553486E1,6.496843E1,7.7857127E0,1.7884355E2,5.599283E2,4.645882E1,7.921664E0,5.6969555E1,2.1990849E1,4.3467255E1,3.4994204E0,2.1908434E1,1.7934313E1,6.78861E1,8.482618E0,1.8950945E1,1.0477146E1,3.6431038E1,5.5366135E1,2.2364119E2,4.4317303E1,9.774399E0,1.0779086E1,3.30003E1,3.1968128E1,3.9126577E0,3.8730552E0,1.6899472E2,9.848825E0,4.307578E2,1.2917046E2,6.4431224E0,4.0015697E1,3.9750476E0,3.9466166E0],"tree_param":{"num_deleted":"0","num_feature":"54","num_nodes":"59","size_leaf_vector":"1"}},{"base_weights":[1.1239991E-2,-2.2861224E-1,8.243501E-2,-5.2007806E-1,-1.8251443E-1,7.027445E-2,1.1458461E0,-2.7547823E-3,-5.663678E-1,-2.507837E-1,-2.830957E-2,1.3265695E-2,1.569467E-1,4.6313733E-2,5.3268415E-3,-1.8701177E-2,-7.327774E-3,1.1339947E-2,-2.749655E-1,-1.0040407E-1,6.1127096E-1,9.012361E-2,-1.03143916E-1,3.971103E-1,9.060073E-2,-1.1258901E-2,-3.7029644E-3,2.709041E-3,-9.63247E-3,-0E0,3.0756744E-2,2.1815095E-2,1.5271592E-3,5.755949E-3,-4.936441E-3,3.2990295E-2,9.403387E-3,2.1185128E-3,2.6034953E-2],"categories":[],"categories_nodes":[],"categories_segments":[],"categories_sizes":[],"default_left":[0,0,0,0,0,0,0,0,0,0,0,0,0,0,0,0,0,0,0,0,0,0,0,0,0,0,0,0,0,0,0,0,0,0,0,0,0,0,0],"id":22,"left_children":[1,3,5,7,9,11,13,-1,15,17,19,21,23,-1,-1,-1,-1,-1,25,27,29,31,33,35,37,-1,-1,-1,-1,-1,-1,-1,-1,-1,-1,-1,-1,-1,-1],"loss_changes":[2.0141806E1,3.4607067E0,1.1570955E1,5.961399E-1,2.4373522E0,4.434151E0,3.4589615E0,0E0,3.503561E-1,2.5599775E0,3.406001E0,4.8882227E0,5.6006546E0,0E0,0E0,0E0,0E0,0E0,2.2896986E0,2.8794196E0,1.8948379E0,8.119722E0,3.9573019E0,4.0172424E0,4.2124357E0,0E0,0E0,0E0,0E0,0E0,0E0,0E0,0E0,0E0,0E0,0E0,0E0,0E0,0E0],"parents":[2147483647,0,0,1,1,2,2,3,3,4,4,5,5,6,6,8,8,9,9,10,10,11,11,12,12,18,18,19,19,20,20,21,21,22,22,23,23,24,24],"right_children":[2,4,6,8,10,12,14,-1,16,18,20,22,24,-1,-1,-1,-1,-1,26,28,30,32,34,36,38,-1,-1,-1,-1,-1,-1,-1,-1,-1,-1,-1,-1,-1,-1],"split_conditions":[-3.878161E-1,-2.3950016E0,2.004466E0,-1.8637458E0,1.1337117E0,3.1355312E-1,9.6032584E-1,-2.7547823E-3,9.1229534E-1,-1.7169338E0,9.465137E-1,9.21837E-2,-1.0142118E0,4.6313733E-2,5.3268415E-3,-1.8701177E-2,-7.327774E-3,1.1339947E-2,7.214488E-2,6.467237E-2,1.9736927E-2,-1.3598162E-1,-3.0263665E-1,9.237253E-1,7.6827854E-1,-1.1258901E-2,-3.7029644E-3,2.709041E-3,-9.63247E-3,-0E0,3.0756744E-2,2.1815095E-2,1.5271592E-3,5.755949E-3,-4.936441E-3,3.2990295E-2,9.403387E-3,2.1185128E-3,2.6034953E-2],"split_indices":[1,1,3,2,12,30,15,0,49,53,23,2,41,0,0,0,0,0,32,27,46,40,46,42,0,0,0,0,0,0,0,0,0,0,0,0,0,0,0],"split_type":[0,0,0,0,0,0,0,0,0,0,0,0,0,0,0,0,0,0,0,0,0,0,0,0,0,0,0,0,0,0,0,0,0,0,0,0,0,0,0],"sum_hessian":[1.1782716E3,2.688648E2,9.094068E2,3.5015915E1,2.3384888E2,9.002719E2,9.13488E0,3.9174511E0,3.1098465E1,1.6120549E2,7.264339E1,5.4445984E2,3.5581207E2,5.9797106E0,3.1551697E0,2.5363966E1,5.734498E0,5.2750535E0,1.5593044E2,6.6182556E1,6.46083E0,3.2859448E2,2.1586534E2,7.5612434E1,2.8019965E2,9.252948E1,6.3400963E1,3.5576103E1,3.0606451E1,3.0058253E0,3.455005E0,1.7890877E1,3.107036E2,3.6543438E1,1.793219E2,6.626597E0,6.898584E1,2.743649E2,5.834764E0],"tree_param":{"num_deleted":"0","num_feature":"54","num_nodes":"39","size_leaf_vector":"1"}},{"base_weights":[2.4495847E-3,3.5482517E-1,-2.0338036E-1,3.5861347E-2,3.2256278E-1,-1.4034685E-1,-4.5917276E-1,7.060462E-2,3.9214957E-1,-2.0013716E-2,-2.2800942E-1,-4.868435E-1,6.9680706E-2,1.6980486E-1,-3.5370225E-1,4.7435302E-1,2.61389E-1,-3.6276862E-2,2.7107166E-2,-3.9024264E-1,-1.7152297E-1,5.53977E-3,-5.0286657E-1,-1.0959577E-2,1.9218272E-2,8.437412E-4,1.5071648E-2,-1.711283E-2,3.1861023E-3,2.583865E-2,1.2186058E-2,1.1033359E-2,1.309604E-3,-2.0780428E-3,1.2512373E-2,3.1388693E-3,-1.2986832E-2,2.6048074E-2,-5.978086E-3,-1.8145397E-2,-1.2388721E-2],"categories":[],"categories_nodes":[],"categories_segments":[],"categories_sizes":[],"default_left":[0,0,0,0,0,0,0,0,0,0,0,0,0,0,0,0,0,0,0,0,0,0,0,0,0,0,0,0,0,0,0,0,0,0,0,0,0,0,0,0,0],"id":23,"left_children":[1,3,5,-1,7,9,11,13,15,17,19,21,23,25,27,29,31,33,-1,35,37,-1,39,-1,-1,-1,-1,-1,-1,-1,-1,-1,-1,-1,-1,-1,-1,-1,-1,-1,-1],"loss_changes":[9.333266E1,1.2332851E1,1.2968266E1,0E0,7.9655647E0,6.861435E0,2.4139328E0,4.2829885E0,3.6588821E0,4.1050835E0,3.3348618E0,1.7617149E0,2.4072936E0,3.822011E0,2.0234606E0,5.2876587E0,3.2132645E0,4.07983E0,0E0,2.1088648E0,8.245832E0,0E0,1.0147629E0,0E0,0E0,0E0,0E0,0E0,0E0,0E0,0E0,0E0,0E0,0E0,0E0,0E0,0E0,0E0,0E0,0E0,0E0],"parents":[2147483647,0,0,1,1,2,2,4,4,5,5,6,6,7,7,8,8,9,9,10,10,11,11,12,12,13,13,14,14,15,15,16,16,17,17,19,19,20,20,22,22],"right_children":[2,4,6,-1,8,10,12,14,16,18,20,22,24,26,28,30,32,34,-1,36,38,-1,40,-1,-1,-1,-1,-1,-1,-1,-1,-1,-1,-1,-1,-1,-1,-1,-1,-1,-1],"split_conditions":[-3.197504E-1,-1.2939863E0,1.3631538E0,3.5861347E-2,-1.1247239E0,-4.190875E-2,5.483609E-1,7.115802E-1,2.8626484E-1,2.7141504E0,-7.5238603E-1,-3.1956074E0,3.3161682E-1,4.7893137E-1,5.494326E-1,-6.430077E-1,-8.839799E-2,1.2938088E0,2.7107166E-2,-1.6229765E0,-7.115709E-1,5.53977E-3,3.0461768E-2,-1.0959577E-2,1.9218272E-2,8.437412E-4,1.5071648E-2,-1.711283E-2,3.1861023E-3,2.583865E-2,1.2186058E-2,1.1033359E-2,1.309604E-3,-2.0780428E-3,1.2512373E-2,3.1388693E-3,-1.2986832E-2,2.6048074E-2,-5.978086E-3,-1.8145397E-2,-1.2388721E-2],"split_indices":[40,1,3,0,41,28,1,33,27,15,31,32,28,8,49,8,32,33,0,52,31,0,27,0,0,0,0,0,0,0,0,0,0,0,0,0,0,0,0,0,0],"split_type":[0,0,0,0,0,0,0,0,0,0,0,0,0,0,0,0,0,0,0,0,0,0,0,0,0,0,0,0,0,0,0,0,0,0,0,0,0,0,0,0,0],"sum_hessian":[1.2846205E3,4.7359686E2,8.110237E2,1.6058655E1,4.575382E2,6.5223627E2,1.587874E2,9.9764595E1,3.5777362E2,2.7589218E2,3.7634412E2,1.5114755E2,7.6398425E0,8.153721E1,1.8227392E1,2.1759116E2,1.4018245E2,2.7216864E2,3.7235398E0,9.521131E1,2.8113278E2,3.1318288E0,1.4801573E2,4.441084E0,3.1987586E0,5.8150433E1,2.3386774E1,1.2373595E1,5.853798E0,3.0622618E1,1.8696854E2,9.3398056E1,4.67844E1,2.5470149E2,1.7467133E1,7.2535515E0,8.795776E1,6.4259434E0,2.7470685E2,6.614773E1,8.1868E1],"tree_param":{"num_deleted":"0","num_feature":"54","num_nodes":"41","size_leaf_vector":"1"}},{"base_weights":[-2.371914E-3,2.6494312E-1,-1.7892244E-1,1.6917361E-1,5.553453E-1,-3.717119E-1,-6.2542446E-2,3.4886483E-2,2.426724E-1,-0E0,5.787756E-1,-5.766199E-1,-3.1833538E-1,4.515706E-1,-7.982807E-2,-1.8562403E-1,1.813536E-1,1.9441514E-1,5.231701E-1,6.0522443E-1,2.0915776E-1,-7.0745625E-2,-6.3669443E-1,-3.594235E-1,-5.7252754E-2,-5.0664376E-3,6.6185623E-1,-4.4505018E-1,-5.6736957E-2,3.3068415E-3,-8.744332E-3,6.7339316E-3,-1.7527334E-2,6.7799943E-3,-4.2330916E-3,1.9846065E-2,5.955882E-3,1.8637E-2,4.234966E-3,-1.5431129E-2,1.80813E-2,6.0825767E-3,-1.2367756E-2,-2.0654717E-2,-1.0652278E-2,-9.160886E-3,-2.3352686E-2,1.4881681E-2,-4.862517E-3,4.6141804E-3,2.5918037E-2,5.167735E-3,-1.6504604E-2,-6.080428E-3,-4.055564E-4],"categories":[],"categories_nodes":[],"categories_segments":[],"categories_sizes":[],"default_left":[0,0,0,0,0,0,0,0,0,0,0,0,0,0,0,0,0,0,0,0,0,0,0,0,0,0,0,0,0,0,0,0,0,0,0,0,0,0,0,0,0,0,0,0,0,0,0,0,0,0,0,0,0,0,0],"id":24,"left_children":[1,3,5,7,9,11,13,15,17,-1,19,21,23,25,27,29,31,33,35,37,39,41,43,45,47,-1,49,51,53,-1,-1,-1,-1,-1,-1,-1,-1,-1,-1,-1,-1,-1,-1,-1,-1,-1,-1,-1,-1,-1,-1,-1,-1,-1,-1],"loss_changes":[7.27477E1,1.688131E1,2.0769281E1,4.5301237E0,2.0127754E0,3.5445366E0,5.158579E0,5.3720202E0,3.8650322E0,0E0,1.2126427E0,2.0271149E0,2.936388E0,2.6202493E0,4.670521E0,2.1233103E0,3.3991573E0,2.758069E0,1.7096348E0,8.377838E-1,3.5891738E0,9.2522687E-1,5.6614876E-1,5.1129246E0,2.339904E0,0E0,1.2438254E0,2.2775812E0,3.322991E0,0E0,0E0,0E0,0E0,0E0,0E0,0E0,0E0,0E0,0E0,0E0,0E0,0E0,0E0,0E0,0E0,0E0,0E0,0E0,0E0,0E0,0E0,0E0,0E0,0E0,0E0],"parents":[2147483647,0,0,1,1,2,2,3,3,4,4,5,5,6,6,7,7,8,8,10,10,11,11,12,12,13,13,14,14,15,15,16,16,17,17,18,18,19,19,20,20,21,21,22,22,23,23,24,24,26,26,27,27,28,28],"right_children":[2,4,6,8,10,12,14,16,18,-1,20,22,24,26,28,30,32,34,36,38,40,42,44,46,48,-1,50,52,54,-1,-1,-1,-1,-1,-1,-1,-1,-1,-1,-1,-1,-1,-1,-1,-1,-1,-1,-1,-1,-1,-1,-1,-1,-1,-1],"split_conditions":[-3.1559283E-1,1.476861E0,-6.685923E-1,-3.0651358E-1,-1.6009626E0,-1.2138443E-1,-1.5016078E0,-1.680224E-1,1.263738E0,-0E0,4.5399556E-1,-2.1407669E0,1.2917627E-1,-1.7436434E0,-9.318998E-1,-2.568388E-1,1.2968054E0,1.6666285E0,1.9835187E0,1.0525289E0,-1.680224E-1,-4.491701E-1,-2.8941557E-1,-6.7651324E-2,-1.5439979E0,-5.0664376E-3,4.7893137E-1,-2.568388E-1,-9.748983E-2,3.3068415E-3,-8.744332E-3,6.7339316E-3,-1.7527334E-2,6.7799943E-3,-4.2330916E-3,1.9846065E-2,5.955882E-3,1.8637E-2,4.234966E-3,-1.5431129E-2,1.80813E-2,6.0825767E-3,-1.2367756E-2,-2.0654717E-2,-1.0652278E-2,-9.160886E-3,-2.3352686E-2,1.4881681E-2,-4.862517E-3,4.6141804E-3,2.5918037E-2,5.167735E-3,-1.6504604E-2,-6.080428E-3,-4.055564E-4],"split_indices":[2,41,40,49,27,43,3,21,50,0,47,28,41,26,5,21,40,26,50,30,21,46,3,41,26,0,8,21,46,0,0,0,0,0,0,0,0,0,0,0,0,0,0,0,0,0,0,0,0,0,0,0,0,0,0],"split_type":[0,0,0,0,0,0,0,0,0,0,0,0,0,0,0,0,0,0,0,0,0,0,0,0,0,0,0,0,0,0,0,0,0,0,0,0,0,0,0,0,0,0,0,0,0,0,0,0,0,0,0,0,0,0,0],"sum_hessian":[1.5396188E3,6.1196936E2,9.276495E2,4.6165167E2,1.5031767E2,3.480438E2,5.7960565E2,1.643E2,2.9735168E2,5.994823E0,1.4432285E2,6.9512955E1,2.7853082E2,1.7848291E1,5.617574E2,6.519578E1,9.9104225E1,2.5545279E2,4.189888E1,1.3383781E2,1.0485041E1,7.7865314E0,6.172642E1,2.4000082E2,3.853001E1,4.447427E0,1.3400866E1,3.206083E1,5.2969653E2,1.6919949E1,4.827583E1,9.461395E1,4.4902773E0,2.3404497E2,2.1407822E1,2.8434155E1,1.3464727E1,1.2883899E2,4.9988227E0,3.4962482E0,6.988792E0,4.38685E0,3.3996816E0,5.0616947E1,1.1109475E1,2.1431647E2,2.5684347E1,5.39083E0,3.313918E1,4.455403E0,8.945463E0,4.433132E0,2.7627697E1,1.1964947E2,4.100471E2],"tree_param":{"num_deleted":"0","num_feature":"54","num_nodes":"55","size_leaf_vector":"1"}},{"base_weights":[1.6276747E-3,-2.1636021E-1,7.209381E-2,-5.181311E-1,-1.7218249E-1,-5.3498592E-2,1.077824E-1,-5.649961E-1,-7.26986E-5,-2.5704768E-1,-4.5995288E-2,5.4061532E-2,-2.121594E-1,1.8251674E-1,3.638944E-2,-6.3162693E-3,-1.861951E-2,1.04203345E-2,-2.783505E-1,-5.425569E-1,3.4955155E-2,5.697403E-1,-2.2389116E-2,-2.5674084E-1,1.963064E-2,2.8138304E-1,3.843104E-2,1.6991623E-2,3.207602E-2,-9.196022E-3,5.7082074E-3,-1.789025E-2,-7.332491E-3,2.334605E-2,-4.6065604E-4,5.592932E-3,3.094872E-2,1.134572E-2,-4.0780865E-3,-4.6312273E-3,-1.61593E-2,9.305999E-3,-1.36164855E-2,1.8631175E-2,-5.4462196E-4,-9.5823046E-4,6.8404055E-3],"categories":[],"categories_nodes":[],"categories_segments":[],"categories_sizes":[],"default_left":[0,0,0,0,0,0,0,0,0,0,0,0,0,0,0,0,0,0,0,0,0,0,0,0,0,0,0,0,0,0,0,0,0,0,0,0,0,0,0,0,0,0,0,0,0,0,0],"id":25,"left_children":[1,3,5,7,9,11,13,15,-1,17,19,21,23,25,27,-1,-1,-1,29,31,33,35,37,39,-1,41,43,45,-1,-1,-1,-1,-1,-1,-1,-1,-1,-1,-1,-1,-1,-1,-1,-1,-1,-1,-1],"loss_changes":[1.839736E1,3.7407799E0,4.0727234E0,8.2552433E-1,2.7090397E0,3.4499762E0,3.741437E0,4.4377136E-1,0E0,2.0585432E0,4.290171E0,4.796427E0,3.2808955E0,4.861535E0,7.1517196E0,0E0,0E0,0E0,2.030198E0,9.912014E-3,3.4926245E0,2.4643478E0,4.814767E0,2.1112733E0,0E0,4.4405212E0,4.7419863E0,3.720616E0,0E0,0E0,0E0,0E0,0E0,0E0,0E0,0E0,0E0,0E0,0E0,0E0,0E0,0E0,0E0,0E0,0E0,0E0,0E0],"parents":[2147483647,0,0,1,1,2,2,3,3,4,4,5,5,6,6,7,7,9,9,10,10,11,11,12,12,13,13,14,14,18,18,19,19,20,20,21,21,22,22,23,23,25,25,26,26,27,27],"right_children":[2,4,6,8,10,12,14,16,-1,18,20,22,24,26,28,-1,-1,-1,30,32,34,36,38,40,-1,42,44,46,-1,-1,-1,-1,-1,-1,-1,-1,-1,-1,-1,-1,-1,-1,-1,-1,-1,-1,-1],"split_conditions":[-3.3190164E-1,-2.52089E0,-6.2161475E-1,1.0721531E0,7.687425E-2,-7.4194826E-2,2.5414002E-1,-1.484462E0,-7.26986E-5,-1.472791E0,-1.1643984E0,-1.1216486E0,1.8246094E0,-7.4194826E-2,1.1833977E0,-6.3162693E-3,-1.861951E-2,1.04203345E-2,1.6651834E0,1.7336249E0,-1.5523323E0,-8.319646E-1,-5.20331E-1,2.9002503E-1,1.963064E-2,2.2601147E0,-1.2990316E0,8.3413824E-2,3.207602E-2,-9.196022E-3,5.7082074E-3,-1.789025E-2,-7.332491E-3,2.334605E-2,-4.6065604E-4,5.592932E-3,3.094872E-2,1.134572E-2,-4.0780865E-3,-4.6312273E-3,-1.61593E-2,9.305999E-3,-1.36164855E-2,1.8631175E-2,-5.4462196E-4,-9.5823046E-4,6.8404055E-3],"split_indices":[1,1,24,24,32,20,24,8,0,14,30,0,52,20,1,0,0,0,52,22,25,44,27,51,0,32,44,15,0,0,0,0,0,0,0,0,0,0,0,0,0,0,0,0,0,0,0],"split_type":[0,0,0,0,0,0,0,0,0,0,0,0,0,0,0,0,0,0,0,0,0,0,0,0,0,0,0,0,0,0,0,0,0,0,0,0,0,0,0,0,0,0,0,0,0,0,0],"sum_hessian":[1.1966089E3,2.9146588E2,9.05143E2,3.5561203E1,2.559047E2,1.9956146E2,7.0558154E2,3.2333416E1,3.2277853E0,1.5191031E2,1.0399438E2,1.1895076E2,8.06107E1,3.4327902E2,3.6230255E2,5.2807775E0,2.7052639E1,4.4911265E0,1.4741919E2,1.3950851E1,9.0043526E1,1.4693701E1,1.0425706E2,7.744531E1,3.1653843E0,2.0260913E2,1.4066988E2,3.5671613E2,5.5864143E0,1.3958374E2,7.835446E0,1.0687246E1,3.2636046E0,4.9173923E0,8.512613E1,8.915237E0,5.7784634E0,2.2316364E1,8.194069E1,5.8210003E1,1.9235313E1,1.9565503E2,6.954103E0,1.172629E1,1.2894357E2,2.8987375E2,6.6842384E1],"tree_param":{"num_deleted":"0","num_feature":"54","num_nodes":"47","size_leaf_vector":"1"}},{"base_weights":[-1.7212747E-2,-2.017789E-1,3.0281952E-1,-1.3396406E-1,-4.1873944E-1,6.011076E-1,1.7309499E-1,1.1387276E-1,-1.7019331E-1,-1.6749553E-1,-4.7795603E-1,6.35065E-1,-1.637579E-2,2.147532E-1,-1.3235626E-1,-1.6076246E-2,5.150017E-1,-3.0687302E-1,-1.0625054E-1,1.6125247E-2,-3.187866E-1,-5.037513E-1,-1.586262E-1,7.009221E-1,1.1156835E-2,4.728297E-1,1.3439812E-1,2.3206877E-2,-2.434352E-1,2.394445E-3,-1.5517398E-2,-1.0332364E-2,2.316433E-2,-1.3821258E-2,-6.4344234E-3,-1.4911311E-3,-1.00571085E-2,-1.5733197E-2,6.1023324E-3,-1.5562072E-2,-2.3347267E-3,-1.4084441E-2,1.1296519E-2,1.8844336E-2,3.521152E-2,1.7551053E-2,-7.850322E-3,1.7230133E-2,-1.5453517E-3,1.2843918E-2,1.8488547E-3,-1.1876446E-2,7.3226127E-3],"categories":[],"categories_nodes":[],"categories_segments":[],"categories_sizes":[],"default_left":[0,0,0,0,0,0,0,0,0,0,0,0,0,0,0,0,0,0,0,0,0,0,0,0,0,0,0,0,0,0,0,0,0,0,0,0,0,0,0,0,0,0,0,0,0,0,0,0,0,0,0,0,0],"id":26,"left_children":[1,3,5,7,9,11,13,15,17,19,21,23,-1,25,27,29,31,33,35,-1,37,39,41,43,45,47,49,-1,51,-1,-1,-1,-1,-1,-1,-1,-1,-1,-1,-1,-1,-1,-1,-1,-1,-1,-1,-1,-1,-1,-1,-1,-1],"loss_changes":[7.464549E1,1.1684963E1,1.7700481E1,5.5259705E0,2.6837234E0,5.7858887E0,4.155569E0,4.144011E0,4.604148E0,4.215558E0,1.1139984E0,5.507492E0,0E0,5.7967415E0,4.077827E0,2.9677866E0,4.5955415E0,2.2438488E0,4.6929083E0,0E0,3.5893538E0,7.985916E-1,2.379322E0,3.3086433E0,2.3997684E0,3.6532106E0,4.614685E0,0E0,2.769436E0,0E0,0E0,0E0,0E0,0E0,0E0,0E0,0E0,0E0,0E0,0E0,0E0,0E0,0E0,0E0,0E0,0E0,0E0,0E0,0E0,0E0,0E0,0E0,0E0],"parents":[2147483647,0,0,1,1,2,2,3,3,4,4,5,5,6,6,7,7,8,8,9,9,10,10,11,11,13,13,14,14,15,15,16,16,17,17,18,18,20,20,21,21,22,22,23,23,24,24,25,25,26,26,28,28],"right_children":[2,4,6,8,10,12,14,16,18,20,22,24,-1,26,28,30,32,34,36,-1,38,40,42,44,46,48,50,-1,52,-1,-1,-1,-1,-1,-1,-1,-1,-1,-1,-1,-1,-1,-1,-1,-1,-1,-1,-1,-1,-1,-1,-1,-1],"split_conditions":[2.3908703E-1,1.0603951E0,3.6325583E-1,-5.105417E-1,-9.526955E-2,1.3938522E0,1.4169294E0,-7.433699E-2,-6.2497765E-1,-4.0288365E-1,2.6866455E0,1.2024878E0,-1.637579E-2,-3.0642587E-1,-2.793705E0,5.132984E-1,-4.724761E-1,-3.2172692E-1,1.9736927E-2,1.6125247E-2,6.612598E-1,5.628432E-1,-1.1626493E0,1.6306813E0,-5.5824786E-1,7.7809596E-1,-9.026897E-1,2.3206877E-2,3.752229E-1,2.394445E-3,-1.5517398E-2,-1.0332364E-2,2.316433E-2,-1.3821258E-2,-6.4344234E-3,-1.4911311E-3,-1.00571085E-2,-1.5733197E-2,6.1023324E-3,-1.5562072E-2,-2.3347267E-3,-1.4084441E-2,1.1296519E-2,1.8844336E-2,3.521152E-2,1.7551053E-2,-7.850322E-3,1.7230133E-2,-1.5453517E-3,1.2843918E-2,1.8488547E-3,-1.1876446E-2,7.3226127E-3],"split_indices":[2,3,43,32,28,22,10,4,2,32,46,49,0,8,46,9,33,53,46,0,53,42,2,31,27,24,31,0,25,0,0,0,0,0,0,0,0,0,0,0,0,0,0,0,0,0,0,0,0,0,0,0,0],"split_type":[0,0,0,0,0,0,0,0,0,0,0,0,0,0,0,0,0,0,0,0,0,0,0,0,0,0,0,0,0,0,0,0,0,0,0,0,0,0,0,0,0,0,0,0,0,0,0,0,0,0,0,0,0],"sum_hessian":[1.2618767E3,8.0075464E2,4.6112207E2,6.116508E2,1.8910382E2,1.3842459E2,3.2269748E2,7.738344E1,5.342674E2,3.7121605E1,1.5198222E2,1.3496236E2,3.462236E0,2.8451843E2,3.8179028E1,5.8985294E1,1.8398142E1,1.685734E2,3.6569397E2,5.990869E0,3.1130735E1,1.3979869E2,1.2183534E1,1.2181986E2,1.3142497E1,6.609911E1,2.1841934E2,3.4202662E0,3.4758762E1,5.0050186E1,8.935107E0,4.069366E0,1.4328775E1,6.135194E1,1.0722146E2,2.9459912E2,7.1094864E1,2.2469097E1,8.661636E0,1.346103E2,5.188386E0,7.902822E0,4.280711E0,1.0777077E2,1.4049092E1,3.9842594E0,9.158237E0,5.5458233E1,1.0640879E1,4.2125084E1,1.7629425E2,2.6778362E1,7.9803996E0],"tree_param":{"num_deleted":"0","num_feature":"54","num_nodes":"53","size_leaf_vector":"1"}},{"base_weights":[-1.8709391E-2,-1.2334175E-1,3.7711507E-1,-3.6759278E-1,-2.2254871E-2,5.252288E-1,2.2713284E-1,-3.7987164E-1,1.0901537E-2,-9.5309645E-2,4.4188846E-2,8.020757E-1,4.6876153E-1,-1.8014874E-1,2.7590144E-1,-3.0861837E-1,-5.070739E-1,-2.9346508E-1,-4.1055482E-2,1.05538875E-1,-1.6695611E-1,1.3407361E-2,2.5815478E-2,3.940882E-1,7.225546E-1,-2.0658562E-2,1.9600745E-1,3.2616445E-1,-1.10517286E-1,-7.961776E-3,-2.200281E-2,2.2680438E-4,-1.612113E-2,-1.5718326E-2,-3.0766432E-3,-1.3726238E-2,-1.394759E-4,2.5093995E-2,2.7742349E-3,4.1808537E-3,-9.456496E-3,6.041559E-3,1.5866172E-2,2.4680376E-2,9.957216E-3,2.0004537E-2,-8.732038E-3,8.1875725E-3,2.1837145E-2,7.693806E-3,-1.1676302E-2],"categories":[],"categories_nodes":[],"categories_segments":[],"categories_sizes":[],"default_left":[0,0,0,0,0,0,0,0,0,0,0,0,0,0,0,0,0,0,0,0,0,0,0,0,0,0,0,0,0,0,0,0,0,0,0,0,0,0,0,0,0,0,0,0,0,0,0,0,0,0,0],"id":27,"left_children":[1,3,5,7,9,11,13,15,-1,17,19,21,23,25,27,29,31,33,35,37,39,-1,-1,41,43,-1,45,47,49,-1,-1,-1,-1,-1,-1,-1,-1,-1,-1,-1,-1,-1,-1,-1,-1,-1,-1,-1,-1,-1,-1],"loss_changes":[6.468097E1,3.046467E1,7.0575447E0,3.3832626E0,4.2584934E0,2.047493E0,3.3227606E0,2.9888573E0,0E0,4.4481616E0,5.9495354E0,2.2964478E-2,2.2230911E0,3.618534E0,2.9194794E0,3.9520607E0,2.0180511E0,3.812234E0,4.950804E0,3.2309387E0,4.7495213E0,0E0,0E0,2.659401E0,7.8171444E-1,0E0,2.7510004E0,2.5006657E0,1.9006306E0,0E0,0E0,0E0,0E0,0E0,0E0,0E0,0E0,0E0,0E0,0E0,0E0,0E0,0E0,0E0,0E0,0E0,0E0,0E0,0E0,0E0,0E0],"parents":[2147483647,0,0,1,1,2,2,3,3,4,4,5,5,6,6,7,7,9,9,10,10,11,11,12,12,13,13,14,14,15,15,16,16,17,17,18,18,19,19,20,20,23,23,24,24,26,26,27,27,28,28],"right_children":[2,4,6,8,10,12,14,16,-1,18,20,22,24,26,28,30,32,34,36,38,40,-1,-1,42,44,-1,46,48,50,-1,-1,-1,-1,-1,-1,-1,-1,-1,-1,-1,-1,-1,-1,-1,-1,-1,-1,-1,-1,-1,-1],"split_conditions":[8.029913E-1,-7.2320634E-1,-1.3287394E0,9.328732E-1,6.481285E-2,-1.5338863E0,-7.943826E-1,5.4920197E-1,1.0901537E-2,-3.0263665E-1,7.017922E-1,-2.124306E-1,7.309265E-1,1.3872887E-1,1.6503309E0,1.3458899E0,-1.5467696E0,5.047877E-1,-6.081242E-1,-6.340744E-1,6.4103544E-2,1.3407361E-2,2.5815478E-2,-3.090781E-1,-2.8980678E-1,-2.0658562E-2,1.2180893E0,1.039901E0,5.3428266E-2,-7.961776E-3,-2.200281E-2,2.2680438E-4,-1.612113E-2,-1.5718326E-2,-3.0766432E-3,-1.3726238E-2,-1.394759E-4,2.5093995E-2,2.7742349E-3,4.1808537E-3,-9.456496E-3,6.041559E-3,1.5866172E-2,2.4680376E-2,9.957216E-3,2.0004537E-2,-8.732038E-3,8.1875725E-3,2.1837145E-2,7.693806E-3,-1.1676302E-2],"split_indices":[40,0,43,3,28,30,32,52,0,46,43,21,27,26,26,31,16,1,9,1,50,0,0,9,4,0,40,8,32,0,0,0,0,0,0,0,0,0,0,0,0,0,0,0,0,0,0,0,0,0,0],"split_type":[0,0,0,0,0,0,0,0,0,0,0,0,0,0,0,0,0,0,0,0,0,0,0,0,0,0,0,0,0,0,0,0,0,0,0,0,0,0,0,0,0,0,0,0,0,0,0,0,0,0,0],"sum_hessian":[1.5602267E3,1.2347686E3,3.2545807E2,3.6037857E2,8.7439E2,1.6215475E2,1.633033E2,3.5503192E2,5.3466425E0,4.1698557E2,4.5740445E2,2.4933908E1,1.3722086E2,1.6955788E1,1.463475E2,2.3026157E2,1.2477037E2,8.828504E1,3.2870053E2,3.5517807E2,1.0222635E2,4.9866443E0,1.9947264E1,1.0830204E2,2.8918816E1,6.9696803E0,9.986108E0,1.2986957E2,1.647794E1,2.1068385E2,1.9577707E1,6.795225E0,1.1797515E2,3.8969868E1,4.9315174E1,2.5272312E1,3.0342822E2,4.995722E0,3.5018237E2,