{"learner":{"attributes":{"best_iteration":"79","best_score":"1.0434792936874722","scikit_learn":"{\"_estimator_type\": \"classifier\"}"},"feature_names":[],"feature_types":[],"gradient_booster":{"model":{"cats":{"enc":[],"feature_segments":[],"sorted_idx":[]},"gbtree_model_param":{"num_parallel_tree":"1","num_trees":"390"},"iteration_indptr":[0,3,6,9,12,15,18,21,24,27,30,33,36,39,42,45,48,51,54,57,60,63,66,69,72,75,78,81,84,87,90,93,96,99,102,105,108,111,114,117,120,123,126,129,132,135,138,141,144,147,150,153,156,159,162,165,168,171,174,177,180,183,186,189,192,195,198,201,204,207,210,213,216,219,222,225,228,231,234,237,240,243,246,249,252,255,258,261,264,267,270,273,276,279,282,285,288,291,294,297,300,303,306,309,312,315,318,321,324,327,330,333,336,339,342,345,348,351,354,357,360,363,366,369,372,375,378,381,384,387,390],"tree_info":[0,1,2,0,1,2,0,1,2,0,1,2,0,1,2,0,1,2,0,1,2,0,1,2,0,1,2,0,1,2,0,1,2,0,1,2,0,1,2,0,1,2,0,1,2,0,1,2,0,1,2,0,1,2,0,1,2,0,1,2,0,1,2,0,1,2,0,1,2,0,1,2,0,1,2,0,1,2,0,1,2,0,1,2,0,1,2,0,1,2,0,1,2,0,1,2,0,1,2,0,1,2,0,1,2,0,1,2,0,1,2,0,1,2,0,1,2,0,1,2,0,1,2,0,1,2,0,1,2,0,1,2,0,1,2,0,1,2,0,1,2,0,1,2,0,1,2,0,1,2,0,1,2,0,1,2,0,1,2,0,1,2,0,1,2,0,1,2,0,1,2,0,1,2,0,1,2,0,1,2,0,1,2,0,1,2,0,1,2,0,1,2,0,1,2,0,1,2,0,1,2,0,1,2,0,1,2,0,1,2,0,1,2,0,1,2,0,1,2,0,1,2,0,1,2,0,1,2,0,1,2,0,1,2,0,1,2,0,1,2,0,1,2,0,1,2,0,1,2,0,1,2,0,1,2,0,1,2,0,1,2,0,1,2,0,1,2,0,1,2,0,1,2,0,1,2,0,1,2,0,1,2,0,1,2,0,1,2,0,1,2,0,1,2,0,1,2,0,1,2,0,1,2,0,1,2,0,1,2,0,1,2,0,1,2,0,1,2,0,1,2,0,1,2,0,1,2,0,1,2,0,1,2,0,1,2,0,1,2,0,1,2,0,1,2,0,1,2,0,1,2,0,1,2,0,1,2,0,1,2,0,1,2,0,1,2,0,1,2,0,1,2,0,1,2,0,1,2,0,1,2,0,1,2,0,1,2,0,1,2],"trees":[{"base_weights":[3.0994168E-3,-1.8503578E-1,1.9887616E-1,-4.0455547E-1,-1.0885842E-1,3.853311E-1,1.027001E-1,-5.190802E-1,-2.7920428E-1,3.1042966E-1,-1.2402005E-1,3.367534E-1,7.672703E-1,1.14932515E-1,-5.732914E-1,-9.8467834E-2,-5.836939E-1,-3.3450222E-1,4.1411588E-1,-7.7566296E-2,2.4956478E-2,-1.379724E-1,3.566209E-1,3.894214E-1,-2.4796464E-2,1.9349337E-4,8.899588E-1,-4.6736762E-2,1.4560881E-1,-6.1362833E-3,-2.1707235E-2,4.9445806E-3,-2.0876944E-2,-1.8410813E-2,2.831198E-3,-1.2357645E-2,4.85836E-3,2.112248E-2,-0E0,-1.02909235E-2,1.1283197E-2,-3.0701093E-3,-1.0560691E-2,3.0386027E-2,-5.992682E-3,2.7477918E-2,1.0286992E-2,9.539693E-3,-1.9014185E-2,2.9378401E-2,6.0524256E-3,4.4846148E-4,-1.9190615E-2,8.740796E-3,2.9592717E-3],"categories":[],"categories_nodes":[],"categories_segments":[],"categories_sizes":[],"default_left":[0,0,0,0,0,0,0,0,0,0,0,0,0,0,0,0,0,0,0,0,0,0,0,0,0,0,0,0,0,0,0,0,0,0,0,0,0,0,0,0,0,0,0,0,0,0,0,0,0,0,0,0,0,0,0],"id":0,"left_children":[1,3,5,7,9,11,13,15,17,19,21,23,25,27,29,31,33,35,37,39,-1,41,43,45,47,-1,49,51,53,-1,-1,-1,-1,-1,-1,-1,-1,-1,-1,-1,-1,-1,-1,-1,-1,-1,-1,-1,-1,-1,-1,-1,-1,-1,-1],"loss_changes":[6.2599033E1,1.439332E1,1.4851192E1,2.969429E0,4.1196847E0,4.877781E0,4.578948E0,2.9913025E0,4.3022604E0,4.704753E0,4.207635E0,4.8615646E0,2.7882824E0,2.7071857E0,3.0342484E-1,2.791736E0,2.12389E0,3.991269E0,1.0071112E0,1.7806197E0,0E0,4.5463047E0,6.7322516E0,4.973999E0,7.091535E0,0E0,1.312254E0,3.2453432E0,3.058856E0,0E0,0E0,0E0,0E0,0E0,0E0,0E0,0E0,0E0,0E0,0E0,0E0,0E0,0E0,0E0,0E0,0E0,0E0,0E0,0E0,0E0,0E0,0E0,0E0,0E0,0E0],"parents":[2147483647,0,0,1,1,2,2,3,3,4,4,5,5,6,6,7,7,8,8,9,9,10,10,11,11,12,12,13,13,14,14,15,15,16,16,17,17,18,18,19,19,21,21,22,22,23,23,24,24,26,26,27,27,28,28],"right_children":[2,4,6,8,10,12,14,16,18,20,22,24,26,28,30,32,34,36,38,40,-1,42,44,46,48,-1,50,52,54,-1,-1,-1,-1,-1,-1,-1,-1,-1,-1,-1,-1,-1,-1,-1,-1,-1,-1,-1,-1,-1,-1,-1,-1,-1,-1],"split_conditions":[3.261561E-2,-1.1151968E0,-6.279219E-1,-3.3160678E-1,-1.7553505E0,2.1231778E0,4.8714605E-1,-2.0169582E0,1.3998584E0,9.13202E-2,1.7164792E0,1.7034621E0,1.4273616E0,-4.7310747E-2,1.0552132E0,3.8125634E-1,2.223842E0,1.0124596E0,-4.618095E-1,8.532771E-1,2.4956478E-2,7.858877E-1,-7.554847E-1,-1.3122272E0,1.3477323E0,1.9349337E-4,7.838058E-2,2.472501E0,-7.36645E-1,-6.1362833E-3,-2.1707235E-2,4.9445806E-3,-2.0876944E-2,-1.8410813E-2,2.831198E-3,-1.2357645E-2,4.85836E-3,2.112248E-2,-0E0,-1.02909235E-2,1.1283197E-2,-3.0701093E-3,-1.0560691E-2,3.0386027E-2,-5.992682E-3,2.7477918E-2,1.0286992E-2,9.539693E-3,-1.9014185E-2,2.9378401E-2,6.0524256E-3,4.4846148E-4,-1.9190615E-2,8.740796E-3,2.9592717E-3],"split_indices":[40,40,1,22,47,5,42,3,33,7,33,29,40,16,1,1,30,7,14,25,0,43,28,15,5,0,8,46,49,0,0,0,0,0,0,0,0,0,0,0,0,0,0,0,0,0,0,0,0,0,0,0,0,0,0],"split_type":[0,0,0,0,0,0,0,0,0,0,0,0,0,0,0,0,0,0,0,0,0,0,0,0,0,0,0,0,0,0,0,0,0,0,0,0,0,0,0,0,0,0,0,0,0,0,0,0,0,0,0,0,0,0,0],"sum_hessian":[1.6975232E3,8.6542316E2,8.321E2,2.2150128E2,6.439219E2,2.8177707E2,5.503229E2,1.13690926E2,1.0781036E2,2.1562073E1,6.223598E2,2.518842E2,2.9892874E1,5.41502E2,8.8208475E0,1.5681507E1,9.800942E1,1.00459656E2,7.3507066E0,1.2741224E1,8.8208475E0,6.0569824E2,1.6661602E1,2.2003114E2,3.1853062E1,4.4104238E0,2.5482449E1,8.575824E1,4.557438E2,3.4303298E0,5.390518E0,1.1271083E1,4.4104238E0,9.408904E1,3.9203768E0,8.7228386E1,1.3231272E1,3.9203768E0,3.4303298E0,8.330801E0,4.4104238E0,5.2092004E2,8.4778145E1,7.3507066E0,9.310895E0,1.6171555E1,2.0385959E2,2.0581978E1,1.1271083E1,2.205212E1,3.4303298E0,7.840753E1,7.3507066E0,1.092805E2,3.464633E2],"tree_param":{"num_deleted":"0","num_feature":"54","num_nodes":"55","size_leaf_vector":"1"}},{"base_weights":[1.4846449E-2,1.0152529E-1,-1.5704563E-1,3.4496808E-1,7.830506E-2,-5.19828E-2,-2.7242872E-1,6.2201333E-1,-3.9443646E-2,1.21633634E-1,-1.17024876E-1,-2.1342564E-1,5.715184E-2,1.1291732E-1,-3.1177822E-1,2.2130132E-2,8.088895E-1,2.180785E-2,-1.669183E-1,1.639788E-1,-5.747963E-2,3.8792408E-1,-1.4503781E-1,-4.1788188E-1,-3.6562786E-2,-7.736076E-2,2.8711024E-1,-1.0775296E-1,2.3827001E-2,1.610437E-2,-3.3205006E-1,-1.1392517E-2,1.8550832E-2,3.352907E-2,1.5572689E-2,-8.823118E-3,7.5913114E-3,-4.447463E-3,5.583713E-3,9.799331E-3,-4.1266195E-3,-5.568845E-3,3.0210475E-2,-9.084062E-3,-1.584387E-3,-1.5947543E-2,4.715636E-3,7.1802014E-3,-5.8643958E-3,1.3376603E-2,-3.8989724E-3,2.9762635E-2,1.9240227E-3,-1.732712E-2,2.9844744E-3,-1.0525591E-2,8.721504E-3],"categories":[],"categories_nodes":[],"categories_segments":[],"categories_sizes":[],"default_left":[0,0,0,0,0,0,0,0,0,0,0,0,0,0,0,0,0,0,0,0,0,0,0,0,0,0,0,0,0,0,0,0,0,0,0,0,0,0,0,0,0,0,0,0,0,0,0,0,0,0,0,0,0,0,0,0,0],"id":1,"left_children":[1,3,5,7,9,11,13,15,17,19,21,23,25,27,29,31,33,-1,35,37,39,41,43,45,47,49,51,53,-1,-1,55,-1,-1,-1,-1,-1,-1,-1,-1,-1,-1,-1,-1,-1,-1,-1,-1,-1,-1,-1,-1,-1,-1,-1,-1,-1,-1],"loss_changes":[2.2017893E1,5.4868975E0,5.955887E0,9.126828E0,7.6232376E0,4.623863E0,3.622942E0,5.455246E0,3.6172168E0,5.607583E0,2.3419278E0,3.7648902E0,4.8705463E0,3.5069106E0,3.8390636E0,3.3563755E0,2.6236E0,0E0,1.7929617E0,4.156025E0,4.367653E0,3.3468826E0,2.2129202E0,3.306097E0,2.589102E0,2.750793E0,8.961051E0,1.8201971E0,0E0,0E0,2.5640106E0,0E0,0E0,0E0,0E0,0E0,0E0,0E0,0E0,0E0,0E0,0E0,0E0,0E0,0E0,0E0,0E0,0E0,0E0,0E0,0E0,0E0,0E0,0E0,0E0,0E0,0E0],"parents":[2147483647,0,0,1,1,2,2,3,3,4,4,5,5,6,6,7,7,8,8,9,9,10,10,11,11,12,12,13,13,14,14,15,15,16,16,18,18,19,19,20,20,21,21,22,22,23,23,24,24,25,25,26,26,27,27,30,30],"right_children":[2,4,6,8,10,12,14,16,18,20,22,24,26,28,30,32,34,-1,36,38,40,42,44,46,48,50,52,54,-1,-1,56,-1,-1,-1,-1,-1,-1,-1,-1,-1,-1,-1,-1,-1,-1,-1,-1,-1,-1,-1,-1,-1,-1,-1,-1,-1,-1],"split_conditions":[2.2348148E-1,-1.3360404E0,4.1824996E-1,2.3837481E-1,4.1824996E-1,-1.3528305E-1,-9.847032E-1,3.1887195E-1,-5.7481036E-2,8.884421E-1,-1.153014E0,3.8077388E-2,3.458004E-1,7.11199E-1,-1.807514E0,-4.8873495E-2,-3.1962055E-1,2.180785E-2,-1.794104E-1,-1.4366516E0,-1.1806507E0,-1.3596497E0,-4.0742114E-1,1.1605955E0,-7.117765E-1,-2.1405847E0,3.341919E-1,-5.1377153E-1,2.3827001E-2,1.610437E-2,9.707107E-2,-1.1392517E-2,1.8550832E-2,3.352907E-2,1.5572689E-2,-8.823118E-3,7.5913114E-3,-4.447463E-3,5.583713E-3,9.799331E-3,-4.1266195E-3,-5.568845E-3,3.0210475E-2,-9.084062E-3,-1.584387E-3,-1.5947543E-2,4.715636E-3,7.1802014E-3,-5.8643958E-3,1.3376603E-2,-3.8989724E-3,2.9762635E-2,1.9240227E-3,-1.732712E-2,2.9844744E-3,-1.0525591E-2,8.721504E-3],"split_indices":[31,8,41,4,41,27,24,44,48,49,31,33,29,33,8,33,27,0,31,33,41,31,31,24,5,44,6,50,0,0,20,0,0,0,0,0,0,0,0,0,0,0,0,0,0,0,0,0,0,0,0,0,0,0,0,0,0],"split_type":[0,0,0,0,0,0,0,0,0,0,0,0,0,0,0,0,0,0,0,0,0,0,0,0,0,0,0,0,0,0,0,0,0,0,0,0,0,0,0,0,0,0,0,0,0,0,0,0,0,0,0,0,0,0,0,0,0],"sum_hessian":[1.476072E3,9.81918E2,4.94154E2,8.3920975E1,8.979971E2,2.5985684E2,2.3429715E2,4.8563408E1,3.535757E1,7.3569305E2,1.6230403E2,1.0479472E2,1.5506212E2,2.129974E1,2.129974E2,1.1927855E1,3.6635555E1,4.2599483E0,3.1097622E1,5.955408E2,1.401523E2,7.6679068E0,1.5463612E2,4.771142E1,5.7083305E1,9.7978806E1,5.7083305E1,1.6613798E1,4.685943E0,4.2599483E0,2.0873746E2,7.241912E0,4.685943E0,1.6187803E1,2.044775E1,2.4281704E1,6.815917E0,3.876553E1,5.567752E2,2.3429714E1,1.1672258E2,4.2599483E0,3.4079585E0,5.580532E1,9.8830795E1,4.0043514E1,7.6679068E0,2.044775E1,3.6635555E1,8.093902E0,8.98849E1,1.2779844E1,4.430346E1,4.685943E0,1.1927855E1,2.0319952E2,5.5379324E0],"tree_param":{"num_deleted":"0","num_feature":"54","num_nodes":"57","size_leaf_vector":"1"}},{"base_weights":[1.006912E-2,5.865666E-1,-7.109541E-2,6.389596E-1,-2.3131706E-1,-2.3654155E-1,3.1370167E-2,-0E0,6.850786E-1,1.3145214E-2,-1.7273191E-2,-4.9627927E-1,-2.0097959E-1,2.2936904E-1,-4.5216903E-3,-1.6218005E-2,1.30170975E-2,1.1211303E0,6.139825E-1,-5.536596E-1,-1.0703039E-1,-2.1540868E-1,2.6763734E-1,1.553201E-2,3.9029032E-1,-1.2892325E-1,4.650395E-2,4.628777E-2,2.1613238E-2,2.0094695E-2,1.7287149E-3,-1.8313237E-2,-2.71085E-3,1.3145214E-2,-1.5913729E-2,2.7733496E-3,-7.199592E-3,2.777732E-2,-1.3819768E-3,3.8543611E-3,-1.7422702E-2,3.0833986E-3,1.8177241E-2,-4.8237704E-3,1.4374667E-2,2.4366641E-2,1.0460451E-3],"categories":[],"categories_nodes":[],"categories_segments":[],"categories_sizes":[],"default_left":[0,0,0,0,0,0,0,0,0,0,0,0,0,0,0,0,0,0,0,0,0,0,0,0,0,0,0,0,0,0,0,0,0,0,0,0,0,0,0,0,0,0,0,0,0,0,0],"id":2,"left_children":[1,3,5,7,9,11,13,15,17,-1,-1,19,21,23,25,-1,-1,27,29,31,33,35,37,39,41,43,45,-1,-1,-1,-1,-1,-1,-1,-1,-1,-1,-1,-1,-1,-1,-1,-1,-1,-1,-1,-1],"loss_changes":[6.341276E1,7.3562393E0,2.0150068E1,4.710991E0,2.7311068E0,4.028269E0,5.2362466E0,2.9342604E0,3.6989136E0,0E0,0E0,1.0742912E0,2.76894E0,3.8420725E0,3.9593265E0,0E0,0E0,1.9097233E0,3.8932076E0,1.0939713E0,2.1724937E0,2.9916687E0,2.6581397E0,3.3856504E0,3.8451595E0,3.5645816E0,3.8152092E0,0E0,0E0,0E0,0E0,0E0,0E0,0E0,0E0,0E0,0E0,0E0,0E0,0E0,0E0,0E0,0E0,0E0,0E0,0E0,0E0],"parents":[2147483647,0,0,1,1,2,2,3,3,4,4,5,5,6,6,7,7,8,8,11,11,12,12,13,13,14,14,17,17,18,18,19,19,20,20,21,21,22,22,23,23,24,24,25,25,26,26],"right_children":[2,4,6,8,10,12,14,16,18,-1,-1,20,22,24,26,-1,-1,28,30,32,34,36,38,40,42,44,46,-1,-1,-1,-1,-1,-1,-1,-1,-1,-1,-1,-1,-1,-1,-1,-1,-1,-1,-1,-1],"split_conditions":[-1.1548374E0,1.6466451E0,5.7299316E-2,-7.238985E-1,-2.905335E-2,-7.0600617E-1,-1.1806507E0,-1.2482545E-1,-4.9731278E-1,1.3145214E-2,-1.7273191E-2,8.424919E-1,5.92359E-1,-3.3160678E-1,-5.7724655E-1,-1.6218005E-2,1.30170975E-2,2.584367E-1,1.0124596E0,8.896131E-1,-1.0214542E0,-1.6823138E0,7.5085956E-1,1.2391326E0,3.3848265E-1,1.2450218E0,-5.098585E-1,4.628777E-2,2.1613238E-2,2.0094695E-2,1.7287149E-3,-1.8313237E-2,-2.71085E-3,1.3145214E-2,-1.5913729E-2,2.7733496E-3,-7.199592E-3,2.777732E-2,-1.3819768E-3,3.8543611E-3,-1.7422702E-2,3.0833986E-3,1.8177241E-2,-4.8237704E-3,1.4374667E-2,2.4366641E-2,1.0460451E-3],"split_indices":[40,27,43,47,33,31,41,26,42,0,0,26,21,22,49,0,0,47,7,32,10,25,21,53,4,50,49,0,0,0,0,0,0,0,0,0,0,0,0,0,0,0,0,0,0,0,0],"split_type":[0,0,0,0,0,0,0,0,0,0,0,0,0,0,0,0,0,0,0,0,0,0,0,0,0,0,0,0,0,0,0,0,0,0,0,0,0,0,0,0,0,0,0,0,0,0,0],"sum_hessian":[1.352237E3,1.6626817E2,1.1859689E3,1.5657889E2,9.689288E0,4.5345868E2,7.3251013E2,1.0464431E1,1.4611446E2,3.100572E0,6.5887156E0,5.2709724E1,4.0074893E2,1.1200817E2,6.20502E2,4.650858E0,5.813573E0,1.821586E1,1.278986E2,4.5345867E1,7.3638587E0,3.8950937E2,1.12395735E1,4.883401E1,6.3174156E1,1.8060832E2,4.3989368E2,7.3638587E0,1.0852002E1,1.1588388E2,1.2014717E1,3.9919865E1,5.426001E0,3.100572E0,4.2632866E0,2.829272E1,3.6121664E2,3.100572E0,8.139002E0,4.1857723E1,6.9762874E0,2.790515E1,3.526901E1,1.7246933E2,8.139002E0,5.426001E0,4.3446768E2],"tree_param":{"num_deleted":"0","num_feature":"54","num_nodes":"47","size_leaf_vector":"1"}},{"base_weights":[-6.3914093E-3,-1.9999881E-1,1.8561889E-1,-1.3219386E-1,-4.2988005E-1,1.4829242E-1,6.9705826E-1,-1.4122313E-1,6.22948E-1,-1.3036248E-2,-4.7096053E-1,5.8529392E-2,2.3265214E-1,-2.3604687E-3,7.5679606E-1,8.0143474E-2,-1.6583611E-1,2.6377268E-2,6.099129E-3,-1.9364348E-2,4.9573666E-1,-5.013186E-1,3.053611E-2,9.900833E-3,2.5685948E-1,2.9889113E-1,-9.922923E-2,-0E0,8.224354E-1,1.4686741E-2,-2.1768487E-3,-5.5560097E-3,3.8278613E-3,2.9075107E-2,-4.1119526E-3,-1.5512504E-2,3.0331586E-3,1.3242155E-2,-1.1068719E-2,-1.7817473E-3,4.6608895E-3,1.0365838E-2,-1.1101849E-2,1.1303307E-2,5.4466235E-3,-6.665826E-3,1.725277E-2,1.1258587E-2,2.704119E-2],"categories":[],"categories_nodes":[],"categories_segments":[],"categories_sizes":[],"default_left":[0,0,0,0,0,0,0,0,0,0,0,0,0,0,0,0,0,0,0,0,0,0,0,0,0,0,0,0,0,0,0,0,0,0,0,0,0,0,0,0,0,0,0,0,0,0,0,0,0],"id":3,"left_children":[1,3,5,7,9,11,13,15,17,19,21,23,25,-1,27,29,31,-1,-1,-1,33,35,37,39,41,43,45,-1,47,-1,-1,-1,-1,-1,-1,-1,-1,-1,-1,-1,-1,-1,-1,-1,-1,-1,-1,-1,-1],"loss_changes":[6.3667263E1,1.3182816E1,1.6222286E1,4.543288E0,3.2591858E0,6.0348225E0,2.8159466E0,3.5831842E0,5.5815554E-1,6.322063E0,2.7404404E0,3.7394187E0,9.125282E0,0E0,2.6144905E0,4.182956E0,3.375927E0,0E0,0E0,0E0,3.4484897E0,1.6714439E0,1.9420129E0,3.1964283E0,4.3778195E0,3.0254993E0,5.829384E0,0E0,1.2869072E0,0E0,0E0,0E0,0E0,0E0,0E0,0E0,0E0,0E0,0E0,0E0,0E0,0E0,0E0,0E0,0E0,0E0,0E0,0E0,0E0],"parents":[2147483647,0,0,1,1,2,2,3,3,4,4,5,5,6,6,7,7,8,8,9,9,10,10,11,11,12,12,14,14,15,15,16,16,20,20,21,21,22,22,23,23,24,24,25,25,26,26,28,28],"right_children":[2,4,6,8,10,12,14,16,18,20,22,24,26,-1,28,30,32,-1,-1,-1,34,36,38,40,42,44,46,-1,48,-1,-1,-1,-1,-1,-1,-1,-1,-1,-1,-1,-1,-1,-1,-1,-1,-1,-1,-1,-1],"split_conditions":[-9.942459E-3,1.1903535E0,2.1360211E0,3.550577E0,-5.765482E-1,5.4323417E-1,-4.238901E-1,1.6335107E-1,1.563838E0,-1.0890002E-1,2.223842E0,6.1574244E-1,1.3315893E0,-2.3604687E-3,-5.046364E-1,-4.9031752E-1,1.9202678E0,2.6377268E-2,6.099129E-3,-1.9364348E-2,7.146026E-1,3.5525586E-2,2.7272193E0,2.8163588E-1,1.6235838E0,1.1025759E-1,1.3035339E0,-0E0,-9.9400425E-1,1.4686741E-2,-2.1768487E-3,-5.5560097E-3,3.8278613E-3,2.9075107E-2,-4.1119526E-3,-1.5512504E-2,3.0331586E-3,1.3242155E-2,-1.1068719E-2,-1.7817473E-3,4.6608895E-3,1.0365838E-2,-1.1101849E-2,1.1303307E-2,5.4466235E-3,-6.665826E-3,1.725277E-2,1.1258587E-2,2.704119E-2],"split_indices":[0,2,41,15,47,0,17,1,10,49,30,32,44,0,24,26,13,0,0,0,42,48,10,43,49,51,31,0,53,0,0,0,0,0,0,0,0,0,0,0,0,0,0,0,0,0,0,0,0],"split_type":[0,0,0,0,0,0,0,0,0,0,0,0,0,0,0,0,0,0,0,0,0,0,0,0,0,0,0,0,0,0,0,0,0,0,0,0,0,0,0,0,0,0,0,0,0,0,0,0,0],"sum_hessian":[1.710617E3,8.5200464E2,8.5861224E2,6.5949304E2,1.9251163E2,8.015948E2,5.701745E1,6.526349E2,6.8581696E0,1.760681E1,1.7490482E2,3.897549E2,4.1183987E2,3.934457E0,5.3082993E1,6.467105E1,5.879638E2,3.429884E0,3.4282856E0,7.8172503E0,9.78956E0,1.6510968E2,9.795137E0,3.142565E2,7.549843E1,3.436523E2,6.818759E1,4.4230223E0,4.865997E1,1.7147142E1,4.7523907E1,5.5223047E2,3.5733326E1,5.38627E0,4.40329E0,1.6119891E2,3.9107718E0,4.9005E0,4.8946376E0,2.1279407E2,1.01462425E2,6.6676414E1,8.822008E0,2.0470813E2,1.3894418E2,5.836357E1,9.8240185E0,8.354758E0,4.030521E1],"tree_param":{"num_deleted":"0","num_feature":"54","num_nodes":"49","size_leaf_vector":"1"}},{"base_weights":[-8.192617E-3,7.7375114E-2,-1.5540335E-1,3.1254205E-1,5.545564E-2,-2.5205776E-1,-4.923961E-2,3.3384103E-2,2.2591369E-1,-8.918307E-2,9.746484E-2,-4.098958E-1,-1.2172429E-1,-7.954059E-2,4.4804317E-1,4.4957983E-1,-1.0164632E-1,-4.790755E-1,-4.4165257E-2,1.4931852E-1,-1.6864615E-2,-3.0522367E-1,-5.229104E-1,3.0679524E-1,-1.973182E-1,-1.384322E-1,1.144032E-1,-1.0425768E-1,9.287383E-1,-1.6135002E-2,1.646304E-2,-1.4092142E-2,3.0962003E-3,-1.5596978E-3,-1.8060086E-2,1.6675483E-2,-2.7647456E-3,-2.201085E-3,5.739635E-3,8.557417E-3,-2.8681397E-3,-1.3301679E-2,-2.2993314E-3,1.258837E-3,-1.7780669E-2,-1.0128965E-2,1.6952403E-2,-1.0518676E-2,-5.436797E-4,1.8528825E-2,-4.8366757E-3,1.932927E-2,7.864774E-5,9.804077E-3,-1.604273E-2,3.7991367E-2,9.757032E-3],"categories":[],"categories_nodes":[],"categories_segments":[],"categories_sizes":[],"default_left":[0,0,0,0,0,0,0,0,0,0,0,0,0,0,0,0,0,0,0,0,0,0,0,0,0,0,0,0,0,0,0,0,0,0,0,0,0,0,0,0,0,0,0,0,0,0,0,0,0,0,0,0,0,0,0,0,0],"id":4,"left_children":[1,3,5,7,9,11,13,-1,15,17,19,21,23,25,27,29,31,33,35,37,39,41,43,45,47,49,51,53,55,-1,-1,-1,-1,-1,-1,-1,-1,-1,-1,-1,-1,-1,-1,-1,-1,-1,-1,-1,-1,-1,-1,-1,-1,-1,-1,-1,-1],"loss_changes":[1.8770323E1,4.799604E0,5.58E0,5.1384196E0,5.252813E0,5.782078E0,3.9596264E0,0E0,5.4480095E0,3.335268E0,3.986144E0,1.2790699E0,5.1827316E0,2.8599882E0,4.177074E0,4.5959206E0,2.374518E0,9.4129324E-1,5.056807E0,4.3420315E0,4.9864435E0,2.1132212E0,2.4442368E0,4.2007656E0,3.67935E0,3.3570685E0,3.3753614E0,1.6447755E0,1.1098018E0,0E0,0E0,0E0,0E0,0E0,0E0,0E0,0E0,0E0,0E0,0E0,0E0,0E0,0E0,0E0,0E0,0E0,0E0,0E0,0E0,0E0,0E0,0E0,0E0,0E0,0E0,0E0,0E0],"parents":[2147483647,0,0,1,1,2,2,3,3,4,4,5,5,6,6,8,8,9,9,10,10,11,11,12,12,13,13,14,14,15,15,16,16,17,17,18,18,19,19,20,20,21,21,22,22,23,23,24,24,25,25,26,26,27,27,28,28],"right_children":[2,4,6,8,10,12,14,-1,16,18,20,22,24,26,28,30,32,34,36,38,40,42,44,46,48,50,52,54,56,-1,-1,-1,-1,-1,-1,-1,-1,-1,-1,-1,-1,-1,-1,-1,-1,-1,-1,-1,-1,-1,-1,-1,-1,-1,-1,-1,-1],"split_conditions":[1.6913216E-1,-1.3360404E0,-3.6758733E-1,-1.2597744E0,-5.2675486E-1,-2.256307E-2,1.5539695E0,3.3384103E-2,2.3837481E-1,5.100834E-1,4.8060074E-1,-9.0308595E-1,-8.150243E-1,7.702561E-1,2.0881331E-1,-1.3581795E0,5.033377E-1,-2.6478829E-2,-1.153014E0,-1.0914444E0,-1.6051863E-1,-6.3452166E-1,-1.1180747E0,-7.2707355E-1,1.1025759E-1,-2.2684832E0,-1.1899801E0,1.7749662E0,3.1405218E-2,-1.6135002E-2,1.646304E-2,-1.4092142E-2,3.0962003E-3,-1.5596978E-3,-1.8060086E-2,1.6675483E-2,-2.7647456E-3,-2.201085E-3,5.739635E-3,8.557417E-3,-2.8681397E-3,-1.3301679E-2,-2.2993314E-3,1.258837E-3,-1.7780669E-2,-1.0128965E-2,1.6952403E-2,-1.0518676E-2,-5.436797E-4,1.8528825E-2,-4.8366757E-3,1.932927E-2,7.864774E-5,9.804077E-3,-1.604273E-2,3.7991367E-2,9.757032E-3],"split_indices":[31,8,1,26,2,33,31,0,4,40,51,2,28,33,27,2,42,48,31,40,21,4,14,26,51,17,3,31,49,0,0,0,0,0,0,0,0,0,0,0,0,0,0,0,0,0,0,0,0,0,0,0,0,0,0,0,0],"split_type":[0,0,0,0,0,0,0,0,0,0,0,0,0,0,0,0,0,0,0,0,0,0,0,0,0,0,0,0,0,0,0,0,0,0,0,0,0,0,0,0,0,0,0,0,0,0,0,0,0,0,0,0,0,0,0,0,0],"sum_hessian":[1.4875494E3,9.406071E2,5.469423E2,7.867779E1,8.619293E2,2.8508072E2,2.618616E2,6.415175E0,7.226261E1,1.9320755E2,6.687218E2,1.2761844E2,1.5746228E2,2.4780333E2,1.4058281E1,4.2901306E1,2.9361303E1,1.8771053E1,1.744365E2,4.6045352E2,2.082683E2,6.863526E1,5.898318E1,2.2955126E1,1.3450716E2,1.9069888E2,5.7104458E1,6.8094983E0,7.248782E0,3.4204414E0,3.9480865E1,1.02101755E1,1.9151129E1,4.6951504E0,1.4075902E1,1.1981128E1,1.6245537E2,7.257113E1,3.878824E2,4.2254074E1,1.6601422E2,4.191957E1,2.671569E1,6.3713474E0,5.261183E1,6.369266E0,1.6585861E1,7.167418E1,6.2832973E1,4.6880026E0,1.8601088E2,8.961841E0,4.8142616E1,3.4068267E0,3.4026718E0,3.837661E0,3.4111211E0],"tree_param":{"num_deleted":"0","num_feature":"54","num_nodes":"57","size_leaf_vector":"1"}},{"base_weights":[1.756142E-3,-1.3360378E-1,3.3023015E-1,-2.6387267E-2,-2.420882E-1,5.875535E-1,1.768786E-1,-3.931406E-2,5.8697104E-1,-4.1985932E-1,-2.0910914E-1,7.875883E-1,4.354437E-1,3.655995E-1,4.846331E-2,7.833001E-2,-1.253762E-1,3.2122675E-2,-3.3298307E-3,1.01388216E-1,-4.7071502E-1,-2.710089E-1,-1.10125825E-1,5.3748274E-1,1.0217308E0,2.5247654E-1,9.0506E-1,7.675621E-1,2.1716566E-1,-2.8836288E-2,4.2636466E-1,-3.8599763E-3,6.3759885E-3,-1.1950445E-2,-2.4111923E-3,-7.207857E-3,1.3248992E-2,-1.7909957E-2,-9.547417E-3,-6.420498E-3,-1.3917827E-2,2.002606E-3,-6.855148E-3,2.309992E-2,-1.270263E-2,1.9342327E-2,3.843822E-2,1.8717513E-3,2.148038E-2,-7.3398813E-3,3.2849688E-2,-1.4705114E-2,2.8765848E-2,-7.0185233E-3,1.1155484E-2,8.000365E-3,-3.2910954E-3,-9.426471E-3,1.7279318E-2],"categories":[],"categories_nodes":[],"categories_segments":[],"categories_sizes":[],"default_left":[0,0,0,0,0,0,0,0,0,0,0,0,0,0,0,0,0,0,0,0,0,0,0,0,0,0,0,0,0,0,0,0,0,0,0,0,0,0,0,0,0,0,0,0,0,0,0,0,0,0,0,0,0,0,0,0,0,0,0],"id":5,"left_children":[1,3,5,7,9,11,13,15,17,19,21,23,25,27,29,31,33,-1,-1,35,37,39,41,43,45,47,49,51,53,55,57,-1,-1,-1,-1,-1,-1,-1,-1,-1,-1,-1,-1,-1,-1,-1,-1,-1,-1,-1,-1,-1,-1,-1,-1,-1,-1,-1,-1],"loss_changes":[6.0506535E1,1.1170025E1,1.5494328E1,3.8218105E0,2.6527557E0,4.0274315E0,6.013285E0,4.844827E0,3.569416E0,2.0293455E0,2.4185257E0,2.9408073E0,7.079134E0,5.7605085E0,4.450597E0,5.6383643E0,3.3155532E0,0E0,0E0,9.596313E-1,1.012208E0,2.5637722E0,3.349094E0,7.604021E0,1.9987335E0,5.491222E0,5.5244274E0,6.93132E0,5.3574924E0,3.0179958E0,3.0716581E0,0E0,0E0,0E0,0E0,0E0,0E0,0E0,0E0,0E0,0E0,0E0,0E0,0E0,0E0,0E0,0E0,0E0,0E0,0E0,0E0,0E0,0E0,0E0,0E0,0E0,0E0,0E0,0E0],"parents":[2147483647,0,0,1,1,2,2,3,3,4,4,5,5,6,6,7,7,8,8,9,9,10,10,11,11,12,12,13,13,14,14,15,15,16,16,19,19,20,20,21,21,22,22,23,23,24,24,25,25,26,26,27,27,28,28,29,29,30,30],"right_children":[2,4,6,8,10,12,14,16,18,20,22,24,26,28,30,32,34,-1,-1,36,38,40,42,44,46,48,50,52,54,56,58,-1,-1,-1,-1,-1,-1,-1,-1,-1,-1,-1,-1,-1,-1,-1,-1,-1,-1,-1,-1,-1,-1,-1,-1,-1,-1,-1,-1],"split_conditions":[4.3464112E-1,3.864541E-1,-1.212132E0,2.1244185E0,-5.995255E-1,-1.3968462E-1,-4.415848E-2,-1.8190329E-1,3.8125634E-1,-9.3718284E-1,6.167033E-1,-1.238024E0,9.358267E-1,-6.075078E-1,-6.380652E-2,-6.0858077E-1,-5.5888607E-3,3.2122675E-2,-3.3298307E-3,7.24929E-2,1.5815704E-1,7.352181E-1,9.85347E-1,-8.8917875E-1,-7.7479124E-1,6.178385E-1,-7.4478436E-1,-1.2840288E0,-7.402364E-2,-6.275932E-1,-9.614109E-1,-3.8599763E-3,6.3759885E-3,-1.1950445E-2,-2.4111923E-3,-7.207857E-3,1.3248992E-2,-1.7909957E-2,-9.547417E-3,-6.420498E-3,-1.3917827E-2,2.002606E-3,-6.855148E-3,2.309992E-2,-1.270263E-2,1.9342327E-2,3.843822E-2,1.8717513E-3,2.148038E-2,-7.3398813E-3,3.2849688E-2,-1.4705114E-2,2.8765848E-2,-7.0185233E-3,1.1155484E-2,8.000365E-3,-3.2910954E-3,-9.426471E-3,1.7279318E-2],"split_indices":[2,40,0,50,31,33,33,3,1,12,6,5,33,24,5,12,3,0,0,50,12,33,0,3,46,31,25,11,20,25,7,0,0,0,0,0,0,0,0,0,0,0,0,0,0,0,0,0,0,0,0,0,0,0,0,0,0,0,0],"split_type":[0,0,0,0,0,0,0,0,0,0,0,0,0,0,0,0,0,0,0,0,0,0,0,0,0,0,0,0,0,0,0,0,0,0,0,0,0,0,0,0,0,0,0,0,0,0,0,0,0,0,0,0,0,0,0,0,0,0,0],"sum_hessian":[1.3584183E3,9.6219775E2,3.9622055E2,4.8501566E2,4.771821E2,1.4665329E2,2.4956725E2,4.76081E2,8.934674E0,7.236118E1,4.0482092E2,6.1258728E1,8.539456E1,9.999194E1,1.495753E2,2.0068254E2,2.7539844E2,5.046162E0,3.8885117E0,6.169244E0,6.619194E1,2.4737526E2,1.5744565E2,3.1419638E1,2.9839092E1,6.2711937E1,2.2682629E1,2.56598E1,7.4332146E1,1.24722435E2,2.485286E1,7.865714E1,1.220254E2,3.7551506E1,2.3784694E2,3.07824E0,3.0910037E0,3.425134E1,3.1940598E1,1.929897E2,5.4385567E1,6.2961452E1,9.44842E1,2.5541883E1,5.8777533E0,1.3744558E1,1.6094534E1,4.54318E1,1.7280138E1,3.1003346E0,1.9582293E1,3.1123104E0,2.254749E1,1.86839E1,5.5648243E1,2.6037655E1,9.8684784E1,3.8797188E0,2.097314E1],"tree_param":{"num_deleted":"0","num_feature":"54","num_nodes":"59","size_leaf_vector":"1"}},{"base_weights":[-1.2871318E-3,-1.9722262E-1,1.8878663E-1,-1.345416E-1,-4.1250318E-1,1.4477609E-1,5.061909E-1,1.3025863E-1,-1.5847643E-1,-4.3104464E-1,1.310882E-2,1.7291601E-1,-9.190366E-2,-1.2975084E-2,5.43174E-1,-2.5927052E-1,2.902163E-1,-2.8999397E-1,-1.2116569E-1,-3.0410695E-1,-5.837615E-1,8.94012E-2,3.1695378E-1,1.6729203E-1,-4.4646132E-1,9.242035E-1,4.6631125E-1,-1.9507058E-2,5.195247E-3,2.1812562E-2,4.084697E-3,-1.1628659E-2,-2.7458367E-3,8.520855E-3,-4.1884175E-3,-1.3462632E-2,-3.9810594E-3,-2.2254588E-2,-1.4006264E-2,1.8596168E-3,1.622039E-2,1.0460812E-2,-9.4870785E-3,-3.7203413E-3,1.54074E-2,6.088268E-3,-1.5811868E-2,1.21029215E-2,3.0873533E-2,1.6398596E-2,-9.518204E-4],"categories":[],"categories_nodes":[],"categories_segments":[],"categories_sizes":[],"default_left":[0,0,0,0,0,0,0,0,0,0,0,0,0,0,0,0,0,0,0,0,0,0,0,0,0,0,0,0,0,0,0,0,0,0,0,0,0,0,0,0,0,0,0,0,0,0,0,0,0,0,0],"id":6,"left_children":[1,3,5,7,9,11,13,15,17,19,-1,21,23,-1,25,27,29,31,33,35,37,39,41,43,45,47,49,-1,-1,-1,-1,-1,-1,-1,-1,-1,-1,-1,-1,-1,-1,-1,-1,-1,-1,-1,-1,-1,-1,-1,-1],"loss_changes":[6.3664047E1,1.125169E1,1.197904E1,4.168272E0,3.1650085E0,5.108942E0,3.8895473E0,3.46874E0,2.870675E0,3.3318176E0,0E0,8.14805E0,7.583637E0,0E0,2.4032307E0,2.896913E0,2.4548302E0,2.4628115E0,3.5395818E0,2.4559584E0,1.0625896E0,5.2780485E0,5.135231E0,4.9033513E0,1.9616036E0,3.0508518E-1,3.5372143E0,0E0,0E0,0E0,0E0,0E0,0E0,0E0,0E0,0E0,0E0,0E0,0E0,0E0,0E0,0E0,0E0,0E0,0E0,0E0,0E0,0E0,0E0,0E0,0E0],"parents":[2147483647,0,0,1,1,2,2,3,3,4,4,5,5,6,6,7,7,8,8,9,9,11,11,12,12,14,14,15,15,16,16,17,17,18,18,19,19,20,20,21,21,22,22,23,23,24,24,25,25,26,26],"right_children":[2,4,6,8,10,12,14,16,18,20,-1,22,24,-1,26,28,30,32,34,36,38,40,42,44,46,48,50,-1,-1,-1,-1,-1,-1,-1,-1,-1,-1,-1,-1,-1,-1,-1,-1,-1,-1,-1,-1,-1,-1,-1,-1],"split_conditions":[-2.179913E-2,1.1903535E0,1.7472036E0,1.22744784E-1,2.4798295E0,1.3315893E0,-1.807514E0,-5.828304E-1,-1.1806507E0,2.7855027E-1,1.310882E-2,5.947617E-1,1.0795321E0,-1.2975084E-2,-1.0528775E0,7.4477774E-1,-8.509167E-1,5.498542E-1,-1.1514131E0,-8.3851945E-1,2.191434E-1,2.9682592E-1,1.4373326E-1,-1.4086169E-1,-1.8293581E0,1.9445571E-1,-2.736145E-2,-1.9507058E-2,5.195247E-3,2.1812562E-2,4.084697E-3,-1.1628659E-2,-2.7458367E-3,8.520855E-3,-4.1884175E-3,-1.3462632E-2,-3.9810594E-3,-2.2254588E-2,-1.4006264E-2,1.8596168E-3,1.622039E-2,1.0460812E-2,-9.4870785E-3,-3.7203413E-3,1.54074E-2,6.088268E-3,-1.5811868E-2,1.21029215E-2,3.0873533E-2,1.6398596E-2,-9.518204E-4],"split_indices":[0,2,41,1,52,44,8,0,41,1,0,41,5,0,15,43,5,8,41,44,9,42,20,13,10,14,20,0,0,0,0,0,0,0,0,0,0,0,0,0,0,0,0,0,0,0,0,0,0,0,0],"split_type":[0,0,0,0,0,0,0,0,0,0,0,0,0,0,0,0,0,0,0,0,0,0,0,0,0,0,0,0,0,0,0,0,0,0,0,0,0,0,0,0,0,0,0,0,0,0,0,0,0,0,0],"sum_hessian":[1.7074379E3,8.4099536E2,8.664425E2,6.529671E2,1.8802823E2,7.624888E2,1.03953735E2,5.3413425E1,5.995537E2,1.8460901E2,3.4192119E0,6.820846E2,8.04042E1,3.4325054E0,1.0052123E2,1.5186123E1,3.8227303E1,1.3041122E2,4.6914246E2,1.0280447E2,8.180454E1,4.3321582E2,2.4886876E2,4.659069E1,3.381351E1,1.480479E1,8.5716446E1,7.832523E0,7.3536E0,8.827227E0,2.9400076E1,8.643552E1,4.3975716E1,1.9566658E1,4.495758E2,5.456008E1,4.824438E1,3.2140633E1,4.9663914E1,4.0968735E2,2.3528467E1,2.3756743E2,1.1301324E1,2.5496067E1,2.1094622E1,3.428829E0,3.0384682E1,3.4547303E0,1.13500595E1,7.390286E1,1.1813583E1],"tree_param":{"num_deleted":"0","num_feature":"54","num_nodes":"51","size_leaf_vector":"1"}},{"base_weights":[1.2152668E-2,9.1166E-2,-1.3155408E-1,-8.881529E-2,1.2852895E-1,-2.6276028E-1,-7.113435E-2,-5.1339906E-1,1.3416021E-2,1.4045592E-1,-3.358239E-1,1.9139476E-2,-2.8860283E-1,-1.8215236E-1,1.4296126E-2,-0E0,-5.876661E-1,3.5484338E-1,-9.90935E-2,1.5088725E-1,-1.9102256E-1,-1.9636799E-2,1.1261701E-1,-3.2784864E-1,1.0328063E-1,-1.0999778E-1,-4.6989435E-1,-1.9471338E-2,5.6983876E-1,-1.9487662E-2,-2.466903E-3,4.71164E-3,3.2393713E-2,-2.4312543E-4,-1.6660424E-2,3.908793E-3,1.0711357E-2,6.104416E-3,-1.7348822E-2,1.9244777E-2,-1.1304673E-2,2.3437599E-3,-1.1098166E-2,1.2441526E-2,-1.6838698E-2,1.2558796E-2,-5.0317235E-3,-1.7325701E-2,4.7294563E-3,-8.158482E-3,1.1790247E-3,4.757738E-3,3.6688063E-2],"categories":[],"categories_nodes":[],"categories_segments":[],"categories_sizes":[],"default_left":[0,0,0,0,0,0,0,0,0,0,0,0,0,0,0,0,0,0,0,0,0,0,0,0,0,0,0,0,0,0,0,0,0,0,0,0,0,0,0,0,0,0,0,0,0,0,0,0,0,0,0,0,0],"id":7,"left_children":[1,3,5,7,9,11,13,15,17,19,21,-1,23,25,27,-1,29,31,33,35,37,-1,39,41,43,45,47,49,51,-1,-1,-1,-1,-1,-1,-1,-1,-1,-1,-1,-1,-1,-1,-1,-1,-1,-1,-1,-1,-1,-1,-1,-1],"loss_changes":[1.704046E1,6.5309753E0,4.166271E0,7.292371E0,4.476121E0,4.033844E0,3.492884E0,1.1874962E0,5.2516346E0,2.7357683E0,3.0150561E0,0E0,2.563632E0,3.2090793E0,3.956562E0,0E0,7.5886345E-1,4.5719957E0,4.181899E0,3.1354828E0,3.8323412E0,0E0,2.627614E0,2.59828E0,3.3990383E0,3.9933565E0,2.2581706E0,2.946802E0,2.9140139E0,0E0,0E0,0E0,0E0,0E0,0E0,0E0,0E0,0E0,0E0,0E0,0E0,0E0,0E0,0E0,0E0,0E0,0E0,0E0,0E0,0E0,0E0,0E0,0E0],"parents":[2147483647,0,0,1,1,2,2,3,3,4,4,5,5,6,6,7,7,8,8,9,9,10,10,12,12,13,13,14,14,16,16,17,17,18,18,19,19,20,20,22,22,23,23,24,24,25,25,26,26,27,27,28,28],"right_children":[2,4,6,8,10,12,14,16,18,20,22,-1,24,26,28,-1,30,32,34,36,38,-1,40,42,44,46,48,50,52,-1,-1,-1,-1,-1,-1,-1,-1,-1,-1,-1,-1,-1,-1,-1,-1,-1,-1,-1,-1,-1,-1,-1,-1],"split_conditions":[1.9254664E-1,-2.562E-1,-9.835501E-1,-1.2481319E0,2.5106897E0,-1.807514E0,2.364486E-2,-1.9065845E0,-7.402364E-2,1.6632783E0,1.1058223E-1,1.9139476E-2,3.4854807E-2,3.0975476E-1,8.896131E-1,-0E0,3.656251E-1,8.799033E-1,7.8154945E-1,7.499416E-1,3.0975476E-1,-1.9636799E-2,2.0265996E-1,-9.4792235E-1,9.0792507E-1,-1.4848528E0,7.5987023E-1,-3.9309305E-1,2.5815156E-1,-1.9487662E-2,-2.466903E-3,4.71164E-3,3.2393713E-2,-2.4312543E-4,-1.6660424E-2,3.908793E-3,1.0711357E-2,6.104416E-3,-1.7348822E-2,1.9244777E-2,-1.1304673E-2,2.3437599E-3,-1.1098166E-2,1.2441526E-2,-1.6838698E-2,1.2558796E-2,-5.0317235E-3,-1.7325701E-2,4.7294563E-3,-8.158482E-3,1.1790247E-3,4.757738E-3,3.6688063E-2],"split_indices":[31,17,1,40,17,8,33,28,20,16,52,0,20,17,32,0,50,2,33,17,17,0,13,17,52,12,42,8,16,0,0,0,0,0,0,0,0,0,0,0,0,0,0,0,0,0,0,0,0,0,0,0,0],"split_type":[0,0,0,0,0,0,0,0,0,0,0,0,0,0,0,0,0,0,0,0,0,0,0,0,0,0,0,0,0,0,0,0,0,0,0,0,0,0,0,0,0,0,0,0,0,0,0,0,0,0,0,0,0],"sum_hessian":[1.4990338E3,9.679137E2,5.3112006E2,1.6569412E2,8.022196E2,1.6588463E2,3.6523544E2,3.1563179E1,1.3413094E2,7.830205E2,1.9199121E1,3.8579757E0,1.6202664E2,1.5884834E2,2.063871E2,4.2718415E0,2.7291338E1,3.293117E1,1.0119977E2,7.5995197E2,2.3068544E1,1.1084212E1,8.11491E0,1.4765779E2,1.4368851E1,1.2838432E2,3.0464014E1,1.9530109E2,1.1086009E1,2.3882372E1,3.408966E0,2.6936594E1,5.9945793E0,8.540471E1,1.5795058E1,6.928561E2,6.709583E1,1.15347595E1,1.1533785E1,3.8492055E0,4.2657046E0,1.3567064E1,1.3409073E2,1.0142307E1,4.2265434E0,1.1853414E1,1.16530914E2,2.6208149E1,4.2558656E0,3.651432E1,1.5878677E2,7.659105E0,3.4269042E0],"tree_param":{"num_deleted":"0","num_feature":"54","num_nodes":"53","size_leaf_vector":"1"}},{"base_weights":[-1.2482577E-2,4.9583185E-1,-8.906157E-2,2.863997E-1,6.433914E-1,-2.2633335E-1,4.10954E-3,-1.257776E-2,4.6845305E-1,3.447728E-1,8.942592E-1,-2.4837306E-1,5.311186E-1,1.637606E-2,-4.295548E-1,2.5133088E-1,-4.4563565E-1,-1.2053619E-1,6.53734E-1,1.0795884E0,1.6423933E-1,9.938547E-1,8.504675E-2,-5.0409955E-1,-2.2343023E-1,-7.1805483E-3,7.852829E-1,1.0294132E-1,-4.589761E-2,-5.6758136E-1,5.7387496E-3,-0E0,2.4048392E-2,-1.78003E-2,-3.0427557E-4,-1.4213636E-2,1.625016E-2,-7.617876E-3,2.2521833E-2,1.2241897E-2,4.0282845E-2,2.2015255E-2,5.303888E-4,-0E0,3.2724574E-2,1.2678952E-2,-7.504726E-3,-1.1951072E-3,-1.6961511E-2,-1.412637E-2,-6.0528936E-3,-0E0,3.3579726E-2,1.0051696E-2,3.969444E-6,-1.4126949E-2,-5.861559E-4,-7.2344793E-3,-1.856026E-2],"categories":[],"categories_nodes":[],"categories_segments":[],"categories_sizes":[],"default_left":[0,0,0,0,0,0,0,0,0,0,0,0,0,0,0,0,0,0,0,0,0,0,0,0,0,0,0,0,0,0,0,0,0,0,0,0,0,0,0,0,0,0,0,0,0,0,0,0,0,0,0,0,0,0,0,0,0,0,0],"id":8,"left_children":[1,3,5,7,9,11,13,15,17,19,21,23,25,27,29,31,33,35,37,39,41,43,45,47,49,-1,51,53,55,57,-1,-1,-1,-1,-1,-1,-1,-1,-1,-1,-1,-1,-1,-1,-1,-1,-1,-1,-1,-1,-1,-1,-1,-1,-1,-1,-1,-1,-1],"loss_changes":[5.2941856E1,5.224827E0,1.5152524E1,4.1703725E0,7.31131E0,8.095488E0,3.7170799E0,3.4921446E0,5.290374E0,6.1987305E0,4.2696457E0,2.7870102E0,2.9304678E0,3.7138212E0,1.792453E0,2.5189877E0,6.8229795E-1,3.0630963E0,3.4309292E0,9.33939E-1,3.303307E0,4.73143E0,9.457569E-1,1.0624466E0,2.1256905E0,0E0,2.9016628E0,6.849043E0,4.4180646E0,3.336239E-2,0E0,0E0,0E0,0E0,0E0,0E0,0E0,0E0,0E0,0E0,0E0,0E0,0E0,0E0,0E0,0E0,0E0,0E0,0E0,0E0,0E0,0E0,0E0,0E0,0E0,0E0,0E0,0E0,0E0],"parents":[2147483647,0,0,1,1,2,2,3,3,4,4,5,5,6,6,7,7,8,8,9,9,10,10,11,11,12,12,13,13,14,14,15,15,16,16,17,17,18,18,19,19,20,20,21,21,22,22,23,23,24,24,26,26,27,27,28,28,29,29],"right_children":[2,4,6,8,10,12,14,16,18,20,22,24,26,28,30,32,34,36,38,40,42,44,46,48,50,-1,52,54,56,58,-1,-1,-1,-1,-1,-1,-1,-1,-1,-1,-1,-1,-1,-1,-1,-1,-1,-1,-1,-1,-1,-1,-1,-1,-1,-1,-1,-1,-1],"split_conditions":[-1.1361499E0,3.612647E-1,1.09240726E-1,-1.2545604E0,-1.2344364E0,1.9039544E-1,3.5525586E-2,-6.456209E-1,-2.198529E-2,-2.2119703E0,1.0124596E0,-8.079271E-1,-1.8700555E-2,-1.09497085E-1,7.723221E-2,4.2829356E-1,8.0678874E-1,-5.0646648E-2,-1.3931682E0,-6.7052186E-1,-4.8705822E-1,-1.7743398E0,4.0275937E-1,-3.9846095E-1,-1.0783653E0,-7.1805483E-3,-6.181799E-1,-6.6877395E-1,-1.3101541E0,-1.6015354E-1,5.7387496E-3,-0E0,2.4048392E-2,-1.78003E-2,-3.0427557E-4,-1.4213636E-2,1.625016E-2,-7.617876E-3,2.2521833E-2,1.2241897E-2,4.0282845E-2,2.2015255E-2,5.303888E-4,-0E0,3.2724574E-2,1.2678952E-2,-7.504726E-3,-1.1951072E-3,-1.6961511E-2,-1.412637E-2,-6.0528936E-3,-0E0,3.3579726E-2,1.0051696E-2,3.969444E-6,-1.4126949E-2,-5.861559E-4,-7.2344793E-3,-1.856026E-2],"split_indices":[0,8,43,5,3,20,48,44,4,0,7,31,44,33,21,31,42,32,50,32,30,14,23,3,6,0,9,3,4,2,0,0,0,0,0,0,0,0,0,0,0,0,0,0,0,0,0,0,0,0,0,0,0,0,0,0,0,0,0],"split_type":[0,0,0,0,0,0,0,0,0,0,0,0,0,0,0,0,0,0,0,0,0,0,0,0,0,0,0,0,0,0,0,0,0,0,0,0,0,0,0,0,0,0,0,0,0,0,0,0,0,0,0,0,0,0,0,0,0,0,0],"sum_hessian":[1.3589674E3,1.7703928E2,1.1819281E3,7.467343E1,1.02365845E2,4.7772528E2,7.042028E2,2.8405718E1,4.6267715E1,4.8001076E1,5.436477E1,4.6499924E2,1.2726042E1,6.859919E2,1.8210962E1,1.7767061E1,1.0638656E1,1.1026218E1,3.5241497E1,8.375761E0,3.9625313E1,4.8093777E1,6.270992E0,3.926057E1,4.2573868E2,3.0736022E0,9.65244E0,2.8741516E2,3.9857672E2,1.510065E1,3.1103115E0,1.300213E1,4.7649317E0,7.5020666E0,3.1365893E0,7.4745173E0,3.551701E0,3.146616E0,3.209488E1,3.183393E0,5.1923685E0,7.149487E0,3.2475826E1,4.3637342E0,4.373004E1,3.1430879E0,3.127904E0,4.960874E0,3.4299694E1,3.223635E1,3.9350232E2,3.093341E0,6.5590987E0,8.723351E1,2.0018164E2,2.2070145E1,3.765066E2,3.082689E0,1.20179615E1],"tree_param":{"num_deleted":"0","num_feature":"54","num_nodes":"59","size_leaf_vector":"1"}},{"base_weights":[5.6291115E-3,-1.5488032E-1,1.9746712E-1,-9.307639E-2,-3.8618663E-1,6.7423445E-1,1.6891684E-1,-6.0939077E-2,-2.7919793E-1,-4.2422676E-1,5.607601E-3,-0E0,7.5098556E-1,2.707485E-1,9.99695E-2,2.3625074E-1,-7.988101E-2,-2.5574364E-2,-4.2411554E-1,-2.5891975E-1,-5.1366234E-1,-1.2861894E-2,2.562386E-1,8.1945026E-1,4.792731E-3,3.28626E-1,-1.07962556E-1,-1.20543264E-1,1.4784624E-1,-4.178907E-3,1.2152578E-2,-2.6684676E-3,2.075566E-2,-8.961666E-3,9.24175E-3,-1.6949652E-2,-3.2061187E-3,1.11606335E-2,-1.0234512E-2,-8.7753525E-3,-1.955692E-2,-5.8065476E-3,1.7846901E-2,2.6448008E-2,5.342369E-3,4.997831E-3,1.2744908E-2,-8.350473E-3,1.8131804E-2,9.342289E-3,-8.403042E-3,2.1195316E-3,8.31904E-3],"categories":[],"categories_nodes":[],"categories_segments":[],"categories_sizes":[],"default_left":[0,0,0,0,0,0,0,0,0,0,0,0,0,0,0,0,0,0,0,0,0,0,0,0,0,0,0,0,0,0,0,0,0,0,0,0,0,0,0,0,0,0,0,0,0,0,0,0,0,0,0,0,0],"id":9,"left_children":[1,3,5,7,9,11,13,15,17,19,21,-1,23,25,27,29,31,33,35,37,39,-1,41,43,-1,45,47,49,51,-1,-1,-1,-1,-1,-1,-1,-1,-1,-1,-1,-1,-1,-1,-1,-1,-1,-1,-1,-1,-1,-1,-1,-1],"loss_changes":[5.270576E1,1.3233902E1,1.0418386E1,4.3562436E0,2.9620361E0,2.2554054E0,5.113285E0,3.5501082E0,3.904686E0,2.4316063E0,2.0607886E0,0E0,1.3534641E0,6.5573883E0,4.6856318E0,2.4726815E0,4.153736E0,3.781638E0,2.9229822E0,3.5037298E0,3.2167015E0,0E0,2.0192072E0,1.1178093E0,0E0,3.8872337E0,4.970687E0,5.529076E0,3.5819163E0,0E0,0E0,0E0,0E0,0E0,0E0,0E0,0E0,0E0,0E0,0E0,0E0,0E0,0E0,0E0,0E0,0E0,0E0,0E0,0E0,0E0,0E0,0E0,0E0],"parents":[2147483647,0,0,1,1,2,2,3,3,4,4,5,5,6,6,7,7,8,8,9,9,10,10,12,12,13,13,14,14,15,15,16,16,17,17,18,18,19,19,20,20,22,22,23,23,25,25,26,26,27,27,28,28],"right_children":[2,4,6,8,10,12,14,16,18,20,22,-1,24,26,28,30,32,34,36,38,40,-1,42,44,-1,46,48,50,52,-1,-1,-1,-1,-1,-1,-1,-1,-1,-1,-1,-1,-1,-1,-1,-1,-1,-1,-1,-1,-1,-1,-1,-1],"split_conditions":[1.1844015E-1,1.1903535E0,-1.6938496E0,7.8340393E-1,1.0124596E0,-6.075078E-1,-6.997539E-1,-1.26916E0,-1.3532759E0,-5.480268E-1,4.0275937E-1,-0E0,1.1605955E0,3.760707E-2,-4.7310747E-2,-7.899421E-1,1.981632E0,8.1529766E-1,-2.437489E-1,-5.765482E-1,-1.4821921E-1,-1.2861894E-2,-6.456209E-1,9.0792507E-1,4.792731E-3,-2.8889775E-1,7.3302805E-1,-1.4709236E-1,2.2711012E-1,-4.178907E-3,1.2152578E-2,-2.6684676E-3,2.075566E-2,-8.961666E-3,9.24175E-3,-1.6949652E-2,-3.2061187E-3,1.11606335E-2,-1.0234512E-2,-8.7753525E-3,-1.955692E-2,-5.8065476E-3,1.7846901E-2,2.6448008E-2,5.342369E-3,4.997831E-3,1.2744908E-2,-8.350473E-3,1.8131804E-2,9.342289E-3,-8.403042E-3,2.1195316E-3,8.31904E-3],"split_indices":[40,2,2,43,7,24,42,16,41,26,23,0,24,21,16,14,4,2,44,47,27,0,44,52,0,27,32,32,32,0,0,0,0,0,0,0,0,0,0,0,0,0,0,0,0,0,0,0,0,0,0,0,0],"split_type":[0,0,0,0,0,0,0,0,0,0,0,0,0,0,0,0,0,0,0,0,0,0,0,0,0,0,0,0,0,0,0,0,0,0,0,0,0,0,0,0,0,0,0,0,0,0,0,0,0,0,0,0,0],"sum_hessian":[1.7095496E3,9.305972E2,7.7895233E2,7.358235E2,1.9477374E2,4.2534885E1,7.364175E2,6.29068E2,1.06755486E2,1.7769354E2,1.7080189E1,4.4447613E0,3.8090122E1,2.9554114E2,4.408763E2,3.6688683E1,5.9237933E2,3.949715E1,6.725834E1,6.414506E1,1.13548485E2,5.8436646E0,1.1236524E1,3.363949E1,4.4506354E0,2.5670572E2,3.8835423E1,7.800252E1,3.628738E2,1.1249212E1,2.5439468E1,5.8650226E2,5.8770833E0,2.1939482E1,1.7557667E1,4.581708E1,2.1441257E1,6.849547E0,5.7295513E1,4.5152397E1,6.839609E1,4.8835754E0,6.352948E0,3.0184124E1,3.4553654E0,9.703911E1,1.5966661E2,3.1944368E1,6.8910537E0,2.0615147E1,5.7387367E1,2.2877283E2,1.3410098E2],"tree_param":{"num_deleted":"0","num_feature":"54","num_nodes":"53","size_leaf_vector":"1"}},{"base_weights":[-3.9860923E-3,6.9179945E-2,-1.381939E-1,2.631486E-1,2.9157318E-2,-4.41862E-1,-1.0194175E-1,-1.4936307E-1,3.517787E-1,4.314582E-2,-3.4209076E-1,-5.0126904E-1,9.997952E-3,-1.1141989E-1,2.2032874E-2,-4.5681423E-1,1.2837504E-1,4.767935E-1,3.275822E-2,1.3064378E-1,-2.2805652E-2,-5.868506E-1,3.188406E-1,-1.2052802E-1,-5.7460564E-1,-1.2676E-1,3.7286475E-1,6.088524E-4,-1.9357773E-2,1.5398914E-2,-2.7915305E-3,1.9247098E-3,1.7003244E-2,-3.1188591E-3,2.224235E-2,1.5309979E-2,2.8125388E-3,-1.7679698E-3,8.048819E-3,-5.4309103E-3,-2.0130612E-2,1.9239236E-2,-2.540911E-3,-1.2987512E-2,1.0435299E-2,-6.4707804E-3,-1.897369E-2,-4.1405004E-3,1.1953761E-2,-4.1054925E-3,1.7486334E-2],"categories":[],"categories_nodes":[],"categories_segments":[],"categories_sizes":[],"default_left":[0,0,0,0,0,0,0,0,0,0,0,0,0,0,0,0,0,0,0,0,0,0,0,0,0,0,0,0,0,0,0,0,0,0,0,0,0,0,0,0,0,0,0,0,0,0,0,0,0,0,0],"id":10,"left_children":[1,3,5,7,9,11,13,15,17,19,21,23,-1,25,-1,27,29,31,33,35,37,39,41,43,45,47,49,-1,-1,-1,-1,-1,-1,-1,-1,-1,-1,-1,-1,-1,-1,-1,-1,-1,-1,-1,-1,-1,-1,-1,-1],"loss_changes":[1.4475441E1,7.3624754E0,5.628804E0,6.0130835E0,4.0961504E0,2.7118778E0,3.717114E0,2.588098E0,5.2871933E0,4.422905E0,4.840353E0,1.2995253E0,0E0,3.4563308E0,0E0,1.3582945E0,1.4510008E0,3.4704113E0,3.9284396E0,4.5029454E0,4.578752E0,5.219965E-1,1.1856546E0,1.5937034E0,6.6548634E-1,2.6832747E0,1.6492091E0,0E0,0E0,0E0,0E0,0E0,0E0,0E0,0E0,0E0,0E0,0E0,0E0,0E0,0E0,0E0,0E0,0E0,0E0,0E0,0E0,0E0,0E0,0E0,0E0],"parents":[2147483647,0,0,1,1,2,2,3,3,4,4,5,5,6,6,7,7,8,8,9,9,10,10,11,11,13,13,15,15,16,16,17,17,18,18,19,19,20,20,21,21,22,22,23,23,24,24,25,25,26,26],"right_children":[2,4,6,8,10,12,14,16,18,20,22,24,-1,26,-1,28,30,32,34,36,38,40,42,44,46,48,50,-1,-1,-1,-1,-1,-1,-1,-1,-1,-1,-1,-1,-1,-1,-1,-1,-1,-1,-1,-1,-1,-1,-1,-1],"split_conditions":[1.9254664E-1,-1.05131775E-1,-2.1778436E0,-5.7742155E-1,1.2339152E0,3.7466781E-3,2.4889808E0,-3.7828586E-1,-2.1438812E-1,-1.9951825E-1,9.793759E-1,-5.046364E-1,9.997952E-3,5.8476394E-1,2.2032874E-2,-9.3718284E-1,1.6647491E-1,-7.133976E-1,1.226677E-1,-1.1474508E0,2.0727978E0,-2.2063932E-1,3.7932545E-1,-3.1962055E-1,-6.639794E-1,2.433768E0,-4.977516E-1,6.088524E-4,-1.9357773E-2,1.5398914E-2,-2.7915305E-3,1.9247098E-3,1.7003244E-2,-3.1188591E-3,2.224235E-2,1.5309979E-2,2.8125388E-3,-1.7679698E-3,8.048819E-3,-5.4309103E-3,-2.0130612E-2,1.9239236E-2,-2.540911E-3,-1.2987512E-2,1.0435299E-2,-6.4707804E-3,-1.897369E-2,-4.1405004E-3,1.1953761E-2,-4.1054925E-3,1.7486334E-2],"split_indices":[31,20,1,30,40,20,44,29,31,9,29,24,0,1,0,12,0,13,31,8,23,50,27,27,52,32,53,0,0,0,0,0,0,0,0,0,0,0,0,0,0,0,0,0,0,0,0,0,0,0,0],"split_type":[0,0,0,0,0,0,0,0,0,0,0,0,0,0,0,0,0,0,0,0,0,0,0,0,0,0,0,0,0,0,0,0,0,0,0,0,0,0,0,0,0,0,0,0,0,0,0,0,0,0,0],"sum_hessian":[1.4714832E3,9.52143E2,5.193401E2,1.6147667E2,7.906663E2,5.3899677E1,4.654404E2,2.8237434E1,1.3323924E2,7.630674E2,2.7598978E1,5.0510765E1,3.3889134E0,4.6120023E2,4.240187E0,1.3266708E1,1.4970726E1,9.514621E1,3.8093033E1,3.28191E2,4.3487634E2,2.033266E1,7.266319E0,8.804995E0,4.1705772E1,4.479556E2,1.3244621E1,3.858728E0,9.40798E0,5.150568E0,9.820158E0,1.753921E1,7.7607E1,3.2529343E1,5.5636883E0,2.7688087E1,3.005029E2,3.878799E2,4.6996433E1,4.238037E0,1.6094624E1,3.8490963E0,3.4172223E0,5.455529E0,3.349465E0,6.6854534E0,3.5020317E1,4.3946445E2,8.491151E0,3.8274298E0,9.4171915E0],"tree_param":{"num_deleted":"0","num_feature":"54","num_nodes":"51","size_leaf_vector":"1"}},{"base_weights":[1.12031514E-4,5.1565063E-1,-7.203494E-2,3.1598932E-1,6.550991E-1,3.7800275E-2,-2.2400734E-1,-3.0680995E-2,4.8775682E-1,-9.125379E-3,6.969249E-1,2.6417044E-1,9.990588E-3,-2.4228361E-1,3.0220944E-1,4.0735155E-1,-3.556244E-1,-2.4554537E-1,6.3608897E-1,7.6300776E-1,6.929008E-2,7.6045716E-1,8.140363E-2,1.7380278E-1,-3.8362615E-2,-5.491604E-1,-2.13765E-1,-1.0709321E-2,5.85569E-1,2.8627936E-2,-6.0282084E-3,-1.84419E-2,1.1847974E-2,5.3203176E-3,-1.6327074E-2,2.3121655E-2,1.20507626E-4,1.33267585E-2,2.829175E-2,1.947807E-2,-8.35247E-3,-5.305418E-4,3.0296901E-2,-8.6563034E-4,1.8684588E-2,1.3150942E-2,5.6076195E-4,-2.464107E-4,-1.04312785E-2,6.2747737E-3,-1.861266E-2,-7.7782487E-3,-2.0414463E-3,-0E0,2.3771977E-2],"categories":[],"categories_nodes":[],"categories_segments":[],"categories_sizes":[],"default_left":[0,0,0,0,0,0,0,0,0,0,0,0,0,0,0,0,0,0,0,0,0,0,0,0,0,0,0,0,0,0,0,0,0,0,0,0,0,0,0,0,0,0,0,0,0,0,0,0,0,0,0,0,0,0,0],"id":11,"left_children":[1,3,5,7,9,11,13,15,17,-1,19,21,23,25,27,29,31,33,35,37,39,41,43,45,47,49,51,-1,53,-1,-1,-1,-1,-1,-1,-1,-1,-1,-1,-1,-1,-1,-1,-1,-1,-1,-1,-1,-1,-1,-1,-1,-1,-1,-1],"loss_changes":[5.009863E1,4.3004646E0,1.9729626E1,4.2428765E0,4.1088753E0,4.286266E0,4.834709E0,3.5582674E0,5.33107E0,0E0,3.7017632E0,6.618958E0,4.8682475E0,4.005554E0,3.3886838E0,3.781514E0,3.0756323E0,1.213442E0,3.2947674E0,4.233494E0,2.2462838E0,3.961584E0,3.4069586E0,5.697055E0,4.372205E0,2.325078E0,2.8738537E0,0E0,1.5653167E0,0E0,0E0,0E0,0E0,0E0,0E0,0E0,0E0,0E0,0E0,0E0,0E0,0E0,0E0,0E0,0E0,0E0,0E0,0E0,0E0,0E0,0E0,0E0,0E0,0E0,0E0],"parents":[2147483647,0,0,1,1,2,2,3,3,4,4,5,5,6,6,7,7,8,8,10,10,11,11,12,12,13,13,14,14,15,15,16,16,17,17,18,18,19,19,20,20,21,21,22,22,23,23,24,24,25,25,26,26,28,28],"right_children":[2,4,6,8,10,12,14,16,18,-1,20,22,24,26,28,30,32,34,36,38,40,42,44,46,48,50,52,-1,54,-1,-1,-1,-1,-1,-1,-1,-1,-1,-1,-1,-1,-1,-1,-1,-1,-1,-1,-1,-1,-1,-1,-1,-1,-1,-1],"split_conditions":[-1.1668559E0,3.612647E-1,2.9664788E-1,-4.7749326E-1,-2.369523E0,-1.2496122E0,2.0594952E-1,-3.9309305E-1,-6.275932E-1,-9.125379E-3,1.0124596E0,1.2102216E0,-6.275932E-1,-8.079271E-1,-1.8700555E-2,3.7932545E-1,-2.1262199E-1,7.426805E-2,1.9242728E0,-1.4159652E0,-4.664522E-3,-1.053183E0,9.308158E-1,3.6629206E-1,9.143589E-1,-9.3718284E-1,1.2688633E0,-1.0709321E-2,-6.181799E-1,2.8627936E-2,-6.0282084E-3,-1.84419E-2,1.1847974E-2,5.3203176E-3,-1.6327074E-2,2.3121655E-2,1.20507626E-4,1.33267585E-2,2.829175E-2,1.947807E-2,-8.35247E-3,-5.305418E-4,3.0296901E-2,-8.6563034E-4,1.8684588E-2,1.3150942E-2,5.6076195E-4,-2.464107E-4,-1.04312785E-2,6.2747737E-3,-1.861266E-2,-7.7782487E-3,-2.0414463E-3,-0E0,2.3771977E-2],"split_indices":[0,8,0,26,29,41,20,8,25,0,7,42,25,31,44,27,41,29,4,3,17,28,22,1,32,12,28,0,9,0,0,0,0,0,0,0,0,0,0,0,0,0,0,0,0,0,0,0,0,0,0,0,0,0,0],"split_type":[0,0,0,0,0,0,0,0,0,0,0,0,0,0,0,0,0,0,0,0,0,0,0,0,0,0,0,0,0,0,0,0,0,0,0,0,0,0,0,0,0,0,0,0,0,0,0,0,0,0,0,0,0,0,0],"sum_hessian":[1.3437434E3,1.643796E2,1.1793638E3,6.9234E1,9.514559E1,6.846437E2,4.9472015E2,2.3017683E1,4.6216316E1,3.613199E0,9.1532394E1,7.358319E1,6.110605E2,4.7881964E2,1.5900489E1,9.563914E0,1.345377E1,7.5520563E0,3.866426E1,8.247382E1,9.058573E0,1.8806875E1,5.477632E1,1.3914278E2,4.719177E2,3.8863476E1,4.3995618E2,4.5959945E0,1.1304495E1,4.8231087E0,4.7408056E0,1.0234753E1,3.219017E0,3.1556785E0,4.396378E0,3.1563576E1,7.1006837E0,3.1220339E1,5.125348E1,3.1779704E0,5.8806024E0,4.693482E0,1.4113393E1,4.614169E1,8.634632E0,5.0513847E1,8.862894E1,4.3123895E2,4.0678738E1,3.05163E0,3.5811844E1,3.3413446E2,1.0582172E2,3.0921211E0,8.212374E0],"tree_param":{"num_deleted":"0","num_feature":"54","num_nodes":"55","size_leaf_vector":"1"}},{"base_weights":[-5.5176322E-3,1.8259779E-1,-1.9260232E-1,3.354798E-1,7.98349E-2,-4.0421852E-1,-1.2363869E-1,3.8560677E-1,-2.2911837E-2,-1.1728247E-1,1.2352059E-1,9.774334E-3,-4.1997033E-1,-1.3047044E-1,2.6409186E-2,7.245113E-1,3.347359E-1,1.6872255E-2,-1.441575E-1,-1.5470758E-1,1.9293021E-2,3.0481794E-1,5.3609673E-2,-4.7900334E-1,-1.8291901E-1,-1.3685106E-1,2.1351533E-2,-0E0,2.4605563E-2,1.9927626E-2,8.880534E-3,-4.842332E-4,-2.179431E-2,-1.2428451E-2,-1.0508391E-3,1.7433485E-2,5.634284E-3,-5.0799316E-3,3.305282E-3,-9.364956E-3,-1.8091558E-2,-1.1391525E-2,1.4272185E-2,-5.3740744E-3,-4.8442086E-4],"categories":[],"categories_nodes":[],"categories_segments":[],"categories_sizes":[],"default_left":[0,0,0,0,0,0,0,0,0,0,0,0,0,0,0,0,0,0,0,0,0,0,0,0,0,0,0,0,0,0,0,0,0,0,0,0,0,0,0,0,0,0,0,0,0],"id":12,"left_children":[1,3,5,7,9,11,13,15,17,19,21,-1,23,25,-1,27,29,-1,31,33,-1,35,37,39,41,43,-1,-1,-1,-1,-1,-1,-1,-1,-1,-1,-1,-1,-1,-1,-1,-1,-1,-1,-1],"loss_changes":[6.038236E1,1.3368011E1,1.2454588E1,6.2085953E0,4.4340215E0,2.5690804E0,4.503257E0,4.8458176E0,3.076428E0,2.7026894E0,5.283404E0,0E0,2.7403297E0,3.5184784E0,0E0,2.655716E0,3.07654E0,0E0,2.626784E0,2.728796E0,0E0,3.5816984E0,3.8644094E0,3.1273155E0,5.7694798E0,3.2615595E0,0E0,0E0,0E0,0E0,0E0,0E0,0E0,0E0,0E0,0E0,0E0,0E0,0E0,0E0,0E0,0E0,0E0,0E0,0E0],"parents":[2147483647,0,0,1,1,2,2,3,3,4,4,5,5,6,6,7,7,8,8,9,9,10,10,12,12,13,13,15,15,16,16,18,18,19,19,21,21,22,22,23,23,24,24,25,25],"right_children":[2,4,6,8,10,12,14,16,18,20,22,-1,24,26,-1,28,30,-1,32,34,-1,36,38,40,42,44,-1,-1,-1,-1,-1,-1,-1,-1,-1,-1,-1,-1,-1,-1,-1,-1,-1,-1,-1],"split_conditions":[-1.11962564E-1,-6.997539E-1,-1.1361499E0,3.4854807E-2,-4.7310747E-2,-1.9606011E0,3.2495131E0,-1.6938496E0,-1.2150662E0,2.762225E0,-5.940935E-1,9.774334E-3,1.5406176E0,4.0430317E0,2.6409186E-2,-6.075078E-1,-1.2562913E0,1.6872255E-2,1.6657943E0,-3.0997604E-1,1.9293021E-2,5.736163E-1,-8.9577705E-2,-6.0858077E-1,-4.5272234E-1,5.9003663E-1,2.1351533E-2,-0E0,2.4605563E-2,1.9927626E-2,8.880534E-3,-4.842332E-4,-2.179431E-2,-1.2428451E-2,-1.0508391E-3,1.7433485E-2,5.634284E-3,-5.0799316E-3,3.305282E-3,-9.364956E-3,-1.8091558E-2,-1.1391525E-2,1.4272185E-2,-5.3740744E-3,-4.8442086E-4],"split_indices":[2,42,0,20,16,15,7,2,47,17,49,0,15,27,0,24,52,0,28,26,0,25,20,12,44,33,0,0,0,0,0,0,0,0,0,0,0,0,0,0,0,0,0,0,0],"split_type":[0,0,0,0,0,0,0,0,0,0,0,0,0,0,0,0,0,0,0,0,0,0,0,0,0,0,0,0,0,0,0,0,0,0,0,0,0,0,0,0,0,0,0,0,0],"sum_hessian":[1.7136963E3,8.542397E2,8.594566E2,3.4208163E2,5.12158E2,2.096943E2,6.497623E2,3.002849E2,4.179671E1,9.219309E1,4.1996494E2,3.8791637E0,2.0581514E2,6.4633374E2,3.4285922E0,3.720634E1,2.6307858E2,6.4063463E0,3.539036E1,8.875284E1,3.4402523E0,1.1554249E2,3.0442245E2,1.6362502E2,4.2190125E1,6.424228E2,3.9109044E0,4.4457927E0,3.2760548E1,2.5690989E1,2.3738759E2,2.9995611E1,5.3947515E0,2.6966915E1,6.1785927E1,3.293954E1,8.260295E1,6.0847523E1,2.4357494E2,7.1621254E1,9.200375E1,3.2927223E1,9.2629E0,4.7478445E2,1.6763837E2],"tree_param":{"num_deleted":"0","num_feature":"54","num_nodes":"45","size_leaf_vector":"1"}},{"base_weights":[1.2983952E-2,9.119599E-2,-1.4238098E-1,1.1281591E-2,1.5311939E-1,-4.45828E-1,-1.09362215E-1,3.011739E-2,-4.0800342E-1,1.2575555E-1,5.054758E-1,5.9114236E-2,-5.6317496E-1,-3.1228045E-2,-2.2034186E-1,2.7459258E-1,-1.7899058E-3,5.361634E-3,-5.3988606E-1,1.1610266E-1,2.851669E-2,3.0476693E-2,2.4254018E-1,1.6571686E-2,-1.1742555E-2,-0E0,-6.3052005E-1,2.1058934E-2,-4.8552115E-2,-3.9216834E-1,-1.3874686E-1,3.196889E-2,3.6841114E-3,-4.9436116E-3,2.453654E-3,-1.9629681E-2,-2.419029E-3,1.2974525E-2,2.867392E-3,1.3239717E-2,-1.7370345E-2,-1.962738E-2,-8.53195E-3,-3.4465743E-3,5.009521E-3,7.3725763E-3,-1.3276136E-2,8.544949E-3,-5.409631E-3],"categories":[],"categories_nodes":[],"categories_segments":[],"categories_sizes":[],"default_left":[0,0,0,0,0,0,0,0,0,0,0,0,0,0,0,0,0,0,0,0,0,0,0,0,0,0,0,0,0,0,0,0,0,0,0,0,0,0,0,0,0,0,0,0,0,0,0,0,0],"id":13,"left_children":[1,3,5,7,9,11,13,15,17,19,21,23,25,27,29,31,33,-1,35,37,-1,-1,39,-1,-1,-1,41,-1,43,45,47,-1,-1,-1,-1,-1,-1,-1,-1,-1,-1,-1,-1,-1,-1,-1,-1,-1,-1],"loss_changes":[1.8063E1,4.877733E0,4.8803015E0,3.3998072E0,5.2403336E0,2.9396276E0,3.8725796E0,3.27459E0,1.5631032E0,3.908103E0,4.931406E0,2.4176223E0,1.4969378E0,3.3467214E0,2.4911165E0,5.564165E0,5.046081E0,0E0,6.874037E-1,3.2393117E0,0E0,0E0,4.736969E0,0E0,0E0,0E0,8.892059E-3,0E0,3.7437599E0,2.0156994E0,2.2881706E0,0E0,0E0,0E0,0E0,0E0,0E0,0E0,0E0,0E0,0E0,0E0,0E0,0E0,0E0,0E0,0E0,0E0,0E0],"parents":[2147483647,0,0,1,1,2,2,3,3,4,4,5,5,6,6,7,7,8,8,9,9,10,10,11,11,12,12,13,13,14,14,15,15,16,16,18,18,19,19,22,22,26,26,28,28,29,29,30,30],"right_children":[2,4,6,8,10,12,14,16,18,20,22,24,26,28,30,32,34,-1,36,38,-1,-1,40,-1,-1,-1,42,-1,44,46,48,-1,-1,-1,-1,-1,-1,-1,-1,-1,-1,-1,-1,-1,-1,-1,-1,-1,-1],"split_conditions":[2.2348148E-1,3.8472492E-1,-1.3132995E0,2.864367E-1,-4.513952E-2,-6.075078E-1,9.482373E-1,-1.3360404E0,-1.6051863E-1,2.082492E0,-5.2643037E-1,9.13202E-2,-1.0056978E0,-1.018599E0,-1.6522975E-1,-1.3641992E0,-2.9860803E-1,5.361634E-3,5.322503E-1,-5.7481036E-2,2.851669E-2,3.0476693E-2,5.649798E-1,1.6571686E-2,-1.1742555E-2,-0E0,2.494628E0,2.1058934E-2,7.4569577E-1,-1.5127769E0,-4.1979935E-2,3.196889E-2,3.6841114E-3,-4.9436116E-3,2.453654E-3,-1.9629681E-2,-2.419029E-3,1.2974525E-2,2.867392E-3,1.3239717E-2,-1.7370345E-2,-1.962738E-2,-8.53195E-3,-3.4465743E-3,5.009521E-3,7.3725763E-3,-1.3276136E-2,8.544949E-3,-5.409631E-3],"split_indices":[31,43,47,42,0,24,31,8,21,11,12,7,52,47,33,27,43,0,26,48,0,0,49,0,0,0,31,0,33,24,48,0,0,0,0,0,0,0,0,0,0,0,0,0,0,0,0,0,0],"split_type":[0,0,0,0,0,0,0,0,0,0,0,0,0,0,0,0,0,0,0,0,0,0,0,0,0,0,0,0,0,0,0,0,0,0,0,0,0,0,0,0,0,0,0,0,0,0,0,0,0],"sum_hessian":[1.4848469E3,9.8835645E2,4.9649042E2,4.3271677E2,5.5563965E2,4.7198536E1,4.492919E2,4.1522983E2,1.7486956E1,5.17121E2,3.8518673E1,8.833255E0,3.836528E1,2.6494342E2,1.8434846E2,4.742043E1,3.678094E2,3.0049615E0,1.4481994E1,5.1238635E2,4.7346077E0,1.1993257E1,2.6525417E1,4.2146425E0,4.6186123E0,4.1946745E0,3.4170605E1,5.0701838E0,2.5987323E2,5.7735207E1,1.2661326E2,6.559059E0,4.086137E1,1.247476E2,2.430618E2,1.1078853E1,3.4031403E0,2.9693E1,4.826934E2,2.182834E1,4.697077E0,3.087505E1,3.295557E0,1.9942795E2,6.0445286E1,3.7959456E0,5.3939262E1,1.057843E1,1.1603483E2],"tree_param":{"num_deleted":"0","num_feature":"54","num_nodes":"49","size_leaf_vector":"1"}},{"base_weights":[-3.973466E-3,5.2020323E-1,-8.572587E-2,-4.617686E-2,5.634575E-1,-2.2929806E-1,5.9052347E-3,-1.6686507E-2,3.1101117E-1,-7.359379E-3,5.9129405E-1,-2.4963135E-1,4.1123372E-1,4.796928E-1,-2.4503183E-3,2.454325E-2,-8.830553E-3,1.3281544E-1,6.454105E-1,-5.4725796E-1,-2.1909495E-1,-9.481736E-3,7.240947E-1,7.474572E-1,-7.183484E-3,1.5034133E-1,-3.1212833E-2,-8.939038E-3,1.5833495E-2,2.7815495E-2,1.5832394E-2,-6.1107217E-3,-1.836161E-2,-4.8075372E-4,-7.848106E-3,3.012024E-2,3.4282063E-3,3.5909895E-2,1.6269168E-3,2.8474568E-3,2.3888247E-2,1.721589E-3,-2.689428E-3],"categories":[],"categories_nodes":[],"categories_segments":[],"categories_sizes":[],"default_left":[0,0,0,0,0,0,0,0,0,0,0,0,0,0,0,0,0,0,0,0,0,0,0,0,0,0,0,0,0,0,0,0,0,0,0,0,0,0,0,0,0,0,0],"id":14,"left_children":[1,3,5,7,9,11,13,-1,15,-1,17,19,21,23,25,-1,-1,27,29,31,33,-1,35,37,-1,39,41,-1,-1,-1,-1,-1,-1,-1,-1,-1,-1,-1,-1,-1,-1,-1,-1],"loss_changes":[5.7902508E1,4.5432434E0,1.5414441E1,2.6921062E0,3.9975662E0,6.028366E0,2.8781178E0,0E0,2.92684E0,0E0,3.9142952E0,3.8292542E0,3.5151398E0,2.65562E0,3.0825665E0,0E0,0E0,3.3799481E0,4.223942E0,6.896982E-1,3.4529686E0,0E0,1.5440993E0,2.7778773E0,0E0,3.8094597E0,3.0788565E0,0E0,0E0,0E0,0E0,0E0,0E0,0E0,0E0,0E0,0E0,0E0,0E0,0E0,0E0,0E0,0E0],"parents":[2147483647,0,0,1,1,2,2,3,3,4,4,5,5,6,6,8,8,10,10,11,11,12,12,13,13,14,14,17,17,18,18,19,19,20,20,22,22,23,23,25,25,26,26],"right_children":[2,4,6,8,10,12,14,-1,16,-1,18,20,22,24,26,-1,-1,28,30,32,34,-1,36,38,-1,40,42,-1,-1,-1,-1,-1,-1,-1,-1,-1,-1,-1,-1,-1,-1,-1,-1],"split_conditions":[-1.1361499E0,-7.238985E-1,1.09240726E-1,-1.3160067E0,-2.430605E0,1.9039544E-1,-1.8293581E0,-1.6686507E-2,-1.0890002E-1,-7.359379E-3,-1.7654126E0,-8.079271E-1,-6.38247E-1,8.532771E-1,-1.1806507E0,2.454325E-2,-8.830553E-3,-5.7798564E-1,-6.075078E-1,-5.133425E-1,-4.477286E-1,-9.481736E-3,7.0582706E-1,4.8171464E-1,-7.183484E-3,5.3813666E-1,-3.2141298E-1,-8.939038E-3,1.5833495E-2,2.7815495E-2,1.5832394E-2,-6.1107217E-3,-1.836161E-2,-4.8075372E-4,-7.848106E-3,3.012024E-2,3.4282063E-3,3.5909895E-2,1.6269168E-3,2.8474568E-3,2.3888247E-2,1.721589E-3,-2.689428E-3],"split_indices":[0,47,43,46,14,20,10,0,49,0,17,31,25,25,41,0,0,46,24,6,15,0,12,43,0,31,3,0,0,0,0,0,0,0,0,0,0,0,0,0,0,0,0],"split_type":[0,0,0,0,0,0,0,0,0,0,0,0,0,0,0,0,0,0,0,0,0,0,0,0,0,0,0,0,0,0,0,0,0,0,0,0,0,0,0,0,0,0,0],"sum_hessian":[1.3501715E3,1.8127751E2,1.1688939E3,1.2693016E1,1.6858449E2,4.552206E2,7.1367334E2,5.1137238E0,7.5792923E0,5.229856E0,1.6335463E2,4.4195734E2,1.32632675E1,1.1597798E1,7.0207556E2,4.023045E0,3.5562475E0,1.7805689E1,1.4554895E2,3.9245926E1,4.0271143E2,3.8901615E0,9.373106E0,8.523756E0,3.074042E0,1.1000507E2,5.920705E2,8.513065E0,9.2926235E0,4.0598053E1,1.049509E2,7.1295724E0,3.2116352E1,7.035321E1,3.3235822E2,5.868864E0,3.5042415E0,4.6423545E0,3.8814015E0,1.0251062E2,7.4944487E0,2.346299E2,3.5744058E2],"tree_param":{"num_deleted":"0","num_feature":"54","num_nodes":"43","size_leaf_vector":"1"}},{"base_weights":[2.4846278E-3,-1.633193E-1,1.657818E-1,-1.01843454E-1,-3.6777577E-1,6.5798384E-1,1.4417686E-1,-6.838502E-2,-2.9761645E-1,-3.988743E-1,1.4634298E-1,-1.4174596E-3,8.033419E-1,7.0602745E-2,2.10417E-1,-9.892485E-2,2.108145E-1,-3.567789E-1,2.443451E-1,-4.156534E-1,6.6489107E-3,-9.263161E-3,1.4228853E-2,8.762205E-1,7.286136E-3,1.9624934E-2,2.645195E-1,2.527965E-1,5.2375305E-3,-4.8047663E-3,2.393073E-3,1.5809374E-2,-0E0,-1.5473569E-2,-3.8794912E-3,2.0165358E-2,-2.2701703E-3,-1.0193648E-2,-1.7544672E-2,1.5726466E-2,2.8835012E-2,1.9619963E-3,-6.138351E-3,-5.1231994E-3,9.934548E-3,8.422919E-3,-7.6139374E-3,-3.7448772E-3,1.1997905E-2],"categories":[],"categories_nodes":[],"categories_segments":[],"categories_sizes":[],"default_left":[0,0,0,0,0,0,0,0,0,0,0,0,0,0,0,0,0,0,0,0,0,0,0,0,0,0,0,0,0,0,0,0,0,0,0,0,0,0,0,0,0,0,0,0,0,0,0,0,0],"id":15,"left_children":[1,3,5,7,9,11,13,15,17,19,21,-1,23,25,27,29,31,33,35,37,-1,-1,-1,39,-1,41,43,45,47,-1,-1,-1,-1,-1,-1,-1,-1,-1,-1,-1,-1,-1,-1,-1,-1,-1,-1,-1,-1],"loss_changes":[4.6331352E1,1.0584059E1,8.995792E0,4.2290673E0,3.2086315E0,3.7822437E0,3.990509E0,4.789377E0,3.137126E0,2.0351372E0,1.9088043E0,0E0,8.9435387E-1,3.864474E0,3.7492619E0,5.560726E0,3.659019E0,2.9798317E0,1.4460409E0,2.024067E0,0E0,0E0,0E0,1.2114906E-1,0E0,3.2197149E0,2.4392128E0,5.1677647E0,3.9673073E0,0E0,0E0,0E0,0E0,0E0,0E0,0E0,0E0,0E0,0E0,0E0,0E0,0E0,0E0,0E0,0E0,0E0,0E0,0E0,0E0],"parents":[2147483647,0,0,1,1,2,2,3,3,4,4,5,5,6,6,7,7,8,8,9,9,10,10,12,12,13,13,14,14,15,15,16,16,17,17,18,18,19,19,23,23,25,25,26,26,27,27,28,28],"right_children":[2,4,6,8,10,12,14,16,18,20,22,-1,24,26,28,30,32,34,36,38,-1,-1,-1,40,-1,42,44,46,48,-1,-1,-1,-1,-1,-1,-1,-1,-1,-1,-1,-1,-1,-1,-1,-1,-1,-1,-1,-1],"split_conditions":[-9.942459E-3,1.1903535E0,-2.5416346E0,7.858877E-1,2.223842E0,7.24929E-2,5.4323417E-1,1.3545085E0,6.396974E-1,2.1932385E0,-1.95359E-1,-1.4174596E-3,-1.475024E-2,6.1574244E-1,1.2994397E0,6.424836E-1,6.424836E-1,3.648685E-1,-2.3273088E-1,-1.15677886E-1,6.6489107E-3,-9.263161E-3,1.4228853E-2,9.13202E-2,7.286136E-3,3.5718545E-1,-8.6197555E-1,1.4373326E-1,2.0265996E-1,-4.8047663E-3,2.393073E-3,1.5809374E-2,-0E0,-1.5473569E-2,-3.8794912E-3,2.0165358E-2,-2.2701703E-3,-1.0193648E-2,-1.7544672E-2,1.5726466E-2,2.8835012E-2,1.9619963E-3,-6.138351E-3,-5.1231994E-3,9.934548E-3,8.422919E-3,-7.6139374E-3,-3.7448772E-3,1.1997905E-2],"split_indices":[0,2,42,43,30,50,0,4,11,22,26,0,23,32,44,30,30,51,47,12,0,0,0,7,0,32,25,20,13,0,0,0,0,0,0,0,0,0,0,0,0,0,0,0,0,0,0,0,0],"split_type":[0,0,0,0,0,0,0,0,0,0,0,0,0,0,0,0,0,0,0,0,0,0,0,0,0,0,0,0,0,0,0,0,0,0,0,0,0,0,0,0,0,0,0,0,0,0,0,0,0],"sum_hessian":[1.7091938E3,8.4778357E2,8.6141034E2,6.5332837E2,1.9445518E2,3.4788063E1,8.2662225E2,5.595577E2,9.377068E1,1.8375848E2,1.0696709E1,5.942737E0,2.8845327E1,3.9332492E2,4.3329736E2,5.0529102E2,5.426667E1,8.501622E1,8.754467E0,1.7939865E2,4.3598337E0,4.3766212E0,6.320087E0,2.4869705E1,3.9756215E0,3.1272983E2,8.05951E1,3.585251E2,7.4772255E1,3.7682553E2,1.2846547E2,2.102041E1,3.324626E1,4.9032825E1,3.598339E1,3.4089959E0,5.345471E0,1.26340126E2,5.3058517E1,6.4578285E0,1.8411877E1,2.6067148E2,5.2058334E1,1.0292535E1,7.030257E1,3.4037714E2,1.814795E1,5.6562916E1,1.8209341E1],"tree_param":{"num_deleted":"0","num_feature":"54","num_nodes":"49","size_leaf_vector":"1"}},{"base_weights":[1.3522965E-2,-2.5749654E-1,5.073449E-2,4.8600468E-1,-2.9472944E-1,8.961404E-2,-4.9188375E-2,3.2353118E-2,-9.405128E-3,2.60531E-1,-3.199155E-1,3.0322635E-1,7.0836805E-2,-1.0759096E-1,1.4259891E-1,2.0402107E-2,-3.7360552E-3,-7.1404874E-2,-3.6727196E-1,6.927692E-2,6.456176E-1,-1.8871501E-1,8.685366E-2,1.2536153E-1,-1.5987301E-1,5.190172E-1,-1.5884483E-2,-1.6230999E-2,6.036848E-3,-1.512218E-2,-8.697483E-3,5.3701494E-3,-1.7984964E-2,-5.7956968E-3,2.3887673E-2,-1.3411161E-2,4.074778E-3,2.9865004E-2,2.4497344E-3,9.561082E-3,-6.309939E-3,-2.5006824E-3,-1.5541938E-2,1.939354E-2,-4.118045E-3,-5.208811E-3,1.2467458E-2],"categories":[],"categories_nodes":[],"categories_segments":[],"categories_sizes":[],"default_left":[0,0,0,0,0,0,0,0,0,0,0,0,0,0,0,0,0,0,0,0,0,0,0,0,0,0,0,0,0,0,0,0,0,0,0,0,0,0,0,0,0,0,0,0,0,0,0],"id":16,"left_children":[1,3,5,7,9,11,13,-1,-1,15,17,19,21,23,25,-1,-1,27,29,31,33,35,37,39,41,43,45,-1,-1,-1,-1,-1,-1,-1,-1,-1,-1,-1,-1,-1,-1,-1,-1,-1,-1,-1,-1],"loss_changes":[1.4893504E1,5.057679E0,5.0601635E0,4.558399E0,2.47328E0,3.7001514E0,4.090708E0,0E0,0E0,1.3964151E0,1.8563538E0,5.8905635E0,3.5946264E0,3.435135E0,5.1314936E0,0E0,0E0,3.699723E0,1.2233315E0,3.429379E0,4.0232716E0,4.2939773E0,3.6543155E0,3.42392E0,6.188534E0,2.2649126E0,4.1741185E0,0E0,0E0,0E0,0E0,0E0,0E0,0E0,0E0,0E0,0E0,0E0,0E0,0E0,0E0,0E0,0E0,0E0,0E0,0E0,0E0],"parents":[2147483647,0,0,1,1,2,2,3,3,4,4,5,5,6,6,9,9,10,10,11,11,12,12,13,13,14,14,17,17,18,18,19,19,20,20,21,21,22,22,23,23,24,24,25,25,26,26],"right_children":[2,4,6,8,10,12,14,-1,-1,16,18,20,22,24,26,-1,-1,28,30,32,34,36,38,40,42,44,46,-1,-1,-1,-1,-1,-1,-1,-1,-1,-1,-1,-1,-1,-1,-1,-1,-1,-1,-1,-1],"split_conditions":[-1.0241538E0,-1.807514E0,1.7730623E-1,1.9257557E-1,-2.998427E-1,-1.3360404E0,7.4569577E-1,3.2353118E-2,-9.405128E-3,-1.0217246E0,-5.130586E-1,6.379544E-1,-1.5288657E0,-8.737139E-1,4.105124E-1,2.0402107E-2,-3.7360552E-3,-1.077606E0,3.173331E-2,9.7751565E-2,-7.848682E-1,1.0952214E0,-2.5092587E0,-6.950392E-1,3.0975476E-1,6.745549E-1,2.983759E-1,-1.6230999E-2,6.036848E-3,-1.512218E-2,-8.697483E-3,5.3701494E-3,-1.7984964E-2,-5.7956968E-3,2.3887673E-2,-1.3411161E-2,4.074778E-3,2.9865004E-2,2.4497344E-3,9.561082E-3,-6.309939E-3,-2.5006824E-3,-1.5541938E-2,1.939354E-2,-4.118045E-3,-5.208811E-3,1.2467458E-2],"split_indices":[1,8,31,26,31,8,33,0,0,8,32,5,33,41,31,0,0,32,32,53,32,32,52,40,17,26,26,0,0,0,0,0,0,0,0,0,0,0,0,0,0,0,0,0,0,0,0],"split_type":[0,0,0,0,0,0,0,0,0,0,0,0,0,0,0,0,0,0,0,0,0,0,0,0,0,0,0,0,0,0,0,0,0,0,0,0,0,0,0,0,0,0,0,0,0,0,0],"sum_hessian":[1.4765453E3,1.7721841E2,1.2993269E3,7.7485814E0,1.6946983E2,9.3617084E2,3.6315607E2,4.3221154E0,3.4264662E0,6.7757106E0,1.6269412E2,7.398891E1,8.621819E2,2.7911966E2,8.403641E1,3.0003438E0,3.7753668E0,2.6780188E1,1.3591394E2,4.4842957E1,2.9145947E1,4.912293E1,8.1305896E2,5.055442E1,2.2856525E2,2.4411665E1,5.9624744E1,9.609506E0,1.7170683E1,4.6634224E1,8.927972E1,3.928003E1,5.5629277E0,4.293254E0,2.4852694E1,2.7313208E1,2.180972E1,3.4297178E0,8.096293E2,3.22999E1,1.825452E1,1.8957921E2,3.8986034E1,2.0582432E1,3.8292344E0,4.426938E1,1.5355366E1],"tree_param":{"num_deleted":"0","num_feature":"54","num_nodes":"47","size_leaf_vector":"1"}},{"base_weights":[-0E0,5.2680254E-1,-8.313665E-2,-1.01133876E-1,5.733354E-1,9.465574E-3,-2.2673798E-1,-1.4698177E-2,1.8295715E-2,2.5137454E-1,6.825048E-1,-4.6827212E-2,1.2849621E-1,-2.4812895E-1,3.8629642E-1,7.904277E-1,3.966486E-2,7.895828E-1,2.6816827E-1,4.710689E-1,-6.8133086E-2,2.3703773E-1,-1.5051717E-1,-9.882988E-2,-2.9169267E-1,2.7618991E-2,-0E0,5.515475E-3,3.6086176E-2,1.9851072E-2,-3.5685487E-3,2.5373245E-2,-3.4810083E-3,1.6046882E-2,-1.1075508E-2,-0E0,2.3097718E-2,1.6302967E-2,-2.5337492E-3,2.7144931E-2,5.688923E-3,6.0454835E-3,-6.882514E-3,-1.7861905E-2,-1.2024416E-3,-1.5569962E-2,-7.6294057E-3,8.366891E-3,-1.4553803E-2],"categories":[],"categories_nodes":[],"categories_segments":[],"categories_sizes":[],"default_left":[0,0,0,0,0,0,0,0,0,0,0,0,0,0,0,0,0,0,0,0,0,0,0,0,0,0,0,0,0,0,0,0,0,0,0,0,0,0,0,0,0,0,0,0,0,0,0,0,0],"id":17,"left_children":[1,3,5,7,9,11,13,-1,-1,15,17,19,21,23,25,27,29,31,33,35,37,39,41,43,45,-1,47,-1,-1,-1,-1,-1,-1,-1,-1,-1,-1,-1,-1,-1,-1,-1,-1,-1,-1,-1,-1,-1,-1],"loss_changes":[5.856899E1,5.4319E0,1.5372034E1,3.9575748E0,5.71093E0,4.7195354E0,6.0218277E0,0E0,0E0,5.0059557E0,5.279415E0,5.2542677E0,6.8980193E0,2.7838097E0,3.2606049E0,2.7589436E0,3.4284773E0,5.236538E0,4.9082227E0,2.6188278E0,4.583987E0,4.8974123E0,1.8193042E0,2.8609934E0,2.6657505E0,0E0,1.4921119E0,0E0,0E0,0E0,0E0,0E0,0E0,0E0,0E0,0E0,0E0,0E0,0E0,0E0,0E0,0E0,0E0,0E0,0E0,0E0,0E0,0E0,0E0],"parents":[2147483647,0,0,1,1,2,2,3,3,4,4,5,5,6,6,9,9,10,10,11,11,12,12,13,13,14,14,15,15,16,16,17,17,18,18,19,19,20,20,21,21,22,22,23,23,24,24,26,26],"right_children":[2,4,6,8,10,12,14,-1,-1,16,18,20,22,24,26,28,30,32,34,36,38,40,42,44,46,-1,48,-1,-1,-1,-1,-1,-1,-1,-1,-1,-1,-1,-1,-1,-1,-1,-1,-1,-1,-1,-1,-1,-1],"split_conditions":[-1.1361499E0,-7.238985E-1,3.4653747E-1,5.322503E-1,-1.4159652E0,4.3464112E-1,2.0594952E-1,-1.4698177E-2,1.8295715E-2,-2.1494737E0,-1.2481319E0,-1.8030978E0,5.9003663E-1,-7.4478436E-1,7.5085956E-1,-5.112423E-2,-8.876339E-1,2.2602155E0,8.20269E-1,-2.5117916E-1,-1.3254553E0,7.059443E-1,-7.4478436E-1,-5.7481036E-2,-6.319326E-1,2.7618991E-2,7.0582706E-1,5.515475E-3,3.6086176E-2,1.9851072E-2,-3.5685487E-3,2.5373245E-2,-3.4810083E-3,1.6046882E-2,-1.1075508E-2,-0E0,2.3097718E-2,1.6302967E-2,-2.5337492E-3,2.7144931E-2,5.688923E-3,6.0454835E-3,-6.882514E-3,-1.7861905E-2,-1.2024416E-3,-1.5569962E-2,-7.6294057E-3,8.366891E-3,-1.4553803E-2],"split_indices":[0,47,0,26,3,2,20,0,0,5,40,27,33,25,21,53,31,4,23,5,5,43,25,48,31,0,12,0,0,0,0,0,0,0,0,0,0,0,0,0,0,0,0,0,0,0,0,0,0],"split_type":[0,0,0,0,0,0,0,0,0,0,0,0,0,0,0,0,0,0,0,0,0,0,0,0,0,0,0,0,0,0,0,0,0,0,0,0,0,0,0,0,0,0,0,0,0,0,0,0,0],"sum_hessian":[1.3344862E3,1.8129826E2,1.1531879E3,1.2278874E1,1.690194E2,7.012319E2,4.5195605E2,8.229906E0,4.0489683E0,4.3866745E1,1.2515264E2,4.7592203E2,2.2530983E2,4.3745023E2,1.4505845E1,1.1466067E1,3.240068E1,9.853976E1,2.661289E1,1.778586E1,4.5813617E2,1.6257422E2,6.2735615E1,1.0006778E2,3.3738245E2,5.5770316E0,8.928813E0,5.324131E0,6.141936E0,6.0669594E0,2.633372E1,9.294892E1,5.590831E0,1.8985308E1,7.6275826E0,7.3355956E0,1.0450264E1,1.0912838E1,4.4722333E2,9.437532E0,1.5313667E2,1.0969728E1,5.176589E1,9.440008E0,9.062777E1,4.5448116E1,2.9193433E2,5.8540845E0,3.0747285E0],"tree_param":{"num_deleted":"0","num_feature":"54","num_nodes":"49","size_leaf_vector":"1"}},{"base_weights":[7.529087E-4,-1.7869623E-1,1.748194E-1,-3.7192065E-1,-1.1434107E-1,1.4275533E-1,6.3123477E-1,2.1175823E-1,-3.9431858E-1,-1.3024147E-1,2.690886E-1,2.5844225E-1,9.5086895E-2,-3.221038E-3,6.906931E-1,2.039266E-2,-7.055182E-3,1.02196075E-1,-4.1895217E-1,-1.3738732E-1,1.82605E-2,4.8768002E-1,-9.654038E-3,3.4667158E-1,7.294451E-2,-9.937536E-2,1.4413969E-1,7.5773096E-1,-2.6262872E-4,-1.9356037E-2,2.0165619E-2,-1.3765646E-2,-9.6455164E-4,-1.5153334E-3,-5.731342E-3,2.112537E-2,-7.8086792E-3,-1.4771399E-3,1.1917536E-2,5.483107E-3,-1.4810078E-2,-6.8538915E-4,-1.9940224E-2,3.0418686E-3,1.0243822E-2,2.5104858E-2,1.223115E-3],"categories":[],"categories_nodes":[],"categories_segments":[],"categories_sizes":[],"default_left":[0,0,0,0,0,0,0,0,0,0,0,0,0,0,0,0,0,0,0,0,0,0,0,0,0,0,0,0,0,0,0,0,0,0,0,0,0,0,0,0,0,0,0,0,0,0,0],"id":18,"left_children":[1,3,5,7,9,11,13,15,17,19,21,23,25,-1,27,-1,-1,29,31,33,-1,35,-1,37,39,41,43,45,-1,-1,-1,-1,-1,-1,-1,-1,-1,-1,-1,-1,-1,-1,-1,-1,-1,-1,-1],"loss_changes":[5.3603634E1,1.0412695E1,1.2584904E1,2.8499107E0,3.8955355E0,4.4382877E0,2.6226063E0,1.9307767E0,2.5568619E0,3.2632961E0,3.451616E0,3.8088055E0,5.5500293E0,0E0,2.5543442E0,0E0,0E0,4.784017E0,2.9266129E0,2.7920532E0,0E0,3.312057E0,0E0,3.255598E0,4.9110236E0,4.9770865E0,3.833541E0,2.6153107E0,0E0,0E0,0E0,0E0,0E0,0E0,0E0,0E0,0E0,0E0,0E0,0E0,0E0,0E0,0E0,0E0,0E0,0E0,0E0],"parents":[2147483647,0,0,1,1,2,2,3,3,4,4,5,5,6,6,7,7,8,8,9,9,10,10,11,11,12,12,14,14,17,17,18,18,19,19,21,21,23,23,24,24,25,25,26,26,27,27],"right_children":[2,4,6,8,10,12,14,16,18,20,22,24,26,-1,28,-1,-1,30,32,34,-1,36,-1,38,40,42,44,46,-1,-1,-1,-1,-1,-1,-1,-1,-1,-1,-1,-1,-1,-1,-1,-1,-1,-1,-1],"split_conditions":[-2.179913E-2,-1.1361499E0,2.1360211E0,-2.430605E0,1.7779634E0,-6.686387E-1,-4.238901E-1,-4.726265E-1,-1.676443E0,2.657352E0,2.3440225E0,1.1817262E0,-8.5987353E-1,-3.221038E-3,1.1760441E0,2.039266E-2,-7.055182E-3,4.7508186E-1,1.0124596E0,-5.8528495E-1,1.82605E-2,7.996535E-1,-9.654038E-3,-6.0217977E-1,3.760707E-2,8.681484E-1,6.427758E-1,2.1638844E0,-2.6262872E-4,-1.9356037E-2,2.0165619E-2,-1.3765646E-2,-9.6455164E-4,-1.5153334E-3,-5.731342E-3,2.112537E-2,-7.8086792E-3,-1.4771399E-3,1.1917536E-2,5.483107E-3,-1.4810078E-2,-6.8538915E-4,-1.9940224E-2,3.0418686E-3,1.0243822E-2,2.5104858E-2,1.223115E-3],"split_indices":[0,0,41,14,49,1,17,32,16,7,49,6,10,0,10,0,0,52,7,5,0,46,0,32,21,32,32,7,0,0,0,0,0,0,0,0,0,0,0,0,0,0,0,0,0,0,0],"split_type":[0,0,0,0,0,0,0,0,0,0,0,0,0,0,0,0,0,0,0,0,0,0,0,0,0,0,0,0,0,0,0,0,0,0,0,0,0,0,0,0,0,0,0,0,0,0,0],"sum_hessian":[1.7140928E3,8.43701E2,8.7039185E2,2.0921281E2,6.344882E2,8.146901E2,5.57017E1,7.254154E0,2.0195866E2,6.1010876E2,2.4379408E1,2.3583083E2,5.788593E2,3.9646366E0,5.1737064E1,3.398389E0,3.855765E0,9.205449E0,1.9275322E2,6.052055E2,4.903295E0,1.8047056E1,6.332351E0,1.588623E2,7.696852E1,1.1598602E2,4.628733E2,4.7266495E1,4.470569E0,3.8499007E0,5.3555484E0,1.7432487E2,1.8428337E1,2.3252751E2,3.7267798E2,1.4145031E1,3.9020252E0,1.7775434E1,1.4108687E2,6.51873E1,1.1781217E1,1.0322846E2,1.2757557E1,3.8211865E2,8.075463E1,4.229382E1,4.972674E0],"tree_param":{"num_deleted":"0","num_feature":"54","num_nodes":"47","size_leaf_vector":"1"}},{"base_weights":[-2.0793143E-3,-2.5399312E-1,3.4170017E-2,4.9043077E-1,-2.858444E-1,2.2899983E-2,3.6986482E-1,3.5500184E-2,-9.202826E-3,-4.3356776E-1,-2.1091624E-1,-4.5694095E-1,3.3003557E-2,-2.276644E-1,5.870149E-1,1.1236483E-2,-5.2173835E-1,-1.4621452E-2,-3.4144935E-1,-5.4677445E-1,6.1985815E-4,-2.0616628E-2,8.272721E-2,4.4360734E-3,-1.4354251E-2,3.0965202E-2,3.524237E-1,-1.27171185E-2,1.6934888E-2,-1.7935256E-2,-7.7956454E-3,9.763693E-3,-5.6030313E-3,-1.3744261E-2,-1.8201233E-3,-1.872266E-2,-6.544226E-4,-1.6217758E-3,6.815858E-3,7.7655707E-3,8.6283404E-4,-8.736736E-3,1.7813554E-2],"categories":[],"categories_nodes":[],"categories_segments":[],"categories_sizes":[],"default_left":[0,0,0,0,0,0,0,0,0,0,0,0,0,0,0,0,0,0,0,0,0,0,0,0,0,0,0,0,0,0,0,0,0,0,0,0,0,0,0,0,0,0,0],"id":19,"left_children":[1,3,5,7,9,11,13,-1,-1,15,17,19,21,23,25,27,29,31,33,35,-1,37,39,-1,-1,-1,41,-1,-1,-1,-1,-1,-1,-1,-1,-1,-1,-1,-1,-1,-1,-1,-1],"loss_changes":[1.3537364E1,4.542468E0,4.8462114E0,4.8105054E0,1.8324232E0,6.0469227E0,5.5755343E0,0E0,0E0,2.3729954E0,3.0746326E0,1.1665854E0,3.2825534E0,1.206093E0,2.7309685E0,2.79585E0,7.453203E-1,2.9687402E0,2.3013687E0,8.0839396E-1,0E0,4.8910556E0,6.0318885E0,0E0,0E0,0E0,3.61176E0,0E0,0E0,0E0,0E0,0E0,0E0,0E0,0E0,0E0,0E0,0E0,0E0,0E0,0E0,0E0,0E0],"parents":[2147483647,0,0,1,1,2,2,3,3,4,4,5,5,6,6,9,9,10,10,11,11,12,12,13,13,14,14,15,15,16,16,17,17,18,18,19,19,21,21,22,22,26,26],"right_children":[2,4,6,8,10,12,14,-1,-1,16,18,20,22,24,26,28,30,32,34,36,-1,38,40,-1,-1,-1,42,-1,-1,-1,-1,-1,-1,-1,-1,-1,-1,-1,-1,-1,-1,-1,-1],"split_conditions":[-1.0241538E0,-1.807514E0,7.112344E-1,1.9257557E-1,-2.1778436E0,-1.9266295E0,-5.675568E-1,3.5500184E-2,-9.202826E-3,-5.046364E-1,-2.3359632E-1,8.5377675E-1,3.0628154E-1,-3.150834E-1,-6.639794E-1,-3.3160678E-1,1.2004629E0,-3.7513122E-1,5.943534E-1,9.0792507E-1,6.1985815E-4,1.1581964E0,-7.402364E-2,4.4360734E-3,-1.4354251E-2,3.0965202E-2,-3.221657E-1,-1.27171185E-2,1.6934888E-2,-1.7935256E-2,-7.7956454E-3,9.763693E-3,-5.6030313E-3,-1.3744261E-2,-1.8201233E-3,-1.872266E-2,-6.544226E-4,-1.6217758E-3,6.815858E-3,7.7655707E-3,8.6283404E-4,-8.736736E-3,1.7813554E-2],"split_indices":[1,8,21,26,1,51,32,0,0,24,27,5,1,25,52,22,26,10,10,52,0,5,20,0,0,0,11,0,0,0,0,0,0,0,0,0,0,0,0,0,0,0,0],"split_type":[0,0,0,0,0,0,0,0,0,0,0,0,0,0,0,0,0,0,0,0,0,0,0,0,0,0,0,0,0,0,0,0,0,0,0,0,0,0,0,0,0,0,0],"sum_hessian":[1.4780995E3,1.8552815E2,1.2925714E3,6.8928213E0,1.7863533E2,1.2519081E3,4.066328E1,3.4955711E0,3.3972502E0,5.805563E1,1.20579704E2,2.4700577E1,1.2272075E3,1.070301E1,2.9960272E1,9.56093E0,4.84947E1,4.8908916E1,7.167079E1,2.0844442E1,3.8561337E0,5.897821E2,6.374254E2,4.290565E0,6.4124446E0,9.019251E0,2.0941021E1,5.3814573E0,4.1794724E0,3.628543E1,1.220927E1,1.5942584E1,3.296633E1,4.99313E1,2.1739489E1,1.7838005E1,3.0064383E0,5.206985E2,6.908361E1,1.4817802E2,4.892474E2,5.5417385E0,1.5399282E1],"tree_param":{"num_deleted":"0","num_feature":"54","num_nodes":"43","size_leaf_vector":"1"}},{"base_weights":[9.6992375E-3,4.936935E-1,-6.348698E-2,-8.394491E-2,5.36293E-1,2.7751952E-2,-2.0310917E-1,-1.657374E-2,2.7753532E-1,3.1711432E-1,6.7098784E-1,2.1005693E-1,2.9833473E-3,-2.1944985E-1,3.0129856E-1,-8.092551E-3,2.2245497E-2,1.10434614E-1,6.7027295E-1,4.460153E-1,9.461475E-1,1.0277586E-1,6.9796735E-1,-1.5824415E-1,3.787616E-2,1.3587066E-2,-2.2935967E-1,2.899107E-2,-0E0,-1.4983136E-3,2.3018822E-2,2.911773E-2,7.25579E-3,3.350836E-4,1.9210272E-2,3.3012997E-2,9.675315E-3,-8.97588E-3,7.0111165E-3,-2.1581713E-3,2.8627183E-2,-9.329856E-3,2.24436E-3,8.894247E-4,2.6169905E-2,-1.2095171E-2,-5.716785E-3,-1.5071784E-2,8.7956935E-3],"categories":[],"categories_nodes":[],"categories_segments":[],"categories_sizes":[],"default_left":[0,0,0,0,0,0,0,0,0,0,0,0,0,0,0,0,0,0,0,0,0,0,0,0,0,0,0,0,0,0,0,0,0,0,0,0,0,0,0,0,0,0,0,0,0,0,0,0,0],"id":20,"left_children":[1,3,5,7,9,11,13,-1,15,17,19,21,23,25,27,-1,-1,29,31,33,35,37,39,41,43,-1,45,-1,47,-1,-1,-1,-1,-1,-1,-1,-1,-1,-1,-1,-1,-1,-1,-1,-1,-1,-1,-1,-1],"loss_changes":[4.7846928E1,4.4566383E0,1.4956268E1,2.3639712E0,4.5759125E0,3.1813312E0,3.8810291E0,0E0,2.2333665E0,4.6064067E0,5.7133102E0,4.2636876E0,3.5158908E0,3.0801582E0,2.938423E0,0E0,0E0,4.587393E0,2.6922226E0,4.816778E0,3.7847748E0,3.773319E0,3.089663E0,4.000801E0,3.4268851E0,0E0,2.8602982E0,0E0,1.7918713E0,0E0,0E0,0E0,0E0,0E0,0E0,0E0,0E0,0E0,0E0,0E0,0E0,0E0,0E0,0E0,0E0,0E0,0E0,0E0,0E0],"parents":[2147483647,0,0,1,1,2,2,3,3,4,4,5,5,6,6,8,8,9,9,10,10,11,11,12,12,13,13,14,14,17,17,18,18,19,19,20,20,21,21,22,22,23,23,24,24,26,26,28,28],"right_children":[2,4,6,8,10,12,14,-1,16,18,20,22,24,26,28,-1,-1,30,32,34,36,38,40,42,44,-1,46,-1,48,-1,-1,-1,-1,-1,-1,-1,-1,-1,-1,-1,-1,-1,-1,-1,-1,-1,-1,-1,-1],"split_conditions":[-1.1361499E0,-7.238985E-1,3.864541E-1,-1.3160067E0,-2.1090865E-1,-1.2137822E0,2.0594952E-1,-1.657374E-2,-3.650389E-1,-1.0868238E0,-4.726265E-1,-1.3054374E-1,-9.936432E-1,-2.2039618E0,-7.293325E-2,-8.092551E-3,2.2245497E-2,9.482373E-1,-1.475024E-2,2.0265996E-1,-1.2321678E0,-1.0243833E0,-9.432345E-1,6.6552657E-1,2.7272193E0,1.3587066E-2,-5.2517956E-1,2.899107E-2,-1.2120688E-1,-1.4983136E-3,2.3018822E-2,2.911773E-2,7.25579E-3,3.350836E-4,1.9210272E-2,3.3012997E-2,9.675315E-3,-8.97588E-3,7.0111165E-3,-2.1581713E-3,2.8627183E-2,-9.329856E-3,2.24436E-3,8.894247E-4,2.6169905E-2,-1.2095171E-2,-5.716785E-3,-1.5071784E-2,8.7956935E-3],"split_indices":[0,47,40,46,27,41,20,0,33,5,32,5,28,30,33,0,0,31,23,13,0,31,40,24,10,0,31,0,51,0,0,0,0,0,0,0,0,0,0,0,0,0,0,0,0,0,0,0,0],"split_type":[0,0,0,0,0,0,0,0,0,0,0,0,0,0,0,0,0,0,0,0,0,0,0,0,0,0,0,0,0,0,0,0,0,0,0,0,0,0,0,0,0,0,0,0,0,0,0,0,0],"sum_hessian":[1.3476804E3,1.7644394E2,1.1712365E3,1.1890736E1,1.645532E2,7.08402E2,4.6283447E2,5.069062E0,6.8216734E0,6.419319E1,1.00360016E2,8.335607E1,6.250459E2,4.4905032E2,1.3784142E1,3.22304E0,3.5986335E0,4.1501217E1,2.2691975E1,5.6857376E1,4.350264E1,6.949189E1,1.386418E1,1.1006641E2,5.149795E2,5.726562E0,4.4332376E2,3.5836613E0,1.02004795E1,3.397711E1,7.524105E0,1.245914E1,1.0232835E1,1.8046589E1,3.8810787E1,3.4133286E1,9.369356E0,1.6570032E1,5.292186E1,3.5445447E0,1.0319634E1,6.654545E1,4.3520958E1,5.1109488E2,3.8846102E0,7.871895E1,3.6460483E2,3.4648085E0,6.7356715E0],"tree_param":{"num_deleted":"0","num_feature":"54","num_nodes":"49","size_leaf_vector":"1"}},{"base_weights":[-9.829873E-3,-2.0809835E-1,1.3283792E-1,-1.293704E-1,-4.2149666E-1,2.639996E-1,4.1579273E-2,2.0244902E-1,-1.590632E-1,-3.071267E-1,-5.285259E-1,1.9579618E-1,4.8742744E-1,5.4512825E-2,-3.9549813E-1,-1.4297381E-1,4.3932906E-1,4.5275465E-2,-2.0839909E-1,2.0066198E-2,-3.5185242E-1,-6.4017344E-1,-3.7616724E-1,2.5861666E-1,-1.0905412E-1,-8.5816406E-2,5.4661727E-1,4.27347E-2,5.011751E-1,-6.194073E-1,3.0209164E-3,2.1620335E-2,-1.3174761E-2,2.2192689E-2,1.8459664E-3,-1.674423E-2,4.307242E-3,3.319183E-3,-7.3433975E-3,-1.358407E-2,1.7691392E-3,-2.0490006E-2,-4.432579E-3,-1.8283008E-2,-3.7985046E-3,8.467234E-3,-1.1577566E-2,1.0484864E-2,-8.14085E-3,1.0924484E-2,-1.2774111E-2,1.1278738E-2,2.2868564E-2,2.3861264E-3,-2.3106544E-3,2.15178E-2,-0E0,-2.2678182E-2,-5.9765666E-3],"categories":[],"categories_nodes":[],"categories_segments":[],"categories_sizes":[],"default_left":[0,0,0,0,0,0,0,0,0,0,0,0,0,0,0,0,0,0,0,0,0,0,0,0,0,0,0,0,0,0,0,0,0,0,0,0,0,0,0,0,0,0,0,0,0,0,0,0,0,0,0,0,0,0,0,0,0,0,0],"id":21,"left_children":[1,3,5,7,9,11,13,15,17,19,21,23,25,27,29,31,33,35,37,-1,39,41,43,45,47,49,51,53,55,57,-1,-1,-1,-1,-1,-1,-1,-1,-1,-1,-1,-1,-1,-1,-1,-1,-1,-1,-1,-1,-1,-1,-1,-1,-1,-1,-1,-1,-1],"loss_changes":[4.7988605E1,1.1820118E1,1.1762791E1,5.1561956E0,2.0870209E0,5.9925365E0,3.2842364E0,3.603905E0,4.850505E0,4.3493347E0,1.3009682E0,6.0091734E0,3.2643642E0,2.9098983E0,1.9652398E0,4.903098E0,2.811112E0,5.584995E0,4.5217094E0,0E0,3.8634262E0,9.537811E-1,2.390789E0,4.0402927E0,4.0806713E0,1.6074995E0,2.7285805E0,2.4492316E0,1.4817526E0,4.2846823E-1,0E0,0E0,0E0,0E0,0E0,0E0,0E0,0E0,0E0,0E0,0E0,0E0,0E0,0E0,0E0,0E0,0E0,0E0,0E0,0E0,0E0,0E0,0E0,0E0,0E0,0E0,0E0,0E0,0E0],"parents":[2147483647,0,0,1,1,2,2,3,3,4,4,5,5,6,6,7,7,8,8,9,9,10,10,11,11,12,12,13,13,14,14,15,15,16,16,17,17,18,18,20,20,21,21,22,22,23,23,24,24,25,25,26,26,27,27,28,28,29,29],"right_children":[2,4,6,8,10,12,14,16,18,20,22,24,26,28,30,32,34,36,38,-1,40,42,44,46,48,50,52,54,56,58,-1,-1,-1,-1,-1,-1,-1,-1,-1,-1,-1,-1,-1,-1,-1,-1,-1,-1,-1,-1,-1,-1,-1,-1,-1,-1,-1,-1,-1],"split_conditions":[-1.827454E-1,1.1903535E0,-2.9860803E-1,-1.02479E0,-6.4368114E-2,1.3035339E0,2.1244185E0,-7.458779E-1,-6.38247E-1,-1.7880085E0,-1.7432866E-1,-1.1807386E-2,-1.2068584E-1,1.3359836E-1,3.8077388E-2,-3.0997604E-1,3.0362105E-1,-1.0528775E0,-1.5375252E0,2.0066198E-2,1.6009613E0,1.9202678E0,-6.4230645E-1,1.1948713E0,7.24929E-2,4.318302E-2,8.719323E-1,6.8348134E-1,1.9410414E0,6.288183E-1,3.0209164E-3,2.1620335E-2,-1.3174761E-2,2.2192689E-2,1.8459664E-3,-1.674423E-2,4.307242E-3,3.319183E-3,-7.3433975E-3,-1.358407E-2,1.7691392E-3,-2.0490006E-2,-4.432579E-3,-1.8283008E-2,-3.7985046E-3,8.467234E-3,-1.1577566E-2,1.0484864E-2,-8.14085E-3,1.0924484E-2,-1.2774111E-2,1.1278738E-2,2.2868564E-2,2.3861264E-3,-2.3106544E-3,2.15178E-2,-0E0,-2.2678182E-2,-5.9765666E-3],"split_indices":[0,2,43,16,26,31,50,53,25,53,6,20,20,2,33,26,30,15,49,0,47,13,32,31,50,32,28,7,31,32,0,0,0,0,0,0,0,0,0,0,0,0,0,0,0,0,0,0,0,0,0,0,0,0,0,0,0,0,0],"split_type":[0,0,0,0,0,0,0,0,0,0,0,0,0,0,0,0,0,0,0,0,0,0,0,0,0,0,0,0,0,0,0,0,0,0,0,0,0,0,0,0,0,0,0,0,0,0,0,0,0,0,0,0,0,0,0,0,0,0,0],"sum_hessian":[1.6942749E3,7.090857E2,9.851892E2,5.195029E2,1.8958272E2,4.0299506E2,5.8219415E2,4.1914875E1,4.7758807E2,9.397073E1,9.5611984E1,3.1052753E2,9.246751E1,5.6653394E2,1.5660227E1,1.7040451E1,2.4874426E1,9.250551E1,3.8508255E2,3.4081266E0,9.056261E1,5.295139E1,4.2660595E1,2.5786832E2,5.2659225E1,8.453868E0,8.401363E1,5.5326434E2,1.3269575E1,1.0758604E1,4.9016223E0,3.8993695E0,1.3141082E1,1.3174878E1,1.1699547E1,1.2160741E1,8.0344765E1,3.8926872E1,3.461557E2,7.281206E1,1.7750553E1,4.81717E1,4.7796893E0,2.109721E1,2.1563385E1,2.4944263E2,8.425685E0,1.3303869E1,3.9355354E1,3.4812765E0,4.9725914E0,4.8691055E1,3.5322582E1,4.2410257E2,1.2916177E2,8.8470545E0,4.4225206E0,7.3374157E0,3.4211884E0],"tree_param":{"num_deleted":"0","num_feature":"54","num_nodes":"59","size_leaf_vector":"1"}},{"base_weights":[-0E0,6.1355665E-2,-1.2222507E-1,2.1549252E-1,2.6581604E-2,-7.115873E-2,-3.1085378E-1,-4.7332165E-1,2.606165E-1,1.3354788E-2,3.640988E-1,2.3621058E-1,-1.0303168E-1,-0E0,-3.7742412E-1,-1.8711114E-2,-5.9183966E-4,9.413644E-1,2.1598175E-1,4.1619305E-2,-1.3100348E-1,5.54129E-1,-2.3127843E-1,-0E0,6.7504025E-1,2.6705552E-2,-1.8321796E-1,-2.4614626E-1,1.9521305E-2,-2.205447E-1,-5.221494E-1,3.475047E-2,1.3420161E-2,-7.838726E-3,8.152439E-3,3.937848E-4,9.572255E-3,2.022914E-2,-5.1532225E-3,1.12199625E-2,3.588805E-2,3.1132842E-3,-1.6066542E-2,-9.519351E-3,8.704786E-3,-1.6402459E-3,2.845315E-2,4.3766513E-3,-5.589325E-3,-6.7890077E-3,8.805581E-3,7.6085213E-3,-1.3522295E-2,6.734772E-3,-1.5547719E-2,-1.7353317E-2,-0E0],"categories":[],"categories_nodes":[],"categories_segments":[],"categories_sizes":[],"default_left":[0,0,0,0,0,0,0,0,0,0,0,0,0,0,0,0,0,0,0,0,0,0,0,0,0,0,0,0,0,0,0,0,0,0,0,0,0,0,0,0,0,0,0,0,0,0,0,0,0,0,0,0,0,0,0,0,0],"id":22,"left_children":[1,3,5,7,9,11,13,15,17,19,21,23,25,27,29,-1,-1,31,33,35,37,39,41,43,45,47,49,51,-1,53,55,-1,-1,-1,-1,-1,-1,-1,-1,-1,-1,-1,-1,-1,-1,-1,-1,-1,-1,-1,-1,-1,-1,-1,-1,-1,-1],"loss_changes":[1.1026163E1,5.215461E0,4.673838E0,5.680435E0,3.5294995E0,3.8168752E0,2.1579247E0,6.909559E-1,4.8226595E0,3.1435945E0,3.5377982E0,3.749497E0,3.6925712E0,3.2579231E0,1.7561655E0,0E0,0E0,3.9073753E-1,4.336999E0,5.0723753E0,4.2009296E0,2.0617867E0,8.940252E-1,2.3749022E0,2.6746335E0,3.4562025E0,4.5525584E0,1.638291E0,0E0,5.8670807E0,1.3017159E0,0E0,0E0,0E0,0E0,0E0,0E0,0E0,0E0,0E0,0E0,0E0,0E0,0E0,0E0,0E0,0E0,0E0,0E0,0E0,0E0,0E0,0E0,0E0,0E0,0E0,0E0],"parents":[2147483647,0,0,1,1,2,2,3,3,4,4,5,5,6,6,7,7,8,8,9,9,10,10,11,11,12,12,13,13,14,14,17,17,18,18,19,19,20,20,21,21,22,22,23,23,24,24,25,25,26,26,27,27,29,29,30,30],"right_children":[2,4,6,8,10,12,14,16,18,20,22,24,26,28,30,-1,-1,32,34,36,38,40,42,44,46,48,50,52,-1,54,56,-1,-1,-1,-1,-1,-1,-1,-1,-1,-1,-1,-1,-1,-1,-1,-1,-1,-1,-1,-1,-1,-1,-1,-1,-1,-1],"split_conditions":[2.3974378E-1,-8.9577705E-2,1.2645559E0,-1.4732428E0,8.69735E-1,-9.532714E-1,-6.075078E-1,1.5609245E-1,-1.141909E0,9.895241E-1,4.7508186E-1,-1.0262836E0,-2.2393478E-1,8.9200765E-2,6.090482E-2,-1.8711114E-2,-5.9183966E-4,-3.1962055E-1,-5.7122594E-1,1.0592599E0,-1.741362E0,1.0546659E0,1.563838E0,-5.2054745E-1,-8.90531E-2,9.693078E-1,8.896131E-1,9.13202E-2,1.9521305E-2,6.6943115E-1,-1.2338507E0,3.475047E-2,1.3420161E-2,-7.838726E-3,8.152439E-3,3.937848E-4,9.572255E-3,2.022914E-2,-5.1532225E-3,1.12199625E-2,3.588805E-2,3.1132842E-3,-1.6066542E-2,-9.519351E-3,8.704786E-3,-1.6402459E-3,2.845315E-2,4.3766513E-3,-5.589325E-3,-6.7890077E-3,8.805581E-3,7.6085213E-3,-1.3522295E-2,6.734772E-3,-1.5547719E-2,-1.7353317E-2,-0E0],"split_indices":[31,20,40,4,21,2,24,33,2,49,52,2,25,22,25,0,0,27,42,5,32,49,10,4,33,49,32,7,0,49,2,0,0,0,0,0,0,0,0,0,0,0,0,0,0,0,0,0,0,0,0,0,0,0,0,0,0],"split_type":[0,0,0,0,0,0,0,0,0,0,0,0,0,0,0,0,0,0,0,0,0,0,0,0,0,0,0,0,0,0,0,0,0,0,0,0,0,0,0,0,0,0,0,0,0,0,0,0,0,0,0,0,0,0,0,0,0],"sum_hessian":[1.4680991E3,9.776253E2,4.904738E2,1.7847186E2,7.9915344E2,3.8748077E2,1.0299301E2,1.025313E1,1.6821873E2,7.7030225E2,2.8851198E1,3.5508015E1,3.5197275E2,1.8300741E1,8.469227E1,7.253012E0,3.0001175E0,8.976877E0,1.5924187E2,6.453507E2,1.2495154E2,2.2050457E1,6.80074E0,2.380944E1,1.1698574E1,1.3422444E2,2.1774832E2,1.3711595E1,4.589146E0,4.2182304E1,4.2509964E1,5.16235E0,3.8145266E0,1.6086617E1,1.4315524E2,5.865256E2,5.8825123E1,5.1541495E0,1.1979739E2,1.8577368E1,3.4730904E0,3.3938444E0,3.4068956E0,1.1243089E1,1.2566352E1,3.3067975E0,8.391776E0,8.657195E1,4.7652493E1,2.0037564E2,1.7372677E1,3.771264E0,9.9403305E0,1.6871666E1,2.531064E1,3.8343624E1,4.1663404E0],"tree_param":{"num_deleted":"0","num_feature":"54","num_nodes":"57","size_leaf_vector":"1"}},{"base_weights":[-1.3538425E-2,-1.267096E-1,2.5428012E-1,-3.3593036E-2,-2.2440106E-1,1.3573144E-1,4.788323E-1,5.469486E-1,-4.7118343E-2,-2.3870158E-1,2.0841692E-1,2.2769326E-1,-5.082071E-2,5.3407624E-2,5.7013524E-1,2.5934622E-2,2.3111343E-4,-1.6029249E-1,1.1356173E-2,-2.8615257E-1,-1.06155306E-1,-9.481931E-3,4.2567012E-1,-2.4842887E-1,2.721176E-1,-1.5583736E-1,3.2716432E-1,-1.3793881E-1,2.1733006E-2,3.9745262E-1,8.442411E-1,-3.088768E-3,-1.1894235E-2,-2.4364376E-4,1.973698E-2,-3.4470132E-3,-9.871513E-3,6.0051554E-3,-5.6769825E-3,2.166395E-2,-7.3770634E-3,1.2818151E-2,-1.3832446E-2,-8.4312735E-3,9.687976E-3,-7.2391764E-3,1.0969963E-2,2.6680745E-2,-3.180419E-3,1.2519103E-2,-1.4732693E-2,1.4091605E-2,-6.8390947E-3,2.9082995E-2,-5.405878E-3],"categories":[],"categories_nodes":[],"categories_segments":[],"categories_sizes":[],"default_left":[0,0,0,0,0,0,0,0,0,0,0,0,0,0,0,0,0,0,0,0,0,0,0,0,0,0,0,0,0,0,0,0,0,0,0,0,0,0,0,0,0,0,0,0,0,0,0,0,0,0,0,0,0,0,0],"id":23,"left_children":[1,3,5,7,9,11,13,15,17,19,21,23,25,27,29,-1,-1,31,33,35,37,-1,39,41,43,45,47,49,-1,51,53,-1,-1,-1,-1,-1,-1,-1,-1,-1,-1,-1,-1,-1,-1,-1,-1,-1,-1,-1,-1,-1,-1,-1,-1],"loss_changes":[4.1148808E1,8.652454E0,1.0605717E1,3.8276825E0,2.9325657E0,4.5848503E0,5.291237E0,1.8033204E0,3.1964498E0,2.767418E0,1.8764677E0,3.8435192E0,3.5324602E0,3.4698277E0,4.9279175E0,0E0,0E0,2.1344757E0,4.0642357E0,2.3495712E0,3.1175876E0,0E0,2.4755054E0,2.435647E0,4.7005787E0,3.1895568E0,4.867634E0,4.2890687E0,0E0,3.3829737E0,5.7528973E0,0E0,0E0,0E0,0E0,0E0,0E0,0E0,0E0,0E0,0E0,0E0,0E0,0E0,0E0,0E0,0E0,0E0,0E0,0E0,0E0,0E0,0E0,0E0,0E0],"parents":[2147483647,0,0,1,1,2,2,3,3,4,4,5,5,6,6,7,7,8,8,9,9,10,10,11,11,12,12,13,13,14,14,17,17,18,18,19,19,20,20,22,22,23,23,24,24,25,25,26,26,27,27,29,29,30,30],"right_children":[2,4,6,8,10,12,14,16,18,20,22,24,26,28,30,-1,-1,32,34,36,38,-1,40,42,44,46,48,50,-1,52,54,-1,-1,-1,-1,-1,-1,-1,-1,-1,-1,-1,-1,-1,-1,-1,-1,-1,-1,-1,-1,-1,-1,-1,-1],"split_conditions":[4.3464112E-1,3.864541E-1,-8.574961E-1,-1.8293581E0,1.7484139E-1,4.2115816E-1,-4.3225986E-1,7.3844373E-1,-4.6450123E-1,6.745549E-1,-6.38247E-1,-1.3931682E0,-1.6791856E-1,1.3146181E-1,-1.1028407E0,2.5934622E-2,2.3111343E-4,3.7466781E-3,3.5445985E-1,-8.6197555E-1,-7.955032E-1,-9.481931E-3,4.2712733E-1,4.6168873E-1,8.270814E-1,9.7402275E-1,-4.2562354E-1,-4.238901E-1,2.1733006E-2,-3.049053E-1,1.2365551E0,-3.088768E-3,-1.1894235E-2,-2.4364376E-4,1.973698E-2,-3.4470132E-3,-9.871513E-3,6.0051554E-3,-5.6769825E-3,2.166395E-2,-7.3770634E-3,1.2818151E-2,-1.3832446E-2,-8.4312735E-3,9.687976E-3,-7.2391764E-3,1.0969963E-2,2.6680745E-2,-3.180419E-3,1.2519103E-2,-1.4732693E-2,1.4091605E-2,-6.8390947E-3,2.9082995E-2,-5.405878E-3],"split_indices":[2,40,41,10,20,33,23,8,49,26,25,50,5,32,5,0,0,20,40,25,53,0,25,1,42,31,49,17,0,3,33,0,0,0,0,0,0,0,0,0,0,0,0,0,0,0,0,0,0,0,0,0,0,0,0],"split_type":[0,0,0,0,0,0,0,0,0,0,0,0,0,0,0,0,0,0,0,0,0,0,0,0,0,0,0,0,0,0,0,0,0,0,0,0,0,0,0,0,0,0,0,0,0,0,0,0,0,0,0,0,0,0,0],"sum_hessian":[1.3559861E3,9.538298E2,4.021563E2,4.8956177E2,4.64268E2,2.6454428E2,1.3761205E2,1.0079759E1,4.7948203E2,4.5007675E2,1.4191225E1,1.774064E2,8.713787E1,2.4788874E1,1.1282317E2,5.847702E0,4.2320566E0,1.6333167E2,3.1615036E2,3.3001828E2,1.2005849E2,3.8885581E0,1.0302667E1,1.45561695E1,1.6285023E2,6.885889E1,1.8278984E1,1.9790829E1,4.9980445E0,7.09442E1,4.1878975E1,1.329236E2,3.0408073E1,3.07713E2,8.437332E0,6.731203E1,2.6270627E2,2.5056349E1,9.500214E1,7.198535E0,3.1041317E0,3.1302743E0,1.1425895E1,1.3154507E1,1.4969572E2,5.978915E1,9.069738E0,7.597037E0,1.0681947E1,7.5132637E0,1.2277565E1,6.396221E1,6.9819865E0,3.7453278E1,4.4256997E0],"tree_param":{"num_deleted":"0","num_feature":"54","num_nodes":"55","size_leaf_vector":"1"}},{"base_weights":[1.9374845E-3,-1.5356234E-1,1.7745356E-1,-1.0100417E-1,-3.5796782E-1,6.369507E-1,1.4979182E-1,4.3859977E-2,-1.3765599E-1,-3.8614494E-1,2.0615621E-1,1.5224662E-3,7.060586E-1,5.3375117E-2,2.1985756E-1,2.303747E-2,-0E0,-1.4990275E-1,2.888389E-1,-2.1091063E-2,-4.2792812E-1,2.6808865E-2,-1.0010292E-2,8.65459E-1,3.9127693E-1,7.239431E-2,-1.9525524E-2,2.67557E-1,-7.6408416E-2,-7.0582293E-3,2.7539134E-3,1.28846E-3,-5.3270734E-3,2.8725665E-2,-3.7968433E-3,-1.8737625E-2,1.532245E-2,-1.4934572E-2,-5.7251663E-3,1.026546E-2,2.78557E-2,-5.11616E-3,2.180745E-2,4.773811E-4,7.861608E-3,2.87503E-2,7.494495E-3,-2.3002777E-2,7.095545E-4],"categories":[],"categories_nodes":[],"categories_segments":[],"categories_sizes":[],"default_left":[0,0,0,0,0,0,0,0,0,0,0,0,0,0,0,0,0,0,0,0,0,0,0,0,0,0,0,0,0,0,0,0,0,0,0,0,0,0,0,0,0,0,0,0,0,0,0,0,0],"id":24,"left_children":[1,3,5,7,9,11,13,15,17,19,21,-1,23,25,27,-1,29,31,33,35,37,-1,-1,39,41,43,-1,45,47,-1,-1,-1,-1,-1,-1,-1,-1,-1,-1,-1,-1,-1,-1,-1,-1,-1,-1,-1,-1],"loss_changes":[4.645719E1,9.610596E0,9.992817E0,3.835424E0,3.0184212E0,1.7076797E0,5.0679455E0,4.64924E0,3.032627E0,2.623417E0,3.7776232E0,0E0,1.5397491E0,4.276378E0,6.21364E0,0E0,3.010157E0,3.00799E0,4.6940007E0,6.532938E0,2.4410477E0,0E0,0E0,3.9597893E-1,3.0952802E0,3.3177814E0,0E0,4.257679E0,4.311208E0,0E0,0E0,0E0,0E0,0E0,0E0,0E0,0E0,0E0,0E0,0E0,0E0,0E0,0E0,0E0,0E0,0E0,0E0,0E0,0E0],"parents":[2147483647,0,0,1,1,2,2,3,3,4,4,5,5,6,6,7,7,8,8,9,9,10,10,12,12,13,13,14,14,16,16,17,17,18,18,19,19,20,20,23,23,24,24,25,25,27,27,28,28],"right_children":[2,4,6,8,10,12,14,16,18,20,22,-1,24,26,28,-1,30,32,34,36,38,-1,-1,40,42,44,-1,46,48,-1,-1,-1,-1,-1,-1,-1,-1,-1,-1,-1,-1,-1,-1,-1,-1,-1,-1,-1,-1],"split_conditions":[1.1844015E-1,1.1903535E0,-1.6938496E0,4.645042E-1,2.223842E0,-6.075078E-1,4.1824996E-1,-1.02479E0,1.7164792E0,-5.765482E-1,2.7272193E0,1.5224662E-3,-8.94613E-1,4.0428388E-1,1.6209373E0,2.303747E-2,-3.0345404E-1,-1.2140629E0,-7.554847E-1,-1.0890002E-1,1.6009613E0,2.6808865E-2,-1.0010292E-2,-9.9400425E-1,-5.286664E-1,2.8163588E-1,-1.9525524E-2,-2.0655084E0,-4.1979935E-2,-7.0582293E-3,2.7539134E-3,1.28846E-3,-5.3270734E-3,2.8725665E-2,-3.7968433E-3,-1.8737625E-2,1.532245E-2,-1.4934572E-2,-5.7251663E-3,1.026546E-2,2.78557E-2,-5.11616E-3,2.180745E-2,4.773811E-4,7.861608E-3,2.87503E-2,7.494495E-3,-2.3002777E-2,7.095545E-4],"split_indices":[40,2,2,42,30,24,41,16,33,47,10,0,4,41,44,0,7,49,28,49,47,0,0,53,4,43,0,51,48,0,0,0,0,0,0,0,0,0,0,0,0,0,0,0,0,0,0,0,0],"split_type":[0,0,0,0,0,0,0,0,0,0,0,0,0,0,0,0,0,0,0,0,0,0,0,0,0,0,0,0,0,0,0,0,0,0,0,0,0,0,0,0,0,0,0,0,0,0,0,0,0],"sum_hessian":[1.7000966E3,9.012142E2,7.988824E2,7.184617E2,1.8275255E2,4.3905975E1,7.549764E2,1.4448163E2,5.7398004E2,1.7452791E2,8.2246275E0,4.9657545E0,3.8940224E1,3.190812E2,4.358952E2,7.3587394E0,1.371229E2,5.5881665E2,1.5163367E1,1.8324795E1,1.5620312E2,3.4108272E0,4.813801E0,2.447792E1,1.4462301E1,3.1170218E2,7.3790116E0,3.7582156E2,6.0073612E1,3.81629E1,9.895999E1,6.958691E1,4.8922977E2,5.402486E0,9.760881E0,8.590497E0,9.734298E0,1.1946487E2,3.673826E1,3.4944336E0,2.0983488E1,5.481284E0,8.981017E0,2.4141779E2,7.02844E1,7.9413476E0,3.6788022E2,6.88791E0,5.3185703E1],"tree_param":{"num_deleted":"0","num_feature":"54","num_nodes":"49","size_leaf_vector":"1"}},{"base_weights":[-1.0983083E-2,5.1129136E-2,-1.9518079E-1,-1.89814E-2,1.0636815E-1,-4.744799E-1,-1.4781672E-1,-7.0247814E-2,1.6411749E-1,1.5712912E-1,-9.2958845E-2,-5.170709E-1,1.7643911E-3,3.5628656E-1,-1.651607E-1,-3.295679E-2,-3.211811E-1,-2.2482209E-2,4.18754E-1,3.7567458E-1,1.1346604E-1,3.084824E-2,-2.6482835E-1,-5.652743E-1,-0E0,-7.209187E-2,3.1441893E-2,7.1483724E-2,-2.0414446E-1,-1.0922867E-2,-2.7333962E-4,-1.4200512E-2,1.5963075E-3,-6.759287E-3,1.5179189E-2,8.433977E-3,3.1936944E-2,1.7530447E-3,1.7005831E-2,2.983389E-3,2.330647E-2,1.9877948E-2,-1.3962352E-3,-1.2457868E-2,-1.2306065E-3,-1.222792E-2,-1.892076E-2,1.0537516E-2,-1.5315175E-2,-5.591011E-3,1.0644022E-2,6.5893815E-3,-6.9418605E-3],"categories":[],"categories_nodes":[],"categories_segments":[],"categories_sizes":[],"default_left":[0,0,0,0,0,0,0,0,0,0,0,0,0,0,0,0,0,0,0,0,0,0,0,0,0,0,0,0,0,0,0,0,0,0,0,0,0,0,0,0,0,0,0,0,0,0,0,0,0,0,0,0,0],"id":25,"left_children":[1,3,5,7,9,11,13,15,17,19,21,23,-1,25,27,29,31,33,35,37,39,41,43,45,-1,47,-1,49,51,-1,-1,-1,-1,-1,-1,-1,-1,-1,-1,-1,-1,-1,-1,-1,-1,-1,-1,-1,-1,-1,-1,-1,-1],"loss_changes":[1.7122637E1,4.3406E0,4.8611975E0,4.627331E0,6.3576517E0,1.3021574E0,2.8769307E0,3.5667295E0,5.1643314E0,4.6789427E0,2.741281E0,1.2037191E0,0E0,3.4087374E0,2.9300127E0,2.6249948E0,2.8866882E0,6.822579E0,3.637226E0,4.9041233E0,3.7274752E0,3.738692E0,1.7475054E0,1.1171627E-1,0E0,1.6038039E0,0E0,3.3610039E0,3.178399E0,0E0,0E0,0E0,0E0,0E0,0E0,0E0,0E0,0E0,0E0,0E0,0E0,0E0,0E0,0E0,0E0,0E0,0E0,0E0,0E0,0E0,0E0,0E0,0E0],"parents":[2147483647,0,0,1,1,2,2,3,3,4,4,5,5,6,6,7,7,8,8,9,9,10,10,11,11,13,13,14,14,15,15,16,16,17,17,18,18,19,19,20,20,21,21,22,22,23,23,25,25,27,27,28,28],"right_children":[2,4,6,8,10,12,14,16,18,20,22,24,-1,26,28,30,32,34,36,38,40,42,44,46,-1,48,-1,50,52,-1,-1,-1,-1,-1,-1,-1,-1,-1,-1,-1,-1,-1,-1,-1,-1,-1,-1,-1,-1,-1,-1,-1,-1],"split_conditions":[4.5885336E-1,3.6016235E-1,-2.1778436E0,9.905432E-1,1.6020319E-1,8.9695454E-1,-1.9789437E0,1.1603974E0,7.530989E-1,-1.05131775E-1,-8.2167E-1,1.5645759E0,1.7643911E-3,1.5891215E0,-8.6716986E-1,-1.141909E0,8.660972E-1,-3.52415E-2,1.188115E0,5.1678706E-2,5.1026687E-2,-1.4654398E0,-2.1740402E-1,1.0476568E0,-0E0,1.1350908E0,3.1441893E-2,-3.3160678E-1,-1.739094E0,-1.0922867E-2,-2.7333962E-4,-1.4200512E-2,1.5963075E-3,-6.759287E-3,1.5179189E-2,8.433977E-3,3.1936944E-2,1.7530447E-3,1.7005831E-2,2.983389E-3,2.330647E-2,1.9877948E-2,-1.3962352E-3,-1.2457868E-2,-1.2306065E-3,-1.222792E-2,-1.892076E-2,1.0537516E-2,-1.5315175E-2,-5.591011E-3,1.0644022E-2,6.5893815E-3,-6.9418605E-3],"split_indices":[31,1,1,5,47,47,1,29,29,20,41,33,0,3,41,2,0,30,32,9,48,44,5,3,0,5,0,22,24,0,0,0,0,0,0,0,0,0,0,0,0,0,0,0,0,0,0,0,0,0,0,0,0],"split_type":[0,0,0,0,0,0,0,0,0,0,0,0,0,0,0,0,0,0,0,0,0,0,0,0,0,0,0,0,0,0,0,0,0,0,0,0,0,0,0,0,0,0,0,0,0,0,0,0,0,0,0,0,0],"sum_hessian":[1.4934812E3,1.1170028E3,3.764784E2,4.9173203E2,6.252708E2,5.297331E1,3.235051E2,3.8507593E2,1.066561E2,4.989266E2,1.2634418E2,4.9257347E1,3.7159626E0,9.918404E0,3.135867E2,3.3658597E2,4.848997E1,6.1850525E1,4.4805573E1,8.14339E1,4.174927E2,7.357949E1,5.276469E1,4.481857E1,4.438779E0,6.5892706E0,3.329133E0,4.387173E1,2.6971497E2,2.13694E1,3.1521658E2,3.4478962E1,1.4011008E1,4.5247047E1,1.6603477E1,3.824564E1,6.559933E0,3.1309715E1,5.012418E1,4.101263E2,7.3664145E0,7.3456135E0,6.623387E1,3.0776102E1,2.1988586E1,1.5710564E1,2.9108004E1,3.3373606E0,3.25191E0,2.2962486E1,2.0909243E1,1.56473055E1,2.5406766E2],"tree_param":{"num_deleted":"0","num_feature":"54","num_nodes":"53","size_leaf_vector":"1"}},{"base_weights":[2.6433556E-3,3.4928435E-1,-9.551212E-2,2.5349227E-1,5.933415E-1,-9.622099E-3,-2.0919347E-1,5.6633204E-1,1.5492252E-1,7.2894305E-2,7.483066E-1,5.374856E-2,-1.24357164E-1,1.106702E-2,-2.4167249E-1,1.0191666E0,3.6738333E-1,1.94536E-1,-4.291603E-1,3.348161E-1,-1.3326597E-2,1.0733281E-1,8.253553E-1,1.7779545E-1,-5.2182045E-2,4.1237336E-1,-1.8446113E-1,-1.625022E-1,4.7975472E-1,-2.503323E-1,1.5487262E-2,4.1905284E-2,6.590547E-3,1.5356403E-2,-6.5252227E-3,-7.6193875E-3,7.5234994E-3,-6.4670044E-4,-1.7612876E-2,1.6804487E-2,-8.570938E-3,1.6790885E-2,-9.539312E-3,2.800245E-2,9.445128E-3,3.1192813E-3,1.5445942E-2,-5.501571E-3,3.0680227E-3,-1.2862614E-3,3.2746233E-2,2.6905518E-3,-8.106416E-3,-1.7913906E-2,-8.009055E-5,-4.921065E-3,2.2537744E-2,-9.005078E-3,-3.007574E-3],"categories":[],"categories_nodes":[],"categories_segments":[],"categories_sizes":[],"default_left":[0,0,0,0,0,0,0,0,0,0,0,0,0,0,0,0,0,0,0,0,0,0,0,0,0,0,0,0,0,0,0,0,0,0,0,0,0,0,0,0,0,0,0,0,0,0,0,0,0,0,0,0,0,0,0,0,0,0,0],"id":26,"left_children":[1,3,5,7,9,11,13,15,17,19,21,23,25,27,29,31,33,35,37,39,-1,41,43,45,47,49,51,53,55,57,-1,-1,-1,-1,-1,-1,-1,-1,-1,-1,-1,-1,-1,-1,-1,-1,-1,-1,-1,-1,-1,-1,-1,-1,-1,-1,-1,-1,-1],"loss_changes":[4.562269E1,6.683964E0,1.0171654E1,6.4568977E0,6.5073414E0,4.34969E0,3.2366695E0,4.062685E0,3.8727424E0,2.8679233E0,2.9404716E0,5.0717025E0,6.926056E0,4.8475037E0,2.6728687E0,3.9960756E0,3.2681985E0,3.9778986E0,6.0999656E-1,2.1559746E0,0E0,1.7553401E0,2.678875E0,4.3055625E0,4.234262E0,6.8290033E0,4.5665436E0,2.9319305E0,3.0044916E0,2.8317757E0,0E0,0E0,0E0,0E0,0E0,0E0,0E0,0E0,0E0,0E0,0E0,0E0,0E0,0E0,0E0,0E0,0E0,0E0,0E0,0E0,0E0,0E0,0E0,0E0,0E0,0E0,0E0,0E0,0E0],"parents":[2147483647,0,0,1,1,2,2,3,3,4,4,5,5,6,6,7,7,8,8,9,9,10,10,11,11,12,12,13,13,14,14,15,15,16,16,17,17,18,18,19,19,21,21,22,22,23,23,24,24,25,25,26,26,27,27,28,28,29,29],"right_children":[2,4,6,8,10,12,14,16,18,20,22,24,26,28,30,32,34,36,38,40,-1,42,44,46,48,50,52,54,56,58,-1,-1,-1,-1,-1,-1,-1,-1,-1,-1,-1,-1,-1,-1,-1,-1,-1,-1,-1,-1,-1,-1,-1,-1,-1,-1,-1,-1,-1],"split_conditions":[-8.0022544E-1,4.2829356E-1,3.4653747E-1,-6.714606E-1,3.636434E-1,3.413579E-1,-1.1901108E0,-6.6044474E-1,1.0124596E0,4.4650894E-2,-4.7310747E-2,-1.719345E-1,-1.2413077E0,1.6015605E0,9.753E-2,4.982511E-1,4.2712733E-1,-1.7743398E0,8.994943E-1,1.0898714E0,-1.3326597E-2,-2.430543E-1,6.697057E-1,1.9445571E-1,4.1271982E-1,3.410444E-1,-6.275932E-1,-2.6478829E-2,-1.329957E0,6.745549E-1,1.5487262E-2,4.1905284E-2,6.590547E-3,1.5356403E-2,-6.5252227E-3,-7.6193875E-3,7.5234994E-3,-6.4670044E-4,-1.7612876E-2,1.6804487E-2,-8.570938E-3,1.6790885E-2,-9.539312E-3,2.800245E-2,9.445128E-3,3.1192813E-3,1.5445942E-2,-5.501571E-3,3.0680227E-3,-1.2862614E-3,3.2746233E-2,2.6905518E-3,-8.106416E-3,-1.7913906E-2,-8.009055E-5,-4.921065E-3,2.2537744E-2,-9.005078E-3,-3.007574E-3],"split_indices":[0,31,0,33,4,33,25,49,7,4,16,3,27,11,48,9,25,14,2,24,0,14,42,14,3,49,25,48,2,26,0,0,0,0,0,0,0,0,0,0,0,0,0,0,0,0,0,0,0,0,0,0,0,0,0,0,0,0,0],"split_type":[0,0,0,0,0,0,0,0,0,0,0,0,0,0,0,0,0,0,0,0,0,0,0,0,0,0,0,0,0,0,0,0,0,0,0,0,0,0,0,0,0,0,0,0,0,0,0,0,0,0,0,0,0,0,0,0,0,0,0],"sum_hessian":[1.338143E3,2.9495496E2,1.043188E3,2.1357533E2,8.137963E1,5.953475E2,4.4784045E2,4.979054E1,1.6378479E2,1.9156979E1,6.222265E1,3.8330167E2,2.1204582E2,5.724009E1,3.9060037E2,1.3786096E1,3.600444E1,1.5416707E2,9.617727E0,1.3078528E1,6.078451E0,7.0729785E0,5.514967E1,1.7667603E2,2.0662563E2,2.0596205E1,1.9144962E2,4.2092052E1,1.5148039E1,3.8698044E2,3.619926E0,8.77059E0,5.015506E0,2.910891E1,6.895531E0,1.6589476E1,1.3757759E2,3.1801052E0,6.4376216E0,9.784003E0,3.2945247E0,3.3883011E0,3.6846774E0,4.467021E1,1.0479458E1,1.4625156E2,3.0424477E1,1.1196895E2,9.465668E1,1.2803561E1,7.792643E0,4.5327713E1,1.461219E2,1.0413444E1,3.167861E1,4.5015197E0,1.0646519E1,2.8925964E2,9.7720795E1],"tree_param":{"num_deleted":"0","num_feature":"54","num_nodes":"59","size_leaf_vector":"1"}},{"base_weights":[-1.3576E-3,-1.5562063E-1,1.7495759E-1,-9.860941E-2,-3.6846465E-1,5.581831E-1,1.4641288E-1,-1.9262786E-1,-3.6089107E-2,-8.841733E-2,-4.2353308E-1,-3.661529E-3,6.150866E-1,1.7455086E-1,-7.850852E-3,2.0180851E-1,-2.2053641E-1,-4.7255814E-2,2.3321109E-2,4.2262357E-1,-2.3602003E-1,-3.3752784E-1,-6.535115E-1,6.866784E-1,2.6939567E-3,2.3364604E-1,9.262391E-2,-4.6347573E-1,4.2119715E-2,-9.0769306E-4,2.7571574E-2,-9.144362E-3,-3.97143E-3,-1.744881E-3,2.0559102E-2,-4.58306E-3,2.758093E-2,-1.7471578E-2,1.5422951E-3,-5.1797787E-3,-1.4483244E-2,-2.2121193E-2,1.7061199E-3,2.294444E-2,2.7056327E-3,8.866281E-3,1.4407984E-3,1.2371716E-3,8.573956E-3,-0E0,-1.9463962E-2,4.2769904E-3,-6.7790262E-3],"categories":[],"categories_nodes":[],"categories_segments":[],"categories_sizes":[],"default_left":[0,0,0,0,0,0,0,0,0,0,0,0,0,0,0,0,0,0,0,0,0,0,0,0,0,0,0,0,0,0,0,0,0,0,0,0,0,0,0,0,0,0,0,0,0,0,0,0,0,0,0,0,0],"id":27,"left_children":[1,3,5,7,9,11,13,15,17,19,21,-1,23,25,27,29,31,33,-1,35,37,39,41,43,-1,45,47,49,51,-1,-1,-1,-1,-1,-1,-1,-1,-1,-1,-1,-1,-1,-1,-1,-1,-1,-1,-1,-1,-1,-1,-1,-1],"loss_changes":[4.710536E1,1.1129747E1,8.685602E0,4.2644525E0,2.9106293E0,2.2690716E0,3.2887497E0,3.248763E0,3.9664361E0,2.6096056E0,2.8838158E0,0E0,1.7948418E0,3.033905E0,2.7174566E0,3.363863E0,1.9396982E0,3.458734E0,0E0,2.4232435E0,2.7513704E0,2.7310057E0,2.653698E0,1.9402866E0,0E0,4.193243E0,2.6322129E0,9.875374E-1,2.8739057E0,0E0,0E0,0E0,0E0,0E0,0E0,0E0,0E0,0E0,0E0,0E0,0E0,0E0,0E0,0E0,0E0,0E0,0E0,0E0,0E0,0E0,0E0,0E0,0E0],"parents":[2147483647,0,0,1,1,2,2,3,3,4,4,5,5,6,6,7,7,8,8,9,9,10,10,12,12,13,13,14,14,15,15,16,16,17,17,19,19,20,20,21,21,22,22,23,23,25,25,26,26,27,27,28,28],"right_children":[2,4,6,8,10,12,14,16,18,20,22,-1,24,26,28,30,32,34,-1,36,38,40,42,44,-1,46,48,50,52,-1,-1,-1,-1,-1,-1,-1,-1,-1,-1,-1,-1,-1,-1,-1,-1,-1,-1,-1,-1,-1,-1,-1,-1],"split_conditions":[1.1844015E-1,1.1903535E0,-2.2994769E0,-5.362937E-1,-3.9309305E-1,-4.238901E-1,3.4854807E-2,-1.3132995E0,3.550577E0,2.3105349E-1,-1.15677886E-1,-3.661529E-3,9.0792507E-1,-6.0615075E-1,-1.3147491E0,6.028479E-1,-3.188606E-1,1.2828913E0,2.3321109E-2,-1.0217246E0,1.204081E0,-8.955867E-2,9.0792507E-1,2.1638844E0,2.6939567E-3,1.2351402E0,2.8163588E-1,-8.176086E-1,1.2688633E0,-9.0769306E-4,2.7571574E-2,-9.144362E-3,-3.97143E-3,-1.744881E-3,2.0559102E-2,-4.58306E-3,2.758093E-2,-1.7471578E-2,1.5422951E-3,-5.1797787E-3,-1.4483244E-2,-2.2121193E-2,1.7061199E-3,2.294444E-2,2.7056327E-3,8.866281E-3,1.4407984E-3,1.2371716E-3,8.573956E-3,-0E0,-1.9463962E-2,4.2769904E-3,-6.7790262E-3],"split_indices":[40,2,42,31,8,17,20,47,15,4,12,0,52,2,24,46,28,42,0,8,52,26,52,7,0,44,43,32,28,0,0,0,0,0,0,0,0,0,0,0,0,0,0,0,0,0,0,0,0,0,0,0,0],"split_type":[0,0,0,0,0,0,0,0,0,0,0,0,0,0,0,0,0,0,0,0,0,0,0,0,0,0,0,0,0,0,0,0,0,0,0,0,0,0,0,0,0,0,0,0,0,0,0,0,0,0,0,0,0],"sum_hessian":[1.7299535E3,9.230426E2,8.0691095E2,7.295598E2,1.9348277E2,5.4407524E1,7.525034E2,2.899103E2,4.3964954E2,3.252094E1,1.6096182E2,3.9759629E0,5.0431564E1,6.3685645E2,1.1564701E2,1.850875E1,2.7140155E2,4.347464E2,4.903112E0,6.7185917E0,2.580235E1,1.1926331E2,4.1698517E1,4.3944702E1,6.486862E0,3.6819745E2,2.6865897E2,1.0809911E1,1.048371E2,1.4602494E1,3.9062574E0,1.3691765E2,1.344839E2,4.2941016E2,5.336268E0,3.3404162E0,3.3781753E0,1.1393906E1,1.4408443E1,5.720623E1,6.205708E1,3.738763E1,4.3108854E0,3.8457226E1,5.487474E0,2.752737E2,9.292373E1,2.1357794E2,5.508103E1,3.4371672E0,7.3727436E0,7.687491E1,2.7962187E1],"tree_param":{"num_deleted":"0","num_feature":"54","num_nodes":"53","size_leaf_vector":"1"}},{"base_weights":[-9.860516E-3,-2.8973615E-1,2.2571506E-2,4.730697E-1,-3.3422124E-1,5.4888796E-2,-1.020822E-1,2.9608186E-2,-4.0777433E-3,-4.1655922E-1,-2.1715938E-1,-5.5105947E-3,1.2889433E-1,-2.1500282E-1,1.1233627E-1,-9.059844E-2,-4.6686065E-1,1.4479248E-2,-2.707086E-1,1.4209831E-1,-7.2162524E-2,5.055229E-1,1.0212828E-1,1.6371367E-2,-2.37012E-1,3.1381345E-1,-5.7153646E-2,6.7465734E-3,-1.2861851E-2,-1.5110346E-2,-2.1272295E-3,5.7528803E-5,-1.3765805E-2,-1.7438373E-2,5.001538E-3,-1.2222818E-2,-1.3887989E-3,2.0316288E-2,-9.5500785E-4,4.482596E-3,-4.1285803E-4,-1.0423905E-2,-2.1868467E-3,-2.109374E-3,1.590918E-2,-5.265058E-3,1.8368633E-2],"categories":[],"categories_nodes":[],"categories_segments":[],"categories_sizes":[],"default_left":[0,0,0,0,0,0,0,0,0,0,0,0,0,0,0,0,0,0,0,0,0,0,0,0,0,0,0,0,0,0,0,0,0,0,0,0,0,0,0,0,0,0,0,0,0,0,0],"id":28,"left_children":[1,3,5,7,9,11,13,-1,-1,15,17,19,21,23,25,27,29,-1,31,33,35,37,39,-1,41,43,45,-1,-1,-1,-1,-1,-1,-1,-1,-1,-1,-1,-1,-1,-1,-1,