tree
version=v4
num_class=3
num_tree_per_iteration=3
label_index=0
max_feature_idx=53
objective=multiclass num_class:3
feature_names=Column_0 Column_1 Column_2 Column_3 Column_4 Column_5 Column_6 Column_7 Column_8 Column_9 Column_10 Column_11 Column_12 Column_13 Column_14 Column_15 Column_16 Column_17 Column_18 Column_19 Column_20 Column_21 Column_22 Column_23 Column_24 Column_25 Column_26 Column_27 Column_28 Column_29 Column_30 Column_31 Column_32 Column_33 Column_34 Column_35 Column_36 Column_37 Column_38 Column_39 Column_40 Column_41 Column_42 Column_43 Column_44 Column_45 Column_46 Column_47 Column_48 Column_49 Column_50 Column_51 Column_52 Column_53
feature_infos=[-2.0709419250488281:2.4262125492095947] [-3.737877368927002:1.4954829216003418] [-1.639070987701416:3.1627817153930664] [-2.2587704658508301:3.6663758754730225] [-2.3248229026794434:3.6726336479187012] [-3.4221310615539551:3.648188591003418] [-1.9998983144760132:2.3832194805145264] [-2.0833480358123779:7.0713882446289062] [-2.2714822292327881:7.6051597595214844] [-2.0829863548278809:2.3394486904144287] [-2.1167738437652588:6.9851808547973633] [-2.2442207336425781:6.1197929382324219] [-2.358771800994873:2.0235762596130371] [-1.7687004804611206:2.6765060424804688] [-2.1151258945465088:4.7608857154846191] [-2.0331885814666748:6.4354453086853027] [-2.2283718585968018:6.8054108619689941] [-2.3285350799560547:4.7658052444458008] none none [-0.55046409368515015:7.5056991577148438] [-0.55514585971832275:7.6518330574035645] [-0.58684176206588745:11.89932918548584] [-0.63613927364349365:11.991615295410156] [-2.1424851417541504:1.5420069694519043] [-2.2738733291625977:1.5421762466430664] [-1.9965240955352783:2.0893919467926025] [-3.1629283428192139:6.1631627082824707] [-3.0903244018554688:3.1827354431152344] [-5.9052772521972656:5.9329929351806641] [-5.0349245071411133:5.9249873161315918] [-2.6198184490203857:3.6215724945068359] [-8.1598691940307617:9.8256168365478516] [-7.0756969451904297:8.0565948486328125] none none none none none none [-2.6046226024627686:2.0690500736236572] [-1.449228048324585:2.8335955142974854] [-3.1029980182647705:1.4489022493362427] [-4.2753329277038574:0.87984603643417358] [-7.0113058090209961:4.9887795448303223] none [-5.2706618309020996:4.5603089332580566] [-4.9624691009521484:5.3455967903137207] [-22.855236053466797:22.851772308349609] [-2.6254491806030273:2.7020792961120605] [-8.9356765747070312:8.8114805221557617] [-4.5062932968139648:4.9008798599243164] [-4.4845046997070312:4.2266035079956055] [-3.2925076484680176:3.7460410594940186]
tree_sizes=4643 5070 4439 4934 5489 3959 4382 4514 4916 5132 5679 4184 4830 5241 4597 4295 4402 3988 4723 4629 4734 4510 4204 4606 5366 4508 4050 4511 3576 4380 4190 5598 3978 4735 4423 5448 4619 4420 4416 5151 4743 4567 4271 3466 4402 4958 4399 4942 4387 3582 3949 4608 4097 4484 5466 3980 4472 4608 4096 4408 4293 4088 3858 4616 3528 4292 4729 3791 4313 4740 3858 3737 5159 3785 4710 4614 3462 4390 4725 3333 4177 4833 3131 4201 3981 3446 3671 4944 3351 4395 4293 3346 4606 4170 3862 3957 4203 3444 4312 4314 3120 4412 5291 3134 3845 4102 3045 4295 4410 2604 4840 4398 3247 4928 4736 3026 3767 4082 3568 4388 3750 2821 4299 4540 3041 4392 4720 2505 3983 4417 3038 3979 4521 2932 3999 3837 2598 3992 4157 2357 4088 4177 2701 4629 4824 2643 3136 3875 2591 3995 3981 2589 4090 4507 2815 3880 5053 3914 3521 4198 1948 3666 4206 2822 3124 4381 3564 3456 3884 2284 3352 4318 2538 4517 4635 4016 3891 5366 3211 4416 4523 1510 3885 4102 2681 3361 3542 2700 3888 3781 4095 4722 4099 2730 4115 3474 2574 4109 4169 1519 4296 3340 2600 3789 3894 1423 4214 4540 2595 3950 3660 2277 4873 4543 2164 5383 3030 1752 5805 3569 2176 3690 3674 1840 3567 3987 3890 3883 2944 3688 3033 3327 1321 4487 4531 1756 3107 2488 1324 4432 2719 1640 3793 3537 3988 4219 2567 1217 3274 2075 2384 4078 3442 3208 4415 1540 1216 4737 2613 2696 3250 1631 2910 4514 1636 1867 3359 2405 1527 4195 4554 1418 4643 1634 3883 3366 1543 1104 3641 1640 3122 4282 2180 1417 2625 1640 2178 4523 2607 1524 2300 3143 5393 2825

Tree=0
num_leaves=43
num_cat=0
split_feature=0 2 31 42 47 12 13 13 1 28 42 11 25 11 14 46 26 49 32 11 27 10 28 32 5 44 27 12 53 13 49 32 44 3 27 28 44 32 53 31 47 31
split_gain=341.906 69.5926 37.8137 19.7 7.80521 9.6717 7.16718 5.9659 5.94725 6.61258 5.77238 7.15767 5.76752 9.95858 5.73699 7.63875 6.16913 5.38935 5.34463 5.34438 5.32407 5.09798 4.72502 4.21918 3.82233 3.2894 3.50216 3.24619 2.9821 2.95345 5.37656 5.17913 2.67497 2.66668 2.50303 2.40306 2.28901 2.23145 1.75082 1.23804 1.96139 1.47761
threshold=0.2943416833877564 0.2172622233629227 0.74344226717948925 1.0000000180025095e-35 0.3879078626632691 -0.36236870288848871 -0.95374593138694752 0.86138007044792186 -0.42023766040801996 -0.18903420865535733 -2.1452889442443843 1.6032257080078127 0.87725853919982921 1.6032257080078127 -0.88907238841056813 0.26479441672563558 -1.0019260942935941 1.4973314404487612 0.15478201955556872 -0.94779852032661427 -1.0182263255119322 0.23456458747386935 -0.42427395284175867 -0.74020725488662709 -0.70512437820434559 1.671109199523926 0.52117669582366954 1.2201459407806399 -0.52401193976402272 1.0000000180025095e-35 -0.80059772729873646 -0.014662029221653937 1.8122866153717043 0.64286699891090404 0.2712955921888352 -0.72050178050994862 0.68286681175231945 0.24020039290189746 -0.85247755050659169 0.73343703150749218 0.16702072322368625 0.45252895355224615
decision_type=2 2 2 2 2 2 2 2 2 2 2 2 2 2 2 2 2 2 2 2 2 2 2 2 2 2 2 2 2 2 2 2 2 2 2 2 2 2 2 2 2 2
left_child=1 4 8 33 5 6 36 -8 25 19 -4 32 17 -14 18 34 -17 -11 23 -10 21 -7 -22 -5 -6 26 27 -2 -20 30 -26 -31 38 39 -16 -21 -1 -13 -12 41 -41 -3
right_child=2 3 10 14 24 20 7 -9 9 12 11 37 13 -15 15 16 -18 -19 28 35 22 -23 -24 -25 29 -27 -28 -29 -30 31 -32 -33 -34 -35 -36 -37 -38 -39 -40 40 -42 -43
leaf_value=-0.789014546325429 -0.78949006649550402 -0.82687627103189221 -0.76537280962200294 -0.80045424875057081 -0.82671581068097855 -0.80199366252113802 -0.80212846772213864 -0.77753760736845556 -0.80528234717086489 -0.80076049566485141 -0.78620210212944741 -0.80493116428699574 -0.78114797566334371 -0.81418966797344461 -0.82249677875875027 -0.78972929736946862 -0.81278238650721035 -0.78199590447462719 -0.78105417681957146 -0.76742487508084245 -0.79733833338445903 -0.77392824436955487 -0.80978809211031155 -0.81598415966211635 -0.80009416169558634 -0.80150875756800877 -0.76950221549890641 -0.77347616073248782 -0.80449485284915068 -0.81170624263522617 -0.81660031876918115 -0.79579960189690591 -0.79305482730176247 -0.81204438511734167 -0.81477757914560156 -0.78538687249910799 -0.76982592576163489 -0.78624219362180114 -0.77398877027889201 -0.81793572920710755 -0.83364909439897539 -0.81726172813439812
leaf_weight=28.195813655853271 59.730605244636536 98.314350247383118 47.487686157226562 20.404865145683289 10.016933798789976 19.662870049476627 88.29741644859314 8.9039411544799787 7.4199509620666495 132.81712222099304 17.436884760856628 10.01693379878998 43.035715579986572 9.2749387025833112 138.75308299064636 12.613916635513304 43.777710676193237 14.468904376029966 7.4199509620666531 12.984914183616636 32.647784233093262 7.4199509620666495 146.91502904891968 60.843597888946533 24.114840626716614 9.6459362506866437 15.581897020339964 15.210899472236632 10.758928894996641 35.244767069816589 61.214595437049866 36.357759714126587 9.6459362506866437 12.984914183616636 65.295568466186523 23.372845530509949 7.790948510169982 11.129926443099974 161.01293587684631 12.613916635513304 63.440580725669861 26.340825915336609
leaf_count=76 161 265 128 55 27 53 238 24 20 358 47 27 116 25 374 34 118 39 20 35 88 20 396 164 65 26 42 41 29 95 165 98 26 35 176 63 21 30 434 34 171 71
internal_value=-0.802194 -0.812278 -0.784058 -0.819426 -0.804163 -0.801558 -0.795276 -0.799617 -0.790636 -0.793258 -0.775346 -0.777788 -0.79566 -0.787178 -0.815062 -0.817414 -0.807446 -0.798773 -0.808782 -0.782767 -0.805607 -0.793465 -0.807494 -0.812074 -0.809456 -0.784447 -0.782689 -0.785865 -0.79448 -0.808187 -0.81193 -0.803611 -0.775923 -0.826667 -0.820115 -0.778133 -0.784016 -0.794954 -0.77507 -0.827545 -0.83132 -0.825005
internal_weight=1680.62 1080.34 600.274 573.562 506.783 339.834 133.188 97.2014 343.544 243.374 256.73 209.243 199.597 52.3107 359.868 260.44 56.3916 147.286 99.4273 43.7777 206.646 27.0828 179.563 81.2485 166.949 100.169 90.5234 74.9415 18.1789 156.932 85.3294 71.6025 188.096 213.695 204.049 36.3578 35.9868 21.1469 178.45 200.71 76.0545 124.655
internal_count=4530 2912 1618 1546 1366 916 359 262 926 656 692 564 538 141 970 702 152 397 268 118 557 73 484 219 450 270 244 202 49 423 230 193 507 576 550 98 97 57 481 541 205 336
is_linear=0
shrinkage=1


Tree=1
num_leaves=48
num_cat=0
split_feature=1 31 12 27 43 14 32 4 17 43 8 49 50 4 32 20 27 47 28 25 1 11 31 15 32 12 5 43 15 29 4 4 48 17 17 33 29 0 30 29 21 15 51 47 4 4 32
split_gain=57.047 10.9409 6.52661 6.31684 6.2878 6.23722 6.07039 6.96102 6.30262 7.31432 6.06038 5.75117 5.65924 6.04435 5.39893 7.02348 5.04383 4.69362 6.21679 4.48901 4.30818 4.79629 7.23123 4.30467 4.17887 5.39417 5.43303 3.95351 3.7535 3.84853 3.54959 6.05763 3.52265 3.51517 3.38839 3.2195 3.04633 4.29742 4.13982 2.72081 2.39727 2.18511 1.59955 1.33047 1.29235 0.959579 0.761392
threshold=0.21643670648336413 0.74344226717948925 1.0000000180025095e-35 -1.0182263255119322 0.51307296752929699 0.64876109361648571 -0.13078401237726209 -0.068773932754993425 -0.66243991255760182 0.83003303408622753 -0.78998589515686024 -0.040098803117871278 0.34588291496038442 0.062902867794036879 0.67442399263381969 -0.29413163661956782 0.63551086187362682 -0.92514345049858082 0.42955920100212103 0.31908352673053747 -2.2362369298934932 1.6032257080078127 1.3795098662376406 2.084891796112061 0.27458724379539495 -0.56931287050247181 -0.39531213045120234 0.77764052152633678 -0.090384455397725091 0.90172803401947033 -1.0338976979255674 -0.52351436018943776 -0.33781203627586359 -0.3802786916494369 0.27809767425060278 0.30901917815208441 1.6909460425376894 -0.097997985780239091 -0.15278185717761514 -0.87401247024536122 -0.44424071907997126 0.60703235864639293 -1.0000000180025095e-35 -1.7964203953742979 -0.56795740127563465 -0.6490710675716399 0.76646563410758983
decision_type=2 2 2 2 2 2 2 2 2 2 2 2 2 2 2 2 2 2 2 2 2 2 2 2 2 2 2 2 2 2 2 2 2 2 2 2 2 2 2 2 2 2 2 2 2 2 2
left_child=1 5 4 33 24 23 8 11 9 -6 -9 -8 14 27 15 -5 -15 30 34 -16 43 36 -23 28 25 26 -2 -14 29 -1 -7 -32 -10 -4 -19 45 37 -22 -38 -27 -30 -20 44 -3 -35 -26 -45
right_child=2 20 3 12 6 17 7 10 32 -11 -12 -13 13 16 19 -17 -18 18 41 -21 21 22 -24 -25 35 39 -28 -29 40 -31 31 -33 -34 42 -36 -37 38 -39 -40 -41 -42 -43 -44 46 -46 -47 -48
leaf_value=-1.4159958627955893 -1.4207324266028429 -1.422479341000745 -1.4003093559172046 -1.3854483802089108 -1.4132163634627843 -1.3814415865300553 -1.4097987104873302 -1.4340371437609383 -1.4026771583830442 -1.3864324314935952 -1.4104799939267865 -1.3970838545446476 -1.4098158291781968 -1.4272852426751388 -1.4272481062790434 -1.4025370552597485 -1.399377447408422 -1.4155651488314909 -1.4185414640555583 -1.3985713622973857 -1.4213214081444421 -1.4249836713136699 -1.3853718727948032 -1.3967948772128229 -1.4251834908757595 -1.4087990119228113 -1.3975995136789998 -1.3809546724363977 -1.4143420890297109 -1.4289305613837091 -1.4291741863236169 -1.3912279533259624 -1.4191912888485803 -1.4255639427790106 -1.3930163659882078 -1.4100394100326399 -1.3985713622973857 -1.431234653761386 -1.4241634571522861 -1.4307611508209674 -1.4285796918703531 -1.4386540097937042 -1.4332091390256148 -1.439285454373896 -1.4074578745868307 -1.4394358241488612 -1.4242432359356074
leaf_weight=112.79892909526825 14.616976141929625 8.2737600803375226 6.0674240589141872 28.682368278503418 28.130784273147583 6.3432160615921047 58.743696570396423 10.480096101760862 11.85905611515045 12.96222412586212 66.74166464805603 75.291216731071472 13.789600133895876 23.718112230300907 11.307472109794618 100.38828897476196 6.6190080642700186 12.686432123184206 11.859056115150453 7.1705920696258536 64.811120629310608 9.65272009372711 5.7916320562362662 5.5158400535583487 11.583264112472538 6.0674240589141872 21.235984206199646 5.7916320562362662 11.85905611515045 24.545488238334656 6.0674240589141855 7.1705920696258518 116.93580913543701 6.3432160615921047 9.9285120964050275 6.3432160615921012 7.1705920696258572 112.24734508991241 17.650688171386719 17.926480174064636 71.430128693580627 8.2737600803375226 9.376928091049189 34.198208332061768 5.7916320562362698 11.307472109794617 5.7916320562362662
leaf_count=409 53 30 22 104 102 23 213 38 43 47 242 273 50 86 41 364 24 46 43 26 235 35 21 20 42 22 77 21 43 89 22 26 424 23 36 23 26 407 64 65 259 30 34 124 21 41 21
internal_value=-1.41541 -1.42259 -1.40969 -1.40549 -1.41173 -1.41851 -1.41005 -1.40666 -1.4143 -1.40421 -1.41391 -1.40255 -1.40362 -1.4125 -1.40067 -1.39852 -1.42078 -1.41019 -1.41578 -1.41567 -1.42697 -1.42506 -1.40939 -1.42083 -1.41885 -1.41432 -1.407 -1.39987 -1.42152 -1.41841 -1.39842 -1.40858 -1.41756 -1.41875 -1.40526 -1.42795 -1.4263 -1.42768 -1.41629 -1.42505 -1.42653 -1.42766 -1.42453 -1.43514 -1.41675 -1.43306 -1.43745
internal_weight=1249.34 554.066 695.272 225.046 470.225 288.478 381.145 211.257 169.888 41.093 77.2218 134.035 197.467 49.9184 147.549 129.071 30.3371 62.329 42.7478 18.4781 265.588 217.324 15.4444 226.149 89.0808 59.8469 35.853 19.5812 220.634 137.344 19.5812 13.238 128.795 27.5792 22.6149 29.234 201.88 177.058 24.8213 23.9939 83.2892 20.1328 21.5118 48.2636 12.1348 22.8907 39.9898
internal_count=4530 2009 2521 816 1705 1046 1382 766 616 149 280 486 716 181 535 468 110 226 155 67 963 788 56 820 323 217 130 71 800 498 71 48 467 100 82 106 732 642 90 87 302 73 78 175 44 83 145
is_linear=0
shrinkage=1


Tree=2
num_leaves=42
num_cat=0
split_feature=0 41 2 33 22 28 1 33 28 30 50 26 12 41 46 25 40 49 46 15 43 25 26 53 0 2 42 31 40 24 41 13 51 47 27 22 10 5 16 33 13
split_gain=339.943 56.3459 44.654 9.74819 7.97396 7.78701 6.8684 6.81498 8.51413 8.32498 6.68328 6.38448 7.37071 6.07815 6.26782 6.46053 5.74527 5.74296 5.17783 5.1411 5.0466 4.775 4.75806 4.23015 4.0722 10.6328 3.97566 3.90819 3.61939 2.63025 2.57214 3.41855 4.58042 2.8836 3.36751 2.56688 2.00923 1.97873 1.46421 0.805946 0.0543212
threshold=-0.5903942584991454 0.014951732475310566 1.4141932725906374 1.4368134737014773 -0.44165371358394617 0.42955920100212103 0.44229559600353247 -0.39652942121028895 1.0000000180025095e-35 -0.60114187002181996 -1.0820493102073667 -0.8382398486137389 0.13673200830817225 -0.76955491304397572 0.44192902743816381 0.46277946233749395 1.4884393215179446 1.1751715540885928 0.26479441672563558 2.2011281251907353 0.2827871441841126 -0.69293847680091847 -1.3757790923118589 -1.2904316782951353 -1.4358652830123899 1.5967033505439761 0.19636955857276919 0.16135564446449283 -0.11276003345847128 1.3577824234962466 0.47924244403839117 -0.62035542726516713 -1.5572194457054136 -1.4773612618446348 0.16365503519773486 0.71985065937042247 1.3723090291023257 1.8016824722290041 -0.40760962665081019 0.76664239168167125 -0.43513849377632136
decision_type=2 2 2 2 2 2 2 2 2 2 2 2 2 2 2 2 2 2 2 2 2 2 2 2 2 2 2 2 2 2 2 2 2 2 2 2 2 2 2 2 2
left_child=2 3 4 13 7 28 11 8 29 -9 27 12 -6 14 15 -2 30 -16 22 24 -15 -11 -8 -22 36 -26 -13 -4 -5 -1 31 32 -3 34 -32 -33 -12 -35 -20 -18 -41
right_child=1 16 10 5 6 -7 18 9 -10 21 19 26 -14 20 17 -17 39 -19 38 -21 23 -23 -24 -25 25 -27 -28 -29 -30 -31 33 35 -34 37 -36 -37 -38 -39 -40 40 -42
leaf_value=-1.1326775732553029 -1.1770476289329117 -1.1578176265191715 -1.1495266492177358 -1.1558246933154297 -1.182528321204382 -1.1345130430787422 -1.1483337991079339 -1.1399126943863944 -1.1752746343018821 -1.1489765567820065 -1.1345206102579655 -1.1598476239875823 -1.1469988349470701 -1.1618527574085418 -1.1879064439289624 -1.1664157344464527 -1.1999220881597181 -1.1634605985216608 -1.1764612932715148 -1.169823685731175 -1.1941521852880943 -1.168793629689417 -1.1713584872744185 -1.1816291679551751 -1.143066564112587 -1.1777951094793826 -1.1322350985470266 -1.1254963890233793 -1.1832948250654398 -1.1577590248478349 -1.1735848896075181 -1.1927930894506011 -1.1837125154809989 -1.1942328575340591 -1.1952318781177595 -1.1786181834935303 -1.1481227774175233 -1.179719516804381 -1.1962009623335723 -1.1833787763795705 -1.1924714669030363
leaf_weight=23.373218238353733 165.53361409902573 6.7238025069236746 12.166880726814268 6.4036214351654062 13.127423942089083 6.7238025069236746 8.6448889374732953 14.40814822912216 6.4036214351654044 13.127423942089079 48.66752290725708 11.846699655056002 7.3641646504402152 9.6054321527481061 55.391325414180756 73.32146543264389 89.970881164073944 9.2852510809898359 6.7238025069236755 7.6843457221984854 26.895210027694702 56.992230772972107 56.031687557697296 238.85507953166962 27.535572171211243 10.565975368022917 10.245794296264647 38.741909682750702 9.2852510809898376 7.3641646504402152 15.688872516155245 58.593136131763458 28.816296458244324 185.38484054803848 9.6054321527481061 15.688872516155241 26.895210027694702 10.245794296264647 7.043983578681944 6.4036214351654053 7.043983578681944
leaf_count=73 517 21 38 20 41 21 27 45 20 41 152 37 23 30 173 229 281 29 21 24 84 178 175 746 86 33 32 121 29 23 49 183 90 579 30 49 84 32 22 20 22
internal_value=-1.17496 -1.18416 -1.15205 -1.1782 -1.16046 -1.15923 -1.16607 -1.15502 -1.14423 -1.1601 -1.14038 -1.1565 -1.16919 -1.17896 -1.17602 -1.17377 -1.19238 -1.18423 -1.17148 -1.14484 -1.18218 -1.16473 -1.16788 -1.18297 -1.14324 -1.1526 -1.14562 -1.13058 -1.17179 -1.13786 -1.19033 -1.18629 -1.1784 -1.19227 -1.18215 -1.18993 -1.13891 -1.19352 -1.18752 -1.19871 -1.18923
internal_weight=1450.42 1035.47 414.955 601.3 242.697 22.4127 121.028 121.669 37.141 84.5278 172.257 42.5841 20.4916 578.887 303.532 238.855 434.166 64.6766 78.4444 121.349 275.356 70.1197 64.6766 265.75 113.664 38.1015 22.0925 50.9088 15.6889 30.7374 330.747 109.822 35.5401 220.925 25.2943 74.282 75.5627 195.631 13.7678 103.418 13.4476
internal_count=4530 3234 1296 1878 758 70 378 380 116 264 538 133 64 1808 948 746 1356 202 245 379 860 219 202 830 355 119 69 159 49 96 1033 343 111 690 79 232 236 611 43 323 42
is_linear=0
shrinkage=1


Tree=3
num_leaves=45
num_cat=0
split_feature=0 2 31 0 47 12 13 13 32 3 1 32 32 42 11 27 26 12 15 28 31 24 32 4 8 3 1 52 24 47 16 32 32 42 15 44 32 23 16 14 17 30 3 31
split_gain=320.198 65.5322 35.1274 18.7162 7.4701 9.30923 6.90908 5.72686 5.68808 5.85308 5.81979 5.54015 6.69428 5.3856 6.68677 5.11117 4.76659 5.79577 4.53753 4.49626 4.27226 4.1003 3.81587 3.68724 3.44218 5.28212 2.77029 2.51042 3.56164 3.15068 2.41392 4.55646 9.00376 3.6637 2.6568 2.18017 2.14539 1.77997 4.68539 3.78119 1.40266 1.67442 0.560491 0.317776
threshold=0.2943416833877564 0.2172622233629227 0.74344226717948925 -1.1724820137023924 0.3879078626632691 -0.36236870288848871 -0.95374593138694752 0.86138007044792186 -1.3754578232765196 -0.71681037545204151 0.10767243057489397 0.55982312560081493 -0.17051154375076291 -2.1452889442443843 1.6032257080078127 -1.4883028864860532 -0.54585221409797657 -1.0440672636032102 1.0000000180025095e-35 0.1507565472275019 -0.017577894032001492 -0.61605256795883168 0.0099462592042982596 0.96749341487884533 -0.78998589515686024 -0.13733017444610593 0.74977484345436107 0.69004240632057201 0.18125701695680621 0.056577155366539962 -0.28505829721689219 -0.50313138961791981 -0.72416329383850087 0.58529189229011547 -0.1900154650211334 0.68286681175231945 0.24020039290189746 1.0000000180025095e-35 0.45024967193603521 0.058907108381390579 -1.0923999547958372 1.3915693759918215 0.42251735925674444 -0.37478542327880854
decision_type=2 2 2 2 2 2 2 2 2 2 2 2 2 2 2 2 2 2 2 2 2 2 2 2 2 2 2 2 2 2 2 2 2 2 2 2 2 2 2 2 2 2 2 2
left_child=1 4 8 37 5 6 35 -8 20 11 22 12 -10 -4 27 -7 17 23 -19 -17 -2 -12 -11 -5 25 -18 -26 29 -29 -15 34 32 -32 -33 -6 -1 -16 38 39 -3 42 -42 -39 -40
right_child=2 3 13 16 30 15 7 -9 9 10 21 -13 -14 14 36 19 24 18 -20 -21 -22 -23 -24 -25 26 -27 -28 28 -30 -31 31 33 -34 -35 -36 -37 -38 40 43 -41 41 -43 -44 -45
leaf_value=0.012953566902508784 -0.015834514886117923 -0.017028647698674845 0.035499590685239758 -0.0023385305723474365 0.015422482855099498 0.013911417332330769 6.865674595241716e-05 0.024138548191269444 0.018298768577645265 0.024852204350266808 0.020553986756015948 0.019622902302940479 -0.01011481948919994 0.024253750138937737 -0.0028221163382038767 5.7863648436665621e-05 0.012300500293453497 -0.0031549743186864957 -0.016676088448119186 -0.0090441686052236906 0.0094955939016342361 0.0046276147334477534 0.014295977054486514 0.01997076305041675 -0.020280098500809921 -0.013719785029615595 -0.012171894222755966 0.023621691247793553 0.0049644005946058211 0.035882329064011703 -0.014387343403708105 -0.00057344338670697859 0.020846036556652556 -0.013141138909018243 -0.0078652842222544529 0.031684104719532591 0.015482535429360492 -0.031678376130548962 -0.016785504279421163 0.0039649373892439539 -0.025818759079952597 -0.015448821975831519 -0.016867736883990785 -0.030472542370976283
leaf_weight=28.226674348115921 11.137898653745653 63.58138707280159 47.733485966920853 23.331438302993778 7.7857608497142792 13.369766652584074 88.294977933168411 8.9261097908020002 8.9171756207942945 45.373752564191818 17.462173908948898 11.889467447996138 28.971018195152283 105.40684512257576 10.021424531936647 94.205491006374359 9.6272016465663928 40.368532598018646 52.548940718173981 98.980481088161469 10.783078730106352 77.990972816944122 131.61870458722115 8.152485638856886 88.06494528055191 19.625355094671249 84.021097123622894 32.76752644777298 14.147912055253981 36.509306281805038 11.858845710754396 27.067444324493408 12.2288301885128 100.05687370896339 7.7888214886188489 7.8156858384609214 11.155508339405058 47.617598921060562 7.390916794538497 8.1329377889633161 51.718445986509323 30.653397768735886 7.3953192234039298 29.555561870336533
leaf_count=76 30 172 128 63 21 36 238 24 24 122 47 32 78 283 27 254 26 109 142 267 29 210 354 22 238 53 227 88 38 98 32 73 33 270 21 21 30 129 20 22 140 83 20 80
internal_value=0 -0.00978189 0.0175124 -0.0167346 -0.00191123 0.000636149 0.00679738 0.00253237 0.0111732 0.0121794 0.0139056 0.00258479 -0.00305181 0.0258893 0.0235328 -0.00333803 -0.0119361 -0.00718191 -0.0109298 -0.00461275 -0.00337291 0.00775518 0.0171434 0.00378287 -0.0148087 -0.00493365 -0.0164318 0.0253305 0.018279 0.0274964 -0.00709212 -0.00825384 0.00349829 -0.010514 0.00382342 0.0178419 0.00694841 -0.0230012 -0.0195008 -0.0145848 -0.0255871 -0.0222273 -0.0300776 -0.0283281
internal_weight=1680.28 1078.39 601.886 571.786 506.606 339.819 133.263 97.2211 344.144 322.223 272.446 49.7777 37.8882 257.742 210.009 206.556 325.74 124.401 92.9175 193.186 21.921 95.4531 176.992 31.4839 201.339 29.2526 172.086 188.832 46.9154 141.916 166.787 151.212 24.0877 127.124 15.5746 36.0424 21.1769 246.046 108.661 71.7143 137.385 82.3718 55.0129 36.9465
internal_count=4530 2912 1618 1546 1366 916 359 262 926 867 733 134 102 692 564 557 880 336 251 521 59 257 476 85 544 79 465 507 126 381 450 408 65 343 42 97 57 666 294 194 372 223 149 100
is_linear=0
shrinkage=0.03


Tree=4
num_leaves=50
num_cat=0
split_feature=1 31 12 42 46 14 27 50 42 32 33 2 7 43 46 25 46 28 25 25 1 11 31 14 24 46 33 46 31 27 4 4 25 12 11 23 31 14 29 0 0 7 22 17 24 27 4 4 50
split_gain=53.9272 10.4645 6.13287 7.26125 6.29372 6.01207 5.9481 5.3305 5.82901 5.07307 5.13521 4.97591 4.86845 5.13369 4.60776 4.33441 4.30993 6.41061 4.26329 5.87949 4.19641 4.5885 6.86958 4.12208 5.23389 4.54709 4.10781 7.56936 4.01164 3.98649 3.94664 3.71554 3.46101 4.5255 5.00842 3.3336 3.17716 5.64081 2.9929 4.09331 3.80354 2.85231 2.77074 2.65109 2.15668 1.84634 0.980442 0.943106 0.866272
threshold=0.21643670648336413 0.74344226717948925 1.0000000180025095e-35 0.69196790456771862 0.16146589070558551 0.64876109361648571 -1.0182263255119322 0.34588291496038442 0.95419153571128856 0.67442399263381969 0.19277295470237735 -0.18512162566184995 1.0000000180025095e-35 0.73718908429145824 0.53049632906913768 0.31908352673053747 0.44192902743816381 0.51668503880500805 0.31908352673053747 0.87725853919982921 -2.2362369298934932 1.6032257080078127 1.3795098662376406 -1.25562447309494 0.55508950352668773 -1.2408497929573057 0.26094248890876776 0.087659798562526717 0.3855594545602799 0.049854505807161338 -0.51170146465301503 0.37375129759311682 0.42461887001991278 1.2201459407806399 1.0000000180025095e-35 -0.20564766414463517 -0.036037866026163094 -0.75003540515899647 1.6909460425376894 -0.097997985780239091 1.6735192537307741 -1.1170147657394407 -0.15127761429175732 0.94991022348403942 0.55508950352668773 -0.16887654364109037 -0.66024169325828541 -1.056272506713867 1.0000000180025095e-35
decision_type=2 2 2 2 2 2 2 2 2 2 2 2 2 2 2 2 2 2 2 2 2 2 2 2 2 2 2 2 2 2 2 2 2 2 2 2 2 2 2 2 2 2 2 2 2 2 2 2 2
left_child=1 5 3 16 23 18 12 9 30 10 -8 -6 13 -4 -13 -11 26 35 36 28 44 38 -23 24 -5 -25 29 -28 -20 -2 -9 -10 33 34 -7 -18 37 -1 39 -22 -40 -21 -34 -38 47 -19 -44 -3 -14
right_child=2 20 6 4 11 32 7 8 31 15 -12 14 48 -15 -16 -17 17 45 19 41 21 22 -24 25 -26 -27 27 -29 -30 -31 -32 -33 42 -35 -36 -37 43 -39 40 -41 -42 -43 46 -45 -46 -47 -48 -49 -50
leaf_value=-0.015285307069624875 -0.002243449734423841 -0.010432710365486274 0.02773204550475436 -0.011316627311196195 0.018220847959283866 0.0053925288440125792 0.021491783059796866 0.012079082982506251 0.032697016062328714 -0.011736267048043465 0.0091053838429383405 -0.011059528679448883 -0.022482414093337132 -0.0075536002055175255 0.0039907562900268262 0.016394884597086393 0.019872427291044967 0.00010946419386503544 0.016342245419117604 -0.022766818455670572 -0.0058305332776985375 -0.0094554647752211705 0.029004078985773861 0.026713724159298926 0.014606702940117226 0.0096250434162485944 -0.0029296099876692269 0.023219887856919554 -0.0060766123234829274 -0.014828379467743794 -0.0092992636541861032 0.0012350470054174052 0.0066602641399354963 -0.0080986621757790905 0.029654358386743171 -0.0014048608209017198 -0.012959735100822699 0.0051464658204493589 -0.0077815813692967009 -0.015539494325181391 0.017547035272252001 -0.0029782855576356514 -0.0034311414011374249 0.0048712567311143809 -0.0024751869140863677 -0.021904210140793592 -0.022028221813976307 -0.024455385067326325 -0.0063512745335292343
leaf_weight=17.87455677986145 63.485037177801132 8.4354605376720411 6.0784136354923266 16.834671288728718 10.261956244707106 20.463683873414993 74.424944251775742 9.718231648206709 6.9881670176982862 11.261820316314699 56.032153397798538 34.035825192928314 6.5850515961647016 6.9108774363994598 37.172753036022186 7.2360873818397513 23.476622879505154 6.6527977883815765 23.412048250436783 7.1463357210159293 64.652450710535049 9.6102581322193128 5.8944870233535758 15.235553920269011 10.526351898908613 152.59157994389534 39.803516328334808 12.158408313989638 9.326822876930235 35.250545680522919 27.016964972019196 6.3524317145347595 9.6757780313491839 8.8067469000816327 12.23577445745468 8.5647349059581774 88.459667384624481 33.034415364265442 18.363922894001011 110.85210856795311 6.3536172807216635 38.736124038696289 5.5057010650634766 7.4271209537982932 6.5364417135715476 5.5170339047908765 5.7685467600822431 32.568357557058334 7.9635463058948517
leaf_count=65 230 31 22 61 37 74 267 35 25 41 201 123 24 25 134 26 85 24 85 26 235 35 21 55 38 551 144 44 34 128 98 23 35 32 44 31 322 120 67 407 23 141 20 27 24 20 21 120 29
internal_value=0 -0.00700858 0.00553427 0.00356242 0.00667954 -0.00302479 0.00959148 0.0113964 0.00278408 0.0142339 0.0163043 -0.000290275 -0.00329096 0.00954611 -0.00321488 -0.000301483 -0.000858295 0.00725617 -0.00531005 0.000293689 -0.0113254 -0.00944008 0.00585549 0.00959065 -0.00107423 0.0113432 -0.00329081 0.00345528 0.00987572 -0.00687022 -0.00339393 0.0190557 0.00512957 0.0100884 0.0151706 0.0142238 -0.00831329 -0.00212577 -0.0106627 -0.0120332 -0.000725099 -0.00654427 -0.00457027 -0.0115116 -0.0194482 -0.0105478 -0.0142103 -0.0219591 -0.0148219
internal_weight=1249.28 551.14 698.136 471.567 276.659 287.873 226.569 199.031 50.0758 148.955 130.457 81.4705 27.5379 12.9893 71.2086 18.4979 194.909 44.2112 225.417 78.6213 263.267 215.727 15.5047 195.188 27.361 167.827 150.698 51.9619 32.7389 98.7356 36.7352 13.3406 62.4562 41.5062 32.6995 32.0414 146.796 50.909 200.222 175.505 24.7175 45.8825 20.95 95.8868 47.5403 12.1698 11.2742 41.0038 14.5486
internal_count=4530 2009 2521 1705 999 1046 816 716 181 535 468 294 100 47 257 67 706 160 820 286 963 788 56 705 99 606 546 188 119 358 133 48 226 150 118 116 534 185 732 642 90 167 76 349 175 44 41 151 53
is_linear=0
shrinkage=0.03


Tree=5
num_leaves=36
num_cat=0
split_feature=0 41 0 33 46 28 41 46 25 40 49 47 53 42 33 16 5 22 42 31 31 40 32 31 15 14 40 41 25 50 33 6 14 10 31
split_gain=317.581 53.7563 39.9496 9.33066 8.64788 7.34453 5.76356 6.0066 6.16162 5.59262 5.53988 4.93522 4.72466 4.53672 4.95748 7.93068 4.43361 4.1809 4.12853 7.38087 3.64924 3.47294 3.15812 2.93709 4.15078 2.84705 2.79763 2.13141 1.465 1.34629 0.803087 0.938601 0.794873 0.750696 0.417165
threshold=-0.5903942584991454 0.014951732475310566 -1.4358652830123899 1.4368134737014773 0.44192902743816381 0.42955920100212103 -0.76955491304397572 0.44192902743816381 0.46277946233749395 1.4884393215179446 1.1751715540885928 -0.10295243933796881 -1.2904316782951353 0.22921392321586612 -0.076749939471483217 -0.40760962665081019 -1.1816114187240598 0.42947457730770117 1.1036490797996523 -1.4336293339729307 -0.56806665658950795 -0.11276003345847128 -2.2807579040527339 0.16135564446449283 0.60703235864639293 -1.1545066833496092 -1.6658705472946165 0.47924244403839117 1.0310983061790469 -1.0820493102073667 0.76664239168167125 1.3117906451225283 1.0000000180025095e-35 0.36098060011863714 -0.29457384347915644
decision_type=2 2 2 2 2 2 2 2 2 2 2 2 2 2 2 2 2 2 2 2 2 2 2 2 2 2 2 2 2 2 2 2 2 2 2
left_child=2 3 11 6 13 21 7 8 -2 22 -9 26 28 14 15 -4 -16 -14 19 -15 -6 -5 -3 24 34 -24 -1 -27 -8 32 -11 -32 -25 -31 -13
right_child=1 9 4 5 20 -7 12 10 -10 30 -12 23 17 18 16 -17 -18 -19 -20 -21 -22 -23 25 29 -26 27 -28 -29 -30 33 31 -33 -34 -35 -36
leaf_value=0.0050793739460041074 -0.0020522257656068583 0.0013067834631452075 0.0098013908225550311 0.018658961951415448 -0.013667197525003614 0.039134107033777898 -0.023846741294787206 -0.012735798119438793 0.0083182264539717037 -0.024561690847869699 0.011239760650773095 0.047059944734683924 -0.0072368952481762922 -0.016662760704555111 0.0060163549552807814 0.037601693058894825 0.023837579281559027 0.0040047426686293883 0.031497154888463962 0.014131671708811085 0.0092084068877380052 -0.0082113640554458567 0.0019650852861611348 0.053358001653904551 0.01296028355624077 -0.012073216332325904 0.031197272682633066 -0.017814572561185529 -0.0072996996009466941 0.047026908028144937 -0.0039574137488276716 -0.020947207097939777 0.030855040727965324 0.031528059504111777 0.026865632022548078
leaf_weight=8.473284035921095 165.42783266305923 9.8407242894172651 14.268492698669432 6.4532412588596353 10.896208614110948 6.8334289193153372 17.770888239145279 55.093374907970428 73.601513206958771 88.617009967565536 9.3276368975639325 7.1886703968048122 214.12948825955391 6.4328445494174948 25.276864230632782 33.471719235181808 27.202994227409363 33.539126247167587 11.303691893815992 155.60517182946205 12.225347638130186 9.257124662399292 7.6389373838901511 24.639116525650024 12.380676031112669 101.44614979624748 6.8584922552108756 208.74253395199776 8.8819217085838336 11.113894850015638 6.340576767921446 6.9676416516304016 7.8799954354763022 34.89148086309433 10.126791685819628
leaf_count=26 517 31 44 20 34 21 56 173 229 281 29 22 671 20 78 103 84 105 35 482 38 29 24 75 38 319 21 659 28 34 20 22 24 107 31
internal_value=0 -0.00896733 0.0219485 -0.00315345 0.0158699 0.0153501 -0.00390589 -0.00103895 0.00114988 -0.0170585 -0.00909973 0.0362763 -0.00705106 0.0173549 0.0225768 0.0297259 0.0155831 -0.00569251 0.0142064 0.012796 -0.00156721 0.00310255 -0.0150279 0.0386284 0.0281372 -0.0155456 0.0181414 -0.0159914 -0.0189044 0.0421545 -0.023348 -0.0139046 0.0490778 0.0362569 0.0375249
internal_weight=1450.14 1029.91 420.236 600.316 296.683 22.5438 577.772 303.45 239.029 429.594 64.421 123.552 274.321 273.562 100.22 47.7402 52.4799 247.669 173.342 162.038 23.1216 15.7104 327.668 108.221 29.6961 317.828 15.3318 310.189 26.6528 78.5245 101.925 13.3082 32.5191 46.0054 17.3155
internal_count=4530 3234 1296 1878 918 70 1808 948 746 1356 202 378 860 846 309 147 162 776 537 502 72 49 1033 331 91 1002 47 978 84 240 323 42 99 141 53
is_linear=0
shrinkage=0.03


Tree=6
num_leaves=40
num_cat=0
split_feature=40 42 1 40 31 30 32 1 53 17 42 29 26 46 31 31 53 3 46 28 49 50 31 33 1 25 44 3 16 49 3 16 16 4 42 42 31 23 30
split_gain=298.49 47.9674 46.795 14.1541 7.42019 6.54186 6.51583 6.51811 5.94984 6.05475 5.40588 6.60029 5.10081 5.32314 4.94094 4.60511 4.29195 5.92431 4.78281 4.25437 9.15067 4.58404 4.12333 3.9876 3.49696 3.41032 3.0672 2.19296 2.19212 2.11291 1.72292 1.72195 1.50004 1.45456 1.39738 2.7225 0.725018 0.647523 0.0180954
threshold=0.21452350169420245 0.22921392321586612 -0.48626665771007532 -0.17331824451684949 1.6317878365516665 -1.3484086394309995 -1.2866215109825132 0.10767243057489397 -1.2904316782951353 2.1323002576828007 -0.24211771041154859 0.11251002969220282 -0.64935609698295582 0.35336172580719 -0.15249857306480405 -1.6233895421028135 -0.60221806168556202 1.4553607702255251 0.53049632906913768 0.51668503880500805 -1.1096405386924741 0.34588291496038442 1.0956782102584841 0.26094248890876776 -1.3571523427963255 -0.18646159023046491 1.671109199523926 0.58262774348258983 -0.28505829721689219 1.2714037895202639 0.65746250748634349 -1.0000000180025095e-35 -0.70523428916931141 -0.14731577783823011 -0.012690080795437096 0.038862222805619247 0.88139134645462047 -0.20564766414463517 -1.3484086394309995
decision_type=2 2 2 2 2 2 2 2 2 2 2 2 2 2 2 2 2 2 2 2 2 2 2 2 2 2 2 2 2 2 2 2 2 2 2 2 2 2 2
left_child=1 29 4 5 16 -3 25 10 23 -10 11 -8 13 -7 -14 33 18 24 32 21 -21 -17 -20 -9 -18 -4 -19 -6 -12 30 34 -31 -2 -5 37 -36 -32 -1 -29
right_child=2 3 6 15 27 12 7 8 9 -11 28 -13 14 -15 -16 19 17 26 22 20 -22 -23 -24 -25 -26 -27 -28 38 -30 31 36 -33 -34 -35 35 -37 -38 -39 -40
leaf_value=-0.02002210041206199 0.029899705631783357 0.010896375615372839 0.0035665928263098855 -0.019958774163190984 0.012554854784672539 -0.0084269663880973331 -0.0013544389877153749 0.025427614901852719 0.0051426379725823222 -0.014368866086689096 0.015860871541555042 0.015579522464051525 -0.01046818783831378 0.0082543757894602953 -0.019327643757522921 -0.00028862534509995483 0.031469635153409677 0.016651713913188444 0.011410752690037492 0.021170850029154104 -0.012656198338053893 0.013221745988132487 -0.014245475380354887 0 0.020928237675627175 -0.019719527628066925 -0.0011868124875640321 0.023425169284711753 0.031949091107032861 0.00049198704735030872 -0.017379376323337255 -0.01839788747541718 0.011353780442692933 -0.002821780140017422 -0.00041696663397303282 -0.020622105421485761 -0.0035523012444458523 -0.025941648745569097 0.034152249745720828
leaf_weight=51.124252825975418 9.3263642787933367 11.850802928209303 10.384816914796831 14.449980944395067 7.4664756059646598 93.864527493715286 31.28498849272728 19.338970512151722 186.47006574273109 14.470757722854612 23.469815254211426 57.756975948810577 210.66842517256737 20.016955465078354 82.349150240421295 195.74929520487785 59.388813763856888 46.67195075750351 12.674017846584322 7.4167191684246054 49.285414338111877 24.494396209716797 8.574616461992262 7.4331708252429953 85.053065657615662 10.389183729887007 10.071953117847441 12.322964429855345 16.40593695640564 7.3840643167495736 7.7472606599330884 8.4571339190006221 10.814327359199522 7.4070021212100974 7.7570256590843192 32.066364079713821 7.741443395614624 136.22092354297638 63.556583553552628
leaf_count=139 25 32 28 39 20 254 84 52 502 39 63 155 570 54 223 528 159 125 34 20 133 66 23 20 228 28 27 33 44 20 21 23 29 20 21 87 21 371 170
internal_value=-1.07806e-06 -0.0107349 0.0148848 -0.00671999 0.0232035 -0.0102743 0.00765058 0.00860944 0.00549643 0.00365846 0.0140004 0.00964747 -0.0109235 -0.00542244 -0.0130255 -0.00171121 0.0203369 0.0221827 0.0109822 -0.000629401 -0.00788936 0.00125334 0.000747726 0.018555 0.0254696 -0.00831195 0.0134677 0.0311709 0.0231731 -0.0217992 -0.0225193 -0.00990823 0.0210917 -0.0146601 -0.0232193 -0.0168665 -0.0112849 -0.0244571 0.0327765
internal_weight=1679.38 976.051 703.326 717.553 325.921 418.75 377.405 356.631 227.713 200.941 128.918 89.042 406.899 113.881 293.018 298.803 242.575 201.186 41.3893 276.946 56.7021 220.244 21.2486 26.7721 144.442 20.774 56.7439 83.346 39.8758 258.498 242.657 15.8412 20.1407 21.857 227.169 39.8234 15.4887 187.345 75.8795
internal_count=4530 2642 1888 1939 873 1133 1015 959 613 541 346 239 1101 308 793 806 650 539 111 747 153 594 57 72 387 56 152 223 107 703 660 43 54 59 618 108 42 510 203
is_linear=0
shrinkage=0.03


Tree=7
num_leaves=41
num_cat=0
split_feature=1 31 14 15 33 7 24 3 32 4 3 3 17 29 26 17 33 42 25 25 28 8 53 31 15 31 14 3 16 1 7 0 17 53 15 31 24 3 53 51
split_gain=50.9174 9.97581 5.78663 5.46159 5.94383 6.27424 5.20637 10.1868 5.33714 8.52862 7.81432 5.20057 6.39268 6.74015 4.47025 6.0598 4.56702 4.21621 4.16244 4.1312 5.62107 4.63954 3.93387 5.92428 3.68112 3.06918 5.46343 3.01649 2.98509 3.47483 3.96788 2.77861 2.5712 2.47333 3.13967 1.9321 1.60141 1.40865 1.30431 0.390031
threshold=0.21643670648336413 0.74344226717948925 0.64876109361648571 -1.485218286514282 -0.64440190792083729 1.1208097636699679 -0.61605256795883168 0.35715812444686895 -0.18721733987331388 -0.082579698413610444 -1.139139652252197 1.0967736244201662 0.089990084990859046 0.11251002969220282 -0.52916136384010304 -0.3802786916494369 0.21167960762977603 0.63474220037460338 0.13283967971801761 0.31908352673053747 -0.72050178050994862 1.0000000180025095e-35 0.24240782856941226 -0.10666470229625701 -0.90403753519058216 -0.036037866026163094 -0.75003540515899647 1.3255161046981814 -0.074970275163650499 -2.2362369298934932 1.3751079440116885 -1.4358652830123899 0.94991022348403942 0.41446124017238622 0.60703235864639293 1.1435813903808596 0.36108013987541204 0.097074694931507124 -0.85247755050659169 1.2052044272422793
decision_type=2 2 2 2 2 2 2 2 2 2 2 2 2 2 2 2 2 2 2 2 2 2 2 2 2 2 2 2 2 2 2 2 2 2 2 2 2 2 2 2
left_child=1 2 19 -2 5 22 7 17 10 -10 -8 12 37 -14 15 33 35 -6 -9 25 21 -21 23 -5 -24 26 -1 -13 29 36 -31 -22 -27 34 -3 -17 -16 -4 -30 -40
right_child=3 14 11 4 6 -7 8 18 9 -11 -12 27 13 -15 28 16 -18 -19 -20 20 31 -23 24 -25 -26 32 -28 -29 38 30 -32 -33 -34 -35 -36 -37 -38 -39 39 -41
leaf_value=-0.015114691039744953 -0.015624039272530341 0.0042595225928275309 -0.0037825400083193648 0.0074373197356820357 -0.0077133414300912242 0.023741446621232919 -0.011121769017162091 0.010166812226561774 0.01552031528395789 0.0045630134505713921 0.0068725977094526549 0.036714905043007229 0.024761827148765694 -0.0016278350981936271 -0.021987777136289993 0.0069244981193222477 -0.0078781592750971092 0.0031562741921395405 0.042331514313190259 0.031224089707335742 -0.022200847656150751 0.0021619976258391983 0.0056979341624220732 -0.013199502598036147 -0.017815266822033309 -0.012770548554338285 0.0050310036990681966 0.004822946182599059 -0.006175124308272377 -0.011507042048923898 0.00096027770586486997 -0.0019607518569650425 0.0047733658815223524 -0.023350727608432102 -0.014299657179562152 0.032893846853266122 -0.0050608419885177051 -0.023091529775162961 -0.022559350689103516 -0.012266495861920102
leaf_weight=17.736766159534454 9.9903701245784742 14.485574692487718 6.9153425395488721 39.454844534397125 48.628859370946884 7.2275044023990622 24.374067038297653 10.275588631629946 159.25132584571838 109.79233554005623 148.7333750128746 5.5428981482982618 12.309322476387022 24.3466976583004 28.533226311206818 6.0188255012035388 7.103877365589141 89.77636393904686 5.8713116347789756 7.2053456008434322 6.0446884036064139 13.480060547590254 7.192853897809985 17.105180889368057 23.237533539533615 87.799861639738083 33.123537600040436 5.5123312473297119 7.9131483733654013 76.585236668586731 31.826170980930328 51.858932465314865 7.4459567070007315 8.9997552037239057 16.416749835014343 5.4731226861476898 7.5155266225337973 7.9652847349643707 40.267894595861435 9.7276422381401044
leaf_count=65 36 53 25 142 176 26 88 37 571 395 534 20 44 88 107 22 26 323 21 26 22 49 26 62 84 322 120 20 29 283 117 189 27 33 60 20 28 29 149 36
internal_value=0 -0.00684149 -0.00295467 0.00535419 0.00568401 -0.00128008 0.00678894 0.00200718 0.00844532 0.0110934 0.00427238 0.00503164 0.000805926 0.00757655 -0.0110829 -0.00362886 0.0100881 -0.000669195 0.0238241 -0.00520509 0.000307442 0.0133966 -0.00363926 0.00102321 -0.0121575 -0.00817255 -0.00209264 0.022781 -0.0131944 -0.010702 -0.00784429 -0.00446562 -0.0113325 -0.0101852 -0.00564512 0.0211759 -0.0187716 -0.0151104 -0.0190737 -0.0208953
internal_weight=1249.07 548.154 287.287 700.912 690.921 94.2179 596.703 154.552 442.151 269.044 173.107 62.5919 51.5366 36.656 260.867 58.4979 18.5958 138.405 16.1469 224.695 78.589 20.6854 86.9904 56.56 30.4304 146.106 50.8603 11.0552 202.369 144.46 108.411 57.9036 95.2458 39.9021 30.9023 11.4919 36.0488 14.8806 57.9087 49.9955
internal_count=4530 2009 1046 2521 2485 340 2145 557 1588 966 622 226 186 132 963 214 68 499 58 820 286 75 314 204 110 534 185 40 749 535 400 211 349 146 113 42 135 54 214 185
is_linear=0
shrinkage=0.03


Tree=8
num_leaves=45
num_cat=0
split_feature=0 2 2 2 1 22 20 32 33 30 28 6 1 12 26 50 32 49 31 46 26 24 23 10 12 5 6 12 31 40 47 27 26 24 46 10 29 43 8 26 33 6 3 13
split_gain=297.129 50.9576 37.0511 10.1531 8.72927 7.42176 6.65137 9.88657 6.27754 7.76007 7.75328 7.40496 6.24534 6.00369 7.7703 5.69345 4.87189 5.18984 4.83196 4.7723 4.46497 4.31088 4.26516 3.9299 5.30621 5.13831 3.67409 3.39116 3.20714 2.81265 3.62235 2.58226 2.81663 2.37245 2.27026 2.06 3.57367 2.08254 1.58895 1.0266 0.801497 0.923744 0.718666 0.000674898
threshold=-0.5903942584991454 -0.82537516951560963 1.4141932725906374 -0.14383494853973386 0.34809295833110815 -0.44165371358394617 -0.36736947298049921 -0.5208577811717986 -0.39652942121028895 -0.60114187002181996 1.0000000180025095e-35 -0.39275506138801569 0.44229559600353247 0.13673200830817225 -0.8382398486137389 -1.0820493102073667 -0.63645711541175831 0.71031013131141674 0.28519307076931005 0.26479441672563558 -1.3757790923118589 -0.22938338667154309 0.65533557534217846 -0.25845794379711146 -1.7014194726943968 0.53580293059349071 -1.196326673030853 1.2201459407806399 0.16135564446449283 1.4884393215179446 -1.4773612618446348 0.16365503519773486 0.29429288208484655 1.3577824234962466 -0.44374403357505793 -1.1560118198394773 0.45779289305210119 -0.93170922994613636 1.0000000180025095e-35 -0.18723767250776288 0.76664239168167125 1.3117906451225283 -0.81927013397216786 -1.1019195318222044
decision_type=2 2 2 2 2 2 2 2 2 2 2 2 2 2 2 2 2 2 2 2 2 2 2 2 2 2 2 2 2 2 2 2 2 2 2 2 2 2 2 2 2 2 2 2
left_child=2 29 5 23 -5 8 21 -8 10 -10 33 -11 13 14 -7 28 34 22 -19 20 -14 -6 -18 24 -3 -26 -25 -28 -4 30 31 32 -2 -1 42 36 -32 -37 -15 -21 43 -42 -17 -31
right_child=1 3 15 4 6 12 7 -9 9 11 -12 -13 19 38 -16 16 17 18 -20 39 -22 -23 -24 26 25 -27 27 -29 -30 40 35 -33 -34 -35 -36 37 -38 -39 -40 -41 41 -43 -44 -45
leaf_value=0.039615081765624831 -0.011013064802188178 -0.023846814046165524 0.023298393547873289 0.027512193140196779 -0.019456896155500798 -0.0079602120121017115 0.014355499044324154 -0.0016118176952043494 0.033009805972994508 0.0016428577705357933 -0.00066094420305655899 0.021535087925032056 0.025049544060257382 0.017610558022107804 0.02222553170843878 0.027628304264079261 0.029697151742724248 0.0238442774125741 -0.0041376306777160176 -0.0035166796194895096 0.0029744591373551295 -0.0022314424162222933 0.0056031026974123054 0.0077382988605998078 -0.00098609087673561186 -0.010932032011162033 -0.014213750655642534 -0.0011868789662006667 0.044801285114864274 -0.019669199543947625 -0.017959570880992284 -0.017109254888172814 0.012291581519604853 0.016091734332313954 0.020185957035498393 -0.015122784028945463 0.00096270314863060411 -0.022696643078118736 0.042730696675764845 -0.020564913309867264 -0.0037041369396398011 -0.020577844982134864 0.05048034096253963 -0.025797847232118719
leaf_weight=24.061910480260853 7.5920381247997346 11.720632135868071 12.527010321617125 9.0067400038242322 24.612334370613098 13.250016093254088 41.103759527206421 202.24415692687035 14.767872929573057 44.479270875453949 6.4525115191936484 26.657836496829987 8.8372231125831586 7.2042014300823194 15.740004837512972 7.2957974672317549 67.521029531955719 9.5770841538906115 10.86271411180496 7.3495424687862396 56.670495867729187 28.228095650672913 8.2499792873859388 7.9311639070510855 165.30490210652351 64.76453971862793 121.12858244776726 21.915208995342255 40.570138841867447 27.019670277833939 21.95335841178894 9.7085308134555799 9.157494127750395 7.4971261322498313 7.9399680495262137 75.732302725315094 14.123141169548033 87.732845991849899 7.243455559015274 6.4010941088199598 6.3006576001644117 6.8666526079177856 13.90620368719101 60.218421936035156
leaf_count=73 24 37 38 28 77 41 128 632 45 137 20 82 27 22 48 22 204 29 33 23 175 88 25 25 520 204 382 69 121 87 70 31 29 23 24 242 45 280 22 20 20 22 42 194
internal_value=4.62006e-07 -0.00874717 0.0210596 -0.0041543 -3.73031e-05 0.0134169 -0.000974902 0.00112065 0.0186081 0.0137716 0.0288283 0.00933403 0.00804183 0.0170655 0.00852358 0.0314712 0.027415 0.0235861 0.00933402 0.002908 0.00632944 -0.0105229 0.02722 -0.00733755 -0.00491074 -0.00383405 -0.0111465 -0.0122609 0.0403081 -0.0185164 -0.0164362 -0.0055717 0.00153396 0.0347849 0.0387543 -0.0178268 -0.0106448 -0.0193193 0.0323498 -0.0125124 -0.0229608 -0.0135468 0.0443505 -0.0241781
internal_weight=1449.43 1024.37 425.062 697.96 305.195 246.613 296.188 243.348 123.917 85.905 38.0115 71.1371 122.696 43.4377 28.99 178.45 125.353 96.2108 20.4398 79.2584 65.5077 52.8404 75.771 392.765 241.79 230.069 150.975 143.044 53.0971 326.405 226 26.4581 16.7495 31.559 29.142 199.542 36.0765 163.465 14.4477 13.7506 100.405 13.1673 21.202 87.2381
internal_count=4530 3234 1296 2190 953 758 925 760 380 264 116 219 378 133 89 538 379 291 62 245 202 165 229 1237 761 724 476 451 159 1044 721 84 53 96 88 637 115 522 44 43 323 42 64 281
is_linear=0
shrinkage=0.03


Tree=9
num_leaves=47
num_cat=0
split_feature=0 40 31 0 41 46 12 51 0 43 49 13 3 15 16 24 4 53 5 31 14 53 46 5 29 25 5 31 13 30 10 5 22 0 3 29 15 5 17 14 1 50 16 14 3 16
split_gain=281.778 55.8762 30.6676 13.5436 10.1717 5.37588 5.035 4.871 4.82511 8.01987 5.63657 5.69693 5.35157 4.55498 4.35872 6.01165 5.23233 4.17589 4.15107 4.05987 3.79727 5.69511 5.16477 3.86473 3.84125 3.73965 3.69189 3.60478 3.42208 3.31553 3.03605 4.23876 3.31208 2.97984 2.84378 3.8287 3.68294 2.39724 2.0803 1.8548 5.83727 2.11559 1.88023 1.16666 1.13045 0.959618
threshold=0.2943416833877564 -0.50151830911636341 0.74344226717948925 -1.1724820137023924 -0.93082442879676808 0.26479441672563558 -1.7014194726943968 -1.2585790753364561 0.55947148799896251 0.43208687007427221 0.16544923931360248 1.0000000180025095e-35 -0.73837986588478077 0.18360072374343875 1.6713858842849734 -0.51556643843650807 -0.92039397358894337 1.0000000180025095e-35 0.81147661805152904 1.6317878365516665 -0.88907238841056813 -0.60221806168556202 0.26479441672563558 -0.97881785035133351 -1.0713169574737547 0.87725853919982921 0.12315474078059198 0.053995521739125259 1.0000000180025095e-35 -0.60114187002181996 0.23456458747386935 1.6379610300064089 1.0000000180025095e-35 -1.023206830024719 0.85098928213119518 0.2769304439425469 -1.2859563231468198 0.016563165932893757 0.089990084990859046 -1.1545066833496092 -0.097926348447799669 -0.26608802378177637 0.73912060260772716 0.058907108381390579 0.58262774348258983 0.13511762768030169
decision_type=2 2 2 2 2 2 2 2 2 2 2 2 2 2 2 2 2 2 2 2 2 2 2 2 2 2 2 2 2 2 2 2 2 2 2 2 2 2 2 2 2 2 2 2 2 2
left_child=1 3 8 39 5 6 -3 -4 9 10 17 -12 13 -10 15 16 -6 -2 -17 30 21 24 33 -24 -5 26 -7 -23 37 -8 31 -9 -32 -22 35 -14 -36 -16 -27 40 45 43 -43 -41 -21 -1
right_child=2 4 7 20 14 25 29 19 12 -11 11 -13 34 -15 28 18 -18 -19 -20 44 22 27 23 -25 -26 38 -28 -29 -30 -31 32 -33 -34 -35 36 -37 -38 -39 -40 41 -42 42 -44 -45 -46 -47
leaf_value=-0.014685362973568627 0.00061226674817720951 0.0072999337120869942 0.0046951037280411985 -0.010367899903428599 0.021722526885008472 -0.00041583833099861499 -0.0035971824463587147 0.028027986769528623 0.012186637261021213 0.026991524639144889 -0.013238105535617736 0.0086539876403888896 0.012032547368554362 -0.014809296126002548 -0.028733259092018185 0 0.004181356969526707 0.016603168858522151 -0.01993831328399821 0.01546509590661304 -0.0079947285703230366 -0.0067375860841565032 0.013575926299193764 -0.0089372357833749222 0.01396174812019387 0.00021273146169338697 -0.019276326531577979 -0.028129029344533096 0.0034796069851865227 -0.013198891294365606 0.023473523462340846 0.013883055566675137 0.0069835881347641276 -0.018931579758307667 -0.0073370894271661373 0.022781755776283386 0.011976616060765896 -0.0059369470665044492 0.022254554795704259 -0.027969899820573064 0.0049936532326530381 -0.01575116227167795 -0.026775169653441684 -0.018741345459297155 0.032252132879369177 -0.028837188515317816
leaf_weight=16.068792730569843 30.487071841955185 13.680882096290587 11.934617370367048 7.7373517453670528 19.684107720851898 54.819568514823914 43.997335106134415 89.06178817152977 10.057336121797563 12.661035001277922 28.986447691917419 15.616913765668867 70.857835114002228 10.411867558956144 8.5165029764175468 188.76669904589653 64.207801938056946 28.279659777879715 8.8886393904685956 7.4808546900749198 32.378254860639572 31.707555741071701 8.143643915653227 26.228424370288849 16.61042308807373 7.398102253675459 10.361461102962492 8.8197772204875928 9.6457981765270215 144.81962734460831 20.953296631574631 29.560590893030167 25.796964049339294 106.99910423159599 9.3264530301094037 60.829350352287292 67.565235793590546 9.2613976001739484 7.7843586206436157 88.692419946193695 9.5483098924159986 66.772101759910583 23.03968346118927 28.118835180997849 74.16901957988739 11.303075432777403
leaf_count=44 82 37 32 21 53 148 119 238 27 34 78 42 190 28 23 509 173 76 24 20 88 86 22 71 45 20 28 24 26 392 56 79 69 291 25 163 181 25 21 243 26 182 63 77 198 31
internal_value=-3.12096e-06 -0.00922217 0.0163719 -0.016794 -0.00303042 -0.00713127 -0.00972665 0.024178 0.0104524 0.00535742 0.00244565 -0.00548559 0.0129859 -0.00145557 0.000725112 0.00185839 0.0085399 0.00850663 -0.000991094 0.0250844 -0.0116055 -0.00522666 -0.0139266 -0.00328546 0.0060078 -0.000515472 -0.00370528 -0.0120304 -0.0104602 -0.0110081 0.0219987 0.0246737 0.014774 -0.0164873 0.0144176 0.0171547 0.00953136 -0.0179659 0.0123763 -0.0217971 -0.0145773 -0.0229963 -0.0188759 -0.0259518 0.0309561 -0.0214455
internal_weight=1678.04 1074 604.036 482.168 591.832 282.861 202.498 258.957 345.079 116.031 103.37 44.6034 229.048 20.4692 308.971 281.547 83.8919 58.7667 197.655 247.023 238.625 64.8751 173.749 34.3721 24.3478 80.3635 65.181 40.5273 27.4237 188.817 165.373 118.622 46.7503 139.377 208.579 131.687 76.8917 17.7779 15.1825 243.543 36.9202 206.623 89.8118 116.811 81.6499 27.3719
internal_count=4530 2912 1618 1314 1598 765 548 692 926 312 278 120 614 55 833 759 226 158 533 660 648 176 472 93 66 217 176 110 74 511 442 317 125 379 559 353 206 48 41 666 101 565 245 320 218 75
is_linear=0
shrinkage=0.03


Tree=10
num_leaves=52
num_cat=0
split_feature=1 1 12 42 27 3 0 29 15 11 32 32 50 4 32 33 42 4 4 27 32 20 0 25 25 53 14 31 51 12 6 25 25 14 43 20 25 2 14 4 27 42 8 42 25 29 3 3 47 29 9
split_gain=48.0437 9.57151 5.63661 6.71662 5.59338 5.30441 5.13086 9.03343 6.20358 5.41782 5.0954 5.0178 4.98712 5.48638 4.95802 6.8242 7.85072 6.58995 8.2855 4.78274 4.69797 6.31232 4.321 4.15541 4.02845 3.75517 4.61107 3.7286 3.9198 5.3926 3.72412 3.70544 3.6427 8.47013 3.50801 3.32396 3.20765 3.19365 2.99809 3.08295 2.94709 2.82262 3.12352 2.60809 2.55384 2.14857 1.92337 1.89616 2.41802 1.23197 0.453789
threshold=0.21643670648336413 -0.57768118381500233 1.0000000180025095e-35 0.69196790456771862 -1.0182263255119322 -1.049674332141876 0.75885131955146801 0.11251002969220282 -0.90403753519058216 -0.94779852032661427 0.13715156167745593 -1.3754578232765196 0.34588291496038442 0.062902867794036879 -0.16286780685186383 -0.88035196065902699 1.1513854861259463 -0.51170146465301503 -0.39279435575008387 0.63551086187362682 0.67442399263381969 -0.29413163661956782 -0.44401423633098597 0.31908352673053747 0.73656582832336437 1.0000000180025095e-35 -0.88907238841056813 1.7150419354438784 -0.89461094141006459 0.41671535372734075 1.0000000180025095e-35 0.87725853919982921 0.31908352673053747 -0.34556415677070612 0.77764052152633678 -0.14765594154596326 0.21927921473979953 -0.31212577223777765 0.46337848901748663 -0.22125463187694547 -1.0182263255119322 -0.55014580488204945 -1.2289477586746214 -0.1083843596279621 0.063457018695771708 1.0990325808525088 1.5420584082603457 0.58262774348258983 0.97694018483161937 1.6909460425376894 -0.75625586509704579
decision_type=2 2 2 2 2 2 2 2 2 2 2 2 2 2 2 2 2 2 2 2 2 2 2 2 2 2 2 2 2 2 2 2 2 2 2 2 2 2 2 2 2 2 2 2 2 2 2 2 2 2 2
left_child=1 27 3 5 38 10 9 8 -8 32 31 -7 20 34 17 -16 -17 22 -19 -15 21 -6 -5 -22 -12 26 -11 28 29 44 -10 -2 33 -3 -14 -34 46 -13 39 -4 -38 45 -43 -27 -1 -9 -30 48 -29 -49 -51
right_child=2 6 4 14 12 11 7 41 30 25 24 37 13 19 15 16 -18 18 -20 -21 23 -23 -24 -25 -26 43 -28 47 36 -31 -32 -33 35 -35 -36 -37 40 -39 -40 -41 -42 42 -44 -45 -46 -47 -48 49 -50 50 -52
leaf_value=0.0046209906044341904 -0.0075356487921533922 -0.01953123483467353 -0.0068674560126980979 0.0064111385905676523 0.0276177624181198 0.015532150055240458 -0.0026623629972433367 -0.01908617208518909 0.04552354272557646 -0.013436918359787298 0.027186571620869272 -0.00084466692412566715 0.0049867710294957245 -0.011823233956963114 -0.014412665731724577 0.014834605058514701 -0.0024630352407757163 0.037172921183536135 0.0037412377002284309 0.015204246335339225 -0.011697869787784972 0.011691354178569098 -0.013410045272119257 0.01575846761076612 -5.4286466406334305e-05 -0.019114466463489629 0.00061981854240788213 0.0073561445572567939 -0.015154159675410709 0.01957821988637324 0.011968858686340558 0.018351615858523972 0.03163650937324123 0.011493173230096482 0.031755917304411768 6.9263291870336633e-05 -0.02260261177170679 -0.0099724948334350728 -0.015668015393446474 0.017079969434040682 -0.0035783695781754651 -0.01047628694592097 0.010890759915564003 -0.0057983068635145156 -0.019379783984016265 0.0018074272002990862 -0.0046458009642810182 -0.023292508467983072 -0.017649929181544843 -0.0045761831032993458 -0.015743275465399366
leaf_weight=6.5473745763301867 19.605456620454792 12.256368339061739 9.6878570914268511 13.369336783885954 29.712701469659805 10.265578776597975 6.5753341615200069 11.436637043952944 7.236395597457884 29.377305775880814 13.948707371950151 72.763252884149551 13.992198824882509 23.668919205665592 8.8853785395622236 117.49631115794182 28.81208935379982 6.4277166426181784 73.048843264579773 6.7343636453151694 11.2433497607708 102.72605413198471 31.069905519485474 7.3299912214279166 6.9271426796913138 32.255934417247772 66.609595626592636 5.9512588977813703 91.678394228219986 9.3084879815578443 6.6369737088680267 5.5453096330165854 6.1108711361885071 18.643112123012543 6.0465645790100089 5.5357414186000806 7.2634389400482169 66.341009795665741 10.158542513847349 7.7932860851287868 79.959363847970963 8.448218911886217 16.519894689321518 25.33748260140419 7.6200398504734039 6.2474316060543051 21.28848397731781 32.345022201538086 5.943751722574234 7.3879782855510738 10.623337864875792
leaf_count=24 71 45 35 48 104 37 24 42 26 108 50 263 50 86 32 419 103 23 262 24 41 364 112 26 25 118 243 22 340 34 24 20 22 68 21 20 27 240 37 28 296 31 60 93 28 23 79 122 22 28 40
internal_value=1.98826e-06 -0.00667402 0.0051809 0.00329351 0.00904579 -0.0009576 -0.00246956 0.0048945 0.0208025 -0.00486688 0.00782143 -0.00371673 0.0107798 0.00247777 0.00627309 0.00983357 0.0114143 0.00174685 0.00691064 -0.00544756 0.0134987 0.0154671 -0.00737105 -0.000457419 0.0184209 -0.00748901 -0.00374557 -0.0104537 -0.0085498 0.0028454 0.0315568 -0.00122973 0.00448408 -0.000945205 0.0143322 0.0180614 -0.0099085 -0.00525939 -0.00342328 0.00399275 -0.00543485 -0.00296539 0.00342045 -0.0135063 -0.00851682 -0.0118426 -0.0132583 -0.0170034 -0.0053061 -0.0195509 -0.0118021
internal_weight=1248.74 545.144 703.6 474.506 229.094 195.396 259.227 63.1009 20.4487 196.126 46.0266 149.37 201.454 50.442 279.11 155.194 146.308 123.916 79.4766 30.4033 151.012 132.439 44.4392 18.5733 20.8759 153.58 95.9869 285.917 223.666 23.4759 13.8734 25.1508 42.5461 30.8995 20.0388 11.6466 200.19 139.104 27.6397 17.4811 87.2228 42.6522 24.9681 57.5934 14.1674 17.6841 112.967 62.2513 11.895 50.3563 18.0113
internal_count=4530 2009 2521 1705 816 706 947 230 74 717 166 540 716 181 999 554 522 445 285 110 535 468 160 67 75 562 351 1062 828 86 50 91 155 113 71 42 742 503 100 63 323 156 91 211 52 65 419 234 44 190 68
is_linear=0
shrinkage=0.03


Tree=11
num_leaves=38
num_cat=0
split_feature=2 2 2 46 33 2 22 40 7 48 43 32 50 40 32 15 53 16 10 11 49 32 23 53 23 31 5 40 5 46 14 14 51 27 33 32 13
split_gain=276.828 43.6689 42.1377 8.16214 7.82012 7.70783 6.54717 6.16011 6.22757 5.48132 5.26005 6.66878 5.23569 4.71992 7.34463 4.61329 4.38354 4.13559 3.91866 3.90045 7.75667 3.8715 5.28226 3.64691 3.63907 2.9372 2.81905 2.76929 2.72888 2.51132 2.34901 2.66111 2.29891 2.01684 0.794973 0.115879 0.0116932
threshold=0.26009476184844976 1.4141932725906374 -0.82537516951560963 0.44192902743816381 0.41904988884925848 -0.12649706751108167 -0.15127761429175732 -1.3355193138122556 0.28162552416324621 1.2305657267570498 0.85476356744766246 -0.77174636721611012 -1.0820493102073667 -0.86722022294998158 -0.30845418572425837 2.2011281251907353 -0.60221806168556202 0.97546958923339855 -0.44808200001716608 0.93410444259643566 0.19711637496948245 -0.63645711541175831 0.65533557534217846 0.24240782856941226 -0.20564766414463517 0.16135564446449283 0.3568375706672669 1.4884393215179446 1.8016824722290041 -0.44374403357505793 2.4857349395751958 0.46337848901748663 0.47726842761039739 -0.60553929209709156 0.76664239168167125 -1.0864717364311216 -1.1019195318222044
decision_type=2 2 2 2 2 2 2 2 2 2 2 2 2 2 2 2 2 2 2 2 2 2 2 2 2 2 2 2 2 2 2 2 2 2 2 2 2
left_child=2 3 27 6 9 19 7 -2 -9 16 11 -7 25 14 -8 21 26 -15 -5 20 -6 29 -23 -18 -20 -3 -4 28 30 -14 31 -1 -32 -21 36 -36 -29
right_child=1 12 4 18 5 10 13 8 -10 -11 -12 -13 15 17 -16 -17 23 -19 24 33 -22 22 -24 -25 -26 -27 -28 34 -30 -31 32 -33 -34 -35 35 -37 -38
leaf_value=-0.014144537518815559 -0.010369032601248987 0.022275151381637305 -0.016477480601467333 -0.017965555412839364 -0.0087557093423129683 0.031165604821784605 -0.00020624763940553577 0.014591834681806562 0.030459145790903877 0.012745343285143795 -0.010674390086611276 0.0058952675474737036 0.044108618755171511 0.0032934692952014755 0.027190216220450515 0.003219090225183486 -0.0025425560666891742 -0.020874120818657086 0.015771439714155407 -0.00059915742898921883 0.0087878894042511899 0.026713428214959773 0.0040648776043644922 -0.0090034886281330911 -0.0095143377326118699 0.042709940486378939 -0.0052719080380437666 -0.019311130821102179 -0.0012613559350788976 0.019361384550407795 0.0084238141536183784 -0.0216386975041215 -0.015495249290768487 -0.019035907167190298 -0.016706074787698651 -0.0071714364456448836 -0.02544214786452266
leaf_weight=109.5485976934433 6.9140298664569846 12.696989774703978 70.311666905879974 9.9766284227371234 56.312651991844177 10.362097203731535 16.431388437747955 160.78580582141876 26.92059001326561 11.160840868949888 12.200675547122954 62.66650715470314 20.288596540689472 42.183302044868469 17.423627197742462 7.9678548276424399 153.62818333506584 6.4724290668964377 10.288334727287294 7.6011909842491177 36.470387995243073 79.558876127004623 11.281836211681364 166.11687085032463 8.3406695425510389 41.381612002849579 31.214850008487701 26.662763714790344 11.226236462593077 8.0330075323581678 6.2216065227985364 90.39040470123291 6.1830721795558929 20.901761442422867 6.8513496220111847 6.1877649724483472 59.218048483133316
leaf_count=353 21 38 222 31 178 32 50 491 82 35 38 196 60 130 53 24 484 20 32 24 115 237 34 523 26 121 99 87 36 24 20 292 20 66 22 20 194
internal_value=0 0.018409 -0.00933031 0.0114159 -0.00484842 -2.9261e-05 0.0129893 0.0159959 0.0170328 -0.00713759 0.00682516 0.00989398 0.030064 0.00575482 0.014183 0.0261976 -0.00770039 -0.000216642 -0.00364925 -0.00488691 -0.00180765 0.0276695 0.0240082 -0.00592616 0.00438958 0.0384581 -0.0131466 -0.0181586 -0.0160891 0.0380914 -0.0168493 -0.0176383 -0.0035413 -0.0144078 -0.022598 -0.0132282 -0.0238174
internal_weight=1448.38 486.946 961.438 305.737 638.948 206.515 277.131 194.62 187.706 432.432 85.2293 73.0286 181.209 82.5107 33.855 127.13 421.272 48.6557 28.6056 121.286 92.783 119.162 90.8407 319.745 18.629 54.0786 101.527 322.49 223.57 28.3216 212.344 199.939 12.4047 28.503 98.9199 13.0391 85.8808
internal_count=4530 1474 3056 936 2012 649 847 594 573 1363 266 228 538 253 103 379 1328 150 89 383 293 355 271 1007 58 159 321 1044 721 84 685 645 40 90 323 42 281
is_linear=0
shrinkage=0.03


Tree=12
num_leaves=44
num_cat=0
split_feature=0 2 31 0 47 12 13 14 33 32 3 41 26 12 33 42 53 1 46 33 0 31 9 24 32 6 5 13 32 49 0 8 16 44 14 1 50 33 16 44 3 8 26
split_gain=264.608 54.9676 28.7752 16.3971 6.76052 7.92382 6.41111 5.56968 5.52566 5.24886 5.02194 5.30947 4.88298 5.40688 4.79689 4.70101 5.9318 4.63132 4.63072 4.16561 4.76988 3.90824 3.8902 3.8309 3.6911 3.67948 3.39847 3.65756 5.10598 4.82327 2.995 2.66802 2.29389 2.1681 1.79865 5.60846 2.02616 2.23542 1.86958 1.78697 1.46125 1.34431 1.34048
threshold=0.2943416833877564 0.20714027434587481 0.74344226717948925 -1.1724820137023924 0.3879078626632691 -0.36236870288848871 -0.95374593138694752 1.8790280222892763 0.19277295470237735 -1.3754578232765196 -0.71681037545204151 -0.16985833644866941 -0.54585221409797657 -1.0440672636032102 0.16306040436029437 -2.1452889442443843 -0.85247755050659169 0.10767243057489397 0.53049632906913768 -0.31618532538413996 -0.96782565116882313 -0.017577894032001492 -0.068321527913212762 -0.61605256795883168 0.0099462592042982596 1.0682841837406161 -0.60326430201530445 1.0000000180025095e-35 0.021693282760679725 -0.80059772729873646 -0.86894723773002613 -0.46076448261737818 -0.074970275163650499 0.68286681175231945 -1.1545066833496092 -0.097926348447799669 -0.26608802378177637 -1.3341007232666013 0.73912060260772716 1.9534640908241274 -0.14838770776987073 -1.2289477586746214 -0.54585221409797657
decision_type=2 2 2 2 2 2 2 2 2 2 2 2 2 2 2 2 2 2 2 2 2 2 2 2 2 2 2 2 2 2 2 2 2 2 2 2 2 2 2 2 2 2 2
left_child=1 4 9 34 5 6 33 25 -8 21 11 -11 13 22 -13 -4 18 24 -17 20 -14 -2 -5 -19 -12 -7 -6 29 -29 -28 -15 -21 39 -1 35 42 37 -36 -38 -18 -34 -20 -3
right_child=2 3 15 12 26 7 8 -9 -10 10 17 14 19 30 -16 16 32 23 41 31 -22 -23 -24 -25 -26 -27 27 28 -30 -31 -32 -33 40 -35 36 -37 38 -39 -40 -41 -42 -43 -44
leaf_value=0.012242593850166034 -0.015747877337990213 -0.02494831305929995 0.032329965865273008 -0.0081724868508425957 -0.02059700804230611 -0.0023053910764479031 0.0089303554737054924 0.020915452805796059 -0.0052800729182852935 0.018855856650728104 0.02306919250256638 -0.012775510463985467 -0.0041195348397640797 -0.016047762713449872 0.0080898779487802649 0.020087954185741493 0.021421710576641391 0.019514223176930214 -0.011789328412309476 -0.0031294921865991001 -0.024582075411135787 0.0084597623439820104 0.012516199634488289 0.0041579231424174815 0.012783247457896614 -0.014310446614669637 0.0021935256541224619 -0.0076885028110919417 0.0087072957759267832 -0.01384332807454595 -0.0049892390347567109 -0.013020023817289639 0.016403479105179895 0.030822373478323381 -0.0091270960495594619 0.0050207114515417204 -0.01528740378037164 -0.026580075540710658 -0.026261674420355239 0.0049559449602717669 0.031725223843316185 0.0050468328966598247 -0.0077679854735593461
leaf_weight=27.890831470489502 11.1291880607605 19.943160235881805 47.993532747030258 12.529449850320814 13.649725973606108 170.76395806670189 51.981995820999146 7.4273965358734122 44.868569284677505 11.925366342067717 45.634404867887497 20.810079842805862 13.924303025007246 38.934781283140182 17.115265011787415 13.467633813619615 120.26144030690193 17.53382807970047 7.4718368351459503 33.850950181484222 49.155927151441574 10.826972544193266 19.580000907182693 78.14580425620079 132.30869910120964 25.889665484428406 22.597773164510727 35.512619614601135 31.14326611161232 59.8439661860466 54.822043240070343 107.22312045097351 11.607034325599669 7.8403400480747214 9.0435255169868451 9.5459142029285413 66.495524853467941 106.95393228530884 22.908240526914597 7.4786877930164328 43.473765283823013 7.4763870537281019 7.2656652629375484
leaf_count=75 30 55 128 34 37 461 140 20 121 32 122 56 38 106 46 36 321 47 20 92 134 29 53 210 354 70 61 96 84 162 149 292 31 21 25 26 182 295 63 20 116 20 20
internal_value=-6.3859e-06 -0.00895961 0.0158443 -0.0152998 -0.00167361 0.000748126 0.00643904 -0.00294773 0.00232966 0.0101128 0.0110774 0.00219533 -0.0108752 -0.00611163 -0.00331621 0.0234019 0.0212165 0.0126708 0.00793881 -0.0137533 -0.0202468 -0.00383146 0.00434964 0.00717582 0.0155521 -0.00396545 -0.00667557 -0.00525236 0 -0.00943797 -0.00973411 -0.0107066 0.0232095 0.0171293 -0.0212479 -0.0141375 -0.022431 -0.0253347 -0.018392 0.020527 0.0289001 -0.00339212 -0.0209049
internal_weight=1676.25 1071.59 604.66 572.177 499.41 336.663 132.582 204.081 96.8506 345.43 323.473 49.8507 330.021 125.866 37.9253 259.23 211.237 273.623 28.4159 204.154 63.0802 21.9562 32.1095 95.6796 177.943 196.654 162.747 149.098 66.6559 82.4417 93.7568 141.074 182.821 35.7312 242.156 36.7547 205.401 115.997 89.4038 127.74 55.0808 14.9482 27.2088
internal_count=4530 2912 1618 1564 1348 908 357 551 261 926 867 134 898 342 102 692 564 733 76 556 172 59 87 257 476 531 440 403 180 223 255 384 488 96 666 101 565 320 245 341 147 40 75
is_linear=0
shrinkage=0.03


Tree=13
num_leaves=48
num_cat=0
split_feature=1 31 14 23 26 52 33 50 33 41 24 6 31 41 27 3 17 44 26 17 33 25 25 16 30 33 28 14 41 16 1 7 31 14 7 1 53 15 3 31 27 24 3 53 20 33 51
split_gain=45.3136 9.23659 5.54072 5.22805 9.43681 5.93567 5.85696 7.34334 7.72915 10.0952 7.08211 6.08991 5.67454 5.4503 5.19618 4.98851 6.14936 4.4132 4.278 5.81316 4.35856 3.87467 5.37622 6.19533 3.84546 3.62575 3.60827 3.59236 3.10729 3.01262 3.38378 3.89335 2.99827 5.2305 2.96027 2.48644 2.46399 3.07885 2.19099 1.76725 1.66329 1.62424 1.36225 1.2617 0.990838 0.814053 0.402037
threshold=0.21643670648336413 0.74344226717948925 0.64876109361648571 0.94233000278472911 -0.21744807064533231 0.48529410362243658 -0.58600330352783192 0.75386354327201854 -0.33139425516128534 -0.29183842241764063 -0.61605256795883168 1.0682841837406161 -0.10666470229625701 -0.88890027999877919 -0.26240293681621546 1.0967736244201662 0.089990084990859046 -1.0000000180025095e-35 -0.52916136384010304 -0.3802786916494369 0.21167960762977603 0.31908352673053747 0.87725853919982921 0.2139006704092026 -1.5476797223091123 0.12609232217073443 -0.18903420865535733 0.28642222285270696 -0.35100914537906641 -0.074970275163650499 -2.2362369298934932 1.3751079440116885 -0.036037866026163094 -0.75003540515899647 1.1208097636699679 -1.502258241176605 0.41446124017238622 0.60703235864639293 -0.031449829228222363 1.1435813903808596 0.14517513662576678 0.36108013987541204 0.097074694931507124 -0.85247755050659169 -0.14765594154596326 -1.0000000180025095e-35 1.2052044272422793
decision_type=2 2 2 2 2 2 2 2 2 2 2 2 2 2 2 2 2 2 2 2 2 2 2 2 2 2 2 2 2 2 2 2 2 2 2 2 2 2 2 2 2 2 2 2 2 2 2
left_child=1 2 21 6 5 45 11 8 9 -8 -10 12 26 25 -6 16 42 -18 19 36 39 32 23 -23 -24 -9 -2 44 -15 30 41 -32 33 -1 -17 -34 37 -3 -7 -21 -14 -20 -4 -31 -16 -5 -45
right_child=3 18 15 4 14 38 7 13 10 -11 -12 -13 40 28 27 34 17 -19 29 20 -22 22 24 -25 -26 -27 -28 -29 -30 43 31 -33 35 -35 -36 -37 -38 -39 -40 -41 -42 -43 -44 46 -46 -47 -48
leaf_value=-0.014743135699685935 -0.0080836027047071733 0.0045189646298861227 -0.0037226754986302963 -0.022206704353971995 0.0047557990506806296 0.023323256958890627 0.022541215085480414 -0.0092809892447412428 -0.00090053426776942429 -0.0068240104955961016 0.007366816972839375 0.021662000748201411 -0.0073247652275099931 -0.022984076289767747 0.0071962277075113207 0.036085656407292312 0.021751792904009429 0 -0.021567831661557135 0.0070079929013097796 -0.007609206382793816 0.0021359197694407156 0.013850537081919308 0.03256739593560417 -0.0098251189186779782 0.01974218609708624 0.0058752983313740247 0.046053343416708123 0 -0.0059712741843250313 -0.011055383192792255 0.001364719722804609 0.0062193148411134715 0.0050766154075211978 0.0046316284125464098 -0.01232930203525816 -0.02307726920706317 -0.013948241941758721 0.00051972858708188192 0.031949770679901367 -0.024229576570726136 -0.0044646311480988762 -0.022809257667344048 -0.022193193824790985 0.026518944569676656 -0.004979830728193046 -0.01184866804055981
leaf_weight=17.434518665075302 28.295740753412247 14.390350848436357 6.9009413421154004 5.8349964618682861 9.2918162643909472 7.2819713652133942 48.210662990808487 5.8913337588310224 129.92133387923241 12.720931172370909 322.24563497304916 7.5642679035663596 11.554655283689501 15.840097099542616 5.9001468718051928 5.5970882475376111 11.863648593425745 24.853725492954258 27.701024353504181 6.0053585767745989 7.031658023595809 26.032279431819916 6.2997311651706687 7.0006999075412741 39.148174285888672 7.9018800854682922 37.639722287654877 9.6255039274692518 8.0245260894298571 7.8552059531211844 75.244128286838531 31.486688554286957 6.2029523849487296 33.085523873567581 5.5401027500629425 87.927563816308975 8.8126694262027723 16.160203754901886 7.5925954282283765 5.5591592788696289 12.64236146211624 7.3588268160819998 7.7983035743236542 39.251774847507477 6.2074617147445679 5.9015716314315814 9.5509005188941938
leaf_count=65 102 53 25 21 33 26 171 21 466 46 1146 27 42 57 21 20 42 90 107 22 26 94 23 25 144 28 135 34 29 29 283 117 23 120 20 326 33 60 27 20 46 28 29 149 22 21 36
internal_value=1.00502e-05 -0.00650457 -0.00276525 0.00501796 0.0136358 0.000307012 0.00422754 0.0054288 0.00637237 0.0163509 0.00498799 -0.00250043 -0.0047766 -0.00718235 0.0246082 0.00504546 0.000883438 0.00748733 -0.0106323 -0.00331946 0.0100807 -0.00498107 0.000351598 0.00944086 -0.00625121 0.00735365 -0.000101519 0.0323814 -0.0156623 -0.0127257 -0.0102101 -0.00738482 -0.00787749 -0.00185837 0.022357 -0.0110229 -0.00981725 -0.00528695 0.0126384 0.0208251 -0.0168873 -0.0182845 -0.0148476 -0.0186827 0.0185991 -0.014851 -0.0205075
internal_weight=1248.18 542.093 285.685 706.089 57.6361 26.6111 648.453 550.756 513.099 60.9316 452.167 97.6967 90.1325 37.6578 31.0249 62.5538 51.4166 36.7174 256.408 57.9594 18.5962 223.131 78.4809 33.033 45.4479 13.7932 65.9355 21.7331 23.8646 198.449 141.791 106.731 144.651 50.52 11.1372 94.1305 39.3632 30.5506 14.8746 11.5645 24.197 35.0599 14.6992 56.6579 12.1076 11.7366 48.8027
internal_count=4530 2009 1046 2521 205 95 2316 1964 1829 217 1612 352 325 135 110 226 186 132 963 214 68 820 286 119 167 49 237 77 86 749 535 400 534 185 40 349 146 113 53 42 88 135 54 214 43 42 185
is_linear=0
shrinkage=0.03


Tree=14
num_leaves=42
num_cat=0
split_feature=40 1 43 1 22 40 32 20 13 10 9 10 6 22 12 47 46 7 40 47 32 47 15 8 49 52 12 32 3 32 3 21 47 31 15 14 16 14 14 32 6
split_gain=257.204 45.7186 32.1815 8.45074 9.464 7.35128 6.11291 6.43262 6.04348 6.02252 5.11574 4.2649 7.38878 5.37832 5.26824 5.03354 4.12321 5.16172 4.0523 3.97439 5.56144 3.94125 3.57128 3.47285 3.17074 3.55857 4.74898 3.084 2.95954 2.45208 2.3399 4.064 2.2937 2.85971 2.50129 2.13626 1.41425 0.284589 0.243318 0.334225 0.144763
threshold=-0.50151830911636341 0.02552093751728535 -0.19881256669759748 0.44229559600353247 -0.44165371358394617 0.0085329459980130213 -0.39474973082542414 -0.36736947298049921 -0.95374593138694752 0.36098060011863714 0.53362096846103679 -0.25845794379711146 -1.196326673030853 0.42947457730770117 -1.7014194726943968 1.1732842922210696 0.26479441672563558 1.0000000180025095e-35 1.4884393215179446 0.16702072322368625 -0.10548617318272589 -0.10295243933796881 -0.090384455397725091 1.4596935510635378 -1.5694569349288938 -0.51983384788036335 -1.0440672636032102 -0.040938640013337128 -0.27236437797546381 -2.2807579040527339 -0.88813975453376759 -0.2963672131299972 -1.4773612618446348 0.85533091425895702 0.40777045488357549 -0.64891761541366566 -0.40760962665081019 -0.44668200612068171 2.7638087272644047 -0.5488508641719817 1.3117906451225283
decision_type=2 2 2 2 2 2 2 2 2 2 2 2 2 2 2 2 2 2 2 2 2 2 2 2 2 2 2 2 2 2 2 2 2 2 2 2 2 2 2 2 2
left_child=2 18 21 24 19 6 7 22 27 -9 -10 14 -13 -14 -7 -16 17 -6 29 20 -5 -1 -3 -21 -4 28 -27 -8 -26 -2 31 -23 33 -31 -34 -33 -18 -32 39 40 -20
right_child=1 5 3 4 16 11 8 9 10 -11 -12 12 13 -15 15 -17 36 -19 38 23 -22 30 -24 -25 25 26 -28 -29 -30 32 37 35 34 -35 -36 -37 -38 -39 -40 -41 -42
leaf_value=0.014855011422997815 0 -0.021760567296848429 0.0022858225003831376 0.016251784414849237 -0.0016165387893948141 -0.023253695990341071 -0.0013400941825643304 0.020402613641573863 0.0034542788692429119 -0.0018314341024492692 -0.0069844551886336795 0.013728468815071653 -0.015891094645992494 -0.00086516417109099367 -0.0015543493674072984 -0.021288012476651966 -0.0015459098581295111 0.014951590390632024 -0.0086154859571201427 0.025071705132903292 -0.0092322383318546846 0.0066928968391524301 0.0066849376142915622 0.0047212132219368085 0.038782579444360449 0.0035568546969614108 0.020418795235192907 -0.020572124376628902 0.012698995491129012 -0.013434838746756005 0.041414767639978228 0.018803118708119099 -0.017893191217611876 0.0063404816500713824 -0.0095515867797101531 0.040453422467810266 -0.021000835893584084 0.030482727411759211 -0.011908063992764593 -0.023896364059980864 -0.019270701571848927
leaf_weight=12.846198678016661 9.3918691873550397 7.665918380022049 10.024656385183333 21.115213513374332 41.144780814647675 10.932317435741423 12.134593516588209 33.368523210287094 122.00657337903976 15.526621788740156 63.345260173082352 9.5029822885990125 96.65993720293045 28.172895967960358 205.03762593865395 11.396736085414885 6.7302571833133698 27.230135083198547 6.7603880465030652 42.678099244832993 10.868038982152937 8.537241727113722 6.4387610256671888 10.227175891399382 15.866904467344286 18.607258409261703 104.35085508227348 21.019655734300613 7.3464753627777091 17.338194906711582 46.900830537080765 10.996363431215284 184.87444075942039 9.2811469137668592 46.053540468215942 13.685147792100908 6.9794111251831037 23.3512242436409 6.6314698755741111 77.973326086997986 6.0773780941963196
leaf_count=38 30 24 30 64 126 35 38 103 381 48 198 30 308 89 649 36 21 83 22 129 33 25 20 31 47 56 311 66 22 56 136 32 602 30 150 40 22 68 22 259 20
internal_value=0 -0.0083539 0.0191239 0.0141611 0.00934296 -0.00352777 9.90506e-05 0.0082671 -0.00226923 0.0133869 -0.000115467 -0.00635121 -0.0105883 -0.0125576 -0.00379927 -0.00270038 0.00199113 0.00505884 -0.0168318 0.0163111 0.00748389 0.0326487 -0.00899375 0.0213539 0.0192003 0.0203165 0.0179406 -0.0138663 0.031517 -0.0147673 0.0346657 0.0259935 -0.0153144 -0.00645139 -0.0162909 0.0320321 -0.0124085 0.038302 -0.0222495 -0.0228341 -0.0149045
internal_weight=1447.08 1007.59 439.486 323.169 166.973 643.208 281.506 62.9998 218.506 48.8951 185.352 361.702 134.336 124.833 227.367 216.434 82.0846 68.3749 364.382 84.8885 31.9833 116.317 14.1047 52.9053 156.196 146.171 122.958 33.1542 23.2134 266.939 103.471 33.2188 257.547 26.6193 230.928 24.6815 13.7097 70.2521 97.4426 90.8111 12.8378
internal_count=4530 3216 1314 975 509 2025 878 195 683 151 579 1147 427 397 720 685 252 209 1191 257 97 339 44 160 466 436 367 104 69 868 301 97 838 86 752 72 43 204 323 301 42
is_linear=0
shrinkage=0.03


Tree=15
num_leaves=39
num_cat=0
split_feature=0 0 31 0 30 32 16 3 32 32 51 24 4 9 26 31 24 43 24 31 31 14 13 5 41 50 25 14 42 50 33 16 12 3 7 26 33 3
split_gain=248.26 49.8234 26.9838 18.6646 5.01252 5.01186 4.86857 4.72933 5.23563 6.20813 4.53579 4.4179 7.79779 6.08052 4.14866 5.18052 3.97194 3.79368 5.23428 3.73395 3.69766 3.65614 3.3312 2.35105 2.34563 2.30791 1.84747 1.75025 5.01816 1.9668 2.17144 1.81691 2.58507 1.05548 1.65646 0.769536 0.54031 0.281549
threshold=0.2943416833877564 -1.1724820137023924 0.74344226717948925 -0.20230711251497266 -1.3484086394309995 -1.3754578232765196 1.6713858842849734 -0.71681037545204151 0.55982312560081493 -0.17051154375076291 -1.2585790753364561 -0.066303003579378114 -0.92039397358894337 -0.46142682433128351 -0.64935609698295582 -0.14367656409740445 -1.5108578801155088 0.12516832724213603 -0.61605256795883168 -0.017577894032001492 1.6317878365516665 -0.34556415677070612 1.0000000180025095e-35 1.6379610300064089 0.88933062553405773 1.569824814796448 0.21927921473979953 -1.1545066833496092 -0.39189906418323511 -0.26608802378177637 -1.3341007232666013 0.73912060260772716 -1.0440672636032102 0.58262774348258983 2.3414412736892705 -1.533802807331085 -0.56449919939041127 -1.21762079000473
decision_type=2 2 2 2 2 2 2 2 2 2 2 2 2 2 2 2 2 2 2 2 2 2 2 2 2 2 2 2 2 2 2 2 2 2 2 2 2 2
left_child=1 27 5 4 -3 19 11 8 9 -7 -4 12 -5 -13 16 -16 -6 21 -19 -2 23 -9 26 24 -12 -25 -8 28 36 30 -29 32 -31 -22 -35 -32 -1 -33
right_child=2 3 10 6 14 7 22 17 -10 -11 20 13 -14 -15 15 -17 -18 18 -20 -21 33 -23 -24 25 -26 -27 -28 29 -30 31 35 37 -34 34 -36 -37 -38 -39
leaf_value=-0.029445234599916457 -0.015502834154839523 0.0081077172532890863 0.0039283818230054484 0.018701453522584486 -0.019889103199484975 0.017147779220082007 -0.02413046526930963 0.0077526802056000644 0.018643359000205917 -0.010171873371663451 0.014972641164064977 -0.0083685550857788005 0.0014914588646776502 0.0029111629336124891 -0.0088725127994326008 -0.017249799290309009 -0.002991300198058061 0.019805234413357891 0.0028338535816028417 0.0081610839236660078 0.014332757510013675 0.017447733645147467 0.0033678390195682347 0.0079029428292056031 0.02516115155130012 0.026146320698005161 -0.0055300341399425442 -0.0087635714548066779 0.00067855685774116127 -0.0010873204151996495 -0.019469875530844036 -0.015905022602083877 -0.017429461012441118 0.033008458066013026 0.018954115624779704 -0.027948544676714124 -0.015893749783778926 -0.029357914796616518
leaf_weight=8.2808466553688049 11.111568897962572 14.051841437816618 11.95936334133148 29.374704986810684 13.242324292659758 8.9572897851467115 12.911493897438055 52.726218461990356 11.934138983488081 28.971464604139328 35.600923389196396 74.064812481403351 110.92521354556084 99.392479985952377 243.39229264855385 95.550185024738312 116.57952865958214 20.927709877490997 68.499647974967957 10.836936950683592 7.4937664568424216 131.73563033342361 9.650623142719267 26.980393439531326 94.832106649875641 8.2457084655761701 9.2352381348609907 9.004604756832121 13.51695668697357 10.941731750965117 27.684222280979156 7.9286382198333767 55.257383108139038 58.453921794891357 15.73923537135124 78.41722783446312 14.770638853311539 14.806261748075483
leaf_count=23 30 38 32 79 36 24 35 141 32 78 95 200 299 268 662 261 317 56 184 29 20 352 26 72 253 22 25 25 37 30 77 22 152 156 42 218 41 41
internal_value=-1.04323e-05 -0.00870162 0.01533 -0.00519328 -0.00899679 0.00978235 0.000123026 0.0107242 0.00210399 -0.00336822 0.0226485 0.00127736 0.00522281 -0.00190835 -0.00953207 -0.0112867 -0.00487673 0.0122693 0.00701375 -0.00384171 0.0235221 0.0147494 -0.0108674 0.0205877 0.0225382 0.01286 -0.0170777 -0.0206963 -0.0136838 -0.0218656 -0.0247339 -0.0178861 -0.0148294 0.0291158 0.0303586 -0.0259667 -0.0219085 -0.0256605
internal_weight=1673.99 1068.98 605.006 828.371 482.816 345.701 345.555 323.752 49.8629 37.9288 259.305 313.757 140.3 173.457 468.764 338.942 129.822 273.889 89.4274 21.9485 247.346 184.462 31.7974 165.659 130.433 35.2261 22.1467 240.609 36.5684 204.04 115.106 88.934 66.1991 81.6869 74.1932 106.101 23.0515 22.7349
internal_count=4530 2912 1618 2246 1314 926 932 867 134 102 692 846 378 468 1276 923 353 733 240 59 660 493 86 442 348 94 60 666 101 565 320 245 182 218 198 295 64 63
is_linear=0
shrinkage=0.03


Tree=16
num_leaves=40
num_cat=0
split_feature=1 42 15 12 42 46 27 3 46 12 32 31 23 50 42 46 28 32 20 10 23 0 25 46 31 51 0 48 23 33 32 51 14 1 49 13 5 11 32
split_gain=42.71 8.89522 5.37041 5.21512 6.19026 5.91449 5.25819 5.03045 6.366 5.81977 4.80055 4.76929 4.74642 4.62435 5.2108 4.553 4.69406 4.34718 5.88751 4.12301 5.04022 4.07676 3.96951 3.91411 3.78958 3.51351 3.40313 3.31362 3.20123 3.17176 3.09116 4.01463 2.87173 3.05645 2.85424 2.08129 1.91629 1.57258 1.55733
threshold=0.21643670648336413 -0.85163864493370045 2.4003901481628422 1.0000000180025095e-35 0.69196790456771862 0.16146589070558551 -1.0182263255119322 -1.049674332141876 -0.6208786368370055 -1.0440672636032102 -1.3754578232765196 -0.52565550804138172 -0.49264207482337946 0.34588291496038442 0.95419153571128856 -1.0637151598930357 1.1962664723396303 0.67442399263381969 -0.29413163661956782 1.3723090291023257 1.0000000180025095e-35 0.7408103644847871 0.31908352673053747 0.68548908829689037 -0.05440027825534343 -1.5572194457054136 -1.0881004333496092 1.0000000180025095e-35 -0.49264207482337946 0.59685477614402782 -0.014662029221653937 -0.13867744058370587 0.46337848901748663 0.91707986593246471 -0.96429622173309315 1.6392914056777956 -1.3180943131446836 0.34862357378005987 -0.68128401041030873
decision_type=2 2 2 2 2 2 2 2 2 2 2 2 2 2 2 2 2 2 2 2 2 2 2 2 2 2 2 2 2 2 2 2 2 2 2 2 2 2 2
left_child=1 24 15 4 7 19 32 8 26 -10 -9 12 -7 17 27 35 21 18 -8 20 -6 -17 -19 -12 -1 -26 -2 -15 -16 -13 38 -32 33 37 -18 36 -3 -5 -27
right_child=3 2 -4 6 5 11 13 10 9 -11 23 29 -14 14 28 16 34 22 -20 -21 -22 -23 -24 -25 25 30 -28 -29 -30 -31 31 -33 -34 -35 -36 -37 -38 -39 -40
leaf_value=0.0099235451210819472 0.0094690515770330143 -0.0063622384380234128 0.019271117538875518 0.022374147761428247 0.010379725683944114 0.015073687752325392 0.026298767787918384 0.015002055548248926 -0.0039006449363414085 0.02343451967045523 -0.0073519330157330301 -0.017533022890140627 -0.0026654572583802651 -0.0088006473473085291 0 -0.0029885816129389857 0.005428667964195175 -0.01162485771097233 0.011059748906406543 0.029543815922801676 -0.0010480273218486831 0.0060758653375816473 0.015134909889388416 0.0065216057591716853 0.0096158257427446207 -0.010242099555024444 -0.018111446473711032 0.011077833282253388 0.028411861139706861 0.0035924114316692223 -0.0004569867865351836 -0.011770785222803944 -0.015555345798668421 -0.012975478522398942 -0.017455886231704073 0.0001331327807065957 -0.021768279293415661 0.00086066825794789837 -0.019243953385141992
leaf_weight=7.0952973067760459 5.5065309405326834 14.079019725322718 8.6658431291580182 5.6033486425876671 146.86188983917236 21.117006361484528 30.307484984397888 10.373752027750013 9.5350240767002088 21.62755244970322 118.43620884418488 18.764510571956638 33.989281922578812 27.765145301818848 5.6670225560665122 143.41780856251717 5.4213425219059017 11.208950698375704 103.98674169182777 7.4027974903583518 44.571997761726379 63.617461025714874 7.4227171242237082 20.585233986377716 6.3159714043140402 33.431797802448273 9.6928372085094434 9.1914172768592817 8.0867745876312238 8.7058179676532728 38.782880663871765 109.44143351912498 10.101586669683455 5.5844214856624594 23.127422571182251 8.9734655916690809 19.384275436401371 6.4199599623680115 57.261235222220421
leaf_count=26 20 52 31 20 521 75 104 37 34 77 429 67 121 100 20 528 20 41 364 26 158 233 26 74 23 127 35 33 28 31 145 416 37 20 86 33 72 23 217
internal_value=1.88952e-05 -0.00633627 -0.00269172 0.00486003 0.00304734 0.00589106 0.00855676 -0.00103461 0.0074769 0.0151161 -0.00372809 -0.000820109 0.00422631 0.0102236 0.00224509 -0.00345366 -0.001785 0.012818 0.01469 0.00868337 0.00771177 -0.000173035 -0.000583254 -0.00524432 -0.0104383 -0.0110775 -0.00796649 -0.00361606 0.017375 -0.0108416 -0.0116748 -0.00885353 -0.00351783 0.00369171 -0.012972 -0.0123936 -0.0157462 0.0120653 -0.0161062
internal_weight=1247.53 539.015 286.687 708.516 477.17 281.413 231.346 195.757 46.3619 31.1626 149.395 82.5766 55.1063 203.636 50.7104 278.021 235.584 152.926 134.294 198.837 191.434 207.035 18.6317 139.021 252.329 245.233 15.1994 36.9566 13.7538 27.4703 238.917 148.224 27.7093 17.6077 28.5488 42.4368 33.4633 12.0233 90.693
internal_count=4530 2009 1055 2521 1705 999 816 706 166 111 540 294 196 716 181 1024 867 535 468 705 679 761 67 503 954 928 55 133 48 98 905 561 100 63 106 157 124 43 344
is_linear=0
shrinkage=0.03


Tree=17
num_leaves=36
num_cat=0
split_feature=0 41 0 46 2 21 32 14 40 11 51 44 22 23 43 5 5 42 28 17 5 3 46 31 32 13 12 15 27 25 44 16 32 17 13
split_gain=244.022 44.6602 28.6022 7.02608 5.73974 5.64077 5.61164 5.13973 5.08445 4.64154 4.52737 5.4466 5.05595 7.6319 4.35461 4.34229 5.72685 5.2882 4.22846 3.85915 3.71259 4.05213 4.27223 3.24096 2.92453 3.04733 4.81449 1.94138 1.82261 0.776432 0.256244 1.73418 0.516375 0.0822784 0.0110077
threshold=-0.5903942584991454 0.014951732475310566 -1.4358652830123899 0.44192902743816381 -0.025696698576211926 0.7387472689151765 -0.57624486088752735 0.32855461537837988 1.4884393215179446 -0.94779852032661427 1.2052044272422793 -0.72890791296958912 -0.15127761429175732 0.36834117025136953 0.2827871441841126 0.36647671461105352 0.42332541942596441 0.42535217106342321 -1.5743349790573118 -0.98490989208221424 -0.74682417511939991 -0.7477906048297881 -1.8903435468673704 -0.56806665658950795 -2.2807579040527339 -0.95374593138694752 -0.094558532349765287 0.40777045488357549 -0.6808280050754546 -0.18646159023046491 1.9534640908241274 -0.70523428916931141 -0.98485568165779103 -0.98490989208221424 -1.4353100061416624
decision_type=2 2 2 2 2 2 2 2 2 2 2 2 2 2 2 2 2 2 2 2 2 2 2 2 2 2 2 2 2 2 2 2 2 2 2
left_child=2 4 20 10 14 6 7 -6 24 -8 12 -12 18 -14 -2 17 -17 -16 -4 -13 21 22 -1 -5 -3 26 -26 -27 -24 -23 32 -32 -10 -31 -34
right_child=1 8 3 23 5 -7 9 -9 30 -11 11 19 13 -15 15 16 -18 -19 -20 -21 -22 29 28 -25 25 27 -28 -29 -30 33 31 -33 34 -35 -36
leaf_value=0.0015689343490636913 0.013866203595449536 0.0020026915229988222 0.0064491252477072514 -0.013534353430597683 0.015501161163543189 0.026480806018608857 -0.01570249956022101 -0.0097841445853847683 -0.010781436188543891 -0.0005422884720022856 0.043924744253133592 -0.0025598785154736206 0.013036791412176351 -0.0081776397805827048 -0.015128385939802522 0.016305644051746313 -0.0034589375393545931 -0.0052108870551913038 0.018292495645105492 0.027853346677648372 0.0070715518083770516 0.027811995400465309 0.040454365455772454 0.0079424316989633453 0.0026239347197433726 -0.017324095396331264 -0.0143808028523809 -0.010385105570202243 0.022311619360348079 0.04376870094848493 -0.021481273354207717 -0.0015238727453148709 -0.017505286118325754 0.032212242027917865 -0.025308156458253635
leaf_weight=7.2134197056293479 9.4816475212573987 9.6930461227893812 35.633901566267014 10.847140014171602 31.641138076782227 6.4727354049682608 19.531582534313202 8.3966285884380323 6.0736000835895529 163.71410048007965 9.8361523151397723 6.7070820927619934 47.79733419418335 21.220631301403046 64.454173147678375 14.895190626382826 76.603885918855667 201.2720575928688 154.95031461119652 6.7040519714355451 6.8454307317733756 23.260093212127686 9.0023747980594617 12.482853621244429 23.176900207996368 188.63059288263321 38.796810835599899 55.315362095832825 31.903697520494461 29.106847256422043 14.208409428596498 5.9478733241558066 14.008955895900725 23.944670021533966 55.683045268058777
leaf_count=21 30 31 106 34 97 20 61 26 20 511 29 20 144 64 206 47 243 637 463 20 20 67 26 38 75 619 127 181 92 83 48 20 47 69 188
internal_value=-2.15509e-06 -0.00812414 0.0186817 0.0135654 -0.00286367 0.000841589 -3.04148e-06 0.0100161 -0.0157158 -0.00225091 0.0148679 0.0276662 0.0136086 0.00644761 -0.00518929 -0.00574074 -6.75215e-05 -0.00767541 0.016139 0.0133129 0.0303994 0.0315922 0.0235683 -0.00206563 -0.0137628 -0.014277 -0.00803306 -0.0158117 0.027246 0.0362427 -0.0219024 -0.0160843 -0.0231815 0.0393007 -0.0240519
internal_weight=1445.45 1008 437.456 306.179 596.463 229.756 223.283 40.0378 411.535 183.246 282.849 23.2473 259.602 69.018 366.707 357.225 91.4991 265.726 190.584 13.4111 131.277 124.431 48.1195 23.33 315.613 305.92 61.9737 243.946 40.9061 76.3116 95.9219 20.1563 75.7656 53.0515 69.692
internal_count=4530 3234 1296 918 1878 715 695 123 1356 572 846 69 777 208 1163 1133 290 843 569 40 378 358 139 72 1033 1002 202 800 118 219 323 68 255 152 235
is_linear=0
shrinkage=0.03


Tree=18
num_leaves=43
num_cat=0
split_feature=0 2 31 0 47 15 14 28 50 30 32 3 32 32 51 1 14 46 31 47 47 31 31 32 28 5 4 10 53 27 16 27 47 14 1 50 33 16 33 32 3 7
split_gain=232.886 49.0292 25.4939 14.9535 6.41637 8.45948 9.71971 7.01481 6.26331 8.06701 4.77922 4.49033 5.05395 5.94855 4.29641 4.00599 3.93535 5.83589 5.39854 5.14712 4.62889 3.5765 3.54415 3.5341 3.45236 3.27359 3.11529 2.87298 4.06852 3.33327 2.79861 2.75831 2.39524 1.69331 5.25333 1.92315 2.11275 1.79743 1.31409 1.24852 1.00821 1.59926
threshold=0.2943416833877564 0.20714027434587481 0.74344226717948925 -1.1724820137023924 0.3879078626632691 -0.90403753519058216 1.5756744146347048 0.51668503880500805 0.34588291496038442 -0.94986635446548451 -1.3754578232765196 -0.71681037545204151 0.55982312560081493 -0.17051154375076291 -1.2585790753364561 0.10767243057489397 -0.88907238841056813 0.26479441672563558 -0.95658138394355763 -0.49564068019390101 1.271456301212311 -0.017577894032001492 1.6317878365516665 0.0099462592042982596 -0.72050178050994862 -0.70512437820434559 0.96749341487884533 0.23456458747386935 -0.60221806168556202 0.67232877016067516 -0.28505829721689219 0.2712955921888352 -0.49564068019390101 -1.1545066833496092 -0.097926348447799669 -0.26608802378177637 -1.3341007232666013 0.73912060260772716 -0.63104313611984242 0.17290699481964114 0.58262774348258983 2.3414412736892705
decision_type=2 2 2 2 2 2 2 2 2 2 2 2 2 2 2 2 2 2 2 2 2 2 2 2 2 2 2 2 2 2 2 2 2 2 2 2 2 2 2 2 2 2
left_child=1 4 10 33 5 8 7 -7 9 -1 21 12 13 -12 -4 23 19 31 -19 -5 -21 -2 27 -13 -17 -6 30 28 -16 -29 -27 -18 -10 34 38 36 -35 -37 -3 -8 -24 -42
right_child=2 3 14 16 25 6 39 -9 32 -11 11 15 -14 -15 22 24 17 18 -20 20 -22 -23 40 -25 -26 26 -28 29 -30 -31 -32 -33 -34 35 -36 37 -38 -39 -40 -41 41 -43
leaf_value=0.026738120498044016 -0.015283522917516709 -0.029382629052831125 0.0037357343902197507 0.013873202690255434 -0.022792779646912554 -0.0004723907159136104 0.028487840619805502 -0.012378650228798799 -0.017804600056770804 0.0045897620930054877 0.016653181658613674 0.021874194382533151 0.018204290649340527 -0.010076636475238612 0.0032046781022842382 0.024360717688489016 -0.017408275583660923 0.013665778979226769 -0.0085003249452516097 -0.010182287724327681 0.01119575125764352 0.0078789174382941883 0.013858104236157255 0.011850480292716761 0.0048109099619849686 0.0073083552178042719 0.012084141653857369 0.0076647306650656846 0.024164174871663478 0.025936642874244287 -0.0075428470636979689 -0.0092077984300048023 0.0037497442376262717 -0.0084465625630799068 0.0051963825069077435 -0.014391497067420381 -0.025421103585007907 -0.025159785846151746 -0.013448748160189396 0.0095112892477575203 0.032088276596238759 0.018324532103358049
leaf_weight=24.544843375682831 11.094603270292284 9.2863576710224169 11.964228540658949 10.661562889814375 9.5400508344173414 183.86317571997643 7.8027373850345603 58.05683508515358 7.7713229358196285 37.408442080020905 8.9707276821136457 45.721891433000565 11.95082652568817 28.955221384763718 9.7386237084865552 8.2219589650630933 124.18961420655251 11.817888170480726 41.930187165737152 69.157853484153748 9.5074195861816388 10.845134824514387 7.4953839778900138 132.56656870245934 87.591871201992035 11.487987905740736 7.777024418115615 34.483319699764252 109.0732769370079 12.366105973720549 133.67211511731148 60.992402940988541 8.8817447721958143 8.9684732556343061 9.5328882932662946 65.890606790781021 105.25021979212761 22.573451370000839 17.576999217271805 8.1772269606590253 58.360961735248566 15.725974440574644
leaf_count=66 30 26 32 29 26 496 21 157 21 101 24 122 32 78 26 22 341 32 114 189 26 29 20 354 235 31 21 92 291 33 362 167 24 25 26 182 295 63 49 22 156 42
internal_value=-1.64604e-05 -0.00845201 0.0148326 -0.0144776 -0.00157973 0.000778882 -0.00184362 -0.00338124 0.00933582 0.0136976 0.0094435 0.0103627 0.00196469 -0.0034117 0.0219491 0.0118672 -0.0102499 -0.0122657 -0.00341115 -0.00474882 -0.0074528 -0.00385886 0.0227998 0.0145455 0.0067538 -0.0064579 -0.00527801 0.019932 0.0225123 0.0129916 -0.00630503 -0.0147874 -0.00657766 -0.0202029 -0.0132993 -0.0213565 -0.0241992 -0.0174233 -0.0199214 0.0200859 0.028275 0.0294896
internal_weight=1671.45 1066.32 605.127 567.336 498.984 336.506 257.9 241.92 78.6064 61.9533 345.919 323.979 49.8768 37.9259 259.208 274.102 328.257 238.93 53.7481 89.3268 78.6653 21.9397 247.244 178.288 95.8138 162.477 152.937 165.661 118.812 46.8494 145.16 185.182 16.6531 239.079 36.3962 202.683 114.219 88.4641 26.8634 15.98 81.5823 74.0869
internal_count=4530 2912 1618 1564 1348 908 696 653 212 167 926 867 134 102 692 733 898 654 146 244 215 59 660 476 257 440 414 442 317 125 393 508 45 666 101 565 320 245 75 43 218 198
is_linear=0
shrinkage=0.03


Tree=19
num_leaves=42
num_cat=0
split_feature=1 31 14 15 33 50 24 3 27 7 3 17 29 41 26 17 33 33 25 25 16 30 27 7 26 16 1 7 31 14 3 41 17 22 46 31 24 1 3 11 29
split_gain=40.2856 8.48222 5.31971 5.1327 5.214 6.27581 6.58466 9.42445 6.39861 5.73241 4.81243 5.9934 5.91417 4.52977 4.0974 5.55846 4.16803 4.05341 3.70618 5.15244 5.76513 3.68503 3.03934 5.09256 3.2379 3.01508 3.29486 3.87432 2.88014 5.0249 2.71582 2.6681 2.44575 2.10601 2.8953 1.69195 1.63575 1.31514 1.30359 1.25204 0.886577
threshold=0.21643670648336413 0.74344226717948925 0.64876109361648571 -1.485218286514282 -0.64440190792083729 0.75386354327201854 -0.61605256795883168 0.35715812444686895 -0.67041945457458485 1.1208097636699679 1.0967736244201662 0.089990084990859046 0.11251002969220282 -0.88890027999877919 -0.52916136384010304 -0.3802786916494369 0.21167960762977603 0.12609232217073443 0.31908352673053747 0.87725853919982921 0.2139006704092026 -1.5476797223091123 0.20823536068201068 1.0000000180025095e-35 0.26207956671714788 -0.074970275163650499 -2.2362369298934932 1.3751079440116885 -0.036037866026163094 -0.75003540515899647 1.3255161046981814 -0.35100914537906641 0.94991022348403942 -0.44165371358394617 -1.0637151598930357 1.1435813903808596 0.36108013987541204 -0.79405868053436268 0.097074694931507124 1.2686650753021242 0.63865536451339733
decision_type=2 2 2 2 2 2 2 2 2 2 2 2 2 2 2 2 2 2 2 2 2 2 2 2 2 2 2 2 2 2 2 2 2 2 2 2 2 2 2 2 2
left_child=1 2 18 -2 9 6 7 -6 -8 22 11 38 -13 17 15 33 35 -7 28 20 -20 -21 23 -5 -24 26 36 -28 29 -1 -12 -15 -30 34 -3 -17 -16 -35 -4 40 -27
right_child=3 14 10 4 5 13 8 -9 -10 -11 30 12 -14 31 25 16 -18 -19 19 21 -22 -23 24 -25 -26 39 27 -29 32 -31 -32 -33 -34 37 -36 -37 -38 -39 -40 -41 -42
leaf_value=-0.014463149451551966 -0.015623046229424989 -0.012445941493975928 -0.0037922463935145226 0.0070876224445367512 -0.0010420951439233672 -0.0093329985598169761 0.0024458046773152067 0.022259867861866348 0.011042171784035531 0.022108120013458375 0.035018183019717292 0.023269996056404282 -0.001305106441003553 -0.019588583682961506 -0.021153252324145642 0.0069377367253988208 -0.0073561276765985182 0.021682016654816706 0.002201211448730765 0.013533200303287562 0.03140186633640079 -0.0095954354758352196 -0.017269506275357567 -0.011635031303336511 0.0026965990644621054 -0.023738551278020457 -0.01063041395629916 0.0018366708987811416 -0.012165371842697137 0.0050403193001920246 0.0048026986368253539 0.00026007375303073541 0.0049760725590796253 -0.023271072403766708 0.0099114267666574052 0.031327087724798301 -0.0039223713037678052 -0.0066194300330358743 -0.022568888387230399 -0.005596131425445584 -0.013175347609355088
leaf_weight=17.204029649496078 9.9868507981300336 10.044866740703585 6.9157671034336072 36.239964514970779 138.7437835931778 5.9019615054130536 106.72946166992188 16.570983856916428 305.28496268391609 7.4398132264614096 5.6901887953281385 12.617671966552733 24.119185656309128 16.518321573734283 26.857635676860809 6.0155175030231494 6.9635215401649466 7.4973359704017639 25.986282736063004 6.3436798155307761 7.1290871798992148 38.817987561225891 21.802072316408161 19.131189048290253 10.04942527413368 29.383757770061493 73.986912459135056 31.093481957912445 85.675477862358093 33.110857129096985 5.5137715637683868 8.8554634451866168 7.4050055444240561 10.225509136915209 8.817400783300398 5.6163346171379089 7.2173834443092337 9.7069009542465192 7.652121514081955 7.7457457035779944 18.192346274852753
leaf_count=65 36 38 25 130 497 21 378 58 1073 26 20 44 88 60 107 22 26 26 94 23 25 144 79 69 36 114 283 117 322 120 20 32 27 39 33 20 28 36 29 29 71
internal_value=2.93621e-05 -0.00617132 -0.00258999 0.00471223 0.00502816 0.00605049 0.00685173 0.00155137 0.00883392 -0.00148105 0.00506032 0.000952354 0.00744895 -0.00547538 -0.010174 -0.00299539 0.0100718 0.00811313 -0.00477378 0.000441283 0.00931167 -0.00605887 -0.00375492 0.000473927 -0.0109884 -0.012251 -0.00972284 -0.00693056 -0.00762471 -0.00172188 0.0220061 -0.0128004 -0.0107314 -0.00942997 -0.00187085 0.0204992 -0.017805 -0.0160088 -0.014664 -0.0182713 -0.0201155
internal_weight=1246.8 536.048 284.181 710.752 700.765 606.102 567.329 155.315 412.014 94.6625 62.5087 51.3047 36.7369 38.7731 251.867 57.3901 18.5954 13.3993 221.672 78.277 33.1154 45.1617 87.2227 55.3712 31.8515 194.477 139.155 105.08 143.395 50.3149 11.204 25.3738 93.0805 38.7947 18.8623 11.6319 34.075 19.9324 14.5679 55.3218 47.5761
internal_count=4530 2009 1046 2521 2485 2145 2006 555 1451 340 226 186 132 139 963 214 68 47 820 286 119 167 314 199 115 749 535 400 534 185 40 92 349 146 71 42 135 75 54 214 185
is_linear=0
shrinkage=0.03


Tree=20
num_leaves=43
num_cat=0
split_feature=0 2 0 40 33 33 46 46 1 22 22 33 26 53 53 30 17 17 14 4 24 11 31 3 30 28 1 40 33 3 16 17 32 14 4 24 25 3 26 33 6 17
split_gain=228.864 42.6732 26.3419 8.04246 7.46505 6.99721 6.66546 5.62898 4.27683 5.49146 7.96003 4.38363 4.02106 3.96914 3.83243 4.93197 3.69546 4.00864 3.86941 3.68137 3.27331 3.16067 3.09746 3.05901 4.94476 3.9079 3.73547 2.63816 2.52603 2.43577 2.06515 4.97124 4.69985 4.28172 4.06498 1.57594 1.5637 8.21021 0.896995 0.830225 0.956553 0.689492
threshold=-0.5903942584991454 -0.82537516951560963 -1.4358652830123899 0.22185251861810687 1.5814083218574526 -1.0953277349472044 0.44192902743816381 0.58585089445114147 0.44229559600353247 -0.15127761429175732 1.0000000180025095e-35 1.0943214297294619 -1.9284254908561704 -0.52401193976402272 -0.52401193976402272 -0.68417152762413014 -0.3802786916494369 0.089990084990859046 -0.88907238841056813 -0.88127440214157093 1.0000000180025095e-35 1.0000000180025095e-35 -0.56806665658950795 -0.7477906048297881 1.2421160340309145 -1.5743349790573118 -0.19295708835124967 1.4884393215179446 0.62060999870300304 -1.1670647859573362 -0.49514633417129511 -0.12498984858393668 0.61285981535911571 2.4857349395751958 -0.64191490411758412 0.90001216530799877 -0.18646159023046491 0.024034932255744938 -0.85445380210876454 0.76664239168167125 1.3117906451225283 -0.44745995104312891
decision_type=2 2 2 2 2 2 2 2 2 2 2 2 2 2 2 2 2 2 2 2 2 2 2 2 2 2 2 2 2 2 2 2 2 2 2 2 2 2 2 2 2 2
left_child=2 27 23 4 5 21 8 -7 12 11 -11 -10 20 -14 15 19 18 -18 -16 -5 -4 -3 -8 24 26 29 38 30 -17 -26 31 34 -33 35 -2 -32 37 -25 -1 -29 -41 -38
right_child=1 3 6 14 -6 7 22 -9 9 10 -12 -13 13 -15 16 28 17 -19 -20 -21 -22 -23 -24 36 25 -27 -28 39 -30 -31 33 32 -34 -35 -36 -37 41 -39 -40 40 -42 -43
